{
  "input": 24,
  "normalization": {
    "mean": [
      0,
      0,
      0,
      0,
      0,
      0,
      0,
      0,
      0,
      0,
      0,
      0,
      0,
      0,
      0,
      0,
      0,
      0,
      0,
      0,
      0,
      0,
      0,
      0
    ],
    "std": [
      1,
      1,
      1,
      1,
      1,
      1,
      1,
      1,
      1,
      1,
      1,
      1,
      1,
      1,
      1,
      1,
      1,
      1,
      1,
      1,
      1,
      1,
      1,
      1
    ]
  },
  "layers": [
    {
      "activation": "relu",
      "weights": [
        0.14832843840122223,
        0.1558493822813034,
        -0.3005918264389038,
        -0.12917326390743256,
        -0.039287932217121124,
        -0.09926600009202957,
        -0.34009629487991333,
        -0.03441866487264633,
        0.07567712664604187,
        0.02418733388185501,
        -0.34578076004981995,
        0.1682344228029251,
        -0.2917526960372925,
        0.03870959207415581,
        0.08887404948472977,
        0.31182587146759033,
        0.06800412386655807,
        0.2586878836154938,
        0.07479742914438248,
        -0.30709677934646606,
        0.24852406978607178,
        -0.148313507437706,
        -0.20417183637619019,
        0.289467453956604,
        0.16723307967185974,
        0.06554745882749557,
        0.05782289803028107,
        0.040469344705343246,
        0.016435090452432632,
        0.13400445878505707,
        0.11359335482120514,
        -0.21563926339149475,
        -0.1443832367658615,
        -0.07344267517328262,
        -0.1396905779838562,
        0.27475592494010925,
        0.32208049297332764,
        0.33526018261909485,
        0.10355616360902786,
        0.28021374344825745,
        -0.1293344795703888,
        0.06309741735458374,
        -0.34961041808128357,
        0.3281288743019104,
        -0.062245119363069534,
        0.13560441136360168,
        -0.020844383165240288,
        0.34504154324531555,
        0.24457354843616486,
        0.2520856261253357,
        0.039118848741054535,
        0.10679775476455688,
        0.026387255638837814,
        0.17668628692626953,
        -0.17851640284061432,
        -0.24535183608531952,
        0.01813698187470436,
        -0.12725792825222015,
        -0.2394496500492096,
        -0.23188871145248413,
        -0.07357892394065857,
        0.2973124384880066,
        0.15550045669078827,
        -0.2723526060581207,
        -0.22823981940746307,
        -0.2686742842197418,
        -0.3227047920227051,
        -0.11941768229007721,
        0.10394054651260376,
        0.28363341093063354,
        -0.3295331299304962,
        -0.16875648498535156,
        -0.25700533390045166,
        0.1159932091832161,
        0.09163837879896164,
        0.18043193221092224,
        -0.2687479257583618,
        -0.13353605568408966,
        -0.3002542555332184,
        -0.0054982793517410755,
        0.1547967493534088,
        0.04321538284420967,
        0.2855316400527954,
        0.23527096211910248,
        -0.2381831854581833,
        -0.06783319264650345,
        0.1761055439710617,
        0.27635514736175537,
        -0.0014222328318282962,
        0.00520414998754859,
        -0.09335972368717194,
        0.284719318151474,
        -0.006576437037438154,
        -0.029608163982629776,
        -0.30136337876319885,
        -0.27628472447395325,
        -0.2536693513393402,
        -0.15929390490055084,
        -0.3005211055278778,
        -0.33576592803001404,
        0.03602131828665733,
        0.2825201153755188,
        -0.17786811292171478,
        0.10924069583415985,
        0.12486360967159271,
        0.005228135734796524,
        0.319214403629303,
        -0.13854487240314484,
        -0.20113356411457062,
        0.3407714366912842,
        -0.03252796828746796,
        0.28020888566970825,
        0.2658520042896271,
        0.19024299085140228,
        -0.3256465494632721,
        -0.21401499211788177,
        -0.2675591707229614,
        0.13294710218906403,
        0.04287223517894745,
        -0.20928674936294556,
        -0.33252906799316406,
        -0.2144048511981964,
        0.06395453959703445,
        0.27713388204574585,
        0.24579991400241852,
        0.05347032472491264,
        -0.2600869834423065,
        -0.026555756106972694,
        -0.24784566462039948,
        -0.23233313858509064,
        -0.18647879362106323,
        0.26101237535476685,
        -0.17239224910736084,
        -0.08022046089172363,
        -0.2679816782474518,
        -0.029858658090233803,
        -0.18442191183567047,
        0.03915742039680481,
        -0.21811193227767944,
        0.12151355296373367,
        0.13478364050388336,
        0.10990385711193085,
        -0.08019956201314926,
        -0.30242565274238586,
        0.2482306957244873,
        0.057255763560533524,
        0.08521613478660583,
        -0.29662033915519714,
        -0.025024857372045517,
        0.2592363953590393,
        -0.24337050318717957,
        -0.2523859739303589,
        0.21128235757350922,
        -0.2613532245159149,
        0.06426461040973663,
        0.012783770449459553,
        0.27340611815452576,
        -0.01351957581937313,
        0.24874253571033478,
        -0.32900530099868774,
        0.13824526965618134,
        -0.3250926733016968,
        0.20691365003585815,
        -0.3490886986255646,
        -0.19569039344787598,
        -0.08970645815134048,
        -0.2433621883392334,
        0.18894897401332855,
        -0.27678778767585754,
        -0.047537244856357574,
        0.1970970332622528,
        0.31949564814567566,
        0.053622446954250336,
        0.25872278213500977,
        -0.14817269146442413,
        -0.1484079509973526,
        -0.07179775834083557,
        -0.0021546450443565845,
        -0.06579660624265671,
        0.21941997110843658,
        0.1704588383436203,
        -0.3433762192726135,
        -0.12611012160778046,
        0.29395103454589844,
        0.07712586224079132,
        0.2703053951263428,
        -0.06669577956199646,
        0.0026340740732848644,
        0.21087834239006042,
        0.12826794385910034,
        0.07965068519115448,
        0.2128179669380188,
        -0.07014436274766922,
        -0.10224391520023346,
        0.29128217697143555,
        -0.16374632716178894,
        -0.10703124105930328,
        -0.041888441890478134,
        -0.0927281379699707,
        0.12021182477474213,
        -0.31554192304611206,
        -0.33228567242622375,
        0.2241264432668686,
        -0.32806143164634705,
        0.15282680094242096,
        -0.24674324691295624,
        -0.00031576750916428864,
        -0.28525835275650024,
        -0.06684689968824387,
        -0.20503219962120056,
        -0.1548801213502884,
        -0.09401840716600418,
        -0.22515475749969482,
        0.20334750413894653,
        -0.1450074315071106,
        -0.2436004877090454,
        0.29348665475845337,
        0.11873756349086761,
        -0.05704610049724579,
        -0.15868674218654633,
        -0.1473936140537262,
        -0.2573631703853607,
        -0.044240329414606094,
        -0.2019042819738388,
        -0.018124986439943314,
        0.22629903256893158,
        0.26549774408340454,
        0.33241647481918335,
        -0.15292370319366455,
        -0.29938554763793945,
        -0.03970758616924286,
        -0.04475026950240135,
        -0.18991921842098236,
        -0.18954835832118988,
        0.1489483118057251,
        -0.06355127692222595,
        0.26629558205604553,
        0.16009730100631714,
        0.1674058586359024,
        -0.16130156815052032,
        -0.01900356449186802,
        -0.2227218747138977,
        -0.32363221049308777,
        0.14027194678783417,
        0.33570021390914917,
        0.27064526081085205,
        0.11789911985397339,
        0.10326854884624481,
        0.24039684236049652,
        -0.15531720221042633,
        -0.08246742933988571,
        -0.22171176970005035,
        0.11989033222198486,
        -0.13633324205875397,
        0.23523186147212982,
        0.21768219769001007,
        0.11905843764543533,
        0.33328548073768616,
        0.08499950915575027,
        0.08581571280956268,
        -0.2660943567752838,
        -0.3282373547554016,
        0.322481244802475,
        -0.14446477591991425,
        0.27741509675979614,
        -0.29140880703926086,
        0.3341580331325531,
        0.266070693731308,
        -0.23567326366901398,
        0.11146136373281479,
        -0.02360476553440094,
        -0.2835613191127777,
        0.02435251884162426,
        0.28837621212005615,
        0.03847425803542137,
        0.26932597160339355,
        0.09983687847852707,
        -0.0076183960773050785,
        0.11591674387454987,
        -0.12941546738147736,
        -0.19627070426940918,
        -0.341732919216156,
        0.014013650827109814,
        -0.3320259153842926,
        0.0783250704407692,
        0.12051387131214142,
        -0.22609879076480865,
        -0.14235550165176392,
        0.009048429317772388,
        0.34578514099121094,
        0.04654962196946144,
        0.042847681790590286,
        0.3148839473724365,
        -0.13883143663406372,
        0.14637242257595062,
        0.1684800088405609,
        0.2817701995372772,
        -0.30658677220344543,
        -0.21429070830345154,
        -0.03623545169830322,
        0.03822023421525955,
        -0.12322739511728287,
        0.03326580673456192,
        -0.3098115026950836,
        -0.34688130021095276,
        0.20888710021972656,
        0.1274847537279129,
        -0.01931760646402836,
        -0.28728413581848145,
        -0.22086217999458313,
        0.16604314744472504,
        0.33652275800704956,
        0.2994374930858612,
        -0.12296265363693237,
        -0.04067150875926018,
        0.07217385619878769,
        0.28482910990715027,
        -0.030351409688591957,
        0.11376093327999115,
        -0.3109264075756073,
        -0.0921730026602745,
        0.31599217653274536,
        0.18934573233127594,
        -0.2890852987766266,
        -0.10946950316429138,
        -0.27035054564476013,
        -0.30709603428840637,
        0.12983255088329315,
        -0.3282121419906616,
        0.2484423965215683,
        -0.31716039776802063,
        -0.061772964894771576,
        0.24530741572380066,
        -0.1060333102941513,
        -0.057366807013750076,
        0.005696950014680624,
        -0.049031537026166916,
        0.30518922209739685,
        -0.1570792943239212,
        0.16419009864330292,
        -0.2661404609680176,
        0.28954678773880005,
        -0.13823799788951874,
        0.2937202751636505,
        0.3189709484577179,
        0.34963640570640564,
        0.2996773421764374,
        0.18864823877811432,
        -0.05094890668988228,
        0.034020066261291504,
        -0.19750861823558807,
        -0.06273142248392105,
        -0.1690034419298172,
        0.05563976988196373,
        -0.09623288363218307,
        -0.12744905054569244,
        -0.056719306856393814,
        -0.3316468298435211,
        0.12961409986019135,
        -0.2741187810897827,
        0.18978016078472137,
        -0.25523072481155396,
        0.1415918916463852,
        0.04221217334270477,
        0.001958717592060566,
        0.08316391706466675,
        -0.03324446827173233,
        0.1847630888223648,
        0.2636900544166565,
        0.28560715913772583,
        -0.2899344563484192,
        0.25686395168304443,
        -0.040055010467767715,
        0.14080305397510529,
        0.09773716330528259,
        0.22654104232788086,
        0.29729440808296204,
        -0.14766713976860046,
        0.18787148594856262,
        0.10867364704608917,
        -0.028254477307200432,
        0.11491046100854874,
        0.2536134123802185,
        0.1103300154209137
      ],
      "bias": [
        -0.21570101380348206,
        -0.10219371318817139,
        0.2159007042646408,
        -0.018651437014341354,
        -0.05563086271286011,
        0.17348770797252655,
        -0.11656486988067627,
        -0.1656639724969864,
        0.08163206279277802,
        -0.1687348634004593,
        0.09888876974582672,
        -0.016116145998239517,
        0.022805888205766678,
        0.0857669934630394,
        -0.16543161869049072,
        0.2324351966381073
      ]
    },
    {
      "activation": "tanh",
      "weights": [
        -0.2948180139064789,
        -0.19054150581359863,
        0.05749486759305,
        0.040611837059259415,
        0.30824652314186096,
        0.12341911345720291,
        -0.0729484111070633,
        0.25748154520988464,
        0.07398901879787445,
        -0.3229927718639374,
        0.23850072920322418,
        -0.13841558992862701,
        -0.20804592967033386,
        0.2111802101135254,
        0.20343340933322906,
        0.26434582471847534,
        0.3479832410812378,
        0.12935222685337067,
        -0.18041089177131653,
        -0.2592170834541321,
        -0.04703934118151665,
        -0.04877880960702896,
        -0.180617094039917,
        -0.09379854053258896,
        0.19404254853725433,
        0.21757635474205017,
        -0.16710735857486725,
        -0.2307051569223404,
        -0.0019118356285616755,
        0.10281001031398773,
        -0.23887228965759277,
        -0.22044014930725098,
        0.2782316505908966,
        0.17645388841629028,
        -0.09623822569847107,
        0.2874690592288971,
        -0.06978298723697662,
        -0.2895255982875824,
        0.0847511813044548,
        0.2670944333076477,
        -0.33691611886024475,
        -0.01778014563024044,
        0.15983065962791443,
        0.29240623116493225,
        0.33752304315567017,
        0.07922957837581635,
        0.07985437661409378,
        -0.05091720074415207,
        0.030216269195079803,
        0.00540945352986455,
        0.20647767186164856,
        0.16970139741897583,
        -0.210964173078537,
        -0.26881143450737,
        -0.013963993638753891,
        0.29957759380340576,
        0.1421155035495758,
        0.06613742560148239,
        -0.04012738913297653,
        -0.07345982640981674,
        0.32521629333496094,
        -0.023693392053246498,
        -0.25750601291656494,
        0.06197578087449074,
        -0.10869883745908737,
        0.1666543036699295,
        0.32261645793914795,
        0.24312277138233185,
        0.2097150683403015,
        0.21472035348415375,
        -0.05260981246829033,
        0.026270141825079918,
        -0.004282173700630665,
        0.23131488263607025,
        -0.1476157009601593,
        0.2506285011768341,
        -0.06590580195188522,
        -0.03420190140604973,
        0.16557753086090088,
        0.18650802969932556,
        -0.22057294845581055,
        -0.3019559383392334,
        -0.018338430672883987,
        -0.08464746177196503,
        -0.349824994802475,
        -0.331895649433136,
        -0.2512398064136505,
        -0.3445446789264679,
        0.3322078585624695,
        0.06645666062831879,
        0.08856133371591568,
        -0.12757806479930878,
        -0.15202245116233826,
        0.2530671954154968,
        -0.12485000491142273,
        0.29464638233184814,
        0.23371291160583496,
        -0.16429761052131653,
        0.32002171874046326,
        0.024624332785606384,
        0.2500605881214142,
        0.20116570591926575,
        0.3267350196838379,
        -0.24476686120033264,
        -0.28188514709472656,
        0.025370383635163307,
        0.3095249831676483,
        0.19506552815437317,
        0.012751518748700619,
        0.2418735772371292,
        0.16020701825618744,
        0.3120965361595154,
        0.048070598393678665,
        -0.18731775879859924,
        0.04787085950374603,
        -0.19474181532859802,
        0.04368934780359268,
        0.3333088755607605,
        -0.2865648567676544,
        -0.11434276401996613,
        -0.29496991634368896,
        0.2417619228363037,
        0.07460929453372955,
        0.1226770356297493,
        0.3204173743724823,
        0.05494733527302742,
        -0.2945045232772827,
        -0.01232388149946928,
        -0.01905650459229946,
        -0.08288754522800446,
        0.14509466290473938,
        0.256702721118927,
        0.21345186233520508,
        -0.07123907655477524,
        -0.296069473028183,
        -0.25389671325683594,
        0.054539602249860764,
        -0.27146661281585693,
        0.08731300383806229,
        -0.31005385518074036,
        0.2868936359882355,
        -0.1568993180990219,
        0.0004157455696258694,
        0.11059527099132538,
        0.04483845457434654,
        -0.062173210084438324,
        0.3017163574695587,
        -0.16280974447727203,
        0.04331216961145401,
        -0.24654236435890198,
        -0.008999384939670563,
        0.16367480158805847,
        -0.26020747423171997,
        -0.16235636174678802,
        -0.16624245047569275,
        -0.07082385569810867,
        -0.17834578454494476,
        0.2034999430179596,
        0.2275107204914093,
        0.14085349440574646,
        -0.3030906915664673,
        0.2509647309780121,
        -0.19433364272117615,
        -0.04740791395306587,
        -0.07540783286094666,
        -0.25116878747940063,
        0.304000586271286,
        0.2980157732963562,
        0.08332814276218414,
        -0.05445258691906929,
        0.040540020912885666,
        -0.1685449481010437,
        0.12027031183242798,
        0.20406433939933777,
        0.22622059285640717,
        0.1380028873682022
      ],
      "bias": [
        -0.1779811829328537,
        -0.2038734257221222,
        -0.2385227531194687,
        -0.09574238210916519,
        -0.11707109212875366,
        0.029169531539082527,
        -0.05724408105015755,
        0.11863722652196884,
        -0.14760065078735352,
        -0.1842830330133438,
        0.11513159424066544
      ]
    }
  ],
  "meta": {
    "name": "Backpack",
    "slug": "backpack",
    "inputs": 24,
    "outputs": 11,
    "placeholder": true,
    "generated": "2025-10-21T15:22:04.837Z"
  }
}
