{
  "input": 24,
  "normalization": {
    "mean": [
      0,
      0,
      0,
      0,
      0,
      0,
      0,
      0,
      0,
      0,
      0,
      0,
      0,
      0,
      0,
      0,
      0,
      0,
      0,
      0,
      0,
      0,
      0,
      0
    ],
    "std": [
      1,
      1,
      1,
      1,
      1,
      1,
      1,
      1,
      1,
      1,
      1,
      1,
      1,
      1,
      1,
      1,
      1,
      1,
      1,
      1,
      1,
      1,
      1,
      1
    ]
  },
  "layers": [
    {
      "activation": "relu",
      "weights": [
        -0.08053860068321228,
        -0.007261975668370724,
        0.32242551445961,
        -0.1702321320772171,
        0.06238962337374687,
        0.08817537128925323,
        0.16460511088371277,
        -0.09748385101556778,
        0.059466853737831116,
        -0.02585199847817421,
        -0.08001330494880676,
        -0.14752554893493652,
        -0.17269767820835114,
        0.06119479238986969,
        -0.17086000740528107,
        0.1475953608751297,
        0.34479662775993347,
        0.30247819423675537,
        -0.016870679333806038,
        -0.0010875657899305224,
        0.13961699604988098,
        -0.23900672793388367,
        0.02891196496784687,
        0.02864678017795086,
        0.10302168875932693,
        -0.08019765466451645,
        0.11052517592906952,
        -0.3210412561893463,
        0.22072038054466248,
        0.08950667828321457,
        0.13425305485725403,
        -0.052775949239730835,
        0.22014865279197693,
        -0.2786446809768677,
        0.15537108480930328,
        0.06898223608732224,
        -0.28476735949516296,
        0.3302222192287445,
        -0.2736866772174835,
        -0.2801668643951416,
        0.07067573070526123,
        -0.29450902342796326,
        0.3355658948421478,
        -0.14393898844718933,
        -0.3268856704235077,
        0.22711439430713654,
        0.1602882444858551,
        0.21995903551578522,
        0.20526325702667236,
        -0.22775277495384216,
        -0.25628742575645447,
        0.1599714308977127,
        0.24477440118789673,
        0.19563579559326172,
        0.344837486743927,
        -0.31362098455429077,
        0.11982411891222,
        0.3270035982131958,
        -0.22210074961185455,
        -0.019436556845903397,
        -0.19242867827415466,
        -0.09261985123157501,
        -0.2447754442691803,
        0.02999025210738182,
        -0.24006785452365875,
        -0.25330448150634766,
        0.11076368391513824,
        0.2216203361749649,
        0.018571937456727028,
        0.3415803909301758,
        -0.02831314317882061,
        0.2449699193239212,
        -0.2342010736465454,
        -0.06789853423833847,
        0.07421396672725677,
        0.3206764757633209,
        0.2530781030654907,
        0.10243271291255951,
        -0.2301248162984848,
        0.09247851371765137,
        0.04744977504014969,
        0.17384397983551025,
        -0.17457780241966248,
        -0.007523661013692617,
        0.2653086185455322,
        -0.2310059815645218,
        0.27845990657806396,
        0.06612236797809601,
        0.19221673905849457,
        0.24094422161579132,
        -0.3211617171764374,
        0.3081444203853607,
        0.1642887443304062,
        0.12322068214416504,
        -0.18242205679416656,
        -0.23162390291690826,
        -0.08795817941427231,
        0.02671915292739868,
        0.1393757164478302,
        -0.17707732319831848,
        -0.14999735355377197,
        -0.1298602670431137,
        0.04833100736141205,
        0.10720575600862503,
        -0.1672031432390213,
        -0.33509495854377747,
        -0.27858787775039673,
        -0.16906332969665527,
        0.2688794732093811,
        0.1825951635837555,
        0.1449906826019287,
        0.32234278321266174,
        0.3046340346336365,
        -0.08574049174785614,
        0.23077082633972168,
        -0.19909246265888214,
        0.15703684091567993,
        0.07940736413002014,
        -0.32051876187324524,
        0.049005378037691116,
        -0.1596371829509735,
        -0.21916531026363373,
        -0.12335961312055588,
        -0.22400318086147308,
        -0.08530042320489883,
        0.08277174085378647,
        0.011072556488215923,
        -0.07047787308692932,
        -0.33845922350883484,
        0.06693003326654434,
        0.10096745193004608,
        0.18722690641880035,
        0.24386337399482727,
        0.11936035007238388,
        0.05045725405216217,
        0.06311097741127014,
        0.04788548871874809,
        -0.234309583902359,
        -0.2653326094150543,
        -0.28398337960243225,
        -0.04256777465343475,
        0.1107364073395729,
        -0.2980065941810608,
        -0.17219044268131256,
        -0.2356763333082199,
        -0.011543065309524536,
        -0.09162943065166473,
        0.2534221112728119,
        0.09782058745622635,
        0.2920650541782379,
        0.2098877727985382,
        -0.11388599872589111,
        0.0610116645693779,
        -0.05828607454895973,
        0.15153244137763977,
        0.015157335437834263,
        -0.06777964532375336,
        0.07569586485624313,
        -0.038445428013801575,
        0.09867876768112183,
        -0.24025900661945343,
        0.05292537063360214,
        0.08920782804489136,
        -0.061110932379961014,
        -0.295757532119751,
        0.30252349376678467,
        0.24637356400489807,
        0.06989075988531113,
        0.19320298731327057,
        -0.15321394801139832,
        -0.2595026195049286,
        0.20714490115642548,
        0.2867816090583801,
        0.2248924970626831,
        0.2097562998533249,
        -0.2368646264076233,
        0.27049025893211365,
        0.3434377908706665,
        -0.10605063289403915,
        -0.17475859820842743,
        0.1816769540309906,
        0.34732016921043396,
        0.15814393758773804,
        -0.1858634501695633,
        0.3033912479877472,
        -0.22104978561401367,
        -0.004490527790039778,
        -0.11608434468507767,
        0.3240586519241333,
        0.1808633953332901,
        -0.26964467763900757,
        0.11419365555047989,
        -0.1383311003446579,
        0.20395097136497498,
        -0.06893400102853775,
        0.1144939437508583,
        -0.2618057429790497,
        -0.34013497829437256,
        0.2814806401729584,
        0.14073839783668518,
        -0.20915786921977997,
        0.17787984013557434,
        -0.15568974614143372,
        0.028106871992349625,
        0.27274206280708313,
        0.2723400592803955,
        0.34399351477622986,
        -0.10800770670175552,
        -0.13884229958057404,
        0.18251776695251465,
        0.09894812107086182,
        -0.20583420991897583,
        0.34346142411231995,
        0.28582707047462463,
        0.32103052735328674,
        -0.07069525122642517,
        0.27280309796333313,
        -0.019566619768738747,
        0.1793842315673828,
        -0.04366748780012131,
        -0.16737432777881622,
        -0.295192152261734,
        -0.1987932324409485,
        0.01489600632339716,
        -0.17006948590278625,
        -0.2732025384902954,
        -0.14310382306575775,
        0.2908538579940796,
        -0.1041165366768837,
        0.224144846200943,
        0.3290524482727051,
        0.027283888310194016,
        -0.1784215271472931,
        -0.01650039292871952,
        0.25637391209602356,
        -0.20681585371494293,
        0.0276484452188015,
        0.1996835172176361,
        -0.11119337379932404,
        0.2300082892179489,
        -0.052411001175642014,
        -0.11984236538410187,
        0.22329992055892944,
        -0.02735401876270771,
        0.28254270553588867,
        -0.15372715890407562,
        0.3045213520526886,
        0.2881300449371338,
        0.15962062776088715,
        0.21014872193336487,
        0.20199158787727356,
        0.12596797943115234,
        -0.12933571636676788,
        0.29550692439079285,
        -0.34694904088974,
        0.00621755188331008,
        0.04248647764325142,
        -0.2595076858997345,
        0.20220676064491272,
        -0.006929265335202217,
        -0.265814870595932,
        0.02498754672706127,
        0.2501239776611328,
        -0.023605000227689743,
        -0.34776267409324646,
        -0.2327749878168106,
        -0.07188179343938828,
        -0.29396846890449524,
        0.2082403153181076,
        -0.25131532549858093,
        0.30462998151779175,
        0.10480733960866928,
        0.1856517344713211,
        -0.2654091417789459,
        -0.23835526406764984,
        -0.1899113804101944,
        -0.3468281030654907,
        -0.2927064597606659,
        -0.2490999847650528,
        0.09369611740112305,
        -0.2741648554801941,
        -0.16653619706630707,
        0.14910854399204254,
        0.15215270221233368,
        -0.0005994383245706558,
        0.15685175359249115,
        0.11505281925201416,
        0.10918547213077545,
        0.34372013807296753,
        -0.20688937604427338,
        -0.28448784351348877,
        0.06436952203512192,
        0.1088479682803154,
        -0.28369081020355225,
        0.03181074187159538,
        -0.29032936692237854,
        0.12150613218545914,
        0.10315599292516708,
        -0.08131299167871475,
        -0.3329199254512787,
        0.03713385388255119,
        0.10635458678007126,
        -0.33426472544670105,
        0.19084468483924866,
        -0.1442904770374298,
        -0.08762893825769424,
        -0.3459751307964325,
        -0.03377070277929306,
        -0.18743708729743958,
        0.04413776472210884,
        0.21421463787555695,
        0.19986744225025177,
        -0.28535667061805725,
        -0.060234297066926956,
        0.03583401069045067,
        0.03874925151467323,
        0.007630891166627407,
        -0.2720038890838623,
        -0.1491621434688568,
        -0.2901887893676758,
        0.26307567954063416,
        -0.3318861424922943,
        -0.32209891080856323,
        -0.04556259140372276,
        0.12073088437318802,
        0.3309883177280426,
        -0.23602212965488434,
        -0.3144308626651764,
        -0.02211988903582096,
        0.13627278804779053,
        -0.0335979238152504,
        -0.23024892807006836,
        0.22876112163066864,
        -0.2548392117023468,
        -0.2814778983592987,
        -0.17157632112503052,
        -0.15296870470046997,
        -0.22983935475349426,
        0.13653039932250977,
        -0.041538842022418976,
        0.15037982165813446,
        -0.08628930151462555,
        -0.3165160119533539,
        -0.01630977913737297,
        0.3225521445274353,
        -0.0855756476521492,
        -0.05563311651349068,
        0.33529388904571533,
        -0.2796274423599243,
        0.09311463683843613,
        -0.16051076352596283,
        -0.2393459528684616,
        -0.3274689018726349,
        0.009687274694442749,
        -0.12666738033294678,
        0.20401185750961304,
        0.10490003228187561,
        -0.11929326504468918,
        -0.11381388455629349,
        0.1790461391210556,
        -0.14450165629386902,
        0.05876262113451958,
        0.1916872262954712,
        -0.2576867640018463,
        0.09979619830846786,
        -0.11287050694227219,
        0.09842083603143692,
        -0.26126691699028015,
        -0.15700386464595795,
        0.12519443035125732,
        -0.2322385609149933,
        0.19155055284500122,
        -0.2026461660861969,
        0.22518566250801086,
        0.06669232249259949,
        0.16600880026817322,
        -0.10168102383613586,
        0.1934644728899002,
        0.0036089038476347923,
        0.033221203833818436,
        -0.11668513715267181,
        -0.07729510217905045,
        -0.08516564220190048,
        0.11632915586233139
      ],
      "bias": [
        0.17992840707302094,
        0.24685366451740265,
        0.04325638338923454,
        -0.18779197335243225,
        -0.21840164065361023,
        -0.20923489332199097,
        -0.23519420623779297,
        0.24097579717636108,
        -0.18275459110736847,
        -0.15094101428985596,
        -0.07329945266246796,
        0.06545750796794891,
        0.05015953630208969,
        -0.17944997549057007,
        0.02010287158191204,
        0.09567905217409134
      ]
    },
    {
      "activation": "tanh",
      "weights": [
        -0.3215036690235138,
        -0.2691080868244171,
        -0.11179625988006592,
        0.20176108181476593,
        0.1927707940340042,
        -0.034693509340286255,
        -0.041044432669878006,
        0.04763590171933174,
        -0.02027219347655773,
        0.32880401611328125,
        0.0885164737701416,
        -0.041547082364559174,
        -0.2822284400463104,
        0.06832415610551834,
        0.21646443009376526,
        0.2599683701992035,
        -0.17345228791236877,
        0.10406248271465302,
        -0.23487120866775513,
        0.1996794044971466,
        -0.30058667063713074,
        -0.27806997299194336,
        0.0003562775964383036,
        -0.14518974721431732,
        -0.19201849400997162,
        -0.05684700235724449,
        -0.07313834130764008,
        0.33081546425819397,
        -0.3135640323162079,
        -0.18605083227157593,
        -0.3225032687187195,
        0.20727267861366272,
        -0.15443657338619232,
        -0.16278620064258575,
        -0.004945916589349508,
        0.0900111198425293,
        -0.27799877524375916,
        0.004132790956646204,
        0.03243766352534294,
        0.05806721746921539,
        0.20577530562877655,
        -0.21812595427036285,
        0.20320142805576324,
        -0.18583270907402039,
        0.03571213781833649,
        0.08667105436325073,
        -0.20767471194267273,
        -0.048113103955984116,
        -0.11550913006067276,
        -0.10766880959272385,
        0.27741679549217224,
        0.319061815738678,
        -0.3210366368293762,
        0.21820209920406342,
        0.17239509522914886,
        -0.28108659386634827,
        -0.2854297161102295,
        -0.339616984128952,
        0.14239943027496338,
        0.2910348176956177,
        0.33705607056617737,
        -0.17209762334823608,
        0.11849980056285858,
        0.014301431365311146,
        -0.018396003171801567,
        0.072626031935215,
        0.0728442445397377,
        -0.20302248001098633,
        -0.12262272089719772,
        0.05440377816557884,
        -0.3022160530090332,
        0.09296859800815582,
        -0.21216528117656708,
        -0.32180255651474,
        0.004538548644632101,
        0.19708029925823212,
        -0.3141587972640991,
        -0.27710357308387756,
        -0.1426357477903366,
        0.3439581096172333,
        0.26472437381744385,
        0.1999000906944275,
        0.16820524632930756,
        0.2114335596561432,
        0.3247302770614624,
        -0.20929400622844696,
        0.34012171626091003,
        -0.09531563520431519,
        0.27456846833229065,
        0.3481288254261017,
        -0.30970558524131775,
        -0.1829105019569397,
        0.16328290104866028,
        -0.20865316689014435,
        -0.15091051161289215,
        0.01834421046078205,
        0.32445046305656433,
        -0.3303617537021637,
        0.17964406311511993,
        -0.2567428648471832,
        0.08684682101011276,
        0.24058498442173004,
        -0.13051766157150269,
        -0.34422287344932556,
        -0.17289480566978455,
        0.14522244036197662,
        0.27293798327445984,
        -0.23679792881011963,
        -0.20694491267204285,
        0.1761421263217926,
        -0.07251888513565063,
        -0.30925843119621277,
        -0.26503533124923706,
        0.19373884797096252,
        0.34564802050590515,
        -0.10298763960599899,
        0.19978222250938416,
        -0.2704733610153198,
        -0.3219558894634247,
        0.2857193350791931,
        -0.04082014411687851,
        -0.09515056014060974,
        -0.20002417266368866,
        0.2956487536430359,
        0.3068280518054962,
        0.11079064756631851,
        0.019503522664308548,
        0.3158757984638214,
        -0.12366528809070587,
        0.19787998497486115,
        0.1902552992105484,
        0.23717322945594788,
        -0.302062064409256,
        0.2270134687423706,
        0.1586124747991562,
        -0.20943734049797058,
        -0.3112592399120331,
        0.038110993802547455,
        -0.15534436702728271,
        -0.009928571991622448,
        -0.17559455335140228,
        0.1635926067829132,
        -0.09915940463542938,
        -0.03608422353863716,
        -0.01951577328145504,
        0.14041081070899963,
        -0.3127491772174835,
        0.34685108065605164,
        0.3467491865158081,
        -0.3326658308506012,
        0.04929814115166664,
        0.17066872119903564,
        0.0226200632750988,
        0.0936327800154686,
        0.29204604029655457,
        -0.1676860749721527,
        0.3123168349266052,
        0.28731000423431396,
        -0.2764027714729309,
        0.24699607491493225,
        -0.311419278383255,
        0.2325230985879898,
        -0.1372883915901184,
        -0.15383222699165344,
        0.07004771381616592,
        0.3268991708755493,
        -0.24363906681537628,
        0.06779463589191437,
        -0.14888550341129303,
        -0.33039817214012146,
        -0.025775939226150513,
        -0.15518227219581604,
        -0.09695829451084137,
        0.039223410189151764,
        0.0630682185292244,
        0.03066713735461235
      ],
      "bias": [
        -0.21234779059886932,
        -0.06246083229780197,
        0.020192323252558708,
        0.23261457681655884,
        0.17134325206279755,
        -0.08251044154167175,
        0.14900602400302887,
        -0.03823566809296608,
        0.09206771850585938,
        0.12727344036102295,
        -0.11952047795057297
      ]
    }
  ],
  "meta": {
    "name": "Backpack",
    "slug": "backpack",
    "inputs": 24,
    "outputs": 11,
    "placeholder": true,
    "generated": "2025-10-21T20:43:35.958Z"
  }
}
