{
  "input": 24,
  "normalization": {
    "mean": [
      0.022162770852446556,
      -0.003946333657950163,
      0.007772759534418583,
      0.0027139652520418167,
      0.006560076959431171,
      0.5031582713127136,
      0.5027271509170532,
      0.5101346373558044,
      0.5027315020561218,
      -0.007995447143912315,
      0.00059577013598755,
      0.008077769540250301,
      0.000027596490326686762,
      0.003939435817301273,
      0.00022620719391852617,
      -0.005772274453192949,
      0.006016978062689304,
      0.018458541482686996,
      0.025949185714125633,
      -0.003368648234754801,
      0.5041254162788391,
      0.5113149285316467,
      0.4984284043312073,
      0.5014162063598633
    ],
    "std": [
      0.5744495987892151,
      0.5794007778167725,
      0.5743090510368347,
      0.5706005096435547,
      0.572117030620575,
      0.28503862023353577,
      0.2863157391548157,
      0.29061180353164673,
      0.28889673948287964,
      0.58013916015625,
      0.5815039277076721,
      0.5759019255638123,
      0.5844178795814514,
      0.5775234699249268,
      0.5810987949371338,
      0.5797830820083618,
      0.5779281258583069,
      0.5808297395706177,
      0.5699993968009949,
      0.5737312436103821,
      0.2888474762439728,
      0.28882989287376404,
      0.2877395451068878,
      0.2858338952064514
    ]
  },
  "layers": [
    {
      "activation": "relu",
      "weights": [
        -0.004283163230866194,
        -1.2610865831375122,
        0.09715903550386429,
        -0.005173410754650831,
        0.004458300303667784,
        -0.00767911970615387,
        0.007897753268480301,
        0.006629506591707468,
        -0.004178186878561974,
        -0.0027550039812922478,
        0.005452658515423536,
        0.006369787734001875,
        -0.009939081966876984,
        -0.004394311457872391,
        0.013539022766053677,
        -0.002075967611745,
        0.002150701591745019,
        0.0018790578469634056,
        0.008725633844733238,
        0.006883704103529453,
        0.0020154917147010565,
        0.006471060682088137,
        -0.005336863920092583,
        -0.005682840943336487,
        -0.0006921500316821039,
        -0.0035484805703163147,
        -0.004122662823647261,
        0.0006300431559793651,
        -0.0013353766407817602,
        0.8553813099861145,
        -0.0006105093052610755,
        -0.0034702301491051912,
        0.0026529377792030573,
        -0.00015019596321508288,
        -0.0021565831266343594,
        0.002495574066415429,
        0.0016909256810322404,
        0.00017456302884966135,
        0.002289773430675268,
        0.0018712186720222235,
        -0.003937380854040384,
        0.0007791438838467002,
        0.0006161386845633388,
        0.0039028346072882414,
        -0.00380536587908864,
        -0.001225411077030003,
        -0.002148070139810443,
        -0.0015737754292786121,
        0.007797658443450928,
        -0.24367362260818481,
        -0.19079864025115967,
        0.012109511531889439,
        -0.006242178380489349,
        -0.20963087677955627,
        -0.010660327039659023,
        -0.006885048002004623,
        0.005947904195636511,
        0.002810374367982149,
        -0.013220424763858318,
        -0.006843362469226122,
        0.012391814030706882,
        0.006915823556482792,
        -0.016709107905626297,
        -0.001089704455807805,
        -0.001322610885836184,
        0.0009745721472427249,
        -0.012795878574252129,
        -0.006371081341058016,
        -0.0010861401678994298,
        -0.0060950517654418945,
        0.01011756993830204,
        0.008906547911465168,
        0.002877107821404934,
        1.2866429090499878,
        -0.00217042351141572,
        -0.0013585594715550542,
        0.008721484802663326,
        -0.0013773200334981084,
        0.0016254010843113065,
        -0.0018910577055066824,
        0.0002095103991450742,
        0.0011249770177528262,
        -0.0012367750750854611,
        -0.0037118755280971527,
        -0.0027092802338302135,
        0.00020668523211497813,
        0.0011004091938957572,
        -0.0027373216580599546,
        0.00022781048028264195,
        0.002364868065342307,
        -0.000697569630574435,
        -0.0019975353498011827,
        -0.0004651563649531454,
        -0.0011698297457769513,
        -0.001782180741429329,
        0.0015895356191322207,
        0.0019022002816200256,
        -1.3036316633224487,
        -0.003759250743314624,
        -0.003399722743779421,
        0.0018869308987632394,
        0.0013264635344967246,
        0.0014552174834534526,
        0.002513394458219409,
        -0.0019220542162656784,
        -0.00079949019709602,
        -0.002772361272946,
        0.00045423043775372207,
        0.0012800381518900394,
        0.003976247739046812,
        -0.0030818625818938017,
        0.0020731526892632246,
        -0.0005256986478343606,
        0.0009354014182463288,
        -0.0063056801445782185,
        -0.002425702754408121,
        0.00022278646065387875,
        -0.001373400678858161,
        0.0002331047726329416,
        0.0035588659811764956,
        0.000718562921974808,
        0.8360713124275208,
        0.0022926710080355406,
        0.0011146798497065902,
        -0.0030520984437316656,
        0.00019477700698189437,
        0.0020252589602023363,
        0.0002607742790132761,
        0.0006363416905514896,
        0.0019463954959064722,
        -0.0005699822213500738,
        -0.0005762959481216967,
        0.0020513320341706276,
        -0.00107692857272923,
        -0.0015607236418873072,
        0.0005177292041480541,
        -0.002013243269175291,
        -0.0002742554643191397,
        -0.001036840840242803,
        -0.0003483077452983707,
        0.0008712712442502379,
        0.002140812808647752,
        0.0015941063174977899,
        -0.00036056447424925864,
        0.004586800001561642,
        -0.005067623220384121,
        -0.03844445198774338,
        0.005932419095188379,
        -0.004042415414005518,
        0.7356626391410828,
        -0.006567306350916624,
        -0.005098363850265741,
        0.0038668110501021147,
        0.002001323038712144,
        -0.007319573312997818,
        -0.0031586638651788235,
        0.0067335013300180435,
        0.003810484893620014,
        -0.010581309907138348,
        -0.00011923300189664587,
        -0.0010693379445001483,
        0.0008599553839303553,
        -0.007508678361773491,
        -0.004718390759080648,
        -0.0004234976368024945,
        -0.003977385349571705,
        0.006590707693248987,
        0.0048814998008310795,
        0.04326135292649269,
        0.2054494023323059,
        0.12964612245559692,
        -0.22788675129413605,
        -0.043555717915296555,
        0.13382911682128906,
        0.05608126148581505,
        -0.19551877677440643,
        0.10959509760141373,
        -0.12784840166568756,
        0.020004425197839737,
        -0.05420307070016861,
        0.022822175174951553,
        -0.1374157965183258,
        -0.24100059270858765,
        0.0449892058968544,
        -0.11950766295194626,
        0.10628298670053482,
        0.047976043075323105,
        -0.0036511090584099293,
        -0.16543874144554138,
        0.129058375954628,
        0.17775894701480865,
        -0.08394216001033783,
        0.04417405277490616,
        -0.14973017573356628,
        0.34498146176338196,
        -0.0469885990023613,
        -0.1358509063720703,
        -0.004105877596884966,
        0.15792669355869293,
        -0.051607005298137665,
        0.11833048611879349,
        0.06347861140966415,
        0.04548629745841026,
        0.14486591517925262,
        -0.14742685854434967,
        -0.1361686885356903,
        -0.04968868941068649,
        0.13590848445892334,
        0.11021798104047775,
        0.0983811691403389,
        -0.12286042422056198,
        0.21112336218357086,
        0.02378552034497261,
        -0.14111068844795227,
        0.06953911483287811,
        -0.09395555406808853,
        -0.0031091354321688414,
        0.0027308135759085417,
        0.026698369532823563,
        -0.0036273167934268713,
        -0.0001962333481060341,
        -1.025506615638733,
        0.005772956181317568,
        0.004587261937558651,
        -0.0027237525209784508,
        -0.0014372457517310977,
        0.005391670390963554,
        0.0016810798551887274,
        -0.00712771387770772,
        -0.002029042923822999,
        0.00969711970537901,
        -0.0012510204687714577,
        0.0023607322946190834,
        0.0005003039259463549,
        0.004574186634272337,
        0.0022059446200728416,
        0.0018332082545384765,
        0.001051350380294025,
        -0.0031842065509408712,
        -0.0009999366011470556,
        0.0037668864242732525,
        0.024028347805142403,
        0.9811120629310608,
        0.005560663063079119,
        -0.004562924616038799,
        -0.008985726162791252,
        -0.010983373038470745,
        -0.004159250296652317,
        0.0010649050818756223,
        0.005518541671335697,
        -0.008544976823031902,
        -0.0049014342948794365,
        0.012835448607802391,
        0.003548228181898594,
        -0.011789655312895775,
        0.004187475889921188,
        -0.0013960759388282895,
        0.0031884973868727684,
        -0.013396584428846836,
        -0.009071805514395237,
        -0.0010743236634880304,
        -0.001680142362602055,
        0.007921979762613773,
        0.003372912062332034,
        0.17939962446689606,
        -0.19025865197181702,
        0.14743053913116455,
        0.13023757934570312,
        -0.03229784965515137,
        -0.13849416375160217,
        -0.029862865805625916,
        0.049084682017564774,
        -0.1056612953543663,
        -0.14401037991046906,
        -0.07197892665863037,
        -0.15264223515987396,
        -0.08727899193763733,
        0.04973025247454643,
        0.08691740781068802,
        -0.20188181102275848,
        0.06779646128416061,
        -0.18514788150787354,
        0.09528848528862,
        0.13859154284000397,
        0.0028688940219581127,
        -0.015796128660440445,
        0.015549324452877045,
        0.06002179905772209,
        0.07398226857185364,
        -0.15918610990047455,
        0.3172352612018585,
        -0.011404125951230526,
        -0.07480301707983017,
        -0.0015319762751460075,
        0.18553055822849274,
        0.03947737440466881,
        0.1604761779308319,
        -0.21291407942771912,
        -0.21426881849765778,
        -0.20631803572177887,
        0.0792626440525055,
        0.11227703839540482,
        -0.16012905538082123,
        -0.11906242370605469,
        0.01651659421622753,
        0.02723025158047676,
        0.017765525728464127,
        -0.06995148211717606,
        0.07051702588796616,
        -0.063382089138031,
        -0.16191667318344116,
        -0.09057894349098206,
        -0.00590456323698163,
        -0.008760622702538967,
        -1.0472784042358398,
        -0.010152400471270084,
        0.006507318466901779,
        0.01062826532870531,
        0.015501914545893669,
        0.005907129030674696,
        -0.0016628009034320712,
        -0.004985364619642496,
        0.010953058488667011,
        0.008548806421458721,
        -0.013097952120006084,
        -0.010192381218075752,
        0.010427280329167843,
        -0.0006295571802183986,
        0.0044973441399633884,
        0.00015878136036917567,
        0.010050058364868164,
        0.017843155190348625,
        -0.006880155764520168,
        0.0005617612041532993,
        -0.013357686810195446,
        -0.0009174211299978197,
        0.005546345375478268,
        1.0233266353607178,
        -0.10333815962076187,
        0.007616299670189619,
        -0.00516919419169426,
        0.00823343824595213,
        -0.008793571963906288,
        -0.0047048116102814674,
        0.004418376367539167,
        0.0028926727827638388,
        -0.009208610281348228,
        -0.005370281171053648,
        0.00847206823527813,
        0.004128120373934507,
        -0.012684229761362076,
        -0.00033505685860291123,
        -0.0018859370611608028,
        0.0005367776029743254,
        -0.009256049059331417,
        -0.006026038434356451,
        -0.00043936294969171286,
        -0.004607790149748325,
        0.00647292286157608,
        0.005993981380015612,
        -0.002596877748146653,
        -0.3163467049598694,
        -0.2922767102718353,
        0.014047857373952866,
        0.0006234205211512744,
        -0.015303071588277817,
        -0.005752998869866133,
        0.009232006035745144,
        -0.007302992511540651,
        0.017553461715579033,
        -0.011318601667881012,
        -0.018488744273781776,
        0.004346990492194891,
        0.023549001663923264,
        0.007262612693011761,
        0.0011520656989887357,
        -0.0054247695952653885,
        0.01767924800515175,
        -0.002425630111247301,
        -0.015832414850592613,
        0.0229729562997818,
        0.008446582593023777,
        0.024561267346143723,
        -0.034424345940351486
      ],
      "bias": [
        -0.7625905275344849,
        -0.8998311758041382,
        1.043821096420288,
        -1.704195499420166,
        -1.6375049352645874,
        -0.6674822568893433,
        0.7735140323638916,
        0.03807540982961655,
        -0.07119180262088776,
        -1.0855518579483032,
        -0.14680300652980804,
        -0.11223562061786652,
        -0.051561638712882996,
        -0.15975303947925568,
        0.5985153913497925,
        0.18502892553806305
      ]
    },
    {
      "activation": "tanh",
      "weights": [
        0.09803800284862518,
        0.007041492965072393,
        -0.3767852783203125,
        -0.011374679394066334,
        0.021993156522512436,
        0.03584514930844307,
        -0.10075882077217102,
        -0.004532211925834417,
        0.014375546015799046,
        0.06116800382733345,
        0.7389072775840759,
        0.000847550225444138,
        0.014786703512072563,
        -0.6805205345153809,
        -0.12496191263198853,
        -0.0999109297990799,
        -0.5835277438163757,
        -0.0008820102084428072,
        -0.31767067313194275,
        1.081432819366455,
        -0.9931128621101379,
        0.39399218559265137,
        -0.09677869081497192,
        -0.0005562765873037279,
        -0.00026760349282994866,
        0.06898673623800278,
        -0.013294026255607605,
        0.0008804097305983305,
        0.0000289023264485877,
        0.010365122929215431,
        0.5123092532157898,
        0.0034065358340740204,
        -0.5853238105773926,
        -0.0008597214473411441,
        -0.31907355785369873,
        1.0019625425338745,
        -0.9650519490242004,
        0.4069417119026184,
        -0.09706054627895355,
        -0.0006766163860447705,
        -0.0002994581882376224,
        0.06942623108625412,
        -0.013464676216244698,
        0.0009158824104815722,
        0.00036154265399090946,
        0.011152666062116623,
        0.5113480687141418,
        0.0020895306952297688,
        0.1565438061952591,
        -0.33252206444740295,
        0.33231157064437866,
        -0.3071940541267395,
        0.022364413365721703,
        0.32863858342170715,
        -0.141391783952713,
        0.12590646743774414,
        -0.03052893653512001,
        -0.18238037824630737,
        0.0038543110713362694,
        -0.2848493456840515,
        -0.143089160323143,
        -0.22817954421043396,
        -0.2400190234184265,
        -0.1598140001296997,
        -0.1560741662979126,
        -0.23468442261219025,
        0.1849396675825119,
        -0.09672240912914276,
        0.050096336752176285,
        -0.15258477628231049,
        -0.14774100482463837,
        -0.20313987135887146,
        0.2883099615573883,
        0.13757358491420746,
        -0.062275998294353485,
        -0.2509916424751282,
        -0.10800103843212128,
        -0.02580617368221283,
        0.07166917622089386,
        0.05644099414348602,
        -0.5853224992752075,
        -0.0008596800034865737,
        -0.31907349824905396,
        1.0020657777786255,
        -0.9650589227676392,
        0.4069215953350067,
        -0.09706050157546997,
        -0.0006765604484826326,
        -0.00029937521321699023,
        0.06942586600780487,
        -0.013464529067277908,
        0.0009160360787063837,
        0.00036151555832475424,
        0.011152306571602821,
        0.5113494396209717,
        0.0020904717966914177,
        0.08723355084657669,
        -0.1310504674911499,
        0.008571851067245007,
        0.05790962651371956,
        0.13605530560016632,
        -0.004463321063667536,
        0.11152396351099014,
        0.12805068492889404,
        0.12873263657093048,
        0.16238445043563843,
        0.08323551714420319,
        -0.12757636606693268,
        -0.27524498105049133,
        -0.17154474556446075,
        -0.10114678740501404,
        0.04121048003435135,
        0.5853226780891418,
        0.0008597206906415522,
        0.3190738558769226,
        -1.0020477771759033,
        0.9650578498840332,
        -0.4069252610206604,
        0.09706059843301773,
        0.0006765878642909229,
        0.0002993820235133171,
        -0.06942600011825562,
        0.013464604504406452,
        -0.0009160220506601036,
        -0.0003615281020756811,
        -0.011152397841215134,
        -0.5113492608070374,
        -0.002090447349473834,
        -0.18798482418060303,
        0.06973399221897125,
        -0.34848982095718384,
        -0.07058358192443848,
        0.33111706376075745,
        -0.3074377775192261,
        -0.1792510598897934,
        0.006456027273088694,
        0.03591376543045044,
        0.1951458752155304,
        -0.18789997696876526,
        0.06520609557628632,
        0.13876715302467346,
        -0.21028073132038116,
        0.2065964639186859,
        0.012868738733232021,
        -0.23461267352104187,
        0.022663217037916183,
        0.3210446238517761,
        -0.29835766553878784,
        -0.3329649269580841,
        -0.08979063481092453,
        -0.20766262710094452,
        0.34273645281791687,
        0.010400939732789993,
        -0.025785017758607864,
        0.25645482540130615,
        -0.001207689638249576,
        0.14068205654621124,
        0.030705267563462257,
        -0.1352275311946869,
        0.33559268712997437,
        0.06730513274669647,
        1.0182510614395142,
        -0.35974594950675964,
        -0.003996535204350948,
        -0.004355248995125294,
        0.002246124902740121,
        0.7329188585281372,
        -0.002391007961705327,
        -0.0018169601680710912,
        -1.3255668878555298,
        -0.05388140678405762,
        0.003305420046672225,
        -0.0012656869366765022,
        0.05123627185821533,
        -0.08124483376741409,
        0.0038691835943609476
      ],
      "bias": [
        0.5623999238014221,
        0.09516232460737228,
        0.09775024652481079,
        0,
        0,
        0.0977492555975914,
        0,
        -0.0977497473359108,
        0,
        0,
        -0.13645042479038239
      ]
    }
  ],
  "meta": {
    "name": "Backpack",
    "slug": "backpack",
    "inputs": 24,
    "outputs": 11,
    "trackIndex": 6,
    "file": "backpack.json",
    "trained": "2025-10-22T15:53:18.958Z",
    "training": {
      "feature": "bass",
      "featureType": "signed",
      "output": "fieldStrength",
      "orientation": "direct",
      "weight": 1,
      "epochs": 400,
      "samples": 4096,
      "learningRate": 0.01,
      "loss": 0.0007678373949602246,
      "correlation": 0.9998395442962646,
      "fitness": 0.9998395442962646,
      "mse": 0.00011162304872414097,
      "combinedFitness": 0.9993646144866943,
      "averageMse": 0.0004902277141809464,
      "correlations": [
        {
          "feature": "bass",
          "featureType": "signed",
          "output": "fieldStrength",
          "orientation": "direct",
          "weight": 1,
          "correlation": 0.9998395442962646,
          "fitness": 0.9998395442962646,
          "mse": 0.00011162304872414097
        },
        {
          "feature": "bass",
          "featureType": "signed",
          "output": "cohesion",
          "orientation": "direct",
          "weight": 0.5,
          "correlation": 0.9998353719711304,
          "fitness": 0.9998353719711304,
          "mse": 0.00011504081339808181
        },
        {
          "feature": "lowMid",
          "featureType": "signed",
          "output": "spawnRate",
          "orientation": "direct",
          "weight": 0.5,
          "correlation": 0.9968560934066772,
          "fitness": 0.9968560934066772,
          "mse": 0.0021570303943008184
        },
        {
          "feature": "bass",
          "featureType": "signed",
          "output": "hueShift",
          "orientation": "inverse",
          "weight": 0.5,
          "correlation": -0.9998354315757751,
          "fitness": 0.9998354315757751,
          "mse": 0.00011503606947371736
        },
        {
          "feature": "rms",
          "featureType": "positive",
          "output": "zoom",
          "orientation": "direct",
          "weight": 0.5,
          "correlation": 0.9995110630989075,
          "fitness": 0.9995110630989075,
          "mse": 0.00032760080648586154
        },
        {
          "feature": "bass",
          "featureType": "signed",
          "output": "glow",
          "orientation": "direct",
          "weight": 0.5,
          "correlation": 0.9998354315757751,
          "fitness": 0.9998354315757751,
          "mse": 0.00011503500718390569
        }
      ]
    }
  }
}
