{
  "input": 24,
  "normalization": {
    "mean": [
      0.022162770852446556,
      -0.003946333657950163,
      0.007772759534418583,
      0.0027139652520418167,
      0.006560076959431171,
      0.5031582713127136,
      0.5027271509170532,
      0.5101346373558044,
      0.5027315020561218,
      -0.007995447143912315,
      0.00059577013598755,
      0.008077769540250301,
      0.000027596490326686762,
      0.003939435817301273,
      0.00022620719391852617,
      -0.005772274453192949,
      0.006016978062689304,
      0.018458541482686996,
      0.025949185714125633,
      -0.003368648234754801,
      0.5041254162788391,
      0.5113149285316467,
      0.4984284043312073,
      0.5014162063598633
    ],
    "std": [
      0.5744495987892151,
      0.5794007778167725,
      0.5743090510368347,
      0.5706005096435547,
      0.572117030620575,
      0.28503862023353577,
      0.2863157391548157,
      0.29061180353164673,
      0.28889673948287964,
      0.58013916015625,
      0.5815039277076721,
      0.5759019255638123,
      0.5844178795814514,
      0.5775234699249268,
      0.5810987949371338,
      0.5797830820083618,
      0.5779281258583069,
      0.5808297395706177,
      0.5699993968009949,
      0.5737312436103821,
      0.2888474762439728,
      0.28882989287376404,
      0.2877395451068878,
      0.2858338952064514
    ]
  },
  "layers": [
    {
      "activation": "relu",
      "weights": [
        -0.025030311197042465,
        -0.8999466300010681,
        0.083575040102005,
        -0.5232107043266296,
        0.014433235861361027,
        -0.002796407788991928,
        0.0021364022977650166,
        0.05888165533542633,
        0.018812330439686775,
        -0.01592588610947132,
        0.01953989453613758,
        0.029476815834641457,
        -0.023871012032032013,
        0.008245204575359821,
        0.03450658917427063,
        -0.040886614471673965,
        0.039804305881261826,
        -0.04568895325064659,
        -0.0041357045993208885,
        0.011761466041207314,
        -0.030169237405061722,
        0.013688185252249241,
        0.008556967601180077,
        -0.0025215919595211744,
        0.00432358356192708,
        -0.0038320887833833694,
        0.002837887965142727,
        -0.005028110928833485,
        0.000527234748005867,
        0.8482142686843872,
        -0.0030379078816622496,
        -0.00007174650090746582,
        -0.0008696250151842833,
        -0.005229002796113491,
        0.0004080334911122918,
        0.00529143400490284,
        0.0010458549950271845,
        -0.0035811779089272022,
        0.0046112509444355965,
        0.00311933527700603,
        -0.00916343554854393,
        -0.001769287628121674,
        0.0007928580162115395,
        0.0024039377458393574,
        -0.0030899106059223413,
        -0.0052976226434111595,
        -0.006755298003554344,
        -0.002753299195319414,
        0.011003288440406322,
        0.10753759741783142,
        -0.009730292484164238,
        -0.6861230731010437,
        -0.003907238133251667,
        -0.011296359822154045,
        -0.012575668282806873,
        -0.010376030579209328,
        0.008093554526567459,
        0.016690999269485474,
        0.0031924035865813494,
        -0.0062720212154090405,
        0.0044859712943434715,
        -0.0013133949832990766,
        0.0036589617375284433,
        0.008935260586440563,
        -0.001133227488026023,
        0.014506330713629723,
        0.002438354305922985,
        -0.008348574861884117,
        -0.0013421711046248674,
        0.002146518789231777,
        0.0017154976958408952,
        -0.0011829443974420428,
        0.045659080147743225,
        0.9648111462593079,
        0.0252238642424345,
        0.16853007674217224,
        0.00872153602540493,
        0.004578226245939732,
        0.0011665152851492167,
        -0.013968195766210556,
        -0.036969661712646484,
        -0.04559023678302765,
        0.012068606913089752,
        0.03118850104510784,
        0.015306948684155941,
        0.0032416554167866707,
        0.06982644647359848,
        -0.026751531288027763,
        -0.0404265820980072,
        0.005862930789589882,
        0.012808981351554394,
        0.03536366671323776,
        -0.013066563755273819,
        0.04456048831343651,
        0.045657601207494736,
        -0.030334558337926865,
        0.020218083634972572,
        -0.960161566734314,
        0.03276949003338814,
        -0.15638138353824615,
        -0.001419103005900979,
        -0.015412588603794575,
        0.058151621371507645,
        -0.013271170668303967,
        0.0694814994931221,
        0.013226347975432873,
        0.0019385236082598567,
        -0.0052476078271865845,
        0.00012855468958150595,
        0.07224603742361069,
        -0.014194748364388943,
        -0.03673311322927475,
        -0.014121130108833313,
        -0.06594187021255493,
        0.0064020948484539986,
        0.023087527602910995,
        0.013466797769069672,
        0.002329301554709673,
        -0.020981917157769203,
        0.007972443476319313,
        -0.0007754153339192271,
        -0.0002478713868185878,
        0.00007031521818134934,
        0.9764000773429871,
        -0.00023425652761943638,
        0.0022372661624103785,
        0.0034544621594250202,
        -0.0004703618760686368,
        -0.000917272234801203,
        -0.0007160523673519492,
        0.003721542190760374,
        -0.0013208275195211172,
        -0.0015894497046247125,
        -0.002288319868966937,
        -0.000694748479872942,
        0.0012435996904969215,
        -0.0007637363160029054,
        0.004938376136124134,
        0.0008457433432340622,
        -0.008498593233525753,
        -0.0006082742474973202,
        -0.0018878525588661432,
        -0.0003449035866651684,
        0.0017299323808401823,
        -0.009928608313202858,
        0.08532455563545227,
        -0.0467672199010849,
        -0.1716032326221466,
        0.007838401943445206,
        0.7149708867073059,
        -0.0007012108690105379,
        0.012106605805456638,
        -0.003607700811699033,
        0.0152526143938303,
        -0.01855434663593769,
        0.01814904436469078,
        0.005764448083937168,
        0.028670063242316246,
        -0.006483287084847689,
        -0.0001266452163690701,
        0.012355291284620762,
        -0.012958542443811893,
        -0.001272468245588243,
        -0.012151946313679218,
        0.006808508653193712,
        -0.02051490917801857,
        0.005649151746183634,
        0.00879927258938551,
        -0.001476773526519537,
        0.0031156388577073812,
        -0.0008094087825156748,
        -0.868391752243042,
        0.0021437674295157194,
        -0.003273748094215989,
        0.0023788008838891983,
        -0.0008336403989233077,
        0.0013351778034120798,
        -0.0018192535499110818,
        0.0009181268396787345,
        0.0026638307608664036,
        -0.0008165148901753128,
        0.00209818035364151,
        0.0025042048655450344,
        -0.0016428662929683924,
        0.003260675584897399,
        -0.0018476013792678714,
        0.0006499216542579234,
        -0.002918758662417531,
        0.002912708092480898,
        -0.0069762663915753365,
        0.00017046382708940655,
        0.0007596241775900126,
        0.038627516478300095,
        -0.16845975816249847,
        0.34578415751457214,
        0.0007696005050092936,
        -0.1345635950565338,
        -0.0014445383567363024,
        0.16334125399589539,
        -0.05412738025188446,
        0.1167076900601387,
        0.06069761514663696,
        0.04736628755927086,
        0.1438443511724472,
        -0.13682639598846436,
        -0.12218836694955826,
        -0.05092133581638336,
        0.14226675033569336,
        0.08785992115736008,
        0.10804812610149384,
        -0.10113833099603653,
        0.20474191009998322,
        0.02254367060959339,
        -0.13194642961025238,
        0.07887507975101471,
        -0.09917821735143661,
        -0.014482521452009678,
        -0.022485101595520973,
        0.023444941267371178,
        0.04653336852788925,
        0.005158246960490942,
        -1.0097659826278687,
        0.007064125966280699,
        0.001311268424615264,
        -0.0019013562705367804,
        0.007526694796979427,
        -0.0026812702417373657,
        0.016607394441962242,
        -0.004092702176421881,
        0.008297007530927658,
        -0.00010185295104747638,
        -0.003382002003490925,
        0.0020418106578290462,
        -0.0058202194049954414,
        0.00955384224653244,
        -0.011497383005917072,
        0.010288447141647339,
        -0.006725534331053495,
        -0.0008014770573936403,
        0.011112495325505733,
        0.007520737592130899,
        0.024313610047101974,
        0.9660844206809998,
        -0.009074547328054905,
        0.0045666201040148735,
        0.00036312435986474156,
        -0.01757778413593769,
        -0.0120738185942173,
        -0.009659004397690296,
        0.0009716328349895775,
        -0.005942841991782188,
        -0.015251025557518005,
        0.06287002563476562,
        0.03221425786614418,
        -0.0022931520361453295,
        0.02275988832116127,
        -0.0362231619656086,
        0.023992013186216354,
        -0.01876315288245678,
        -0.004540140740573406,
        -0.001907587400637567,
        -0.015574623830616474,
        0.019801093265414238,
        -0.0013332001399248838,
        0.05231449380517006,
        -0.2262272983789444,
        0.026936378329992294,
        0.4501093029975891,
        0.020943906158208847,
        -0.058280616998672485,
        -0.0058501302264630795,
        0.021461421623826027,
        -0.0551777146756649,
        0.003064792137593031,
        -0.00713583966717124,
        -0.03542308881878853,
        -0.022913822904229164,
        0.03944031149148941,
        0.10126857459545135,
        -0.08497687429189682,
        0.033009059727191925,
        -0.10415127873420715,
        -0.0058223893865942955,
        0.05249377712607384,
        0.044151026755571365,
        -0.028782127425074577,
        -0.05405854061245918,
        0.03798314183950424,
        0.06461385637521744,
        -0.18267767131328583,
        0.31469929218292236,
        0.059643570333719254,
        -0.07018774747848511,
        0.007212503347545862,
        0.18035830557346344,
        0.029726188629865646,
        0.16770793497562408,
        -0.20974385738372803,
        -0.2006331980228424,
        -0.19614195823669434,
        0.07987149059772491,
        0.09953980147838593,
        -0.16084103286266327,
        -0.10336313396692276,
        0.005810137372463942,
        0.0320311039686203,
        0.0178370401263237,
        -0.07860805839300156,
        0.06282060593366623,
        -0.05334000661969185,
        -0.1573525071144104,
        -0.09399604052305222,
        -0.0011060289107263088,
        -0.011024417355656624,
        -1.0350981950759888,
        -0.028806399554014206,
        0.013452013023197651,
        0.025286974385380745,
        0.026369307190179825,
        -0.01706136390566826,
        -0.0009546816581860185,
        -0.011539517901837826,
        -0.0045991321094334126,
        0.011581736616790295,
        0.02805616520345211,
        0.018948782235383987,
        0.017960084602236748,
        0.026101144030690193,
        -0.020982008427381516,
        0.014534082263708115,
        -0.004985907580703497,
        0.014297211542725563,
        0.008344016969203949,
        -0.008409716188907623,
        0.014044765383005142,
        -0.00980907678604126,
        0.023061007261276245,
        0.7274900674819946,
        -0.062148090451955795,
        0.41328921914100647,
        -0.010431175120174885,
        0.004350884817540646,
        -0.0021390055771917105,
        -0.03860640153288841,
        -0.016198640689253807,
        0.014314908534288406,
        -0.014491554349660873,
        -0.02386261150240898,
        0.01576930284500122,
        -0.012683989480137825,
        -0.021694503724575043,
        0.03665899485349655,
        -0.032852958887815475,
        0.035707779228687286,
        0.000733426830265671,
        -0.00732390396296978,
        0.0189539585262537,
        -0.010029198601841927,
        -0.009517022408545017,
        -0.00014290318358689547,
        0.011170282028615475,
        -0.2799091339111328,
        -0.004731231369078159,
        0.08465195447206497,
        0.00032181557617150247,
        -0.017349421977996826,
        -0.030825162306427956,
        0.0057122125290334225,
        0.02883661724627018,
        0.026318002492189407,
        0.022576477378606796,
        0.002668832428753376,
        -0.0010552953463047743,
        0.005914941430091858,
        0.02077939547598362,
        -0.00859024841338396,
        0.023121271282434464,
        0.00718016317114234,
        0.0047112517058849335,
        -0.011216000653803349,
        -0.014383198693394661,
        0.01303462591022253,
        0.010225223377346992,
        -0.007886609993875027
      ],
      "bias": [
        -0.8919882774353027,
        -0.9056674838066101,
        1.3401994705200195,
        -1.8978705406188965,
        -1.847231149673462,
        -1.0875883102416992,
        0.7183212637901306,
        -0.9649758338928223,
        -0.0703999400138855,
        -1.095771312713623,
        -0.14377522468566895,
        -0.15445587038993835,
        -0.044994886964559555,
        -0.15206730365753174,
        0.7162747979164124,
        0.5964913368225098
      ]
    },
    {
      "activation": "tanh",
      "weights": [
        0.09803800284862518,
        0.007041492965072393,
        -0.3767852783203125,
        -0.011374679394066334,
        0.021993156522512436,
        0.03584514930844307,
        -0.10075882077217102,
        -0.004532211925834417,
        0.014375546015799046,
        0.06116800382733345,
        0.7389072775840759,
        0.000847550225444138,
        0.014786703512072563,
        -0.6805205345153809,
        -0.12496191263198853,
        -0.0999109297990799,
        -0.18104588985443115,
        -0.0012002217117697,
        -0.7256090044975281,
        1.0782570838928223,
        -0.980596125125885,
        1.0516748428344727,
        -0.005821251776069403,
        -1.1194871664047241,
        0.0032036760821938515,
        0.004475025925785303,
        0.008039094507694244,
        0.008516565896570683,
        0.00017865108384285122,
        -0.007296428550034761,
        0.22913819551467896,
        0.30965906381607056,
        -0.5853238105773926,
        -0.0008597214473411441,
        -0.31907355785369873,
        1.0019625425338745,
        -0.9650519490242004,
        0.4069417119026184,
        -0.09706054627895355,
        -0.0006766163860447705,
        -0.0002994581882376224,
        0.06942623108625412,
        -0.013464676216244698,
        0.0009158824104815722,
        0.00036154265399090946,
        0.011152666062116623,
        0.5113480687141418,
        0.0020895306952297688,
        0.1565438061952591,
        -0.33252206444740295,
        0.33231157064437866,
        -0.3071940541267395,
        0.022364413365721703,
        0.32863858342170715,
        -0.141391783952713,
        0.12590646743774414,
        -0.03052893653512001,
        -0.18238037824630737,
        0.0038543110713362694,
        -0.2848493456840515,
        -0.143089160323143,
        -0.22817954421043396,
        -0.2400190234184265,
        -0.1598140001296997,
        -0.1560741662979126,
        -0.23468442261219025,
        0.1849396675825119,
        -0.09672240912914276,
        0.050096336752176285,
        -0.15258477628231049,
        -0.14774100482463837,
        -0.20313987135887146,
        0.2883099615573883,
        0.13757358491420746,
        -0.062275998294353485,
        -0.2509916424751282,
        -0.10800103843212128,
        -0.02580617368221283,
        0.07166917622089386,
        0.05644099414348602,
        -0.5853224992752075,
        -0.0008596800034865737,
        -0.31907349824905396,
        1.0020657777786255,
        -0.9650589227676392,
        0.4069215953350067,
        -0.09706050157546997,
        -0.0006765604484826326,
        -0.00029937521321699023,
        0.06942586600780487,
        -0.013464529067277908,
        0.0009160360787063837,
        0.00036151555832475424,
        0.011152306571602821,
        0.5113494396209717,
        0.0020904717966914177,
        0.08723355084657669,
        -0.1310504674911499,
        0.008571851067245007,
        0.05790962651371956,
        0.13605530560016632,
        -0.004463321063667536,
        0.11152396351099014,
        0.12805068492889404,
        0.12873263657093048,
        0.16238445043563843,
        0.08323551714420319,
        -0.12757636606693268,
        -0.27524498105049133,
        -0.17154474556446075,
        -0.10114678740501404,
        0.04121048003435135,
        0.5853226780891418,
        0.0008597206906415522,
        0.3190738558769226,
        -1.0020477771759033,
        0.9650578498840332,
        -0.4069252610206604,
        0.09706059843301773,
        0.0006765878642909229,
        0.0002993820235133171,
        -0.06942600011825562,
        0.013464604504406452,
        -0.0009160220506601036,
        -0.0003615281020756811,
        -0.011152397841215134,
        -0.5113492608070374,
        -0.002090447349473834,
        -0.18798482418060303,
        0.06973399221897125,
        -0.34848982095718384,
        -0.07058358192443848,
        0.33111706376075745,
        -0.3074377775192261,
        -0.1792510598897934,
        0.006456027273088694,
        0.03591376543045044,
        0.1951458752155304,
        -0.18789997696876526,
        0.06520609557628632,
        0.13876715302467346,
        -0.21028073132038116,
        0.2065964639186859,
        0.012868738733232021,
        -0.23461267352104187,
        0.022663217037916183,
        0.3210446238517761,
        -0.29835766553878784,
        -0.3329649269580841,
        -0.08979063481092453,
        -0.20766262710094452,
        0.34273645281791687,
        0.010400939732789993,
        -0.025785017758607864,
        0.25645482540130615,
        -0.001207689638249576,
        0.14068205654621124,
        0.030705267563462257,
        -0.1352275311946869,
        0.33559268712997437,
        0.06730513274669647,
        1.0182510614395142,
        -0.35974594950675964,
        -0.003996535204350948,
        -0.004355248995125294,
        0.002246124902740121,
        0.7329188585281372,
        -0.002391007961705327,
        -0.0018169601680710912,
        -1.3255668878555298,
        -0.05388140678405762,
        0.003305420046672225,
        -0.0012656869366765022,
        0.05123627185821533,
        -0.08124483376741409,
        0.0038691835943609476
      ],
      "bias": [
        0.5623999238014221,
        0.6274098753929138,
        0.09775024652481079,
        0,
        0,
        0.0977492555975914,
        0,
        -0.0977497473359108,
        0,
        0,
        -0.13645042479038239
      ]
    }
  ],
  "meta": {
    "name": "Backpack",
    "slug": "backpack",
    "inputs": 24,
    "outputs": 11,
    "trackIndex": 6,
    "file": "backpack.json",
    "trained": "2025-10-24T16:06:22.081Z",
    "training": {
      "mode": "tune",
      "feature": "mid",
      "featureType": "signed",
      "output": "fieldStrength",
      "orientation": "direct",
      "weight": 1,
      "epochs": 400,
      "samples": 4096,
      "learningRate": 0.01,
      "loss": 0.0001528969733044505,
      "correlation": 0.9995548129081726,
      "fitness": 0.9995548129081726,
      "mse": 0.0002949652844108641,
      "combinedFitness": 0.9995548129081726,
      "averageMse": 0.0002949652844108641,
      "correlations": [
        {
          "feature": "mid",
          "featureType": "signed",
          "output": "fieldStrength",
          "orientation": "direct",
          "weight": 1,
          "correlation": 0.9995548129081726,
          "fitness": 0.9995548129081726,
          "mse": 0.0002949652844108641
        }
      ],
      "previous": {
        "feature": "bass",
        "featureType": "signed",
        "output": "fieldStrength",
        "orientation": "direct",
        "weight": 1,
        "epochs": 400,
        "samples": 4096,
        "learningRate": 0.01,
        "loss": 0.0007678373949602246,
        "correlation": 0.9998395442962646,
        "fitness": 0.9998395442962646,
        "mse": 0.00011162304872414097,
        "combinedFitness": 0.9993646144866943,
        "averageMse": 0.0004902277141809464,
        "correlations": [
          {
            "feature": "bass",
            "featureType": "signed",
            "output": "fieldStrength",
            "orientation": "direct",
            "weight": 1,
            "correlation": 0.9998395442962646,
            "fitness": 0.9998395442962646,
            "mse": 0.00011162304872414097
          },
          {
            "feature": "bass",
            "featureType": "signed",
            "output": "cohesion",
            "orientation": "direct",
            "weight": 0.5,
            "correlation": 0.9998353719711304,
            "fitness": 0.9998353719711304,
            "mse": 0.00011504081339808181
          },
          {
            "feature": "lowMid",
            "featureType": "signed",
            "output": "spawnRate",
            "orientation": "direct",
            "weight": 0.5,
            "correlation": 0.9968560934066772,
            "fitness": 0.9968560934066772,
            "mse": 0.0021570303943008184
          },
          {
            "feature": "bass",
            "featureType": "signed",
            "output": "hueShift",
            "orientation": "inverse",
            "weight": 0.5,
            "correlation": -0.9998354315757751,
            "fitness": 0.9998354315757751,
            "mse": 0.00011503606947371736
          },
          {
            "feature": "rms",
            "featureType": "positive",
            "output": "zoom",
            "orientation": "direct",
            "weight": 0.5,
            "correlation": 0.9995110630989075,
            "fitness": 0.9995110630989075,
            "mse": 0.00032760080648586154
          },
          {
            "feature": "bass",
            "featureType": "signed",
            "output": "glow",
            "orientation": "direct",
            "weight": 0.5,
            "correlation": 0.9998354315757751,
            "fitness": 0.9998354315757751,
            "mse": 0.00011503500718390569
          }
        ]
      }
    }
  }
}
