{
  "input": 24,
  "normalization": {
    "mean": [
      0,
      0,
      0,
      0,
      0,
      0,
      0,
      0,
      0,
      0,
      0,
      0,
      0,
      0,
      0,
      0,
      0,
      0,
      0,
      0,
      0,
      0,
      0,
      0
    ],
    "std": [
      1,
      1,
      1,
      1,
      1,
      1,
      1,
      1,
      1,
      1,
      1,
      1,
      1,
      1,
      1,
      1,
      1,
      1,
      1,
      1,
      1,
      1,
      1,
      1
    ]
  },
  "layers": [
    {
      "activation": "relu",
      "weights": [
        -0.118532,
        -0.067873,
        0.085985,
        0.031355,
        -0.166648,
        0.162287,
        0.120959,
        0.179062,
        -0.039421,
        -0.238868,
        -0.076916,
        0.052737,
        -0.04302,
        0.123644,
        -0.214257,
        0.184811,
        0.11522,
        -0.215874,
        -0.07809,
        -0.028456,
        -0.222979,
        0.066014,
        -0.228942,
        0,
        -0.16521,
        0.170597,
        0.015379,
        0.24407,
        -0.172372,
        -0.231894,
        -0.155314,
        -0.14856,
        -0.027116,
        -0.079063,
        0.23836,
        -0.214911,
        0.248642,
        0.155633,
        -0.003255,
        0.149112,
        -0.24022,
        0.138283,
        0.11999,
        0.159758,
        -0.240392,
        -0.059826,
        0.05845,
        0,
        -0.240037,
        -0.189336,
        -0.137469,
        -0.018851,
        0.218742,
        -0.001263,
        0.203144,
        0.03887,
        -0.089232,
        0.239166,
        -0.027284,
        0.223439,
        0.096426,
        -0.160501,
        0.193712,
        0.049764,
        0.147673,
        0.107553,
        0.039557,
        -0.087813,
        -0.209983,
        -0.081053,
        0.196967,
        0,
        0.091718,
        0.055912,
        -0.216823,
        -0.040758,
        0.015707,
        -0.2301,
        0.072283,
        0.183329,
        -0.003477,
        0.010794,
        0.201172,
        -0.131533,
        -0.199199,
        0.121235,
        0.173679,
        0.23922,
        0.025812,
        -0.040082,
        0.033394,
        -0.159273,
        -0.115473,
        0.21681,
        -0.116649,
        0,
        -0.221032,
        0.125938,
        0.236662,
        -0.23638,
        -0.136145,
        -0.057805,
        -0.078857,
        -0.199126,
        0.037979,
        -0.160886,
        -0.095102,
        0.168992,
        0.098808,
        0.071636,
        -0.174165,
        0.024756,
        -0.152849,
        -0.129213,
        0.134977,
        0.207714,
        -0.080289,
        -0.186299,
        0.016167,
        0,
        0.118258,
        0.18853,
        -0.186722,
        0.110952,
        -0.187005,
        0.23514,
        -0.170974,
        -0.131044,
        -0.018538,
        0.032234,
        0.025662,
        -0.030947,
        0.093247,
        0.090668,
        0.231032,
        -0.118346,
        0.129592,
        -0.045389,
        0.169901,
        -0.232582,
        -0.061474,
        0.052649,
        0.075192,
        0,
        0.032703,
        -0.122411,
        0.037656,
        -0.096775,
        -0.012934,
        0.033232,
        -0.126743,
        0.004529,
        0.173131,
        -0.069077,
        0.049672,
        0.226769,
        0.064125,
        -0.224948,
        -0.063222,
        0.051382,
        -0.050591,
        -0.117328,
        -0.092814,
        -0.009548,
        -0.046694,
        0.100156,
        -0.012851,
        0,
        0.095411,
        -0.242452,
        0.116833,
        -0.081885,
        0.054112,
        0.222636,
        0.214642,
        0.136743,
        -0.022149,
        0.228455,
        0.117902,
        -0.193824,
        0.104886,
        0.179427,
        0.23223,
        0.156412,
        -0.227973,
        0.244532,
        0.186687,
        0.016553,
        0.130848,
        0.027506,
        0.21821,
        0,
        0.046776,
        0.210105,
        -0.012474,
        0.062383,
        -0.19719,
        0.050887,
        0.055694,
        0.139635,
        -0.109241,
        -0.233896,
        0.017636,
        -0.049111,
        0.095055,
        0.00084,
        -0.142473,
        0.221767,
        -0.012619,
        -0.104846,
        -0.116144,
        -0.040621,
        0.149354,
        -0.22412,
        0.082237,
        0,
        0.210775,
        -0.233204,
        -0.071,
        -0.234413,
        -0.062875,
        -0.021604,
        -0.070859,
        0.216978,
        0.042675,
        -0.013419,
        0.127763,
        0.14548,
        0.222563,
        0.063406,
        0.026607,
        -0.0997,
        -0.081471,
        0.209275,
        -0.112051,
        0.013541,
        -0.203383,
        -0.15269,
        0.058243,
        0,
        -0.233122,
        -0.214109,
        0.061169,
        0.106702,
        0.102483,
        -0.157733,
        0.009146,
        0.005377,
        -0.176512,
        0.226497,
        -0.227658,
        0.202316,
        0.154326,
        0.210372,
        0.019734,
        0.064334,
        -0.143766,
        -0.249781,
        -0.002045,
        -0.209009,
        0.218251,
        -0.208263,
        -0.021414,
        0,
        0.026316,
        -0.130979,
        -0.004749,
        -0.079214,
        0.019844,
        -0.020301,
        -0.204566,
        0.232068,
        -0.18646,
        0.05329,
        -0.165437,
        0.135022,
        0.056159,
        0.120723,
        -0.066625,
        -0.227181,
        0.171615,
        -0.211017,
        -0.111412,
        -0.188707,
        0.232905,
        0.211591,
        0.01113,
        0,
        -0.079586,
        0.018179,
        0.176779,
        -0.055827,
        0.142969,
        -0.149515,
        0.133637,
        -0.075003,
        -0.216727,
        -0.052219,
        0.101568,
        -0.220226,
        0.073693,
        0.13475,
        0.03336,
        0.065323,
        0.001833,
        -0.106989,
        -0.172826,
        -0.103102,
        -0.193831,
        -0.148746,
        -0.19222,
        0,
        0.126075,
        -0.227045,
        -0.058111,
        0.122336,
        0.157801,
        0.092208,
        0.07576,
        0.121037,
        -0.17934,
        0.155593,
        -0.188512,
        -0.082066,
        -0.170567,
        -0.19599,
        0.121003,
        -0.047757,
        0.003995,
        0.157705,
        -0.022171,
        -0.004539,
        0.033632,
        -0.213293,
        0.119693,
        0,
        0.174583,
        0.200826,
        0.104419,
        -0.037997,
        0.206757,
        0.103572,
        -0.007848,
        -0.236225,
        0.165667,
        0.0403,
        -0.212555,
        -0.227441,
        0.224978,
        -0.153546,
        -0.106046,
        0.199936,
        -0.050868,
        0.096788,
        -0.104257,
        0.004138,
        -0.173171,
        0.212456,
        0.183774,
        0,
        0.081365,
        -0.132508,
        0.136947,
        0.22743,
        0.092353,
        0.206036,
        -0.130075,
        0.248857,
        -0.224243,
        -0.213757,
        -0.226951,
        0.182953,
        0.22492,
        -0.181925,
        0.186824,
        -0.069175,
        0.229574,
        -0.170789,
        0.022548,
        0.039496,
        -0.090951,
        -0.243852,
        0.118426,
        0
      ],
      "bias": [
        0.026286,
        -0.00458,
        0.058062,
        -0.09044,
        0.002659,
        0.078026,
        0.063363,
        0.000505,
        -0.077891,
        -0.050218,
        0.082246,
        0.063452,
        0.025325,
        0.022522,
        0.058576,
        -0.098675
      ]
    },
    {
      "activation": "tanh",
      "weights": [
        0.175583,
        -0.145526,
        0.107221,
        -0.136271,
        0.060702,
        -0.059813,
        -0.164017,
        -0.015636,
        0.144283,
        -0.121147,
        0.052841,
        0.116702,
        0.158101,
        -0.091326,
        0.106319,
        -0.008672,
        0.021589,
        0.191028,
        0.032957,
        -0.189644,
        0.039522,
        0.017818,
        0.140342,
        0.164347,
        0.009462,
        -0.154225,
        -0.059472,
        0.104308,
        0.145219,
        -0.061039,
        -0.009896,
        0.000014,
        0.02258,
        -0.099272,
        -0.106856,
        -0.084085,
        -0.146446,
        -0.123621,
        -0.176695,
        -0.064137,
        0.095375,
        -0.092217,
        -0.178689,
        0.167927,
        -0.099467,
        0.02119,
        0.024078,
        -0.139473,
        -0.185941,
        0.129504,
        -0.118268,
        -0.038851,
        -0.175665,
        0.130257,
        0.118765,
        -0.051107,
        -0.026341,
        -0.119468,
        0.095586,
        -0.127908,
        0.034841,
        0.030097,
        0.126704,
        -0.177739,
        0.060047,
        -0.006012,
        0.011813,
        -0.024369,
        0.10817,
        -0.154211,
        -0.063994,
        0.033498,
        -0.043032,
        -0.187119,
        -0.004609,
        0.192662,
        0.106206,
        -0.045125,
        -0.095663,
        -0.122808,
        -0.121922,
        -0.093486,
        0.14062,
        0.162759,
        0.121131,
        -0.133731,
        -0.115299,
        -0.075186,
        0.123969,
        0.111891,
        0.009403,
        -0.158172,
        0.044957,
        0.024165,
        -0.12378,
        0.08487,
        -0.135796,
        0.100121,
        -0.005474,
        0.024762,
        -0.035946,
        0.136942,
        -0.100084,
        -0.011942,
        0.144346,
        0.067828,
        -0.092059,
        -0.006896,
        -0.021314,
        0.031066,
        -0.100511,
        0.097426,
        -0.082009,
        -0.046449,
        -0.005954,
        -0.112304,
        -0.15246,
        -0.169995,
        0.067105,
        -0.056475,
        -0.096202,
        -0.020841,
        -0.032035,
        -0.193662,
        0.057255,
        -0.141872,
        -0.005831,
        -0.115432,
        -0.132478,
        0.116248,
        0.078833,
        0.026444,
        -0.083044,
        -0.130388,
        -0.152886,
        -0.008413,
        0.129041,
        0.077555,
        0.198074,
        -0.0473,
        -0.122213,
        0.002353,
        -0.031823,
        0.058583,
        0.094394,
        -0.16664,
        0.132683,
        0.189719,
        0.077437,
        -0.143134,
        0.101181,
        -0.062307,
        -0.187194,
        -0.147108,
        -0.036491,
        0.139694,
        -0.090326,
        0.100197,
        -0.157681,
        0.199335,
        0,
        0,
        0,
        0,
        0,
        0,
        0,
        0,
        0,
        0,
        0,
        0,
        0,
        0,
        0,
        0
      ],
      "bias": [
        0.03968,
        -0.032316,
        0.002133,
        -0.018735,
        -0.04528,
        0.048706,
        -0.021017,
        -0.020657,
        0.00971,
        0.044561,
        0
      ]
    }
  ],
  "meta": {
    "name": "Backpack",
    "slug": "backpack",
    "inputs": 24,
    "outputs": 11,
    "placeholder": true
  }
}
