{
  "input": 24,
  "normalization": {
    "mean": [
      0,
      0,
      0,
      0,
      0,
      0,
      0,
      0,
      0,
      0,
      0,
      0,
      0,
      0,
      0,
      0,
      0,
      0,
      0,
      0,
      0,
      0,
      0,
      0
    ],
    "std": [
      1,
      1,
      1,
      1,
      1,
      1,
      1,
      1,
      1,
      1,
      1,
      1,
      1,
      1,
      1,
      1,
      1,
      1,
      1,
      1,
      1,
      1,
      1,
      1
    ]
  },
  "layers": [
    {
      "activation": "relu",
      "weights": [
        0.07524382323026657,
        0.06799609214067459,
        -0.3389107882976532,
        0.10085387527942657,
        0.11744119226932526,
        -0.28685125708580017,
        -0.26838651299476624,
        0.2898366451263428,
        -0.2265480011701584,
        -0.1900966465473175,
        0.2909354865550995,
        -0.29860740900039673,
        0.23540709912776947,
        -0.17037610709667206,
        -0.11834026128053665,
        -0.20792922377586365,
        0.29815441370010376,
        0.2731480300426483,
        0.23946057260036469,
        -0.12170201539993286,
        -0.1935124546289444,
        -0.0638534277677536,
        -0.16499200463294983,
        -0.26081445813179016,
        -0.020685043185949326,
        -0.1905020773410797,
        -0.15580588579177856,
        -0.29010382294654846,
        0.11872651427984238,
        -0.3268921971321106,
        -0.19771550595760345,
        0.08677498251199722,
        -0.3264530897140503,
        0.11054994910955429,
        0.3359047472476959,
        0.16428470611572266,
        -0.10942773520946503,
        -0.0019670359324663877,
        -0.20594437420368195,
        -0.07157205045223236,
        -0.22516165673732758,
        -0.11591903120279312,
        -0.19365236163139343,
        0.07465925067663193,
        0.10756663233041763,
        -0.015022850595414639,
        -0.02084922231733799,
        0.285174161195755,
        0.2512732148170471,
        -0.34294307231903076,
        -0.26024243235588074,
        -0.2600753903388977,
        0.13393186032772064,
        0.2668670415878296,
        0.029306065291166306,
        0.24119916558265686,
        0.25638267397880554,
        -0.2591114044189453,
        -0.15846000611782074,
        0.08719241619110107,
        0.21597090363502502,
        -0.026282047852873802,
        -0.15089072287082672,
        -0.16718260943889618,
        0.16366884112358093,
        -0.012540495954453945,
        0.19693349301815033,
        -0.3487233817577362,
        -0.22521336376667023,
        0.0024091568775475025,
        0.14385685324668884,
        0.31548944115638733,
        0.1482275128364563,
        -0.013484683819115162,
        0.22993727028369904,
        0.16900528967380524,
        0.235371932387352,
        -0.09959422051906586,
        0.2072257250547409,
        -0.1686946302652359,
        -0.213020920753479,
        0.004191263113170862,
        -0.3386836051940918,
        0.1382506787776947,
        -0.2350485473871231,
        -0.2695378363132477,
        -0.33252421021461487,
        -0.23642128705978394,
        -0.29430603981018066,
        0.3145247995853424,
        0.15866495668888092,
        0.1936851441860199,
        0.13232535123825073,
        -0.06492912769317627,
        -0.20332500338554382,
        -0.20922747254371643,
        -0.24485856294631958,
        0.055979546159505844,
        -0.3163215219974518,
        0.1308530569076538,
        0.07366350293159485,
        0.04786355048418045,
        0.3296978771686554,
        -0.28304198384284973,
        0.2361290007829666,
        0.31370246410369873,
        0.26241955161094666,
        0.27043473720550537,
        0.2978340685367584,
        -0.28742271661758423,
        -0.2306520789861679,
        0.19535735249519348,
        -0.2898460030555725,
        0.33667701482772827,
        -0.13663090765476227,
        -0.2775508463382721,
        0.3092154860496521,
        -0.027062317356467247,
        -0.14791828393936157,
        0.3115762770175934,
        0.011610932648181915,
        -0.2660073935985565,
        -0.2953752875328064,
        -0.3158295750617981,
        0.1587062031030655,
        -0.20889835059642792,
        -0.12879183888435364,
        0.013128296472132206,
        0.09684154391288757,
        -0.21233472228050232,
        -0.30063825845718384,
        0.2467474639415741,
        0.19324716925621033,
        -0.07575102895498276,
        0.3123100697994232,
        0.03165493905544281,
        -0.19827896356582642,
        -0.02968727983534336,
        -0.2871115207672119,
        -0.025624578818678856,
        -0.0010247125755995512,
        -0.24411213397979736,
        0.25199028849601746,
        0.345713347196579,
        0.2651575803756714,
        0.14451797306537628,
        -0.016833147034049034,
        -0.32417675852775574,
        -0.3138720393180847,
        -0.26285454630851746,
        0.2362074851989746,
        0.2003902643918991,
        0.07647200673818588,
        -0.2699849605560303,
        0.09680713713169098,
        -0.06016135215759277,
        0.3054995834827423,
        0.27397724986076355,
        -0.27929559350013733,
        0.22187691926956177,
        0.011481929570436478,
        0.24904963374137878,
        -0.0007792962715029716,
        -0.0722787082195282,
        0.24742962419986725,
        0.282317578792572,
        0.1819862276315689,
        0.16986066102981567,
        0.25280430912971497,
        0.1994304358959198,
        -0.09930890798568726,
        0.21547925472259521,
        0.13745509088039398,
        0.02667834423482418,
        -0.06432370841503143,
        0.20736858248710632,
        -0.025946369394659996,
        0.1576506346464157,
        0.05692114308476448,
        -0.22245903313159943,
        -0.2798691689968109,
        -0.05156398564577103,
        -0.2698207199573517,
        -0.04444751888513565,
        -0.2504032254219055,
        0.03457712382078171,
        -0.22916799783706665,
        -0.071523517370224,
        0.26642170548439026,
        0.020331991836428642,
        0.24069391191005707,
        0.275265634059906,
        -0.02944348193705082,
        0.3251173496246338,
        0.2209799736738205,
        0.07975339144468307,
        0.3252149522304535,
        0.32369837164878845,
        0.15955135226249695,
        -0.10591613501310349,
        0.19951283931732178,
        -0.06452609598636627,
        -0.024701762944459915,
        0.25959786772727966,
        -0.026036154478788376,
        -0.24686074256896973,
        -0.128095805644989,
        0.10027756541967392,
        0.3376455008983612,
        0.20441235601902008,
        -0.07116757333278656,
        -0.23139193654060364,
        -0.27636027336120605,
        0.2327956259250641,
        -0.058477919548749924,
        -0.03416610136628151,
        0.31368082761764526,
        -0.11134401708841324,
        -0.203939288854599,
        0.2724464535713196,
        -0.14000457525253296,
        0.03586940839886665,
        0.09706450253725052,
        0.18450279533863068,
        -0.22424466907978058,
        -0.2334846705198288,
        0.006133945658802986,
        0.23663587868213654,
        -0.3309542238712311,
        -0.0795363113284111,
        -0.30659517645835876,
        -0.08843191713094711,
        0.26472583413124084,
        0.060655273497104645,
        -0.03583209216594696,
        -0.30531206727027893,
        0.08638656884431839,
        0.11545250564813614,
        0.041062917560338974,
        0.012043802998960018,
        -0.04261266812682152,
        0.029668444767594337,
        -0.2845005989074707,
        0.2636517584323883,
        0.25084152817726135,
        0.04701673611998558,
        0.14570026099681854,
        -0.240108460187912,
        -0.1644659787416458,
        0.3243354260921478,
        -0.29054173827171326,
        0.004895671736449003,
        -0.22090677917003632,
        0.19973699748516083,
        -0.13965867459774017,
        0.045373957604169846,
        -0.3145598769187927,
        0.3407987952232361,
        0.25423163175582886,
        0.031086381524801254,
        0.20154622197151184,
        -0.005051497835665941,
        0.2349282205104828,
        -0.22573192417621613,
        0.1080896183848381,
        0.2382766753435135,
        0.042864300310611725,
        -0.13340182602405548,
        -0.33155375719070435,
        -0.035047512501478195,
        0.23432058095932007,
        0.3147140145301819,
        0.009943204931914806,
        -0.2369113564491272,
        0.055235013365745544,
        0.16310979425907135,
        0.22112438082695007,
        0.07023174315690994,
        0.327564537525177,
        -0.318320095539093,
        -0.08229856193065643,
        -0.1701890379190445,
        0.2762514650821686,
        0.14785268902778625,
        0.1120232567191124,
        0.24190562963485718,
        0.21551351249217987,
        -0.3353211581707001,
        -0.23722389340400696,
        -0.29735925793647766,
        -0.26811742782592773,
        0.11703285574913025,
        0.3054841458797455,
        -0.234566330909729,
        0.1597745567560196,
        0.240289568901062,
        0.0650288537144661,
        0.17482559382915497,
        0.032760150730609894,
        -0.28098264336586,
        0.21333852410316467,
        -0.17719556391239166,
        0.008140995167195797,
        -0.30844900012016296,
        0.16459156572818756,
        0.14359425008296967,
        0.03584115207195282,
        0.10501313954591751,
        -0.044966794550418854,
        0.30875125527381897,
        -0.09285929054021835,
        -0.2732524275779724,
        0.14179246127605438,
        -0.19001848995685577,
        -0.330043226480484,
        -0.017105426639318466,
        -0.17208527028560638,
        -0.24509330093860626,
        0.054418716579675674,
        0.0062486594542860985,
        -0.30709657073020935,
        0.30165866017341614,
        0.23156481981277466,
        -0.09154754132032394,
        0.2252400815486908,
        0.006096856668591499,
        0.07394301146268845,
        0.1197860911488533,
        0.24958497285842896,
        -0.20813032984733582,
        0.345444917678833,
        -0.29614555835723877,
        0.3139369487762451,
        0.3271334171295166,
        0.24581210315227509,
        -0.17366106808185577,
        -0.03627778962254524,
        0.13909384608268738,
        0.33882737159729004,
        0.17516092956066132,
        0.011581018567085266,
        0.16473565995693207,
        -0.21942657232284546,
        0.2696669101715088,
        -0.12427865713834763,
        -0.13791052997112274,
        0.06315694749355316,
        0.000502794748172164,
        -0.09028984606266022,
        -0.20499001443386078,
        0.21392592787742615,
        0.24644139409065247,
        -0.24939914047718048,
        -0.2898732125759125,
        0.13451914489269257,
        -0.30452626943588257,
        0.104819655418396,
        0.221019446849823,
        0.2941645681858063,
        0.2503201365470886,
        -0.07216484099626541,
        0.04569815844297409,
        -0.2557748854160309,
        0.14558285474777222,
        -0.2651064991950989,
        0.0868670791387558,
        -0.2144494503736496,
        -0.0318644754588604,
        -0.01580282673239708,
        0.25105762481689453,
        0.24207466840744019,
        -0.194221630692482,
        -0.18843123316764832,
        0.16276471316814423,
        -0.2919008135795593,
        0.04511912539601326,
        -0.0896914005279541,
        0.24520154297351837,
        -0.05979384854435921,
        0.2363724261522293,
        0.3473833203315735,
        -0.13661307096481323,
        -0.3357893228530884,
        0.2493174970149994
      ],
      "bias": [
        -0.0680784210562706,
        0.008306511677801609,
        0.0035597889218479395,
        -0.24568158388137817,
        -0.11299152672290802,
        0.21286390721797943,
        -0.16137346625328064,
        0.006633952725678682,
        0.15050092339515686,
        -0.1536581814289093,
        -0.16860581934452057,
        -0.023341093212366104,
        -0.05456791818141937,
        0.16379092633724213,
        0.055621396750211716,
        0.19106261432170868
      ]
    },
    {
      "activation": "tanh",
      "weights": [
        0.11766765266656876,
        0.23002992570400238,
        -0.1579328328371048,
        -0.15026772022247314,
        0.21526876091957092,
        0.02872120589017868,
        -0.24927261471748352,
        -0.2982957363128662,
        0.20977123081684113,
        0.3107914328575134,
        -0.22109943628311157,
        -0.1741742491722107,
        0.313330739736557,
        0.023510904982686043,
        0.21578654646873474,
        -0.04976664483547211,
        0.18258440494537354,
        -0.24130378663539886,
        -0.13353896141052246,
        -0.3127557933330536,
        -0.3003121614456177,
        0.05348391458392143,
        0.11152785271406174,
        -0.2832143306732178,
        0.3442310392856598,
        -0.2888292968273163,
        -0.054791517555713654,
        -0.10206741094589233,
        -0.31154999136924744,
        -0.31474700570106506,
        0.09242523461580276,
        0.042082082480192184,
        0.10084839910268784,
        -0.2155413031578064,
        -0.053222931921482086,
        0.05659014731645584,
        0.0730924904346466,
        0.06579478085041046,
        -0.11682916432619095,
        -0.17053081095218658,
        0.20638571679592133,
        0.3053189516067505,
        0.16182193160057068,
        0.11005208641290665,
        -0.24168425798416138,
        -0.11594275385141373,
        0.0297233909368515,
        -0.11769556999206543,
        -0.0044290898367762566,
        0.2983240783214569,
        0.11596829444169998,
        0.2528298497200012,
        -0.21354809403419495,
        -0.05131738632917404,
        0.17805352807044983,
        0.25243130326271057,
        0.03939922899007797,
        0.297750860452652,
        -0.15733486413955688,
        0.03151416778564453,
        -0.18993425369262695,
        0.27565786242485046,
        -0.132228285074234,
        0.08554227650165558,
        0.2826087772846222,
        -0.17012879252433777,
        0.17779958248138428,
        0.17595523595809937,
        -0.16137132048606873,
        0.1521456092596054,
        -0.04266824200749397,
        -0.1700870394706726,
        -0.03309035673737526,
        -0.19376127421855927,
        -0.06702354550361633,
        -0.3416541516780853,
        0.22981072962284088,
        0.2049981951713562,
        0.10071640461683273,
        -0.025632254779338837,
        0.3440731465816498,
        0.32506731152534485,
        0.18472358584403992,
        -0.2088761031627655,
        -0.04601134732365608,
        0.2571333348751068,
        0.12871624529361725,
        0.159115269780159,
        -0.162030890583992,
        -0.1874241977930069,
        0.1080518588423729,
        -0.15324734151363373,
        0.3290722966194153,
        0.1032937616109848,
        0.22054722905158997,
        0.3399842083454132,
        -0.2769898772239685,
        -0.11740642040967941,
        -0.14836278557777405,
        -0.2843782603740692,
        0.23400332033634186,
        0.03201010078191757,
        0.006318140309303999,
        0.1287328004837036,
        0.344903826713562,
        -0.24370914697647095,
        -0.18088190257549286,
        -0.1612895429134369,
        -0.3239794969558716,
        0.052330292761325836,
        -0.3330065608024597,
        0.3358280658721924,
        0.3442436754703522,
        0.018095610663294792,
        -0.11007393151521683,
        0.1190786138176918,
        0.1342647820711136,
        -0.0896548181772232,
        0.04716634005308151,
        -0.06776876747608185,
        0.2272544652223587,
        -0.3002549111843109,
        0.16304925084114075,
        -0.1073555126786232,
        0.16774284839630127,
        -0.33031782507896423,
        -0.2603994309902191,
        0.22624599933624268,
        0.05159275233745575,
        0.2504405379295349,
        0.1060619205236435,
        0.22975581884384155,
        0.27626848220825195,
        -0.009558354504406452,
        -0.08678903430700302,
        -0.25170716643333435,
        -0.0013378781732171774,
        -0.1843651682138443,
        -0.19470442831516266,
        -0.005955453962087631,
        0.07591235637664795,
        -0.21127896010875702,
        -0.10463165491819382,
        -0.1788506954908371,
        0.19737957417964935,
        -0.02925613336265087,
        -0.21400101482868195,
        0.2512023150920868,
        -0.09394434839487076,
        -0.09499359130859375,
        -0.006415326148271561,
        0.2409546971321106,
        0.3093492388725281,
        0.21315431594848633,
        0.24088792502880096,
        0.17967715859413147,
        -0.12171771377325058,
        0.09858088195323944,
        0.12968941032886505,
        0.246855691075325,
        -0.09459135681390762,
        -0.27451515197753906,
        -0.020205466076731682,
        -0.01034869160503149,
        -0.1585971564054489,
        0.3406240940093994,
        0.25917568802833557,
        0.26275157928466797,
        -0.2243383228778839,
        -0.024282537400722504,
        0.13459068536758423,
        -0.030571985989809036,
        -0.22520877420902252,
        0.3237870931625366,
        -0.24931403994560242,
        -0.10212679207324982
      ],
      "bias": [
        -0.24509583413600922,
        -0.04712319374084473,
        -0.18120048940181732,
        0.1292952597141266,
        0.046835388988256454,
        -0.22667942941188812,
        0.034762684255838394,
        0.07050950825214386,
        -0.21093420684337616,
        -0.2220291644334793,
        -0.0586983859539032
      ]
    }
  ],
  "meta": {
    "name": "Binary Mirage",
    "slug": "binary-mirage",
    "inputs": 24,
    "outputs": 11,
    "placeholder": true,
    "generated": "2025-10-21T20:39:51.392Z"
  }
}
