{
  "input": 24,
  "normalization": {
    "mean": [
      -0.0006744330166839063,
      0.009258831851184368,
      -0.0035666138865053654,
      -0.017357798293232918,
      -0.009764149785041809,
      0.4989035725593567,
      0.5043642520904541,
      0.5001401305198669,
      0.49702510237693787,
      0.004625546745955944,
      -0.00464768148958683,
      -0.017007796093821526,
      -0.0071016475558280945,
      -0.009492633864283562,
      -0.0003246827400289476,
      0.0046281772665679455,
      0.00631452351808548,
      0.014802150428295135,
      -0.0004335078992880881,
      0.005391580518335104,
      0.5011443495750427,
      0.4947656989097595,
      0.5020264983177185,
      0.4986257553100586
    ],
    "std": [
      0.5771369338035583,
      0.5763019919395447,
      0.577831506729126,
      0.5770867466926575,
      0.5808936953544617,
      0.28829512000083923,
      0.29181918501853943,
      0.29058751463890076,
      0.2851431369781494,
      0.5789691805839539,
      0.5758361220359802,
      0.5792779922485352,
      0.5740231871604919,
      0.5754432678222656,
      0.5717616677284241,
      0.5736448764801025,
      0.5782801508903503,
      0.5780126452445984,
      0.5805174112319946,
      0.5725420713424683,
      0.2897292375564575,
      0.2859085500240326,
      0.28689223527908325,
      0.28609713912010193
    ]
  },
  "layers": [
    {
      "activation": "relu",
      "weights": [
        0.36433473229408264,
        0.04059523344039917,
        -0.34644815325737,
        0.05810089409351349,
        0.08468160033226013,
        -0.04209604486823082,
        -0.11987058818340302,
        -0.04233598709106445,
        -0.012459301389753819,
        -0.03248155489563942,
        -0.0968102291226387,
        -0.017190594226121902,
        0.12184596806764603,
        -0.09248265624046326,
        -0.10120642185211182,
        0.034159816801548004,
        -0.06317443400621414,
        -0.035059425979852676,
        -0.005016027949750423,
        0.15648964047431946,
        0.012852691113948822,
        -0.11731598526239395,
        -0.02545604668557644,
        -0.2931027412414551,
        -0.9110045433044434,
        -0.002847330179065466,
        0.006352708674967289,
        0.003630279563367367,
        0.0054402281530201435,
        0.0023406248074024916,
        -0.0010942763183265924,
        0.002420602599158883,
        0.007743655238300562,
        -0.001779617858119309,
        0.0023133240174502134,
        0.00248052179813385,
        -0.0007144190603867173,
        -0.003588403109461069,
        -0.00039538118289783597,
        -0.0024489378556609154,
        0.001740476698614657,
        -0.0011998697882518172,
        -0.0019964873790740967,
        0.0006114979041740298,
        -0.0009738376247696579,
        0.004435551818460226,
        -0.004799884278327227,
        -0.004024911671876907,
        -0.33128854632377625,
        -0.35287153720855713,
        -0.27786797285079956,
        -0.06231718882918358,
        0.055297937244176865,
        -0.11087067425251007,
        -0.008438958786427975,
        -0.0373871885240078,
        0.04269000142812729,
        0.023172685876488686,
        0.07148342579603195,
        -0.11746342480182648,
        -0.004309538751840591,
        0.14675718545913696,
        -0.03392016142606735,
        -0.07519034296274185,
        0.048430610448122025,
        0.1045912355184555,
        0.09306725114583969,
        -0.020780449733138084,
        0.05279677361249924,
        0.07326729595661163,
        0.1317020058631897,
        -0.15160460770130157,
        0.5451228618621826,
        -0.4409545958042145,
        -0.4731448292732239,
        0.00036343978717923164,
        -0.000665924686472863,
        0.008303518407046795,
        0.005278007127344608,
        -0.0020249022636562586,
        -0.001019112067297101,
        -0.008035375736653805,
        -0.003159120911732316,
        -0.0012401773128658533,
        0.0027326506096869707,
        0.0014854342443868518,
        0.007153411395847797,
        -0.006806482095271349,
        -0.004121935926377773,
        0.004606087692081928,
        0.00022520430502481759,
        0.006665943190455437,
        -0.0005264280480332673,
        -0.003095655469223857,
        0.020409518852829933,
        0.3844543993473053,
        0.8682777881622314,
        0.0004524851683527231,
        -0.002088631968945265,
        0.0025496874004602432,
        0.003403690177947283,
        -0.0009757252410054207,
        -0.00011923442798433825,
        0.003217986086383462,
        -0.002999610733240843,
        -0.005333809182047844,
        0.002209641505032778,
        0.00006729493179591373,
        0.00268727564252913,
        0.0040763746947050095,
        0.0012910363730043173,
        0.002943341853097081,
        -0.0014879765221849084,
        0.0011781810317188501,
        -0.0004997308133170009,
        0.0006978405290283263,
        0.0012520698364824057,
        -0.0005913640488870442,
        0.0008264951757155359,
        -0.0009185051312670112,
        0.4053528904914856,
        -0.29339128732681274,
        -0.34171172976493835,
        0.00837027933448553,
        -0.004940350539982319,
        -0.016603289172053337,
        0.0022557172924280167,
        0.009548597037792206,
        0.0058137597516179085,
        0.015937602147459984,
        0.011808638460934162,
        -0.005700905341655016,
        0.0015115205897018313,
        -0.0013786869822070003,
        -0.015251477248966694,
        0.015026153065264225,
        0.015773657709360123,
        -0.009854931384325027,
        0.01556441094726324,
        -0.011220203712582588,
        0.004182532429695129,
        0.012620851397514343,
        -0.0300967525690794,
        0.2854832112789154,
        -0.28493648767471313,
        0.022372890263795853,
        0.009183056652545929,
        0.004762080032378435,
        -0.006621369160711765,
        0.0004473717126529664,
        0.01958320289850235,
        -0.0002216495922766626,
        0.002534047933295369,
        0.006665016524493694,
        0.000959654978942126,
        -0.010387727059423923,
        0.009934923611581326,
        0.008676695637404919,
        -0.006425654049962759,
        0.0024600615724921227,
        0.012741702608764172,
        0.00170713453553617,
        0.019458023831248283,
        -0.003181737381964922,
        0.004361267667263746,
        0.007220988627523184,
        -0.000834537495393306,
        0.34813228249549866,
        0.005328955128788948,
        0.0017700344324111938,
        1.2283587455749512,
        -0.0027294692117720842,
        -0.006479993462562561,
        0.0027021998539566994,
        0.00880925077944994,
        0.0029546748846769333,
        0.007797062862664461,
        0.0019944445230066776,
        -0.0059092105366289616,
        0.0002746251120697707,
        -0.0009167405660264194,
        -0.0014144200831651688,
        -0.004152800887823105,
        0.0029047890566289425,
        0.00677761435508728,
        0.0035828459076583385,
        0.004457641392946243,
        0.0029314716812223196,
        0.0069131264463067055,
        0.0017807447584345937,
        0.0016141538508236408,
        0.0025452084373682737,
        0.4051089286804199,
        0.9877844452857971,
        0.012668012641370296,
        -0.0007147773285396397,
        0.004858491476625204,
        0.0014064792776480317,
        -0.005692767910659313,
        -0.006142166908830404,
        -0.005019940435886383,
        -0.001262619742192328,
        0.004163081757724285,
        -0.0020489171147346497,
        -0.004322336055338383,
        0.0069883642718195915,
        0.006952258292585611,
        -0.002047069137915969,
        0.0022439162712544203,
        0.0010207627201452851,
        -0.007765144109725952,
        -0.002336318837478757,
        -0.004863631445914507,
        -0.004131361376494169,
        -0.00783727876842022,
        0.24064676463603973,
        0.03172795847058296,
        -0.1818261593580246,
        0.2752351760864258,
        -0.0003217950288672,
        0.004274330567568541,
        0.0014282644260674715,
        -0.005441050976514816,
        -0.008279824629426003,
        -0.01051330380141735,
        -0.0007674356456845999,
        0.003868194529786706,
        -0.0016819078009575605,
        -0.0014623444294556975,
        0.002531356643885374,
        0.009207009337842464,
        -0.0026152441278100014,
        -0.002105254679918289,
        -0.0038599034305661917,
        -0.0069054728373885155,
        0.00032535174977965653,
        -0.005099682603031397,
        -0.004312907811254263,
        0.0012680317740887403,
        0.23097309470176697,
        0.24711854755878448,
        -0.010006044991314411,
        0.013646179810166359,
        0.007748371455818415,
        -0.003425618400797248,
        0.004630519542843103,
        0.010680646635591984,
        -0.0036704184021800756,
        -0.0025090104900300503,
        0.007118741981685162,
        0.009485544636845589,
        -0.004864763468503952,
        0.008529327809810638,
        0.0069961994886398315,
        -0.002382026519626379,
        -0.00005513507858267985,
        0.0004929753486067057,
        -0.00009255321492673829,
        0.013751368969678879,
        -0.004835993982851505,
        -0.00033438202808611095,
        0.004568851087242365,
        0.0027937465347349644,
        -0.39602333307266235,
        0.0026062114629894495,
        0.0015997259179130197,
        -1.043196678161621,
        0.0013069265987724066,
        -0.004093410447239876,
        0.006340937223285437,
        0.00047493583406321704,
        0.0007583250990137458,
        -0.00010621150431688875,
        -0.0050692022778093815,
        -0.002367410808801651,
        0.002302305307239294,
        0.0018568679224699736,
        -0.0008128580520860851,
        -0.0009897054405882955,
        0.003734023543074727,
        0.002504961797967553,
        -0.001047361409291625,
        0.001098480774089694,
        -0.0020339644979685545,
        -0.007440331857651472,
        0.0037503812927752733,
        0.0015048242639750242,
        0.0014429184375330806,
        -0.011259758844971657,
        -0.0007636636146344244,
        -0.7540141344070435,
        0.0008693963754922152,
        0.005287440028041601,
        0.0019708590116351843,
        -0.005529900547116995,
        -0.0050294054672122,
        -0.008419238962233067,
        0.0012548650847747922,
        0.007390041369944811,
        -0.0010129157453775406,
        -0.003183547640219331,
        0.003316337475553155,
        0.004348204005509615,
        -0.0011630533263087273,
        -0.0028668062295764685,
        -0.002952704206109047,
        -0.006171782035380602,
        -0.001559368334710598,
        -0.006566491909325123,
        -0.0022615271154791117,
        -0.0022221326362341642,
        -0.004314307123422623,
        0.22083312273025513,
        -0.18396267294883728,
        0.369314044713974,
        -0.09402114152908325,
        0.10123336315155029,
        0.09441646188497543,
        -0.015674076974391937,
        0.16949962079524994,
        0.19065845012664795,
        0.19266775250434875,
        -0.0009193448349833488,
        -0.24950996041297913,
        -0.0731765553355217,
        0.048090651631355286,
        -0.10709720104932785,
        -0.043900951743125916,
        -0.09212791919708252,
        0.11150895059108734,
        -0.06301450729370117,
        -0.18901361525058746,
        -0.13054189085960388,
        0.06261635571718216,
        0.05565444752573967,
        0.19091807305812836,
        -0.572998046875,
        0.44428732991218567,
        0.5001501441001892,
        0.0004772830870933831,
        0.0018433176446706057,
        -0.002894543344154954,
        -0.004609309136867523,
        0.0009826211025938392,
        -0.0019224081188440323,
        0.0014862311072647572,
        0.0028783311136066914,
        0.0038440243806689978,
        -0.004680149722844362,
        0.0006556016742251813,
        0.000934307579882443,
        -0.00021176185691729188,
        -0.0026153360959142447,
        0.0012489815708249807,
        -0.00546689797192812,
        -0.001007570419460535,
        -0.0034581266809254885,
        -0.0012963736662641168,
        -0.0021300839725881815,
        -0.4034775197505951,
        -0.34161168336868286,
        -0.9204481840133667,
        -0.005075762514024973,
        0.0025870774406939745,
        -0.0031726330053061247,
        0.0030747547280043364,
        0.008959505707025528,
        0.003486623987555504,
        0.005997589323669672,
        -0.0028312515933066607,
        -0.006369792856276035,
        0.0027819089591503143,
        0.002851005643606186,
        -0.00858365185558796,
        -0.005738763604313135,
        0.0007958281203173101,
        -0.004277022555470467,
        0.0005882710102014244,
        0.005996150895953178,
        0.002646416425704956,
        0.0019604885019361973,
        -0.0006287144497036934,
        0.004310309421271086,
        -0.20675165951251984
      ],
      "bias": [
        -0.04009203240275383,
        -0.9987295269966125,
        0.028336962684988976,
        -0.0031262857373803854,
        -0.9552590847015381,
        -0.007031427696347237,
        1.0631321668624878,
        -1.35456383228302,
        0.20562545955181122,
        1.1877589225769043,
        1.049983263015747,
        -1.14212167263031,
        0.8285267353057861,
        0.07600168138742447,
        0.0026297960430383682,
        -0.28199031949043274
      ]
    },
    {
      "activation": "tanh",
      "weights": [
        -0.00029767025262117386,
        -0.00418710894882679,
        -0.00440590875223279,
        -0.11434619873762131,
        0.0005136408726684749,
        -0.0242858175188303,
        -0.05734812095761299,
        1.1974458694458008,
        0.025545980781316757,
        0.43965616822242737,
        0.09996142238378525,
        -0.9913680553436279,
        -0.5868028402328491,
        0.0011415681801736355,
        0.12728093564510345,
        -0.028440453112125397,
        -0.0005735672893933952,
        -1.1431105136871338,
        -0.009203925728797913,
        0.4391287565231323,
        1.1697183847427368,
        0.21775008738040924,
        -0.40915414690971375,
        0.2456045150756836,
        0.2581164836883545,
        -0.07767020910978317,
        0.33471253514289856,
        0.004798137582838535,
        -0.397993803024292,
        0.002798234112560749,
        -0.5673565864562988,
        -0.2871243953704834,
        0.28730612993240356,
        0.07083059847354889,
        0.03524235263466835,
        0.008656169287860394,
        -0.16652941703796387,
        0.0393342450261116,
        0.11536388099193573,
        -0.05685143545269966,
        -0.18840956687927246,
        0.2577158808708191,
        -0.12698417901992798,
        0.12755222618579865,
        0.3260883092880249,
        0.16940292716026306,
        0.3192541003227234,
        -0.23081734776496887,
        -0.2231665551662445,
        0.12232547253370285,
        0.2636640667915344,
        0.16897065937519073,
        0.27230289578437805,
        -0.020949753001332283,
        -0.27594396471977234,
        0.013597742654383183,
        0.23899145424365997,
        -0.07361669838428497,
        0.11018653213977814,
        -0.19341930747032166,
        0.1430087387561798,
        -0.3497304618358612,
        0.19302046298980713,
        0.09036262333393097,
        0.10073522478342056,
        0.1861085146665573,
        -0.041702866554260254,
        0.015542764216661453,
        0.11175602674484253,
        0.24774135649204254,
        0.07481730729341507,
        -0.057563140988349915,
        0.3241858184337616,
        -0.3534418046474457,
        -0.19071964919567108,
        -0.33718234300613403,
        0.3212992250919342,
        0.2898266911506653,
        0.12471477687358856,
        -0.0019546672701835632,
        0.005885427817702293,
        -0.0077392649836838245,
        -0.0173125471919775,
        -0.12245462089776993,
        -0.038107287138700485,
        -0.1749168038368225,
        0.14100751280784607,
        -0.018088284879922867,
        0.5360484719276428,
        -0.40099650621414185,
        -0.04990874230861664,
        0.0011871953029185534,
        0.02757434919476509,
        0.0012426123721525073,
        0.2508391737937927,
        -0.624163031578064,
        -0.13928289711475372,
        0.3390473425388336,
        -0.25019949674606323,
        -0.34002697467803955,
        0.062039632350206375,
        -0.14016693830490112,
        -0.1835150569677353,
        0.3445156216621399,
        0.2706046998500824,
        0.2833961546421051,
        0.2996218502521515,
        -0.0950772762298584,
        0.12074988335371017,
        -0.029837481677532196,
        -0.010197966359555721,
        0.165041983127594,
        -0.000288890820229426,
        -0.0041895341128110886,
        -0.004415764473378658,
        -0.11437086015939713,
        0.0005114487721584737,
        -0.024366140365600586,
        -0.05719919502735138,
        1.1973216533660889,
        0.02557504177093506,
        0.4400061070919037,
        0.10022929310798645,
        -0.9913720488548279,
        -0.5866144895553589,
        0.001144744805060327,
        0.1273619681596756,
        -0.028468884527683258,
        -0.07957588881254196,
        -0.31527179479599,
        -0.060121383517980576,
        0.34880030155181885,
        0.030779685825109482,
        0.013797609135508537,
        -0.2962011396884918,
        0.21633432805538177,
        0.23933923244476318,
        0.2657754123210907,
        0.21677784621715546,
        0.19145053625106812,
        -0.010696577839553356,
        -0.10939198732376099,
        -0.11829874664545059,
        0.19488970935344696,
        -0.3001890182495117,
        -0.2920156419277191,
        0.21811430156230927,
        -0.1642049103975296,
        0.001200008438900113,
        -0.17865736782550812,
        -0.062932088971138,
        -0.11964057385921478,
        -0.33266791701316833,
        0.24362222850322723,
        0.24974873661994934,
        0.2602856159210205,
        0.2798899710178375,
        -0.30691367387771606,
        -0.0414869524538517,
        -0.28940171003341675,
        -0.00005653596963384189,
        -0.002073249313980341,
        -0.016697222366929054,
        0.2840234935283661,
        -0.00961645320057869,
        0.11832749098539352,
        0.4953133761882782,
        0.05907943472266197,
        0.21752306818962097,
        0.37043333053588867,
        -0.6380134224891663,
        0.006430461537092924,
        -0.09592585265636444,
        0.002669100183993578,
        -0.3446565568447113,
        -0.23314842581748962
      ],
      "bias": [
        -0.08867720514535904,
        0.4418069124221802,
        0,
        0,
        0,
        0.24123725295066833,
        0,
        -0.0896964892745018,
        0,
        0,
        -0.27058807015419006
      ]
    }
  ],
  "meta": {
    "name": "Binary Mirage",
    "slug": "binary-mirage",
    "inputs": 24,
    "outputs": 11,
    "trackIndex": 4,
    "file": "binary-mirage.json",
    "trained": "2025-10-22T15:33:38.330Z",
    "training": {
      "feature": "sub",
      "featureType": "signed",
      "output": "fieldStrength",
      "orientation": "direct",
      "weight": 1,
      "epochs": 400,
      "samples": 4096,
      "learningRate": 0.01,
      "loss": 0.0019479927141219378,
      "correlation": 0.9994655847549438,
      "fitness": 0.9994655847549438,
      "mse": 0.0003662730741780251,
      "combinedFitness": 0.9981511235237122,
      "averageMse": 0.0014647963689640164,
      "correlations": [
        {
          "feature": "sub",
          "featureType": "signed",
          "output": "fieldStrength",
          "orientation": "direct",
          "weight": 1,
          "correlation": 0.9994655847549438,
          "fitness": 0.9994655847549438,
          "mse": 0.0003662730741780251
        },
        {
          "feature": "bass",
          "featureType": "signed",
          "output": "glow",
          "orientation": "direct",
          "weight": 0.5,
          "correlation": 0.9957318902015686,
          "fitness": 0.9957318902015686,
          "mse": 0.002994560170918703
        },
        {
          "feature": "trackPosition",
          "featureType": "positive",
          "output": "zoom",
          "orientation": "direct",
          "weight": 0.5,
          "correlation": 0.9951739311218262,
          "fitness": 0.9951739311218262,
          "mse": 0.003330973908305168
        },
        {
          "feature": "lowMid",
          "featureType": "signed",
          "output": "spawnRate",
          "orientation": "direct",
          "weight": 0.5,
          "correlation": 0.9995349049568176,
          "fitness": 0.9995349049568176,
          "mse": 0.0003160886699333787
        },
        {
          "feature": "lowMid",
          "featureType": "signed",
          "output": "hueShift",
          "orientation": "direct",
          "weight": 0.5,
          "correlation": 0.9995349049568176,
          "fitness": 0.9995349049568176,
          "mse": 0.0003160857886541635
        }
      ]
    }
  }
}
