{
  "input": 24,
  "normalization": {
    "mean": [
      0,
      0,
      0,
      0,
      0,
      0,
      0,
      0,
      0,
      0,
      0,
      0,
      0,
      0,
      0,
      0,
      0,
      0,
      0,
      0,
      0,
      0,
      0,
      0
    ],
    "std": [
      1,
      1,
      1,
      1,
      1,
      1,
      1,
      1,
      1,
      1,
      1,
      1,
      1,
      1,
      1,
      1,
      1,
      1,
      1,
      1,
      1,
      1,
      1,
      1
    ]
  },
  "layers": [
    {
      "activation": "relu",
      "weights": [
        -0.32039687037467957,
        0.0630517527461052,
        0.3386473059654236,
        0.11074458807706833,
        0.04486624523997307,
        -0.34559768438339233,
        0.3230312168598175,
        0.3036655783653259,
        0.14352470636367798,
        0.2850145995616913,
        0.15577200055122375,
        0.3419598937034607,
        -0.13280710577964783,
        -0.15949171781539917,
        -0.11838151514530182,
        0.07774081081151962,
        0.22020430862903595,
        -0.10967506468296051,
        -0.1572510302066803,
        -0.30262142419815063,
        0.08589527010917664,
        0.0006852656370028853,
        -0.013573459349572659,
        -0.33641549944877625,
        0.003700434695929289,
        0.10934338718652725,
        -0.11685477197170258,
        0.28964874148368835,
        -0.013333851471543312,
        -0.2892952859401703,
        -0.2507098913192749,
        -0.06907698512077332,
        0.20775596797466278,
        -0.3453218638896942,
        -0.1171741932630539,
        -0.33491793274879456,
        -0.2923597991466522,
        -0.16901452839374542,
        0.26190507411956787,
        -0.24564124643802643,
        0.2713817059993744,
        0.3034769296646118,
        0.23784254491329193,
        0.043380141258239746,
        -0.06865642219781876,
        0.22848421335220337,
        0.3468092083930969,
        0.14832429587841034,
        0.05423303693532944,
        0.011482625268399715,
        -0.169719398021698,
        -0.34833434224128723,
        0.0538037046790123,
        -0.33554041385650635,
        0.05251689255237579,
        -0.30843091011047363,
        -0.15328039228916168,
        -0.04342036694288254,
        -0.12446635216474533,
        0.29892438650131226,
        0.08171641826629639,
        -0.3449215888977051,
        -0.3106350600719452,
        -0.08021767437458038,
        0.09160513430833817,
        -0.315469354391098,
        -0.18958114087581635,
        -0.3493240773677826,
        0.15601897239685059,
        0.062045495957136154,
        -0.04845452681183815,
        -0.25588029623031616,
        -0.09933996945619583,
        -0.026057500392198563,
        -0.1971394270658493,
        -0.1841753125190735,
        -0.0006805516895838082,
        -0.33129778504371643,
        -0.3251364827156067,
        0.20900677144527435,
        0.18836045265197754,
        0.330106258392334,
        0.3163674473762512,
        0.002950462978333235,
        0.31355756521224976,
        0.14121901988983154,
        0.1605457365512848,
        0.31950271129608154,
        -0.33529728651046753,
        0.010159899480640888,
        -0.03012043610215187,
        0.29388508200645447,
        0.2536185681819916,
        0.3392799496650696,
        0.05002156272530556,
        -0.0880647525191307,
        0.18837839365005493,
        0.24233141541481018,
        0.32766395807266235,
        -0.2959894835948944,
        -0.18767836689949036,
        -0.027819864451885223,
        0.307613730430603,
        -0.04452981427311897,
        0.2245665043592453,
        -0.281528502702713,
        0.15650328993797302,
        0.17841291427612305,
        -0.3030138313770294,
        -0.22515176236629486,
        -0.04672784358263016,
        0.31648701429367065,
        0.2922433018684387,
        0.04117847979068756,
        -0.2544330358505249,
        -0.09219161421060562,
        -0.3344970941543579,
        0.2935280501842499,
        -0.11646322160959244,
        -0.09986736625432968,
        -0.20999352633953094,
        0.24492672085762024,
        -0.041139744222164154,
        -0.2985731065273285,
        -0.09431196749210358,
        0.008335871621966362,
        -0.17274580895900726,
        0.27004390954971313,
        0.013225281611084938,
        0.2878667712211609,
        -0.3013569116592407,
        0.13252049684524536,
        0.0520736388862133,
        -0.24543602764606476,
        0.26880475878715515,
        0.2639652490615845,
        0.32260018587112427,
        -0.16769088804721832,
        0.11185954511165619,
        -0.11926627159118652,
        -0.33346784114837646,
        0.11757060885429382,
        0.3155069053173065,
        0.24276460707187653,
        0.27955061197280884,
        -0.2869811952114105,
        0.24604687094688416,
        -0.28937703371047974,
        -0.27931731939315796,
        0.274603933095932,
        -0.2422214299440384,
        -0.23545190691947937,
        -0.025236019864678383,
        -0.14782263338565826,
        -0.17413270473480225,
        0.18245726823806763,
        0.015115919522941113,
        -0.1602594256401062,
        -0.15836039185523987,
        -0.06571892648935318,
        0.306500643491745,
        -0.3032069206237793,
        0.2650749087333679,
        0.29767313599586487,
        -0.09933944791555405,
        -0.009530275128781796,
        0.32649385929107666,
        -0.22637736797332764,
        -0.02167525887489319,
        0.12975655496120453,
        -0.03963937237858772,
        0.19642940163612366,
        -0.08491092175245285,
        -0.16351459920406342,
        0.19376452267169952,
        -0.21302175521850586,
        0.17275689542293549,
        0.06732406467199326,
        -0.16049054265022278,
        0.2721334993839264,
        0.04062836244702339,
        -0.20138058066368103,
        0.07726488262414932,
        0.1501898616552353,
        -0.2648843824863434,
        0.03665205091238022,
        -0.28590869903564453,
        0.29565173387527466,
        0.32355037331581116,
        -0.09316056966781616,
        0.13747628033161163,
        -0.3356800973415375,
        0.03156683221459389,
        -0.3307918310165405,
        -0.06845717877149582,
        -0.09248165041208267,
        -0.32223591208457947,
        0.16944195330142975,
        0.11719127744436264,
        0.22376945614814758,
        0.2514878809452057,
        -0.2939491271972656,
        0.34339699149131775,
        0.07684558629989624,
        0.2743522822856903,
        0.002233359729871154,
        0.3438563942909241,
        -0.34469008445739746,
        0.3274903893470764,
        0.3081076741218567,
        -0.15536168217658997,
        -0.15743835270404816,
        0.025755248963832855,
        0.1349848359823227,
        0.2092183232307434,
        0.11915207654237747,
        0.14623673260211945,
        -0.13726863265037537,
        0.03835363686084747,
        0.3191230595111847,
        -0.2431710958480835,
        0.1766308844089508,
        -0.09171048551797867,
        -0.10338656604290009,
        -0.3306569457054138,
        0.2339431494474411,
        0.2060198336839676,
        0.21023552119731903,
        -0.11697736382484436,
        -0.26199474930763245,
        0.031967271119356155,
        0.09189212322235107,
        -0.029746560379862785,
        -0.23284044861793518,
        -0.20179146528244019,
        0.1270664632320404,
        -0.1534537971019745,
        -0.05671370401978493,
        -0.20194487273693085,
        -0.21953126788139343,
        -0.19162236154079437,
        0.15401317179203033,
        0.05452745407819748,
        -0.31829431653022766,
        -0.07641555368900299,
        0.06738254427909851,
        0.27610546350479126,
        0.2496328502893448,
        -0.14813853800296783,
        0.04466390609741211,
        -0.1551666408777237,
        0.16091668605804443,
        0.34481245279312134,
        0.11981281638145447,
        -0.1678505390882492,
        -0.26538607478141785,
        0.2317807972431183,
        0.3110995888710022,
        0.29212749004364014,
        -0.09481831640005112,
        -0.31082040071487427,
        0.05023335665464401,
        -0.2997503876686096,
        -0.1097649559378624,
        0.13422228395938873,
        0.29648852348327637,
        -0.0770416259765625,
        0.25132161378860474,
        -0.22473657131195068,
        0.30209094285964966,
        0.1217709332704544,
        0.2896505296230316,
        -0.24922530353069305,
        -0.22614361345767975,
        0.3406014144420624,
        0.276319682598114,
        0.29336467385292053,
        -0.1718887835741043,
        0.126672625541687,
        0.25072038173675537,
        0.28121617436408997,
        -0.0581907220184803,
        -0.3099190890789032,
        0.15027453005313873,
        0.21357344090938568,
        0.200969859957695,
        -0.28316885232925415,
        -0.14121538400650024,
        0.18589307367801666,
        0.23401731252670288,
        -0.19093826413154602,
        -0.28968003392219543,
        -0.1351255625486374,
        0.11701201647520065,
        0.28081175684928894,
        0.07106578350067139,
        -0.25304439663887024,
        -0.2597053349018097,
        -0.2764938175678253,
        -0.24973860383033752,
        0.21776257455348969,
        -0.17109088599681854,
        -0.21920180320739746,
        -0.3424125909805298,
        0.31759971380233765,
        0.33549901843070984,
        0.2957099378108978,
        -0.2557281255722046,
        -0.2974202036857605,
        -0.1883823126554489,
        -0.292370080947876,
        0.08534722030162811,
        0.2818363308906555,
        0.07114914804697037,
        -0.06272614747285843,
        -0.2311471551656723,
        0.0052879853174090385,
        -0.17846064269542694,
        0.11479151993989944,
        -0.2577485740184784,
        -0.1518232524394989,
        0.1615905463695526,
        0.3017047643661499,
        0.21603628993034363,
        -0.2712511122226715,
        0.03941949084401131,
        0.1092873141169548,
        0.10166317224502563,
        -0.08685550838708878,
        -0.06212152540683746,
        -0.12662018835544586,
        -0.16674834489822388,
        0.21807047724723816,
        -0.04473451152443886,
        -0.1558951884508133,
        -0.21859370172023773,
        0.21511362493038177,
        0.2756842076778412,
        -0.13624198734760284,
        -0.29991385340690613,
        -0.2805948853492737,
        -0.18380002677440643,
        0.2374199777841568,
        0.023578843101859093,
        0.06690379977226257,
        -0.07792723178863525,
        -0.31376779079437256,
        0.06398160010576248,
        -0.11490143090486526,
        0.11532560735940933,
        -0.23956607282161713,
        0.06483259797096252,
        -0.04166235029697418,
        -0.12788763642311096,
        0.027466055005788803,
        -0.29088401794433594,
        0.12550222873687744,
        -0.2683248519897461,
        0.3234413266181946,
        -0.15568850934505463,
        -0.001757566467858851,
        0.09495766460895538,
        -0.2986902594566345,
        0.11739371716976166,
        0.3398439288139343,
        0.21704865992069244,
        -0.18852950632572174,
        -0.20003463327884674,
        -0.17360875010490417,
        0.03407420963048935,
        -0.14836382865905762,
        -0.3188488483428955,
        -0.32621222734451294,
        -0.1619882434606552,
        0.058205340057611465,
        0.18145759403705597,
        0.1990506649017334,
        -0.059995416551828384,
        -0.27712684869766235,
        -0.2276088148355484,
        0.32476291060447693,
        0.03390442579984665,
        0.31337663531303406,
        -0.12289398908615112
      ],
      "bias": [
        -0.18344160914421082,
        0.1318604201078415,
        0.11989112943410873,
        0.24970796704292297,
        -0.06366156786680222,
        0.02079314924776554,
        0.02556808851659298,
        0.1374094933271408,
        -0.05771474912762642,
        0.06746512651443481,
        0.0558793768286705,
        0.22536323964595795,
        0.02673458307981491,
        0.04292547330260277,
        0.027722036466002464,
        0.09505746513605118
      ]
    },
    {
      "activation": "tanh",
      "weights": [
        0.007212509401142597,
        0.2821205258369446,
        -0.13324777781963348,
        -0.15069879591464996,
        -0.27417951822280884,
        0.12939926981925964,
        -0.3210357427597046,
        -0.18400081992149353,
        0.30734604597091675,
        -0.16952402889728546,
        -0.008652083575725555,
        0.3377099931240082,
        0.34180909395217896,
        0.2694912254810333,
        0.1892111748456955,
        -0.25967875123023987,
        0.21419283747673035,
        -0.21998469531536102,
        0.06981004774570465,
        -0.3431296944618225,
        0.3270788788795471,
        -0.32374313473701477,
        -0.25484853982925415,
        0.049564946442842484,
        0.2382543981075287,
        -0.00620072428137064,
        0.3019687235355377,
        0.2642357349395752,
        0.3126068711280823,
        0.04751832038164139,
        0.12515638768672943,
        -0.282663494348526,
        0.22845318913459778,
        -0.21242308616638184,
        -0.0051163868047297,
        0.11152982711791992,
        -0.18848571181297302,
        -0.26493534445762634,
        0.2812260389328003,
        -0.05012860149145126,
        0.31359267234802246,
        -0.14183570444583893,
        -0.020335931330919266,
        0.24435730278491974,
        0.19235949218273163,
        0.14984093606472015,
        0.17375704646110535,
        0.1858782321214676,
        0.32239803671836853,
        -0.34475502371788025,
        0.15199090540409088,
        -0.17548595368862152,
        0.2124999612569809,
        0.18524949252605438,
        0.2655918598175049,
        -0.2709365785121918,
        -0.16807521879673004,
        -0.0870894193649292,
        0.046382710337638855,
        0.22003208100795746,
        0.11869396269321442,
        -0.10232951492071152,
        -0.24659819900989532,
        -0.24432982504367828,
        -0.28544870018959045,
        0.13644316792488098,
        -0.28371021151542664,
        0.3190237581729889,
        0.31924906373023987,
        -0.25988438725471497,
        0.30421000719070435,
        0.24711638689041138,
        0.06420279294252396,
        0.19490604102611542,
        0.1055847704410553,
        -0.258521169424057,
        -0.06887124478816986,
        0.22089271247386932,
        -0.32011231780052185,
        0.06385829299688339,
        0.14608964323997498,
        -0.047609709203243256,
        0.18226660788059235,
        -0.03626260533928871,
        0.07407230138778687,
        0.19263719022274017,
        0.2636833190917969,
        0.028597088530659676,
        -0.030017198994755745,
        0.07997207343578339,
        -0.052900198847055435,
        0.07427935302257538,
        0.011646416038274765,
        -0.12169409543275833,
        -0.29874125123023987,
        -0.20469097793102264,
        -0.027420327067375183,
        -0.10045497864484787,
        -0.1788121610879898,
        0.3424028158187866,
        0.3173944652080536,
        0.06342348456382751,
        0.3229970932006836,
        0.1436835080385208,
        0.06571386009454727,
        0.27340543270111084,
        0.006882331799715757,
        0.01644487865269184,
        0.12019690126180649,
        0.3069117069244385,
        -0.253976970911026,
        0.24037891626358032,
        0.11997949331998825,
        -0.09934187680482864,
        0.3203039765357971,
        0.19887258112430573,
        0.30617839097976685,
        0.07882020622491837,
        -0.3489634692668915,
        0.18516498804092407,
        0.22730836272239685,
        -0.2532258927822113,
        0.0851399153470993,
        0.33004796504974365,
        -0.22233399748802185,
        0.23496131598949432,
        0.12848761677742004,
        -0.16886049509048462,
        -0.27338066697120667,
        -0.17510811984539032,
        -0.03502681106328964,
        0.24823686480522156,
        -0.17991869151592255,
        -0.2809632122516632,
        0.24466973543167114,
        -0.0017133447108790278,
        -0.10680200904607773,
        -0.10192418843507767,
        -0.17493656277656555,
        -0.26712051033973694,
        -0.273501992225647,
        0.11614365130662918,
        0.18721435964107513,
        0.1050560399889946,
        0.26502346992492676,
        -0.1032947450876236,
        0.20178820192813873,
        0.27947404980659485,
        0.009572037495672703,
        0.1858208179473877,
        0.3092002272605896,
        -0.19081686437129974,
        0.21997158229351044,
        -0.024441679939627647,
        -0.134516179561615,
        0.00967876985669136,
        -0.33722469210624695,
        -0.3393969237804413,
        0.31652283668518066,
        -0.3487967848777771,
        0.07880991697311401,
        0.10528964549303055,
        0.2916821539402008,
        0.19903163611888885,
        -0.3338417410850525,
        0.19897451996803284,
        0.1737816333770752,
        -0.004110655281692743,
        -0.22491854429244995,
        0.01547981332987547,
        -0.13842006027698517,
        0.01515048835426569,
        0.1047135442495346,
        0.22979623079299927,
        0.0048934658989310265,
        0.18422013521194458
      ],
      "bias": [
        0.23063133656978607,
        0.06762377172708511,
        0.204021617770195,
        0.20962528884410858,
        -0.10614107549190521,
        0.19281728565692902,
        0.05626363679766655,
        -0.007267772685736418,
        0.015579605475068092,
        0.04586156830191612,
        -0.10718420892953873
      ]
    }
  ],
  "meta": {
    "name": "Binary Mirage",
    "slug": "binary-mirage",
    "inputs": 24,
    "outputs": 11,
    "placeholder": true,
    "generated": "2025-10-21T15:22:04.837Z"
  }
}
