{
  "input": 24,
  "normalization": {
    "mean": [
      0,
      0,
      0,
      0,
      0,
      0,
      0,
      0,
      0,
      0,
      0,
      0,
      0,
      0,
      0,
      0,
      0,
      0,
      0,
      0,
      0,
      0,
      0,
      0
    ],
    "std": [
      1,
      1,
      1,
      1,
      1,
      1,
      1,
      1,
      1,
      1,
      1,
      1,
      1,
      1,
      1,
      1,
      1,
      1,
      1,
      1,
      1,
      1,
      1,
      1
    ]
  },
  "layers": [
    {
      "activation": "relu",
      "weights": [
        -0.118919,
        -0.158576,
        -0.098723,
        -0.005662,
        0.166885,
        -0.085424,
        0.189922,
        -0.237091,
        -0.048137,
        0.203684,
        -0.030642,
        -0.132075,
        -0.019881,
        0.171826,
        0.057417,
        0.218716,
        -0.037934,
        -0.231075,
        0.123326,
        0.084763,
        0.085934,
        0.003185,
        0.100825,
        0,
        -0.236919,
        0.053199,
        0.073568,
        0.144743,
        0.060553,
        -0.041747,
        0.227374,
        -0.236164,
        -0.182238,
        -0.042375,
        0.131968,
        -0.112285,
        -0.174107,
        -0.200941,
        0.174743,
        -0.249335,
        0.113263,
        -0.094218,
        0.230361,
        0.100174,
        0.203039,
        -0.163758,
        0.059341,
        0,
        -0.137027,
        0.068717,
        0.064664,
        0.127061,
        0.026422,
        0.138911,
        0.152705,
        -0.242768,
        0.118026,
        -0.17198,
        0.007545,
        0.158903,
        -0.209081,
        0.194348,
        0.046711,
        -0.00893,
        0.148111,
        -0.047789,
        0.214955,
        -0.246061,
        0.06332,
        0.189624,
        -0.07651,
        0,
        -0.079083,
        -0.118801,
        -0.231892,
        0.106908,
        -0.149617,
        0.004767,
        0.006197,
        0.218085,
        0.141312,
        0.002862,
        -0.126811,
        0.10638,
        0.221806,
        -0.004575,
        0.044722,
        -0.150541,
        0.084597,
        0.199432,
        -0.203275,
        0.234032,
        0.208585,
        0.143276,
        -0.160692,
        0,
        0.205841,
        -0.169521,
        0.182422,
        -0.182838,
        0.234187,
        -0.144408,
        0.07415,
        -0.171977,
        0.161332,
        -0.178142,
        -0.005818,
        -0.064242,
        0.232062,
        -0.043856,
        0.003023,
        -0.220344,
        0.123755,
        -0.013107,
        0.094819,
        0.006459,
        -0.077764,
        0.002196,
        0.086549,
        0,
        -0.123278,
        0.113756,
        -0.232678,
        0.230359,
        0.022039,
        -0.211615,
        0.040789,
        0.056855,
        -0.045279,
        -0.124844,
        0.053035,
        0.082162,
        0.056475,
        -0.145749,
        -0.063257,
        0.136574,
        -0.102355,
        0.016552,
        0.022893,
        0.197585,
        -0.136412,
        -0.034126,
        0.041601,
        0,
        0.235139,
        0.189736,
        0.184172,
        -0.108202,
        0.201894,
        0.13192,
        0.105067,
        -0.231171,
        -0.073681,
        0.123496,
        -0.23403,
        0.064014,
        -0.208566,
        -0.104131,
        0.234141,
        0.075255,
        0.207011,
        0.16394,
        0.126983,
        0.192734,
        0.008038,
        0.103071,
        0.171885,
        0,
        -0.151228,
        0.037275,
        -0.030892,
        -0.124068,
        0.145909,
        -0.205308,
        -0.161965,
        0.000788,
        0.202275,
        0.161626,
        0.066822,
        0.16307,
        -0.121694,
        -0.16755,
        0.202023,
        0.005518,
        0.173864,
        0.211574,
        0.187693,
        0.009287,
        0.20984,
        0.158597,
        -0.150816,
        0,
        0.142652,
        -0.166716,
        0.08941,
        -0.245621,
        0.166462,
        0.010136,
        0.066067,
        0.178936,
        0.041644,
        -0.20538,
        0.133246,
        0.027093,
        0.009062,
        -0.210646,
        -0.215901,
        0.184602,
        0.03706,
        0.135249,
        0.063307,
        -0.094641,
        -0.043007,
        0.195257,
        -0.059841,
        0,
        -0.041713,
        0.232051,
        0.221027,
        0.209464,
        -0.113974,
        -0.070294,
        -0.083468,
        -0.196899,
        -0.147983,
        0.093078,
        -0.062261,
        0.020031,
        0.177516,
        -0.168456,
        -0.007638,
        -0.192421,
        -0.204882,
        0.075893,
        -0.171207,
        -0.148204,
        -0.029659,
        0.068347,
        0.028242,
        0,
        -0.140285,
        -0.232151,
        -0.21724,
        0.139167,
        0.041316,
        -0.136144,
        0.0953,
        -0.181946,
        -0.07599,
        -0.068712,
        0.150936,
        -0.234399,
        -0.242547,
        -0.050733,
        -0.003963,
        -0.127616,
        -0.108491,
        -0.086539,
        0.172397,
        0.113046,
        0.135165,
        0.04889,
        0.092994,
        0,
        -0.146904,
        0.229218,
        -0.248275,
        0.144811,
        -0.142643,
        0.190543,
        0.111659,
        0.089005,
        -0.085853,
        -0.089239,
        -0.008596,
        -0.046232,
        0.114237,
        0.017102,
        -0.235118,
        0.240161,
        -0.051339,
        0.128301,
        -0.059331,
        -0.113741,
        0.014436,
        -0.236683,
        0.022253,
        0,
        0.059905,
        0.242251,
        -0.214299,
        0.081673,
        -0.024606,
        0.185196,
        -0.108583,
        0.148102,
        0.054388,
        0.032584,
        -0.227061,
        0.13793,
        -0.123613,
        0.137941,
        0.217421,
        0.177913,
        -0.010934,
        -0.024795,
        0.02177,
        -0.202047,
        -0.22622,
        0.062228,
        0.232424,
        0,
        0.095072,
        0.186559,
        0.015608,
        -0.157356,
        0.095133,
        -0.180084,
        0.025942,
        0.205144,
        0.163883,
        -0.144255,
        0.167552,
        0.042865,
        -0.056128,
        0.10467,
        0.081738,
        0.065704,
        -0.081182,
        -0.047886,
        0.197636,
        -0.17399,
        -0.168031,
        0.156426,
        -0.220263,
        0,
        0.070673,
        -0.189966,
        0.069372,
        0.216118,
        -0.02741,
        0.169248,
        -0.0257,
        0.086474,
        0.249356,
        0.005121,
        -0.13771,
        0.173984,
        -0.198036,
        -0.207554,
        0.091616,
        0.210092,
        0.131335,
        -0.152882,
        0.000806,
        -0.233733,
        -0.084495,
        0.126341,
        0.170639,
        0,
        -0.168214,
        -0.244747,
        -0.031235,
        0.155376,
        0.241624,
        0.221013,
        0.001138,
        0.128544,
        0.2435,
        -0.041144,
        0.063015,
        0.013578,
        0.118147,
        0.238378,
        0.126102,
        -0.205353,
        -0.10813,
        -0.049717,
        -0.190212,
        -0.172039,
        -0.194558,
        0.186497,
        0.219436,
        0
      ],
      "bias": [
        0.039553,
        -0.068631,
        0.064241,
        -0.016407,
        -0.001941,
        0.053176,
        -0.059426,
        -0.082231,
        -0.083391,
        0.026407,
        -0.048957,
        0.027893,
        0.066475,
        -0.086208,
        0.094335,
        0.040719
      ]
    },
    {
      "activation": "tanh",
      "weights": [
        0.155334,
        -0.126763,
        0.128673,
        -0.075272,
        -0.089479,
        0.111294,
        -0.008315,
        0.182711,
        -0.014437,
        -0.172102,
        0.030322,
        -0.009685,
        -0.178406,
        0.014557,
        0.097434,
        -0.118403,
        -0.002361,
        -0.004776,
        -0.01442,
        -0.159549,
        0.177317,
        -0.129057,
        -0.004975,
        0.12202,
        0.074691,
        0.013337,
        0.136495,
        0.126057,
        0.095498,
        0.138163,
        0.074956,
        -0.096504,
        0.01003,
        0.190204,
        0.020647,
        0.177471,
        0.113896,
        0.170732,
        0.073646,
        0.060038,
        -0.167069,
        0.138801,
        0.02818,
        0.145856,
        0.028495,
        0.117622,
        0.14297,
        -0.035938,
        0.159409,
        0.137261,
        -0.116169,
        0.069608,
        -0.043212,
        -0.055081,
        0.144789,
        -0.044707,
        0.168006,
        0.014037,
        0.153965,
        -0.134242,
        -0.173941,
        -0.016518,
        -0.029522,
        -0.105328,
        0.000567,
        -0.041944,
        -0.021396,
        -0.153616,
        0.086663,
        -0.198408,
        0.085463,
        -0.156736,
        -0.011974,
        0.053872,
        -0.171542,
        0.160012,
        0.050307,
        -0.197381,
        -0.101255,
        0.066158,
        -0.098815,
        0.141828,
        0.086956,
        -0.041975,
        -0.146669,
        -0.052334,
        -0.042559,
        -0.038617,
        -0.173505,
        0.003207,
        -0.142721,
        -0.11393,
        0.044993,
        0.003237,
        -0.033697,
        -0.086196,
        -0.133163,
        -0.129606,
        -0.00561,
        -0.09954,
        0.000745,
        0.113885,
        -0.167738,
        0.074037,
        -0.132696,
        0.062026,
        -0.037935,
        0.009588,
        -0.039484,
        0.09987,
        0.133949,
        0.062348,
        -0.034016,
        0.143152,
        0.114925,
        -0.059678,
        -0.108005,
        -0.120181,
        0.016232,
        -0.002435,
        -0.030262,
        0.010388,
        -0.194531,
        0.129424,
        -0.021088,
        -0.181622,
        0.109745,
        0.05098,
        -0.045018,
        0.102074,
        0.116099,
        0.039946,
        -0.065685,
        0.198869,
        0.075421,
        0.125259,
        0.093469,
        -0.06657,
        0.016158,
        -0.197359,
        -0.061141,
        -0.179051,
        -0.025979,
        0.058345,
        0.103073,
        0.156713,
        -0.05604,
        -0.017631,
        0.004079,
        0.123262,
        -0.139334,
        -0.047635,
        -0.076436,
        0.14637,
        0.013818,
        -0.130497,
        0.160676,
        0.0311,
        0.004369,
        -0.172462,
        0,
        0,
        0,
        0,
        0,
        0,
        0,
        0,
        0,
        0,
        0,
        0,
        0,
        0,
        0,
        0
      ],
      "bias": [
        0.004349,
        -0.0227,
        0.012019,
        -0.025917,
        -0.03205,
        -0.017736,
        0.033142,
        -0.04973,
        0.023869,
        -0.020125,
        0
      ]
    }
  ],
  "meta": {
    "name": "Binary Mirage",
    "slug": "binary-mirage",
    "inputs": 24,
    "outputs": 11,
    "placeholder": true
  }
}
