{
  "input": 24,
  "normalization": {
    "mean": [
      0,
      0,
      0,
      0,
      0,
      0,
      0,
      0,
      0,
      0,
      0,
      0,
      0,
      0,
      0,
      0,
      0,
      0,
      0,
      0,
      0,
      0,
      0,
      0
    ],
    "std": [
      1,
      1,
      1,
      1,
      1,
      1,
      1,
      1,
      1,
      1,
      1,
      1,
      1,
      1,
      1,
      1,
      1,
      1,
      1,
      1,
      1,
      1,
      1,
      1
    ]
  },
  "layers": [
    {
      "activation": "relu",
      "weights": [
        -0.12947537004947662,
        -0.20712999999523163,
        0.11542952805757523,
        0.06751581281423569,
        0.2783513069152832,
        0.21210379898548126,
        0.09022516012191772,
        -0.30180636048316956,
        0.31842929124832153,
        0.287482887506485,
        -0.03679544851183891,
        -0.1608695089817047,
        0.20487476885318756,
        -0.22117473185062408,
        0.19754843413829803,
        -0.2605628967285156,
        -0.17630302906036377,
        0.13423551619052887,
        0.17677460610866547,
        -0.16186058521270752,
        0.26044023036956787,
        -0.050743989646434784,
        -0.32650792598724365,
        0.1884210854768753,
        0.1389390528202057,
        -0.25752514600753784,
        0.07850789278745651,
        0.32226264476776123,
        -0.33460333943367004,
        0.1760522723197937,
        0.25273460149765015,
        0.1439322531223297,
        0.2342376559972763,
        -0.2691216766834259,
        0.1560758650302887,
        0.33225879073143005,
        -0.025172537192702293,
        0.3302671015262604,
        0.32804074883461,
        -0.1229439526796341,
        -0.13725590705871582,
        -0.10234393924474716,
        0.2970942556858063,
        -0.06973759084939957,
        -0.141739159822464,
        -0.22233344614505768,
        0.08397221565246582,
        0.10884136706590652,
        -0.24124808609485626,
        0.1397494673728943,
        0.2936300039291382,
        -0.28108543157577515,
        0.276934415102005,
        0.11485345661640167,
        0.03643481060862541,
        -0.06739721447229385,
        0.22360993921756744,
        0.3341759741306305,
        -0.18892288208007812,
        0.34194502234458923,
        0.14933356642723083,
        -0.3466005325317383,
        0.12950581312179565,
        0.20119063556194305,
        0.02098863013088703,
        0.27679622173309326,
        0.17335893213748932,
        -0.1563103049993515,
        -0.12690196931362152,
        0.11726517975330353,
        0.0996495932340622,
        -0.3039209842681885,
        0.15176565945148468,
        0.23679885268211365,
        0.08119619637727737,
        -0.14509736001491547,
        0.16747182607650757,
        -0.0775659829378128,
        -0.17374007403850555,
        0.031014032661914825,
        0.10377652943134308,
        0.2430466115474701,
        -0.177618607878685,
        0.08833098411560059,
        -0.33726176619529724,
        -0.34783485531806946,
        0.1579914093017578,
        0.27212774753570557,
        -0.1387091875076294,
        -0.12234734743833542,
        0.09811804443597794,
        -0.28014785051345825,
        -0.1627725064754486,
        -0.2837355136871338,
        -0.3138883411884308,
        -0.254292756319046,
        0.3063480257987976,
        -0.03559797629714012,
        0.2619066536426544,
        0.23427174985408783,
        -0.04239378869533539,
        -0.1559886485338211,
        0.14854425191879272,
        0.3129409849643707,
        0.2503407299518585,
        -0.23486210405826569,
        -0.01955188810825348,
        -0.10677596926689148,
        -0.29831355810165405,
        -0.29694151878356934,
        0.28019508719444275,
        0.30482205748558044,
        0.02239324524998665,
        0.03212748095393181,
        -0.3140186071395874,
        0.02831081487238407,
        0.2525303363800049,
        0.06356393545866013,
        -0.010748309083282948,
        -0.1451478749513626,
        0.2469901293516159,
        -0.29120856523513794,
        -0.34106114506721497,
        -0.07344982773065567,
        0.14435233175754547,
        0.2502133548259735,
        -0.2629793584346771,
        0.042561162263154984,
        0.04529767856001854,
        -0.024070976302027702,
        0.028187096118927002,
        0.025393642485141754,
        -0.05166386440396309,
        0.08635891228914261,
        -0.1483679860830307,
        0.23484566807746887,
        0.24474869668483734,
        0.06550238281488419,
        -0.25088322162628174,
        -0.17978911101818085,
        0.1945544183254242,
        0.0008850731537677348,
        -0.025540288537740707,
        0.0461665615439415,
        0.18840894103050232,
        -0.276038259267807,
        0.033064451068639755,
        -0.31891897320747375,
        -0.13151028752326965,
        -0.13485221564769745,
        -0.017797347158193588,
        -0.011013578623533249,
        -0.17525465786457062,
        -0.03340912610292435,
        0.23396718502044678,
        -0.1842489093542099,
        -0.24654078483581543,
        -0.10659670829772949,
        -0.3448374569416046,
        0.1619769185781479,
        0.28851357102394104,
        -0.25402355194091797,
        -0.20658674836158752,
        0.05272604897618294,
        0.3395386040210724,
        -0.29518452286720276,
        -0.18492639064788818,
        0.26692983508110046,
        0.33239588141441345,
        0.21899265050888062,
        0.12729643285274506,
        -0.2678626477718353,
        -0.1603168398141861,
        -0.0442078523337841,
        0.17299482226371765,
        -0.22341106832027435,
        0.15946929156780243,
        0.1261981725692749,
        -0.20646032691001892,
        0.263958603143692,
        -0.097904734313488,
        0.040579382330179214,
        0.2803592383861542,
        -0.07130061089992523,
        -0.0054143439047038555,
        -0.21978263556957245,
        -0.08014317601919174,
        0.2472611367702484,
        0.24296337366104126,
        0.25494441390037537,
        -0.19631914794445038,
        -0.16943281888961792,
        -0.15983323752880096,
        -0.28496164083480835,
        -0.24107448756694794,
        -0.27672260999679565,
        -0.13065508008003235,
        0.1822664886713028,
        0.011597652919590473,
        -0.0004554323386400938,
        -0.2182968258857727,
        -0.13441553711891174,
        -0.23481126129627228,
        0.13224250078201294,
        0.2876965403556824,
        0.28071627020835876,
        0.10361415892839432,
        0.153666153550148,
        0.2774507701396942,
        0.17917154729366302,
        0.11026550084352493,
        0.31326746940612793,
        -0.08036580681800842,
        0.3252735137939453,
        0.34390175342559814,
        -0.28034570813179016,
        -0.012475033290684223,
        0.07983577251434326,
        0.33212852478027344,
        -0.2305305302143097,
        -0.11705044656991959,
        -0.34070634841918945,
        -0.26007819175720215,
        0.08163803070783615,
        0.25812676548957825,
        0.11721095442771912,
        -0.07410841435194016,
        -0.2690044045448303,
        0.20234230160713196,
        -0.05827980861067772,
        0.05733669549226761,
        -0.23616129159927368,
        0.03446066752076149,
        0.32662081718444824,
        0.05439242720603943,
        0.29008254408836365,
        -0.03552642837166786,
        -0.34423553943634033,
        0.18847040832042694,
        0.16127485036849976,
        -0.11161669343709946,
        0.28160950541496277,
        -0.14206108450889587,
        0.05725850537419319,
        -0.10022170841693878,
        0.2685193419456482,
        0.1005544662475586,
        -0.32126325368881226,
        0.012862875126302242,
        0.03442135080695152,
        -0.02822323516011238,
        -0.22462598979473114,
        0.187225803732872,
        0.21701516211032867,
        0.001433239202015102,
        0.26306065917015076,
        0.1670406460762024,
        -0.28493252396583557,
        0.04463788866996765,
        0.2639307975769043,
        -0.18061459064483643,
        -0.33675405383110046,
        -0.22425487637519836,
        -0.1280897557735443,
        0.3389171063899994,
        0.11609978973865509,
        -0.05228739231824875,
        0.21287019550800323,
        0.09744465351104736,
        -0.2968081533908844,
        0.08319935202598572,
        -0.24608318507671356,
        0.16279944777488708,
        -0.3473507761955261,
        0.2853090465068817,
        -0.14088642597198486,
        0.07049871236085892,
        0.07846902310848236,
        0.211380735039711,
        -0.3002765476703644,
        0.1099771037697792,
        -0.07341165095567703,
        -0.024591123685240746,
        -0.3422424793243408,
        -0.12485364824533463,
        0.01776791736483574,
        -0.15641950070858002,
        0.07026131451129913,
        -0.19532407820224762,
        0.34309640526771545,
        -0.031311988830566406,
        0.22294555604457855,
        0.3104822635650635,
        -0.24535749852657318,
        -0.055906426161527634,
        0.25440773367881775,
        0.20710007846355438,
        -0.04451917111873627,
        -0.024619152769446373,
        0.025101423263549805,
        -0.30960747599601746,
        -0.24332576990127563,
        -0.27413034439086914,
        -0.21777509152889252,
        -0.13861612975597382,
        -0.23751617968082428,
        -0.1321091502904892,
        0.027249617502093315,
        0.1130697950720787,
        0.07792716473340988,
        0.22195900976657867,
        -0.13346074521541595,
        0.2594306170940399,
        0.28079578280448914,
        0.20952506363391876,
        -0.04247741028666496,
        0.1572965830564499,
        0.2303353101015091,
        0.33939048647880554,
        0.3036344349384308,
        -0.23927830159664154,
        0.08076293766498566,
        0.04444437101483345,
        -0.2756194472312927,
        0.1641165018081665,
        -0.1926083266735077,
        0.1551043689250946,
        0.11742368340492249,
        -0.08014682680368423,
        0.13276125490665436,
        -0.3169618844985962,
        0.2980071008205414,
        0.24971367418766022,
        0.12788407504558563,
        -0.06844932585954666,
        -0.1629311740398407,
        -0.0439947247505188,
        -0.2202012985944748,
        -0.032429713755846024,
        0.12938204407691956,
        -0.21253858506679535,
        0.22578540444374084,
        -0.2722964584827423,
        -0.1976204365491867,
        0.20969687402248383,
        -0.234013631939888,
        0.0009879565332084894,
        -0.3123190104961395,
        -0.27062973380088806,
        -0.0006332393386401236,
        -0.22020094096660614,
        0.11179344356060028,
        -0.26875901222229004,
        0.1218448355793953,
        0.30652672052383423,
        0.2375033050775528,
        0.1298351287841797,
        -0.3023751974105835,
        0.12276090681552887,
        -0.0814368724822998,
        -0.2304847538471222,
        -0.22156745195388794,
        0.22700710594654083,
        0.20151923596858978,
        0.3306012749671936,
        0.14606913924217224,
        0.07489956170320511,
        -0.11414784938097,
        -0.012466263957321644,
        0.3177371621131897,
        -0.21703460812568665,
        -0.10890698432922363,
        -0.28523847460746765,
        -0.014540368691086769,
        -0.08102721720933914,
        0.1102399006485939,
        0.04698625206947327,
        -0.2951395809650421,
        0.06894801557064056,
        -0.043952617794275284,
        -0.32660970091819763,
        -0.25636765360832214,
        0.28330495953559875,
        -0.3287161588668823
      ],
      "bias": [
        0.08967259526252747,
        -0.19488951563835144,
        -0.19501455128192902,
        -0.23499822616577148,
        0.054021090269088745,
        0.17946042120456696,
        0.17421653866767883,
        -0.2376449704170227,
        0.02087446115911007,
        -0.10746146738529205,
        -0.24380148947238922,
        0.17913904786109924,
        -0.21517081558704376,
        0.1351507306098938,
        -0.1751304268836975,
        0.23929500579833984
      ]
    },
    {
      "activation": "tanh",
      "weights": [
        -0.22107690572738647,
        0.22085852921009064,
        0.20696553587913513,
        -0.15472730994224548,
        -0.2603430151939392,
        -0.1873568892478943,
        0.14809764921665192,
        -0.18499307334423065,
        0.2596896290779114,
        0.2382345199584961,
        0.27493026852607727,
        -0.22459416091442108,
        0.2010439932346344,
        -0.22967524826526642,
        -0.10829588770866394,
        -0.1725797802209854,
        0.16259990632534027,
        0.008928481489419937,
        0.3128178119659424,
        0.16696816682815552,
        -0.25459256768226624,
        -0.0073770140297710896,
        0.2639278173446655,
        0.33970722556114197,
        -0.04345698282122612,
        -0.28196752071380615,
        0.0862470492720604,
        -0.19848470389842987,
        -0.2993936538696289,
        0.08247917145490646,
        -0.11788280308246613,
        -0.14987163245677948,
        -0.06432736665010452,
        -0.33624032139778137,
        -0.000030201588742784224,
        0.13184896111488342,
        -0.0964173823595047,
        0.1413688361644745,
        0.14148306846618652,
        -0.2696269154548645,
        -0.33974945545196533,
        -0.28614047169685364,
        -0.04694462567567825,
        -0.0056624277494847775,
        -0.10674089938402176,
        0.0718747079372406,
        -0.2649776339530945,
        -0.12075135856866837,
        0.026595432311296463,
        0.09203933924436569,
        0.2868524193763733,
        0.04410063102841377,
        -0.3261939287185669,
        0.2177501767873764,
        -0.24533164501190186,
        0.002757190028205514,
        -0.1396697610616684,
        -0.059445563703775406,
        -0.053022049367427826,
        0.3366704285144806,
        0.32263100147247314,
        -0.3458382785320282,
        -0.023055724799633026,
        -0.1997801661491394,
        -0.2564547657966614,
        0.05971319228410721,
        0.03175942599773407,
        0.16802701354026794,
        0.1965053230524063,
        0.09089241921901703,
        -0.3090117871761322,
        -0.145633265376091,
        0.20268209278583527,
        -0.33313900232315063,
        -0.04722307249903679,
        -0.2795928120613098,
        -0.1657242327928543,
        0.2017827033996582,
        -0.2432546764612198,
        0.24232740700244904,
        0.3054937422275543,
        0.11785947531461716,
        0.3213549554347992,
        -0.1805763691663742,
        -0.008305538445711136,
        0.27273592352867126,
        -0.3487750291824341,
        -0.3242790400981903,
        0.1811780333518982,
        -0.13117100298404694,
        -0.12382219731807709,
        -0.07009728252887726,
        -0.3110513389110565,
        -0.2885921895503998,
        -0.2514132857322693,
        -0.338538259267807,
        0.024290330708026886,
        0.1441894769668579,
        -0.021704580634832382,
        -0.31384608149528503,
        0.17993909120559692,
        0.23740079998970032,
        0.23325732350349426,
        0.22799493372440338,
        0.04469424486160278,
        0.3277037441730499,
        -0.08520897477865219,
        0.34484028816223145,
        0.13918952643871307,
        0.0863691195845604,
        -0.30888789892196655,
        -0.24267563223838806,
        0.015169736929237843,
        -0.05051986873149872,
        -0.06768491119146347,
        0.17170968651771545,
        -0.20926690101623535,
        0.2818523645401001,
        0.30495527386665344,
        -0.012110887095332146,
        0.05364725738763809,
        -0.0833858773112297,
        0.3469340205192566,
        0.20669583976268768,
        -0.1008712649345398,
        -0.07518155127763748,
        -0.2237669676542282,
        0.28717225790023804,
        -0.22959938645362854,
        0.1997968852519989,
        -0.23192062973976135,
        -0.24660688638687134,
        -0.11901796609163284,
        -0.11378705501556396,
        -0.020531637594103813,
        0.1696450412273407,
        -0.33144786953926086,
        -0.020170792937278748,
        0.1454171985387802,
        0.21837465465068817,
        0.27395492792129517,
        -0.3395119309425354,
        -0.21323387324810028,
        -0.03809948265552521,
        0.04107685759663582,
        -0.34243282675743103,
        0.24484282732009888,
        -0.07452467083930969,
        0.18828071653842926,
        0.06855766475200653,
        -0.24858643114566803,
        -0.11816492676734924,
        0.2182813435792923,
        -0.34515130519866943,
        -0.17971022427082062,
        0.13493964076042175,
        -0.14991691708564758,
        -0.0393054261803627,
        0.017464330419898033,
        -0.291703462600708,
        -0.14457416534423828,
        0.15360455214977264,
        0.2340182214975357,
        -0.26346051692962646,
        0.24518568813800812,
        0.06526871025562286,
        0.18168218433856964,
        -0.20591939985752106,
        -0.3472591042518616,
        0.1493731141090393,
        0.1713220179080963,
        0.30120849609375,
        -0.19541890919208527,
        0.11930976063013077,
        0.3048624098300934,
        -0.33175164461135864
      ],
      "bias": [
        0.13740044832229614,
        0.07680835574865341,
        0.17677508294582367,
        0.04627126082777977,
        0.11452621221542358,
        0.0066775488667190075,
        -0.15960335731506348,
        -0.16733714938163757,
        0.057981885969638824,
        -0.05002797767519951,
        -0.14400966465473175
      ]
    }
  ],
  "meta": {
    "name": "Built on the Steppers",
    "slug": "built-on-the-steppers",
    "inputs": 24,
    "outputs": 11,
    "placeholder": true,
    "generated": "2025-10-21T20:28:18.589Z"
  }
}
