{
  "input": 24,
  "normalization": {
    "mean": [
      0,
      0,
      0,
      0,
      0,
      0,
      0,
      0,
      0,
      0,
      0,
      0,
      0,
      0,
      0,
      0,
      0,
      0,
      0,
      0,
      0,
      0,
      0,
      0
    ],
    "std": [
      1,
      1,
      1,
      1,
      1,
      1,
      1,
      1,
      1,
      1,
      1,
      1,
      1,
      1,
      1,
      1,
      1,
      1,
      1,
      1,
      1,
      1,
      1,
      1
    ]
  },
  "layers": [
    {
      "activation": "relu",
      "weights": [
        0.2510886490345001,
        -0.32461458444595337,
        -0.261051207780838,
        -0.20927630364894867,
        0.10205455124378204,
        -0.256304532289505,
        -0.17772230505943298,
        -0.2789362072944641,
        -0.329091876745224,
        0.15276314318180084,
        0.1859734207391739,
        0.28798460960388184,
        -0.28081297874450684,
        -0.3330114781856537,
        0.3107801377773285,
        -0.28409671783447266,
        -0.2901979684829712,
        0.15160216391086578,
        -0.20489682257175446,
        0.26952221989631653,
        0.15007539093494415,
        0.20591221749782562,
        -0.03180321305990219,
        -0.34638920426368713,
        -0.29636314511299133,
        -0.02953376993536949,
        -0.2019665390253067,
        -0.20846734941005707,
        0.14153441786766052,
        0.11914384365081787,
        0.19272378087043762,
        -0.276364266872406,
        0.21699219942092896,
        -0.009872166439890862,
        0.2337343543767929,
        -0.1405618041753769,
        0.0034360012505203485,
        -0.290412038564682,
        -0.11156891286373138,
        0.1798192411661148,
        -0.09334670007228851,
        -0.28462672233581543,
        -0.12967126071453094,
        0.05205249413847923,
        0.2745243310928345,
        0.17687693238258362,
        -0.1904190629720688,
        0.13462677597999573,
        -0.013222604058682919,
        -0.05547952279448509,
        0.2570344805717468,
        -0.2100549191236496,
        -0.1480952948331833,
        0.2531285285949707,
        -0.1659068614244461,
        0.13943520188331604,
        0.2586818337440491,
        0.00820979569107294,
        0.07055649906396866,
        0.2759280502796173,
        -0.0999760776758194,
        -0.09389802068471909,
        0.06856253743171692,
        0.2890898287296295,
        0.004109902307391167,
        -0.12434720247983932,
        -0.06818649917840958,
        0.08152227848768234,
        0.22377224266529083,
        -0.2937256395816803,
        0.22689063847064972,
        -0.22923831641674042,
        -0.06980612128973007,
        -0.2595439553260803,
        -0.3330051004886627,
        -0.05638536065816879,
        -0.22512812912464142,
        -0.03343157097697258,
        0.12694332003593445,
        0.25548407435417175,
        -0.027887234464287758,
        0.32218480110168457,
        0.3075198531150818,
        0.1105484813451767,
        -0.2710282802581787,
        0.010153788141906261,
        0.17625615000724792,
        -0.1445162445306778,
        -0.054948948323726654,
        -0.2437363862991333,
        -0.20448078215122223,
        0.17976436018943787,
        -0.1956978440284729,
        0.11681737005710602,
        -0.02103845588862896,
        0.34524255990982056,
        -0.2765486538410187,
        -0.23915785551071167,
        0.34976014494895935,
        -0.07881015539169312,
        0.048189274966716766,
        0.17886817455291748,
        0.09376198798418045,
        0.22875629365444183,
        -0.19163896143436432,
        0.3047490417957306,
        -0.24659009277820587,
        -0.28431302309036255,
        0.185846209526062,
        -0.2652592658996582,
        -0.22703182697296143,
        -0.2971022427082062,
        0.10479183495044708,
        -0.13153915107250214,
        -0.10513561218976974,
        0.26700520515441895,
        0.032670825719833374,
        0.150186225771904,
        -0.3435533940792084,
        -0.2551489770412445,
        0.22236013412475586,
        -0.15469332039356232,
        -0.15970627963542938,
        0.18343491852283478,
        0.17050325870513916,
        -0.300296813249588,
        -0.2879403531551361,
        0.20026081800460815,
        -0.1791221797466278,
        0.041227202862501144,
        0.1166728213429451,
        0.11813793331384659,
        0.23916016519069672,
        0.15838520228862762,
        -0.15979060530662537,
        0.012287620455026627,
        -0.08577152341604233,
        0.0000317425474349875,
        0.2606455981731415,
        0.050184961408376694,
        0.006572564598172903,
        -0.2831583619117737,
        -0.15794704854488373,
        0.2575119435787201,
        -0.07032787799835205,
        0.03419923037290573,
        0.03696291148662567,
        0.12521445751190186,
        0.22371138632297516,
        -0.26153358817100525,
        -0.08132290840148926,
        -0.2621036767959595,
        0.3274014890193939,
        0.2822583019733429,
        -0.2879936695098877,
        -0.1754608005285263,
        -0.0991690382361412,
        0.04899410903453827,
        -0.17238140106201172,
        0.06031841039657593,
        0.2411760836839676,
        -0.03239458054304123,
        0.19604524970054626,
        0.09176687896251678,
        -0.0034909765236079693,
        0.1780373752117157,
        -0.025161724537611008,
        0.025477906689047813,
        0.1381441205739975,
        0.2970382571220398,
        0.31602340936660767,
        -0.07783585041761398,
        -0.11796876043081284,
        0.1795833855867386,
        -0.21134065091609955,
        0.0006518381414934993,
        -0.17643949389457703,
        -0.24229054152965546,
        0.25000402331352234,
        -0.31743741035461426,
        -0.22088155150413513,
        0.05754068121314049,
        0.10647638887166977,
        0.2508467733860016,
        0.1801198422908783,
        -0.19436457753181458,
        0.04040208086371422,
        -0.19933795928955078,
        0.1362333446741104,
        0.3109351396560669,
        0.22671376168727875,
        0.21904239058494568,
        0.2302016019821167,
        0.06106619909405708,
        0.2832036316394806,
        -0.27981871366500854,
        0.29478245973587036,
        -0.26620176434516907,
        0.1946021020412445,
        0.1946975588798523,
        0.1286744773387909,
        0.12799890339374542,
        -0.265430212020874,
        -0.27946120500564575,
        0.18409572541713715,
        -0.129952535033226,
        0.2672446370124817,
        0.03940020501613617,
        0.19258715212345123,
        -0.1513984054327011,
        0.01671675778925419,
        -0.22847677767276764,
        -0.23663854598999023,
        -0.05772116035223007,
        -0.1273767352104187,
        0.11351408064365387,
        0.04643091931939125,
        -0.20420226454734802,
        0.34729668498039246,
        -0.24980428814888,
        -0.3122800290584564,
        -0.016039391979575157,
        -0.1880292296409607,
        -0.08641693741083145,
        -0.20550967752933502,
        -0.22560091316699982,
        -0.17010708153247833,
        -0.301139771938324,
        -0.14213941991329193,
        0.0582774356007576,
        0.3306747078895569,
        0.06209596246480942,
        0.24023278057575226,
        -0.1644333302974701,
        0.32422491908073425,
        0.18750415742397308,
        -0.31967878341674805,
        0.013159705325961113,
        -0.10314323008060455,
        0.10656431317329407,
        -0.012954440899193287,
        -0.22574332356452942,
        -0.05485403910279274,
        -0.3468863368034363,
        0.18599797785282135,
        0.26265162229537964,
        -0.2666119635105133,
        0.0589115135371685,
        0.26658308506011963,
        -0.22178225219249725,
        0.1758938878774643,
        0.0885310098528862,
        -0.11463110893964767,
        0.27182647585868835,
        0.34487423300743103,
        0.2745196223258972,
        0.3115676939487457,
        0.08685533702373505,
        -0.11942077428102493,
        0.22322215139865875,
        0.2677312195301056,
        -0.19165825843811035,
        0.2332516759634018,
        -0.30724912881851196,
        -0.03219427168369293,
        0.028492886573076248,
        -0.04870467260479927,
        -0.18765810132026672,
        0.25982117652893066,
        0.10955243557691574,
        0.14445897936820984,
        0.2914881408214569,
        0.1434333473443985,
        0.13299560546875,
        -0.29274675250053406,
        -0.1441439986228943,
        -0.12226998060941696,
        -0.1608322560787201,
        0.03957163169980049,
        0.01875629648566246,
        0.10482680797576904,
        -0.1719108670949936,
        0.2137690931558609,
        0.26117464900016785,
        -0.2215481847524643,
        -0.13444159924983978,
        0.3088594079017639,
        -0.3376942574977875,
        0.1668345332145691,
        -0.32618221640586853,
        -0.05928299203515053,
        -0.014247648417949677,
        -0.05122075602412224,
        -0.18455302715301514,
        0.10287392884492874,
        0.3018896281719208,
        -0.014283355325460434,
        -0.32231906056404114,
        -0.033187005668878555,
        -0.18815699219703674,
        -0.22609692811965942,
        -0.25744321942329407,
        -0.3036395311355591,
        -0.03607615455985069,
        -0.3065944314002991,
        -0.04521039128303528,
        0.00526972021907568,
        0.23686808347702026,
        0.34393247961997986,
        -0.05179843679070473,
        -0.32378387451171875,
        0.1466003805398941,
        -0.02781415544450283,
        0.12505421042442322,
        0.2545359432697296,
        0.26160141825675964,
        -0.32669147849082947,
        0.2894172668457031,
        -0.07236801832914352,
        -0.2638314962387085,
        0.2334652692079544,
        -0.33629199862480164,
        0.33274176716804504,
        0.08516786992549896,
        0.18443667888641357,
        -0.16397036612033844,
        0.05186225846409798,
        -0.2576887309551239,
        -0.10869233310222626,
        -0.31407564878463745,
        -0.05518023297190666,
        -0.04327184334397316,
        0.2574220895767212,
        0.2554990351200104,
        0.050372280180454254,
        0.2971642315387726,
        0.2805092930793762,
        -0.2773563861846924,
        0.3251987099647522,
        0.0828593298792839,
        -0.12079112976789474,
        0.25295957922935486,
        0.003965632524341345,
        -0.13397818803787231,
        0.3292965292930603,
        -0.16978959739208221,
        0.211346834897995,
        0.05543911084532738,
        0.045247096568346024,
        -0.14880962669849396,
        0.2979872226715088,
        0.23203155398368835,
        -0.21133844554424286,
        0.26534926891326904,
        -0.21744491159915924,
        0.2084679752588272,
        0.2737487554550171,
        -0.12023026496171951,
        -0.0676412507891655,
        0.0034168586134910583,
        0.1155475601553917,
        -0.2886655628681183,
        0.031120305880904198,
        0.044611841440200806,
        0.30685147643089294,
        0.1670287549495697,
        0.27347511053085327,
        0.02434074506163597,
        0.1731524020433426,
        0.2566221058368683,
        -0.0915650799870491,
        -0.1601700782775879,
        0.04359625652432442,
        -0.27023816108703613,
        0.17856596410274506,
        -0.21201938390731812,
        0.03582954779267311,
        -0.05950404703617096,
        0.2494228631258011,
        -0.2721695601940155,
        -0.2151060551404953,
        0.021543605253100395,
        0.07652279734611511,
        0.04289614036679268
      ],
      "bias": [
        0.04349276423454285,
        -0.13974891602993011,
        0.18787743151187897,
        0.17179638147354126,
        -0.16902673244476318,
        0.1612805873155594,
        0.11071176826953888,
        -0.1695268601179123,
        -0.15939201414585114,
        0.13586203753948212,
        0.13581164181232452,
        -0.048041440546512604,
        -0.16180965304374695,
        -0.24654357135295868,
        -0.23782400786876678,
        -0.20954644680023193
      ]
    },
    {
      "activation": "tanh",
      "weights": [
        0.024940375238656998,
        0.18592935800552368,
        -0.19115903973579407,
        0.09326192736625671,
        0.005540689453482628,
        -0.2395774871110916,
        0.2957886755466461,
        -0.10674521327018738,
        0.1764092892408371,
        -0.13086967170238495,
        0.004232662729918957,
        -0.29961585998535156,
        0.23152367770671844,
        0.0029096361249685287,
        -0.21333345770835876,
        0.20219750702381134,
        0.28009119629859924,
        0.286284476518631,
        0.13743311166763306,
        -0.026646707206964493,
        0.1995639055967331,
        -0.10700996965169907,
        -0.22041143476963043,
        -0.031567394733428955,
        -0.06618598848581314,
        0.06109248101711273,
        -0.057429585605859756,
        0.18747352063655853,
        0.17576666176319122,
        -0.09956950694322586,
        0.2922362685203552,
        0.3362114131450653,
        -0.11214339733123779,
        0.06110188364982605,
        0.016842948272824287,
        -0.02470814250409603,
        0.09450377523899078,
        -0.15142428874969482,
        0.2076517939567566,
        -0.048977263271808624,
        -0.3099254369735718,
        -0.07660756260156631,
        0.15015855431556702,
        0.22451457381248474,
        0.15457788109779358,
        0.22613215446472168,
        -0.06187666580080986,
        -0.024107711389660835,
        -0.2804017663002014,
        0.18293748795986176,
        0.01053197868168354,
        -0.04638322442770004,
        -0.011943899095058441,
        0.08880257606506348,
        0.1385212242603302,
        -0.30933141708374023,
        -0.07293117046356201,
        0.12343646585941315,
        0.30449503660202026,
        -0.18421995639801025,
        0.15752224624156952,
        0.09716027975082397,
        0.15283232927322388,
        0.16635048389434814,
        -0.17347940802574158,
        -0.1988898366689682,
        -0.19623327255249023,
        -0.27937597036361694,
        -0.31951647996902466,
        0.2019617259502411,
        0.22924107313156128,
        0.11232531070709229,
        -0.1464778035879135,
        -0.19399452209472656,
        -0.06966538727283478,
        -0.25904351472854614,
        0.1112111508846283,
        0.03150923177599907,
        0.10160776227712631,
        -0.15022370219230652,
        0.16594891250133514,
        -0.17085890471935272,
        -0.21135832369327545,
        -0.22471314668655396,
        0.23261962831020355,
        0.12583735585212708,
        -0.0405534952878952,
        0.33082449436187744,
        -0.20336757600307465,
        0.08384507149457932,
        -0.037953317165374756,
        -0.10615015029907227,
        -0.2955204248428345,
        0.10839717090129852,
        0.18234024941921234,
        0.34993135929107666,
        0.19432395696640015,
        -0.006565381307154894,
        -0.28172993659973145,
        0.1341085284948349,
        -0.090081587433815,
        0.2594102919101715,
        -0.10741905122995377,
        -0.23608312010765076,
        0.05609239637851715,
        0.130813330411911,
        0.007453919388353825,
        0.19863446056842804,
        -0.330247700214386,
        0.06784921139478683,
        0.3467120826244354,
        -0.2604113221168518,
        0.1995811015367508,
        0.3184218406677246,
        -0.3349117636680603,
        -0.13000893592834473,
        0.31102168560028076,
        0.33949244022369385,
        -0.26761284470558167,
        -0.10587577521800995,
        0.3172324597835541,
        0.05557914450764656,
        0.14736033976078033,
        0.25940072536468506,
        -0.2578383982181549,
        -0.15070782601833344,
        -0.30621248483657837,
        0.1262214332818985,
        -0.30028167366981506,
        -0.11263935267925262,
        -0.2197318822145462,
        0.07860501110553741,
        0.10560564696788788,
        0.09346764534711838,
        -0.2137644737958908,
        0.008984523825347424,
        0.1396442949771881,
        0.21063640713691711,
        0.15637372434139252,
        0.15199285745620728,
        -0.2880987823009491,
        0.07168840616941452,
        -0.3244710862636566,
        -0.09225296229124069,
        -0.14440058171749115,
        -0.06930077821016312,
        -0.21588920056819916,
        0.18353237211704254,
        0.0807286873459816,
        -0.2767237722873688,
        0.18466345965862274,
        0.2569159269332886,
        -0.16749578714370728,
        -0.030143553391098976,
        -0.27126002311706543,
        0.0057634757831692696,
        0.06592857837677002,
        -0.07635367661714554,
        0.19997547566890717,
        -0.32325199246406555,
        0.07834828644990921,
        -0.09126278758049011,
        0.13637173175811768,
        -0.2337130606174469,
        0.12567144632339478,
        0.1186598464846611,
        -0.28811153769493103,
        0.06968159973621368,
        -0.20130661129951477,
        -0.3447575867176056,
        0.05550583079457283,
        -0.27324342727661133,
        -0.18176603317260742,
        -0.344752699136734,
        0.15379470586776733,
        0.1183047816157341
      ],
      "bias": [
        -0.08599768579006195,
        -0.08786686509847641,
        -0.1637433022260666,
        -0.04678129777312279,
        0.10126310586929321,
        0.10901059955358505,
        -0.15948598086833954,
        -0.10415274649858475,
        0.04186486825346947,
        -0.19075126945972443,
        0.0301592368632555
      ]
    }
  ],
  "meta": {
    "name": "Built on the Steppers",
    "slug": "built-on-the-steppers",
    "inputs": 24,
    "outputs": 11,
    "placeholder": true,
    "generated": "2025-10-21T15:22:04.836Z"
  }
}
