{
  "input": 24,
  "normalization": {
    "mean": [
      0.014891939237713814,
      -0.007202095352113247,
      -0.009571200236678123,
      0.000581668340601027,
      -0.00690961629152298,
      0.4960283935070038,
      0.4984949231147766,
      0.5008277893066406,
      0.4967167377471924,
      -0.01857835240662098,
      0.0023852591402828693,
      -0.0036217430606484413,
      0.0012606991222128272,
      -0.00837757345288992,
      0.02229933999478817,
      -0.0016810529632493854,
      -0.002293654717504978,
      -0.004595286212861538,
      -0.0034832567907869816,
      0.012323849834501743,
      0.5022162199020386,
      0.5005635619163513,
      0.5052561163902283,
      0.4979586899280548
    ],
    "std": [
      0.5753662586212158,
      0.5735300779342651,
      0.5733845829963684,
      0.5791313052177429,
      0.5769747495651245,
      0.28746044635772705,
      0.2898075580596924,
      0.2917802631855011,
      0.2883184850215912,
      0.5794968008995056,
      0.5704823136329651,
      0.5717405080795288,
      0.5683292150497437,
      0.5770279169082642,
      0.5763221979141235,
      0.5804898142814636,
      0.5750560164451599,
      0.5723190903663635,
      0.5773166418075562,
      0.5757545232772827,
      0.2881068289279938,
      0.28907787799835205,
      0.28803545236587524,
      0.2893533706665039
    ]
  },
  "layers": [
    {
      "activation": "relu",
      "weights": [
        -0.005670116748660803,
        0.022326430305838585,
        -0.05120397359132767,
        -0.03043493814766407,
        -0.03167244419455528,
        -0.04545629024505615,
        -0.040262337774038315,
        0.019418224692344666,
        -0.019108423963189125,
        -0.06374762207269669,
        -0.8752462267875671,
        -0.06171037256717682,
        0.05205993354320526,
        -0.04778469726443291,
        -0.005599172320216894,
        0.022134555503726006,
        -0.04861179366707802,
        0.0016048066318035126,
        -0.05312413349747658,
        -0.03617589920759201,
        -0.005292715970426798,
        -0.045048195868730545,
        0.06183253228664398,
        0.015425451099872589,
        -0.13846835494041443,
        0.11866278946399689,
        -0.0022800753358751535,
        -0.08978530019521713,
        0.04944461211562157,
        0.1702250987291336,
        0.3004169464111328,
        -0.01423704344779253,
        0.05515037849545479,
        0.04480187967419624,
        -0.607093870639801,
        0.018783273175358772,
        -0.020959656685590744,
        -0.07722100615501404,
        0.12822091579437256,
        -0.013462158851325512,
        0.0817231610417366,
        0.0950508639216423,
        0.03085307404398918,
        -0.17634382843971252,
        -0.03568078204989433,
        -0.057061754167079926,
        -0.14164794981479645,
        -0.04704875126481056,
        0.011762703768908978,
        -0.16300247609615326,
        0.11687450110912323,
        0.1325046271085739,
        0.028546005487442017,
        0.09128829091787338,
        -0.22221693396568298,
        0.0637051910161972,
        0.05683475732803345,
        -0.18490125238895416,
        0.4952424168586731,
        0.19472360610961914,
        -0.04365169629454613,
        -0.09410057961940765,
        -0.052655428647994995,
        0.15709665417671204,
        -0.11444415897130966,
        -0.04871765524148941,
        -0.16794711351394653,
        0.0053354366682469845,
        -0.1401832550764084,
        0.0070128669030964375,
        -0.12877221405506134,
        0.17419879138469696,
        0.0026430028956383467,
        -0.017245538532733917,
        0.03937051445245743,
        0.023055987432599068,
        0.023201772943139076,
        0.03375593200325966,
        0.031722087413072586,
        -0.015110486187040806,
        0.015428930521011353,
        0.05144968256354332,
        -0.9014565348625183,
        0.046652067452669144,
        -0.04098551347851753,
        0.038236137479543686,
        0.0038263804744929075,
        -0.01616726815700531,
        0.03811774030327797,
        -0.0004962581442669034,
        0.038450345396995544,
        0.03066880814731121,
        0.003999089822173119,
        0.034561965614557266,
        -0.05231686681509018,
        -0.012821439653635025,
        0.052029799669981,
        0.07779540121555328,
        -0.05799710005521774,
        0.08158063888549805,
        0.03259341046214104,
        0.06473477929830551,
        -0.21294617652893066,
        -0.027170157060027122,
        0.004451648332178593,
        -0.10201182961463928,
        0.6778757572174072,
        0.0447881855070591,
        0.029783036559820175,
        -0.17395274341106415,
        0.041270311921834946,
        0.035473987460136414,
        -0.028406089171767235,
        0.03026462532579899,
        -0.0479593388736248,
        -0.06665405631065369,
        -0.013632318936288357,
        -0.03629639372229576,
        0.12537288665771484,
        0.1240212470293045,
        0.17781202495098114,
        -0.24107582867145538,
        0.19422227144241333,
        0.1149856373667717,
        -0.21358686685562134,
        -0.11649888753890991,
        0.2461072951555252,
        0.05101809278130531,
        0.15510937571525574,
        -0.22494377195835114,
        -0.17341014742851257,
        -0.24626603722572327,
        0.10414246469736099,
        -0.08814380317926407,
        0.1366996467113495,
        -0.10472996532917023,
        -0.025681152939796448,
        0.12974120676517487,
        -0.0845179483294487,
        0.05866145342588425,
        -0.2517223060131073,
        0.16325852274894714,
        -0.2151041179895401,
        0.18432262539863586,
        -0.23236939311027527,
        0.06208719685673714,
        0.17936301231384277,
        0.04519153758883476,
        -0.2324886918067932,
        0.18243788182735443,
        0.1725223809480667,
        0.043621838092803955,
        -0.06476568430662155,
        0.09974750131368637,
        -0.2577718496322632,
        0.14053374528884888,
        0.2319321185350418,
        0.08107123523950577,
        0.05260376259684563,
        -0.06416552513837814,
        0.15218496322631836,
        -0.18797755241394043,
        -0.14628447592258453,
        -0.03621520847082138,
        -0.15213601291179657,
        0.23589837551116943,
        -0.16925658285617828,
        -0.19913390278816223,
        -0.0020664006005972624,
        0.015206039883196354,
        -0.03163909539580345,
        -0.01708536595106125,
        -0.01717180199921131,
        -0.024761559441685677,
        -0.028662726283073425,
        0.010931795462965965,
        -0.010955330915749073,
        -0.041401710361242294,
        0.9351776242256165,
        -0.037144243717193604,
        0.032805826514959335,
        -0.03276052698493004,
        -0.0035153881181031466,
        0.01412135362625122,
        -0.030776718631386757,
        -0.0018000643467530608,
        -0.03325148671865463,
        -0.02403166890144348,
        -0.0038624608423560858,
        -0.029247039929032326,
        0.04447076842188835,
        0.009574425406754017,
        -0.00020714238053187728,
        0.0023834863677620888,
        0.0026448722928762436,
        0.0025351957883685827,
        -0.0006145511870272458,
        0.0030773638281971216,
        0.0009464708273299038,
        -0.000519769499078393,
        0.001567496103234589,
        -0.0028443611226975918,
        -0.904692530632019,
        0.004361429717391729,
        0.0028980362694710493,
        0.0004288560012355447,
        0.002034303266555071,
        -0.002882464788854122,
        -0.0015007182955741882,
        0.000429753476055339,
        0.0055745067074894905,
        -0.0036799295339733362,
        -0.0017924681305885315,
        0.0009106348152272403,
        0.004276912193745375,
        -0.0007491885917261243,
        -0.22400125861167908,
        -0.2340703159570694,
        0.13461682200431824,
        -0.024485183879733086,
        -0.23052836954593658,
        -0.1400640606880188,
        0.1450621783733368,
        0.08848161995410919,
        0.007368623744696379,
        0.13232457637786865,
        -0.5235304832458496,
        -0.2148406207561493,
        0.2155296355485916,
        0.18336457014083862,
        -0.13122880458831787,
        0.11091809719800949,
        -0.09727021306753159,
        0.1968703269958496,
        -0.2983820140361786,
        -0.08923729509115219,
        -0.01770247146487236,
        -0.18227900564670563,
        -0.13903366029262543,
        0.14516402781009674,
        -0.10057199746370316,
        0.05530475825071335,
        0.034548547118902206,
        -0.18566599488258362,
        -0.12047449499368668,
        0.06870643049478531,
        0.25363999605178833,
        -0.007265434600412846,
        0.1471407413482666,
        -0.08619305491447449,
        0.34929409623146057,
        -0.05704348906874657,
        -0.04545499011874199,
        0.1215362474322319,
        0.1891501098871231,
        0.11559418588876724,
        0.2334444671869278,
        0.15520420670509338,
        0.06808439642190933,
        -0.14119181036949158,
        0.0982922911643982,
        -0.17062970995903015,
        -0.022473501041531563,
        -0.03603718429803848,
        0.29031431674957275,
        -0.041843805462121964,
        0.2760443389415741,
        -0.05251399800181389,
        -0.13097260892391205,
        0.09808898717164993,
        -0.15743018686771393,
        -0.22021302580833435,
        -0.16990791261196136,
        -0.06839372962713242,
        0.26099884510040283,
        0.19769160449504852,
        -0.039931103587150574,
        0.026882950216531754,
        -0.06538112461566925,
        0.2216559201478958,
        0.20090563595294952,
        -0.28579896688461304,
        0.11945357173681259,
        0.2372952103614807,
        0.0938517227768898,
        0.2881588935852051,
        0.04295269772410393,
        -0.23590049147605896,
        0.0050069186836481094,
        -0.02299673855304718,
        0.05894887074828148,
        0.03757705166935921,
        0.03778063878417015,
        0.052552834153175354,
        0.044460903853178024,
        -0.024089429527521133,
        0.022909270599484444,
        0.07814808189868927,
        0.7710087895393372,
        0.07156668603420258,
        -0.06177942454814911,
        0.05587584152817726,
        0.008156916126608849,
        -0.02924906089901924,
        0.05551101267337799,
        -0.00018699749489314854,
        0.06334654241800308,
        0.04498658701777458,
        0.0064759766682982445,
        0.054536573588848114,
        -0.0785781666636467,
        -0.017149806022644043,
        -0.0005433726473711431,
        -0.0003292890905868262,
        -0.0023015281185507774,
        -0.0008212067768909037,
        0.00292037520557642,
        -0.0005516250384971499,
        -0.0014741492923349142,
        -0.0001679239358054474,
        -0.0030352147296071053,
        -0.003771984251216054,
        0.9361185431480408,
        0.004403203260153532,
        -0.0005490282783284783,
        0.0033499603159725666,
        -0.002446068450808525,
        -0.0038637674879282713,
        0.0008806720725260675,
        0.0015093046240508556,
        -0.0007878231699578464,
        -0.0033381348475813866,
        0.001050065504387021,
        0.0012657057959586382,
        0.0018758479272946715,
        -0.0006690065492875874,
        -0.05428909510374069,
        0.12814350426197052,
        -0.22131317853927612,
        -0.25173595547676086,
        0.04929541423916817,
        0.015898192301392555,
        0.20358075201511383,
        0.19448480010032654,
        0.18951667845249176,
        -0.18589763343334198,
        0.5435585379600525,
        -0.0746065154671669,
        0.22663304209709167,
        -0.10533148050308228,
        -0.005943563766777515,
        -0.09354813396930695,
        -0.11885625869035721,
        0.11359653621912003,
        0.12037201970815659,
        -0.1858597844839096,
        0.1416206955909729,
        0.11046737432479858,
        -0.09254363179206848,
        0.08404988050460815,
        0.2779337465763092,
        0.1803494393825531,
        -0.19146877527236938,
        0.01141341868788004,
        0.06151088327169418,
        0.07728743553161621,
        0.019579751417040825,
        -0.16785259544849396,
        -0.044852811843156815,
        0.0921645313501358,
        -0.16793368756771088,
        -0.06847333163022995,
        -0.20995551347732544,
        -0.17438064515590668,
        -0.19273196160793304,
        -0.1317060887813568,
        0.1972874402999878,
        0.21551752090454102,
        -0.07511769980192184,
        0.20572097599506378,
        -0.24170292913913727,
        0.034971658140420914,
        -0.23967960476875305,
        -0.2209976464509964
      ],
      "bias": [
        -0.18441961705684662,
        0.06757563352584839,
        0.021348584443330765,
        0.14970988035202026,
        0.13500067591667175,
        -0.026078063994646072,
        0.007650650106370449,
        -0.21415939927101135,
        -1.0648444890975952,
        0.019115012139081955,
        0.05633892863988876,
        0.01946546509861946,
        0.10245601087808609,
        -1.119665265083313,
        0.003496710676699877,
        -0.002438089344650507
      ]
    },
    {
      "activation": "tanh",
      "weights": [
        -0.04941980913281441,
        0.001128222094848752,
        0.33705559372901917,
        -0.0711793601512909,
        0.2342558354139328,
        -0.09530860930681229,
        0.2849620580673218,
        -0.3040592670440674,
        -0.33663076162338257,
        -0.023007595911622047,
        -0.2254999428987503,
        -0.1103740856051445,
        -0.09835715591907501,
        -0.1686195731163025,
        -0.1842164397239685,
        0.32749032974243164,
        -0.12809324264526367,
        0.1969590038061142,
        -0.02171490527689457,
        0.3010607957839966,
        -0.011809805408120155,
        -0.3397516906261444,
        0.08644992113113403,
        0.3175699710845947,
        -0.008815092034637928,
        0.29022079706192017,
        0.07712823152542114,
        -0.3389894366264343,
        -0.20884019136428833,
        -0.1915203332901001,
        -0.25620681047439575,
        -0.1757664829492569,
        0.253858357667923,
        -0.06276770681142807,
        0.0007966764969751239,
        0.23020552098751068,
        0.005838165991008282,
        -0.1634090542793274,
        0.16519959270954132,
        0.15033791959285736,
        0.07493478804826736,
        0.27062633633613586,
        0.12805138528347015,
        -0.019836142659187317,
        -0.1413198560476303,
        0.05322672054171562,
        -0.09766600281000137,
        0.12419187277555466,
        0.21663473546504974,
        0.13859425485134125,
        0.09101669490337372,
        0.21328437328338623,
        -0.24975208938121796,
        0.34683629870414734,
        0.24752911925315857,
        -0.07809741050004959,
        -0.2625996768474579,
        -0.03292804956436157,
        -0.12377391010522842,
        0.2973618507385254,
        -0.2774007320404053,
        0.21968001127243042,
        -0.13135676085948944,
        0.242580845952034,
        0.1705056130886078,
        0.09874524921178818,
        -0.10112509876489639,
        -0.2834415137767792,
        -0.32201260328292847,
        0.18003876507282257,
        0.24307352304458618,
        -0.15913619101047516,
        0.05993417277932167,
        0.3283681273460388,
        -0.0018069104989990592,
        -0.28351959586143494,
        -0.09560918062925339,
        0.15779846906661987,
        0.22585216164588928,
        -0.0937771424651146,
        -0.2782309353351593,
        0.12748485803604126,
        0.19891934096813202,
        -0.1666610985994339,
        -0.2643342614173889,
        -0.2789257764816284,
        0.13756440579891205,
        -0.1403423547744751,
        0.10093962401151657,
        0.036212269216775894,
        -0.07413526624441147,
        -0.2900772988796234,
        0.13815397024154663,
        0.1743835210800171,
        -0.1769605278968811,
        -0.2127288281917572,
        -0.2847028076648712,
        -0.06434421986341476,
        0.1914263218641281,
        0.29043006896972656,
        0.0029700612649321556,
        -0.1546628177165985,
        -0.10064182430505753,
        0.06268412619829178,
        0.17372386157512665,
        0.22425368428230286,
        -0.13102467358112335,
        -0.0904240533709526,
        0.11646528542041779,
        0.051522448658943176,
        0.19457842409610748,
        0.3139425814151764,
        0.22867673635482788,
        -0.10712587088346481,
        -0.05778881907463074,
        0.18106387555599213,
        -0.12316042929887772,
        0.19249412417411804,
        0.15873397886753082,
        -0.24401994049549103,
        -0.21722529828548431,
        -0.26867419481277466,
        -0.3383992314338684,
        -0.1550474315881729,
        -0.05098570138216019,
        0.10296176373958588,
        -0.25749844312667847,
        0.01483274158090353,
        0.1872326284646988,
        -0.04167144000530243,
        -0.29510653018951416,
        0.23626543581485748,
        -0.25108134746551514,
        -0.14732711017131805,
        -0.01673305034637451,
        -0.30304738879203796,
        -0.030887814238667488,
        0.2755764424800873,
        0.3525320291519165,
        -0.0010774091351777315,
        0.0668233335018158,
        -0.3067723214626312,
        0.05060741677880287,
        -0.2794939875602722,
        0.26800644397735596,
        0.04970137029886246,
        0.16770970821380615,
        0.19621464610099792,
        0.10827583074569702,
        -0.21755820512771606,
        -0.0980871170759201,
        0.09868767112493515,
        -0.05956600606441498,
        0.17418250441551208,
        -0.017851240932941437,
        0.32591012120246887,
        0.24609386920928955,
        0.24387413263320923,
        -0.025207147002220154,
        0.03780008852481842,
        -0.3363220691680908,
        -0.00017450307495892048,
        0.0022344428580254316,
        -0.4247974157333374,
        -0.010946000926196575,
        -0.0015509756049141288,
        -0.00011762625945266336,
        0.532552182674408,
        -1.1786060333251953,
        0.0013509218115359545,
        0.0008772963774390519,
        0.0005517262616194785,
        0.26718994975090027,
        1.22502601146698,
        -0.003781063249334693,
        0.0010092430748045444
      ],
      "bias": [
        0,
        0,
        0,
        0,
        0,
        0,
        0,
        0,
        0,
        0,
        0.04030850902199745
      ]
    }
  ],
  "meta": {
    "name": "Built on the Steppers",
    "slug": "built-on-the-steppers",
    "inputs": 24,
    "outputs": 11,
    "trackIndex": 1,
    "file": "built-on-the-steppers.json",
    "trained": "2025-10-22T06:11:06.570Z",
    "training": {
      "feature": "deltaBass",
      "featureType": "signed",
      "output": "zoom",
      "orientation": "direct",
      "epochs": 400,
      "samples": 4096,
      "learningRate": 0.01,
      "loss": 0.00010192834452027455,
      "correlation": 0.9996964335441589,
      "fitness": 0.9996964335441589,
      "mse": 0.0001994409685721621
    }
  }
}
