{
  "input": 24,
  "normalization": {
    "mean": [
      0,
      0,
      0,
      0,
      0,
      0,
      0,
      0,
      0,
      0,
      0,
      0,
      0,
      0,
      0,
      0,
      0,
      0,
      0,
      0,
      0,
      0,
      0,
      0
    ],
    "std": [
      1,
      1,
      1,
      1,
      1,
      1,
      1,
      1,
      1,
      1,
      1,
      1,
      1,
      1,
      1,
      1,
      1,
      1,
      1,
      1,
      1,
      1,
      1,
      1
    ]
  },
  "layers": [
    {
      "activation": "relu",
      "weights": [
        -0.119113,
        -0.203928,
        0.058923,
        -0.02417,
        -0.166348,
        0.040721,
        -0.025597,
        -0.195167,
        0.197506,
        0.17496,
        0.242495,
        0.025519,
        -0.008312,
        0.195918,
        -0.056747,
        -0.014332,
        -0.114511,
        -0.238675,
        -0.025967,
        0.141373,
        0.24039,
        0.22177,
        -0.234291,
        0,
        0.227226,
        -0.0055,
        -0.147337,
        -0.15492,
        0.177015,
        0.053327,
        -0.081282,
        -0.029966,
        0.240201,
        -0.024032,
        -0.171228,
        0.189028,
        -0.135481,
        -0.129228,
        -0.236257,
        -0.198558,
        0.040004,
        0.039531,
        -0.214453,
        -0.179619,
        -0.075245,
        0.034276,
        0.059787,
        0,
        0.164479,
        0.197744,
        -0.084269,
        -0.049982,
        -0.069738,
        0.208997,
        0.127485,
        -0.133586,
        0.221655,
        0.122447,
        0.024959,
        -0.123364,
        0.138165,
        -0.128227,
        0.223211,
        0.211723,
        0.14833,
        -0.125459,
        0.052654,
        -0.075185,
        0.199971,
        0.074962,
        0.036751,
        0,
        0.085516,
        0.043842,
        0.010574,
        -0.069258,
        0.017721,
        -0.1278,
        0.223154,
        -0.014537,
        0.213707,
        -0.001104,
        -0.040803,
        0.225337,
        0.182309,
        -0.067479,
        0.230244,
        0.154578,
        0.113989,
        -0.180811,
        -0.07161,
        -0.069316,
        -0.129386,
        -0.143492,
        -0.182714,
        0,
        0.169277,
        -0.06725,
        -0.094698,
        -0.156066,
        0.169354,
        0.06229,
        0.150653,
        -0.158403,
        -0.026992,
        0.063231,
        -0.211176,
        -0.180859,
        -0.201311,
        0.148397,
        -0.158384,
        0.157105,
        0.012057,
        0.044946,
        -0.17526,
        0.155832,
        -0.076501,
        0.096443,
        0.12174,
        0,
        0.005954,
        -0.173631,
        0.244344,
        0.040063,
        -0.12344,
        -0.184993,
        -0.103329,
        0.150804,
        -0.05865,
        0.046616,
        -0.183278,
        0.138717,
        -0.211911,
        0.236042,
        -0.210402,
        0.014034,
        -0.218329,
        -0.202477,
        -0.050611,
        0.162668,
        0.076119,
        0.172486,
        -0.225194,
        0,
        -0.163643,
        0.09581,
        0.00743,
        -0.113915,
        -0.190692,
        -0.068737,
        -0.029028,
        -0.099022,
        0.052913,
        0.219782,
        0.124119,
        0.232636,
        -0.094911,
        0.206277,
        -0.117177,
        -0.162808,
        -0.164188,
        -0.195426,
        0.236882,
        0.043876,
        0.035404,
        0.104529,
        0.014253,
        0,
        0.225452,
        0.177138,
        -0.104754,
        0.10484,
        0.191807,
        -0.169281,
        -0.100268,
        0.18281,
        -0.185512,
        0.128211,
        0.041283,
        0.091516,
        0.015016,
        -0.091039,
        0.18692,
        0.180072,
        -0.125217,
        0.195095,
        -0.061804,
        0.005654,
        0.249336,
        -0.025857,
        0.164671,
        0,
        -0.05941,
        -0.105127,
        -0.109649,
        0.100377,
        -0.151712,
        0.239761,
        0.071253,
        -0.051413,
        0.117086,
        0.058879,
        -0.058949,
        0.065194,
        -0.033935,
        -0.066389,
        -0.002615,
        -0.083981,
        0.0619,
        0.005297,
        0.153032,
        0.12835,
        0.110812,
        0.154946,
        -0.13088,
        0,
        0.082042,
        0.214678,
        -0.13296,
        -0.068597,
        0.110476,
        -0.094639,
        0.160228,
        -0.153838,
        0.006687,
        -0.103673,
        0.092726,
        -0.042694,
        0.154993,
        0.215613,
        -0.024761,
        0.011218,
        0.233412,
        0.009202,
        0.049215,
        0.020923,
        0.057203,
        -0.071134,
        0.013241,
        0,
        -0.093867,
        -0.241171,
        0.143556,
        -0.0946,
        0.010732,
        0.12465,
        0.138377,
        -0.025608,
        0.224271,
        0.033684,
        0.090233,
        -0.202756,
        0.059017,
        0.068714,
        0.234189,
        0.026409,
        0.159147,
        -0.004918,
        -0.240383,
        -0.225926,
        -0.156378,
        -0.072534,
        -0.099802,
        0,
        -0.233514,
        -0.090684,
        0.129961,
        0.006823,
        0.026113,
        0.045965,
        0.019771,
        0.017474,
        -0.03555,
        -0.160504,
        0.069824,
        -0.136858,
        -0.106725,
        -0.034709,
        -0.069364,
        -0.026168,
        0.087185,
        -0.20204,
        0.21671,
        0.173741,
        0.155202,
        -0.21082,
        0.027814,
        0,
        -0.120349,
        0.104287,
        0.090162,
        -0.099577,
        0.141606,
        0.102551,
        0.020308,
        0.009655,
        0.189945,
        0.074986,
        0.108624,
        0.067008,
        -0.222265,
        -0.110464,
        0.059451,
        -0.015792,
        0.232683,
        0.016303,
        0.119068,
        -0.001519,
        -0.242415,
        0.167716,
        -0.055254,
        0,
        0.079571,
        0.143362,
        0.052468,
        0.202798,
        0.063799,
        0.183769,
        0.001033,
        0.247198,
        0.085494,
        0.205821,
        -0.154416,
        -0.144669,
        0.001092,
        -0.244999,
        0.062105,
        0.122434,
        0.12623,
        0.099319,
        -0.19246,
        0.241285,
        0.231137,
        -0.158714,
        0.109759,
        0,
        0.018717,
        -0.135362,
        0.051849,
        0.093176,
        0.105506,
        0.202086,
        -0.034627,
        0.247824,
        0.041201,
        0.237532,
        -0.100287,
        -0.125304,
        -0.159543,
        -0.234558,
        0.190447,
        -0.03483,
        -0.027563,
        0.222283,
        0.053337,
        -0.102668,
        0.209843,
        0.083283,
        -0.085929,
        0,
        -0.043003,
        -0.050867,
        0.134675,
        -0.130651,
        -0.18374,
        0.228501,
        0.066745,
        0.068387,
        0.227371,
        -0.204838,
        -0.042002,
        -0.07111,
        -0.185239,
        0.198529,
        -0.15426,
        0.226559,
        -0.026983,
        0.010819,
        0.203408,
        0.222194,
        0.003638,
        -0.098329,
        -0.230058,
        0
      ],
      "bias": [
        0.046186,
        0.099343,
        -0.032669,
        -0.07939,
        0.095759,
        0.040751,
        -0.020821,
        -0.023599,
        0.01386,
        -0.03528,
        -0.014559,
        0.010113,
        -0.01295,
        -0.040572,
        -0.087785,
        -0.089584
      ]
    },
    {
      "activation": "tanh",
      "weights": [
        0.145209,
        -0.117382,
        0.139399,
        -0.044772,
        -0.16457,
        -0.003153,
        -0.130465,
        0.081885,
        -0.093797,
        0.00242,
        -0.180937,
        -0.072879,
        -0.146659,
        -0.132501,
        -0.107008,
        -0.173269,
        0.185663,
        0.097322,
        -0.038108,
        0.055499,
        0.046214,
        -0.002495,
        -0.077633,
        -0.099144,
        0.107305,
        -0.102883,
        -0.165521,
        -0.063068,
        0.070638,
        -0.162236,
        -0.082619,
        -0.144763,
        -0.196245,
        0.134942,
        -0.115601,
        -0.091751,
        0.044067,
        0.117908,
        -0.001184,
        0.122126,
        -0.098291,
        -0.14569,
        -0.068386,
        -0.065179,
        0.092476,
        0.165838,
        0.002416,
        -0.18417,
        0.132084,
        -0.05886,
        -0.115119,
        0.123837,
        -0.176985,
        -0.147749,
        -0.042199,
        0.158493,
        -0.134821,
        0.08079,
        0.183155,
        0.062591,
        0.121668,
        0.160174,
        -0.107635,
        -0.069122,
        0.170827,
        -0.05991,
        -0.038,
        0.18176,
        0.075909,
        -0.020506,
        0.160191,
        0.148147,
        -0.196444,
        0.174367,
        0.144992,
        -0.056314,
        -0.177643,
        -0.073509,
        -0.10405,
        -0.039358,
        -0.087261,
        0.059484,
        -0.139876,
        0.055658,
        0.119431,
        -0.011635,
        -0.00619,
        0.179667,
        -0.122242,
        0.148866,
        0.181217,
        -0.091809,
        -0.154989,
        0.192773,
        -0.188655,
        0.028272,
        -0.131847,
        -0.044469,
        -0.005679,
        -0.16169,
        -0.18091,
        -0.097644,
        -0.001565,
        -0.082974,
        0.128783,
        -0.140874,
        -0.010873,
        -0.182171,
        0.151431,
        0.134272,
        -0.148821,
        -0.155191,
        0.189981,
        0.037952,
        -0.024635,
        0.166636,
        -0.085777,
        0.104726,
        -0.009204,
        -0.175415,
        0.002707,
        0.026003,
        -0.07578,
        -0.109033,
        -0.06026,
        -0.001497,
        -0.032467,
        -0.065814,
        0.198711,
        0.094987,
        -0.065268,
        -0.153303,
        -0.057005,
        -0.036502,
        -0.010425,
        -0.007904,
        -0.124317,
        0.061368,
        -0.074799,
        -0.072389,
        -0.030605,
        0.130247,
        -0.023057,
        0.058226,
        -0.092587,
        -0.081611,
        -0.150401,
        -0.121306,
        0.1674,
        0.05646,
        -0.059592,
        0.159701,
        0.178943,
        -0.106892,
        0.038973,
        0.134407,
        0.086177,
        -0.003449,
        0.085394,
        0.04164,
        0,
        0,
        0,
        0,
        0,
        0,
        0,
        0,
        0,
        0,
        0,
        0,
        0,
        0,
        0,
        0
      ],
      "bias": [
        -0.013317,
        -0.017893,
        0.016962,
        -0.029507,
        -0.025435,
        -0.000958,
        -0.039779,
        0.035734,
        0.030949,
        0.047532,
        0
      ]
    }
  ],
  "meta": {
    "name": "Built on the Steppers",
    "slug": "built-on-the-steppers",
    "inputs": 24,
    "outputs": 11,
    "placeholder": true
  }
}
