{
  "input": 24,
  "normalization": {
    "mean": [
      0,
      0,
      0,
      0,
      0,
      0,
      0,
      0,
      0,
      0,
      0,
      0,
      0,
      0,
      0,
      0,
      0,
      0,
      0,
      0,
      0,
      0,
      0,
      0
    ],
    "std": [
      1,
      1,
      1,
      1,
      1,
      1,
      1,
      1,
      1,
      1,
      1,
      1,
      1,
      1,
      1,
      1,
      1,
      1,
      1,
      1,
      1,
      1,
      1,
      1
    ]
  },
  "layers": [
    {
      "activation": "relu",
      "weights": [
        -0.121244,
        -0.202799,
        -0.206973,
        -0.22776,
        0.168088,
        -0.071689,
        0.1037,
        -0.234008,
        -0.100427,
        -0.141007,
        0.247004,
        -0.240948,
        0.118952,
        -0.039079,
        0.187457,
        -0.077855,
        0.043141,
        0.177724,
        -0.16818,
        -0.235921,
        -0.060588,
        0.126212,
        0.079429,
        0,
        -0.167175,
        -0.151187,
        -0.077298,
        0.048781,
        -0.041898,
        0.099135,
        0.0235,
        0.238213,
        -0.112972,
        0.17775,
        -0.006387,
        0.003471,
        -0.210601,
        0.159615,
        0.242735,
        -0.140016,
        0.234159,
        0.010774,
        -0.107409,
        0.242666,
        -0.136373,
        0.21265,
        0.064689,
        0,
        -0.018963,
        0.117036,
        -0.222535,
        0.002538,
        -0.1275,
        -0.020046,
        -0.149932,
        0.067409,
        -0.138428,
        -0.138853,
        0.216518,
        -0.228309,
        -0.042122,
        -0.176557,
        0.164704,
        0.138907,
        0.150738,
        0.020164,
        -0.232659,
        -0.195551,
        0.203138,
        -0.186314,
        -0.217372,
        0,
        -0.103892,
        -0.167082,
        0.177694,
        -0.007092,
        -0.141561,
        -0.086031,
        0.109684,
        -0.073381,
        0.010047,
        -0.04473,
        -0.09471,
        0.033861,
        0.247837,
        0.24057,
        -0.229019,
        0.010892,
        -0.062693,
        0.136517,
        -0.123292,
        0.093859,
        0.152936,
        0.20207,
        0.075048,
        0,
        -0.232922,
        0.057725,
        -0.143017,
        0.138417,
        -0.043817,
        -0.164028,
        -0.007812,
        -0.009085,
        -0.098554,
        0.218326,
        0.029885,
        0.036354,
        0.031585,
        -0.23681,
        0.066148,
        -0.190948,
        -0.21662,
        0.183529,
        -0.14613,
        -0.201069,
        -0.062609,
        0.133164,
        0.008844,
        0,
        -0.072495,
        0.16511,
        -0.008416,
        -0.053194,
        -0.223703,
        0.107851,
        -0.188629,
        0.18425,
        -0.205724,
        -0.067315,
        0.217272,
        -0.239181,
        -0.164157,
        -0.064256,
        0.171006,
        0.166092,
        0.00596,
        -0.111802,
        0.140847,
        -0.221416,
        -0.08604,
        -0.054776,
        -0.159942,
        0,
        -0.050245,
        0.062621,
        0.063268,
        -0.176765,
        -0.009138,
        0.224046,
        -0.004072,
        -0.145374,
        -0.054551,
        -0.221069,
        0.063759,
        0.087478,
        0.155292,
        0.120767,
        0.018321,
        0.218492,
        -0.247376,
        -0.14845,
        -0.054235,
        -0.093573,
        -0.163573,
        0.12056,
        -0.219697,
        0,
        -0.131062,
        0.215634,
        0.08276,
        0.122831,
        0.19669,
        0.227025,
        0.078396,
        0.185058,
        0.048822,
        -0.23935,
        -0.239655,
        -0.195571,
        0.018825,
        -0.249415,
        0.020784,
        0.100157,
        0.084891,
        0.013826,
        0.193729,
        -0.034311,
        0.18379,
        -0.054857,
        0.13503,
        0,
        0.217906,
        0.072358,
        0.200709,
        -0.093646,
        -0.151627,
        -0.234368,
        0.128303,
        -0.085254,
        -0.053047,
        -0.034282,
        -0.173091,
        -0.015685,
        -0.006901,
        0.020437,
        -0.15647,
        -0.038393,
        -0.164867,
        0.075821,
        0.140008,
        0.081241,
        -0.197176,
        0.211522,
        0.08769,
        0,
        -0.056645,
        0.023578,
        -0.02681,
        -0.127274,
        0.079432,
        0.137563,
        -0.159116,
        -0.180163,
        0.208065,
        0.23206,
        -0.202409,
        -0.232663,
        -0.092764,
        -0.059627,
        -0.213108,
        -0.248748,
        0.054646,
        -0.224402,
        -0.026141,
        -0.118673,
        0.012688,
        -0.105428,
        -0.151766,
        0,
        -0.083265,
        0.159601,
        0.112307,
        -0.166041,
        0.174316,
        -0.006613,
        0.112223,
        0.194112,
        0.027139,
        0.160035,
        -0.077498,
        0.145315,
        -0.123784,
        -0.117368,
        -0.146144,
        0.220686,
        0.103165,
        -0.107088,
        0.219046,
        0.045376,
        0.136649,
        0.091806,
        -0.220557,
        0,
        -0.186227,
        -0.109604,
        -0.209436,
        -0.011044,
        -0.117566,
        -0.044392,
        0.009005,
        0.230631,
        0.017789,
        0.055588,
        -0.06755,
        -0.133751,
        -0.037298,
        -0.104628,
        -0.246077,
        0.044213,
        0.110942,
        0.16421,
        -0.246841,
        -0.163949,
        0.203625,
        0.073672,
        0.088987,
        0,
        -0.103145,
        0.086686,
        -0.060768,
        -0.093329,
        -0.030059,
        0.193458,
        -0.061897,
        -0.013264,
        0.181075,
        0.041406,
        -0.198835,
        -0.213131,
        0.192556,
        0.157082,
        -0.178213,
        -0.146547,
        -0.08753,
        -0.03163,
        0.189348,
        0.204286,
        0.079444,
        -0.171924,
        -0.21971,
        0,
        -0.090945,
        0.168188,
        -0.042076,
        0.164489,
        0.219126,
        0.186163,
        0.227036,
        0.209785,
        0.223217,
        0.05666,
        -0.196067,
        -0.207546,
        0.130509,
        -0.091366,
        -0.153853,
        0.246465,
        -0.09224,
        0.218572,
        0.01648,
        -0.190695,
        0.121989,
        -0.125259,
        0.240001,
        0,
        -0.052791,
        -0.034716,
        -0.140905,
        0.240812,
        0.067589,
        0.063306,
        -0.132815,
        0.022672,
        -0.248508,
        -0.205953,
        -0.18864,
        0.082531,
        -0.236121,
        -0.031603,
        -0.222415,
        -0.228971,
        0.224556,
        -0.150898,
        0.131185,
        -0.160957,
        -0.052439,
        0.109651,
        0.091826,
        0,
        -0.165686,
        0.081817,
        -0.040323,
        0.22305,
        0.137252,
        -0.189127,
        -0.211582,
        -0.093334,
        0.049955,
        -0.005467,
        -0.19719,
        -0.002674,
        -0.022492,
        -0.239804,
        -0.238232,
        -0.022418,
        -0.134357,
        0.176717,
        0.033229,
        0.05875,
        0.183797,
        -0.231408,
        -0.174502,
        0
      ],
      "bias": [
        -0.080848,
        -0.05294,
        -0.09868,
        0.027795,
        -0.029539,
        -0.095924,
        0.003837,
        0.021355,
        0.083613,
        0.086157,
        -0.036179,
        0.014538,
        -0.086626,
        0.061415,
        -0.091105,
        0.077085
      ]
    },
    {
      "activation": "tanh",
      "weights": [
        0.033838,
        -0.014186,
        -0.142616,
        -0.109275,
        -0.190566,
        -0.062066,
        0.125894,
        0.172794,
        -0.166756,
        -0.077836,
        -0.10479,
        0.031993,
        -0.197446,
        -0.150142,
        0.044124,
        0.023211,
        -0.146066,
        0.020401,
        0.101318,
        0.021023,
        -0.195917,
        0.189692,
        -0.076876,
        -0.131943,
        0.066063,
        -0.181295,
        0.112299,
        -0.143448,
        0.197177,
        0.133374,
        0.184066,
        0.124389,
        -0.065268,
        -0.072939,
        -0.014332,
        0.146809,
        0.075951,
        -0.063153,
        -0.024311,
        0.00509,
        -0.141731,
        -0.075092,
        0.069393,
        0.01343,
        -0.003733,
        -0.103787,
        0.056324,
        0.185274,
        -0.16849,
        0.183803,
        -0.103572,
        -0.079642,
        -0.048491,
        0.032895,
        -0.09907,
        -0.006308,
        0.134085,
        0.01507,
        0.104242,
        -0.172246,
        0.173367,
        0.103786,
        -0.166879,
        -0.070862,
        0.04369,
        0.142464,
        0.179354,
        -0.1291,
        -0.042382,
        -0.063588,
        0.182202,
        -0.09814,
        0.174377,
        -0.100181,
        0.026862,
        -0.035893,
        0.114908,
        0.089082,
        -0.134804,
        -0.000042,
        0.03983,
        -0.04629,
        0.164972,
        -0.070381,
        -0.153469,
        0.036051,
        -0.006123,
        0.180797,
        0.041651,
        0.151107,
        0.144534,
        0.151522,
        0.045212,
        -0.12233,
        0.106801,
        0.087411,
        -0.117366,
        0.092034,
        -0.00643,
        -0.045351,
        -0.17911,
        -0.024455,
        -0.17366,
        0.189909,
        -0.194946,
        0.027219,
        -0.113194,
        0.108487,
        -0.148507,
        0.112694,
        -0.059292,
        -0.148119,
        -0.146057,
        0.080757,
        0.040204,
        -0.143919,
        0.158728,
        0.178702,
        0.110996,
        -0.078195,
        -0.034627,
        0.197763,
        0.03049,
        0.067943,
        -0.091145,
        -0.020122,
        0.003202,
        -0.150548,
        0.079739,
        0.017029,
        -0.060307,
        0.120956,
        0.03847,
        0.174411,
        -0.154737,
        0.127296,
        -0.119963,
        -0.13132,
        0.124665,
        0.102283,
        -0.094709,
        -0.067474,
        0.009084,
        0.056913,
        0.155147,
        0.096829,
        0.011624,
        -0.06173,
        -0.036069,
        0.121639,
        0.017573,
        0.040396,
        0.188114,
        -0.092765,
        -0.084325,
        -0.151645,
        0.066687,
        0.016516,
        0.176669,
        -0.003245,
        0,
        0,
        0,
        0,
        0,
        0,
        0,
        0,
        0,
        0,
        0,
        0,
        0,
        0,
        0,
        0
      ],
      "bias": [
        -0.007643,
        0.03499,
        -0.028663,
        0.030993,
        0.047329,
        -0.016393,
        -0.041906,
        -0.024169,
        0.008828,
        -0.008244,
        0
      ]
    }
  ],
  "meta": {
    "name": "Cloud",
    "slug": "cloud",
    "inputs": 24,
    "outputs": 11,
    "placeholder": true
  }
}
