{
  "input": 24,
  "normalization": {
    "mean": [
      0,
      0,
      0,
      0,
      0,
      0,
      0,
      0,
      0,
      0,
      0,
      0,
      0,
      0,
      0,
      0,
      0,
      0,
      0,
      0,
      0,
      0,
      0,
      0
    ],
    "std": [
      1,
      1,
      1,
      1,
      1,
      1,
      1,
      1,
      1,
      1,
      1,
      1,
      1,
      1,
      1,
      1,
      1,
      1,
      1,
      1,
      1,
      1,
      1,
      1
    ]
  },
  "layers": [
    {
      "activation": "relu",
      "weights": [
        -0.03960529714822769,
        0.11423398554325104,
        -0.2892400324344635,
        0.0676909014582634,
        -0.1482146978378296,
        0.2125929892063141,
        0.10539636760950089,
        -0.3320139944553375,
        0.0494728609919548,
        0.0528913177549839,
        0.29189804196357727,
        -0.2666359841823578,
        -0.043068114668130875,
        0.25676578283309937,
        0.28364962339401245,
        -0.3469463288784027,
        -0.020006747916340828,
        0.019668590277433395,
        -0.22470568120479584,
        0.14410853385925293,
        0.21702618896961212,
        0.3238667845726013,
        0.14083588123321533,
        -0.32246312499046326,
        -0.15772482752799988,
        -0.3225371539592743,
        0.12291618436574936,
        -0.07731420546770096,
        0.03908794745802879,
        -0.10313989967107773,
        0.007487098686397076,
        -0.05013025924563408,
        -0.023469112813472748,
        0.10154644399881363,
        0.12598514556884766,
        -0.30291256308555603,
        -0.3467850685119629,
        -0.2059488743543625,
        0.25007882714271545,
        0.2501108944416046,
        -0.1331556737422943,
        0.17530237138271332,
        0.31149357557296753,
        0.052013594657182693,
        -0.31486305594444275,
        -0.32747682929039,
        0.2808447778224945,
        0.14343947172164917,
        -0.2757570445537567,
        0.26271530985832214,
        0.3281306028366089,
        0.28303200006484985,
        -0.07135381549596786,
        -0.24101397395133972,
        0.012529974803328514,
        -0.12869895994663239,
        -0.2915540039539337,
        0.10992023348808289,
        0.044117845594882965,
        0.13497884571552277,
        -0.30551740527153015,
        0.1591985821723938,
        0.09277073293924332,
        0.16250461339950562,
        0.04025188833475113,
        -0.001327442703768611,
        0.11315206438302994,
        0.1416504681110382,
        -0.32244762778282166,
        0.09005589038133621,
        0.03283829614520073,
        -0.16534778475761414,
        -0.2636494040489197,
        0.19849783182144165,
        0.16195668280124664,
        -0.3459451198577881,
        -0.26264655590057373,
        0.33295655250549316,
        0.2836098074913025,
        0.14879634976387024,
        0.115284264087677,
        0.33555975556373596,
        0.03976049646735191,
        0.11491533368825912,
        0.16572396457195282,
        0.24560332298278809,
        -0.19830265641212463,
        0.10760971158742905,
        0.2037431001663208,
        -0.3291693925857544,
        0.1221463531255722,
        0.13144594430923462,
        0.15677416324615479,
        0.035770803689956665,
        0.295983225107193,
        0.08585101366043091,
        0.008443445898592472,
        0.08783526718616486,
        0.16158126294612885,
        -0.2288849800825119,
        -0.04123985394835472,
        -0.1312265545129776,
        -0.05077099800109863,
        -0.07112117856740952,
        -0.1413794606924057,
        0.29945239424705505,
        -0.20395538210868835,
        0.02931303158402443,
        0.24837429821491241,
        -0.06740105897188187,
        -0.21682342886924744,
        0.032597027719020844,
        0.2220853865146637,
        -0.16530467569828033,
        -0.30016979575157166,
        0.21620485186576843,
        0.090858094394207,
        -0.267269104719162,
        -0.32194840908050537,
        0.23005865514278412,
        -0.08994369208812714,
        -0.1765943467617035,
        -0.2934335768222809,
        -0.222392275929451,
        0.3216414451599121,
        0.1699669510126114,
        -0.2608901858329773,
        -0.018096132203936577,
        0.1844773143529892,
        0.3027828335762024,
        -0.23489831387996674,
        -0.0300007127225399,
        -0.018895696848630905,
        0.2539231777191162,
        0.3311276137828827,
        -0.3151697516441345,
        -0.2122066468000412,
        -0.036864638328552246,
        -0.1355968862771988,
        -0.03853289783000946,
        -0.0438283309340477,
        0.21291549503803253,
        0.17924921214580536,
        0.1739778369665146,
        0.1175006702542305,
        -0.13904212415218353,
        -0.03586609289050102,
        0.18828518688678741,
        0.2892409563064575,
        -0.3373996615409851,
        -0.24103006720542908,
        0.3220987319946289,
        -0.212285578250885,
        0.09827681630849838,
        -0.185109481215477,
        -0.09626933187246323,
        -0.0000777618697611615,
        0.25875893235206604,
        0.05377611517906189,
        0.08169210702180862,
        0.015154681168496609,
        0.06371971219778061,
        0.015878750011324883,
        0.05345829203724861,
        -0.30286598205566406,
        -0.2545187771320343,
        -0.14263807237148285,
        0.33660629391670227,
        -0.2557924687862396,
        -0.19965307414531708,
        -0.33002007007598877,
        0.08795549720525742,
        0.26633039116859436,
        0.047792550176382065,
        0.2729787528514862,
        -0.28029051423072815,
        -0.20261839032173157,
        -0.18636448681354523,
        -0.3255508542060852,
        0.07055056840181351,
        -0.3059588074684143,
        0.3242230713367462,
        -0.13705205917358398,
        0.009951096959412098,
        0.11394640058279037,
        -0.07589081674814224,
        -0.11088775098323822,
        0.23104016482830048,
        -0.20180320739746094,
        0.08297757059335709,
        -0.13096611201763153,
        0.22808684408664703,
        -0.27861589193344116,
        0.03955191373825073,
        -0.1752440184354782,
        0.0341666080057621,
        0.3310827910900116,
        0.19212520122528076,
        -0.022096525877714157,
        -0.24746547639369965,
        -0.2930690050125122,
        0.19911979138851166,
        -0.30449554324150085,
        -0.1295171082019806,
        0.29040488600730896,
        -0.03250167891383171,
        -0.15936104953289032,
        0.02378765493631363,
        -0.1399720311164856,
        0.1422722339630127,
        -0.051526665687561035,
        0.17395193874835968,
        0.0770474299788475,
        0.16785819828510284,
        -0.20889921486377716,
        -0.08798692375421524,
        0.21685832738876343,
        -0.23711392283439636,
        -0.26354458928108215,
        0.2929227352142334,
        -0.19791610538959503,
        0.04056103527545929,
        -0.13135698437690735,
        0.08671680092811584,
        0.29402977228164673,
        0.13966314494609833,
        0.206803098320961,
        -0.03641538321971893,
        -0.006425733678042889,
        0.1805216372013092,
        0.3190833330154419,
        0.29888492822647095,
        -0.08051621168851852,
        -0.008431432768702507,
        -0.11178265511989594,
        -0.04054579138755798,
        0.09931064397096634,
        0.28990042209625244,
        -0.021738629788160324,
        0.2951167821884155,
        0.116806261241436,
        -0.21476906538009644,
        -0.056942980736494064,
        0.21392275393009186,
        0.3222533166408539,
        -0.032155584543943405,
        0.32902058959007263,
        0.31916046142578125,
        -0.11256487667560577,
        -0.10928863286972046,
        -0.01753983274102211,
        -0.12517589330673218,
        0.0038385947700589895,
        0.12029075622558594,
        -0.08511974662542343,
        -0.03703007474541664,
        0.34628361463546753,
        -0.1347186416387558,
        0.051918089389801025,
        0.20227916538715363,
        0.20832674205303192,
        -0.047498881816864014,
        -0.20420856773853302,
        -0.3181474506855011,
        -0.28886550664901733,
        -0.2198110818862915,
        -0.3270535171031952,
        0.0227988101541996,
        -0.1823670119047165,
        -0.24958392977714539,
        -0.3294035494327545,
        0.3265969157218933,
        0.016062071546912193,
        0.02389340288937092,
        -0.04197755455970764,
        0.188099205493927,
        -0.15786761045455933,
        -0.14276163280010223,
        0.08777209371328354,
        0.1248173788189888,
        0.2323954999446869,
        0.1478716880083084,
        0.08547516912221909,
        0.3481631577014923,
        0.1639626920223236,
        0.2036191076040268,
        -0.010997828096151352,
        -0.17291593551635742,
        0.15613962709903717,
        -0.27533549070358276,
        -0.03704066574573517,
        -0.31580474972724915,
        -0.09276145696640015,
        0.017626725137233734,
        -0.220611110329628,
        -0.08871322870254517,
        -0.12866824865341187,
        0.009242923930287361,
        0.27109792828559875,
        0.2302110195159912,
        -0.2015555202960968,
        -0.3313353657722473,
        -0.010000037029385567,
        0.17921118438243866,
        -0.34561842679977417,
        0.31236931681632996,
        -0.019887425005435944,
        0.30052217841148376,
        0.31510671973228455,
        -0.015293875709176064,
        0.09418691694736481,
        0.12040942162275314,
        0.13927535712718964,
        -0.0948241576552391,
        0.275858610868454,
        -0.08012242615222931,
        -0.08280371874570847,
        -0.32931944727897644,
        -0.31377750635147095,
        -0.1466774046421051,
        0.05794999375939369,
        0.06887484341859818,
        -0.1322840452194214,
        -0.09443669766187668,
        0.3120156526565552,
        0.008032575249671936,
        0.3382633924484253,
        0.139739990234375,
        0.281161367893219,
        -0.2799983620643616,
        0.17328161001205444,
        -0.1232159435749054,
        0.17602849006652832,
        0.031212838366627693,
        -0.2824445962905884,
        0.3262689411640167,
        0.27447375655174255,
        -0.17986734211444855,
        -0.34504395723342896,
        0.27046236395835876,
        -0.31758806109428406,
        0.04382555931806564,
        0.24765388667583466,
        -0.06469865143299103,
        0.15021063387393951,
        0.2108786702156067,
        -0.11247894167900085,
        -0.08775920420885086,
        0.2258111536502838,
        0.0895899310708046,
        -0.14584285020828247,
        0.06354621797800064,
        0.20698487758636475,
        0.2990325093269348,
        0.3057490587234497,
        0.27747347950935364,
        0.22436818480491638,
        -0.03583524376153946,
        0.12197200208902359,
        -0.2740894854068756,
        0.07091277837753296,
        0.2357371598482132,
        0.1732426881790161,
        -0.298491507768631,
        0.12928250432014465,
        0.2770128846168518,
        0.19522930681705475,
        -0.13555888831615448,
        0.016917197033762932,
        0.08733246475458145,
        0.07848256081342697,
        0.18605898320674896,
        0.07021144777536392,
        -0.2585413455963135,
        0.29894596338272095,
        0.13199563324451447,
        0.15147049725055695,
        -0.213384211063385,
        -0.15686675906181335,
        0.05576136335730553,
        0.04184035584330559,
        -0.13250909745693207,
        0.1468367576599121,
        -0.29945996403694153
      ],
      "bias": [
        0.10656923800706863,
        0.2214754968881607,
        -0.13491490483283997,
        0.16069746017456055,
        0.11019202321767807,
        -0.07809732854366302,
        0.003654622007161379,
        -0.030572792515158653,
        -0.1994820237159729,
        0.0711478441953659,
        0.1617024838924408,
        -0.0735878273844719,
        -0.013785604387521744,
        -0.0634937584400177,
        -0.045206110924482346,
        0.09745529294013977
      ]
    },
    {
      "activation": "tanh",
      "weights": [
        0.08344586193561554,
        -0.18531280755996704,
        -0.048414092510938644,
        0.27669757604599,
        0.2949267625808716,
        -0.01912306249141693,
        -0.2887716591358185,
        0.08789210021495819,
        -0.28311824798583984,
        -0.11125555634498596,
        0.07065755873918533,
        -0.23389162123203278,
        0.20106180012226105,
        -0.27671360969543457,
        -0.07456164062023163,
        -0.3368968665599823,
        0.04860991984605789,
        0.17485247552394867,
        0.2472730129957199,
        -0.17238302528858185,
        -0.3219466507434845,
        0.010183542966842651,
        0.18734818696975708,
        -0.013757220469415188,
        0.10989534109830856,
        0.04039064794778824,
        0.21865853667259216,
        -0.28088873624801636,
        -0.20245574414730072,
        0.11311861872673035,
        0.10671257227659225,
        0.10820605605840683,
        -0.15348854660987854,
        -0.08196979016065598,
        0.20577840507030487,
        -0.01784438267350197,
        0.3305557370185852,
        0.07790649682283401,
        0.012163069099187851,
        0.17532384395599365,
        -0.2562793493270874,
        0.31108590960502625,
        0.3272036910057068,
        -0.15453873574733734,
        0.12359897047281265,
        -0.11115268617868423,
        0.2534979581832886,
        -0.27245068550109863,
        0.11584330350160599,
        0.05630612373352051,
        0.23523376882076263,
        -0.14993542432785034,
        -0.05170312523841858,
        0.24901479482650757,
        0.044412411749362946,
        0.032137397676706314,
        0.2566072344779968,
        0.21260254085063934,
        -0.0955425500869751,
        -0.12903083860874176,
        -0.22883298993110657,
        0.15876629948616028,
        -0.14056064188480377,
        0.32245832681655884,
        -0.1860869973897934,
        -0.24715787172317505,
        -0.044275593012571335,
        -0.10993099212646484,
        -0.3302752375602722,
        -0.14770548045635223,
        0.2207959145307541,
        0.3118577301502228,
        -0.27865245938301086,
        0.17975161969661713,
        -0.3288334608078003,
        -0.3272072672843933,
        0.03700389340519905,
        -0.12448041886091232,
        0.04006236046552658,
        -0.1573316603899002,
        0.08905088901519775,
        0.3334715962409973,
        0.3260156214237213,
        0.3168777525424957,
        -0.19073356688022614,
        0.07685926556587219,
        -0.3492277264595032,
        0.2032591849565506,
        -0.020312169566750526,
        -0.2984178960323334,
        0.3452439308166504,
        -0.12475737929344177,
        -0.1203596442937851,
        0.21006470918655396,
        0.09394200891256332,
        -0.041667498648166656,
        0.04086344689130783,
        -0.04677455499768257,
        0.26366424560546875,
        0.0718742311000824,
        0.061546795070171356,
        -0.0452045239508152,
        -0.28824499249458313,
        -0.09294170141220093,
        -0.144061878323555,
        -0.05494764447212219,
        0.08786369860172272,
        -0.3080137372016907,
        -0.17847684025764465,
        0.14691436290740967,
        0.07837872207164764,
        -0.24651573598384857,
        0.22770968079566956,
        -0.14971564710140228,
        -0.20638708770275116,
        0.29864856600761414,
        0.26255694031715393,
        0.13751614093780518,
        0.20495200157165527,
        0.2906094193458557,
        -0.3187439441680908,
        0.040237437933683395,
        0.04907914996147156,
        0.22389796376228333,
        0.09700721502304077,
        -0.2900543212890625,
        -0.30928197503089905,
        -0.07765085250139236,
        -0.05936459079384804,
        0.09951552003622055,
        -0.013493658043444157,
        -0.04352255165576935,
        0.19617536664009094,
        0.2581614851951599,
        0.2875245213508606,
        0.02655499242246151,
        -0.006061711348593235,
        0.30367252230644226,
        -0.0454815998673439,
        -0.04859491065144539,
        0.022213920950889587,
        0.11247973889112473,
        -0.3151726722717285,
        0.10050079971551895,
        -0.1989581137895584,
        -0.18153004348278046,
        -0.03974085673689842,
        -0.11558082699775696,
        -0.11275412887334824,
        0.15179800987243652,
        -0.0285920612514019,
        -0.1426161229610443,
        -0.2028741091489792,
        0.14041276276111603,
        0.19134685397148132,
        0.08435898274183273,
        -0.10256342589855194,
        -0.23916886746883392,
        -0.3236803412437439,
        -0.312732458114624,
        0.00897504948079586,
        0.015720907598733902,
        0.2134678214788437,
        0.05662987381219864,
        -0.02021857537329197,
        -0.11184036731719971,
        0.17322371900081635,
        -0.10876603424549103,
        0.15430454909801483,
        0.157692551612854,
        -0.0885055810213089,
        0.31185343861579895,
        -0.2250613570213318,
        0.26586633920669556,
        -0.26759767532348633,
        -0.016165796667337418
      ],
      "bias": [
        0.0135722691193223,
        -0.15591134130954742,
        0.14714697003364563,
        0.13374783098697662,
        0.23392927646636963,
        0.09273675829172134,
        -0.0959000512957573,
        0.1922004222869873,
        -0.14343836903572083,
        -0.04027123749256134,
        -0.05717448890209198
      ]
    }
  ],
  "meta": {
    "name": "Cloud",
    "slug": "cloud",
    "inputs": 24,
    "outputs": 11,
    "placeholder": true,
    "generated": "2025-10-21T15:22:04.838Z"
  }
}
