{
  "input": 24,
  "normalization": {
    "mean": [
      -0.0015816355589777231,
      0.0037937292363494635,
      -0.020681103691458702,
      -0.0003244475519750267,
      0.008574063889682293,
      0.49909162521362305,
      0.505317747592926,
      0.4983554780483246,
      0.5064722299575806,
      -0.017573727294802666,
      -0.0006740318494848907,
      0.006445287726819515,
      -0.011656757444143295,
      -0.0014360882341861725,
      -0.012424393557012081,
      -0.0013100957730785012,
      0.0019389144144952297,
      0.010263826698064804,
      -0.004477422218769789,
      -0.004519790876656771,
      0.5048945546150208,
      0.49933895468711853,
      0.4970288574695587,
      0.4948752224445343
    ],
    "std": [
      0.5754883885383606,
      0.5776244401931763,
      0.5796046257019043,
      0.5725311040878296,
      0.5795776844024658,
      0.28913038969039917,
      0.28921663761138916,
      0.2881346642971039,
      0.29014500975608826,
      0.5782427191734314,
      0.5793614387512207,
      0.5767040252685547,
      0.5762503147125244,
      0.5900800228118896,
      0.5803245902061462,
      0.5821450352668762,
      0.5800772905349731,
      0.5807924270629883,
      0.5817790031433105,
      0.5757710933685303,
      0.28731784224510193,
      0.2900886535644531,
      0.29140129685401917,
      0.28517740964889526
    ]
  },
  "layers": [
    {
      "activation": "relu",
      "weights": [
        0.0038558202795684338,
        -1.049880862236023,
        -0.001682216883637011,
        0.0068574221804738045,
        -0.002218669280409813,
        -0.005094439722597599,
        0.0014351498102769256,
        -0.0036818410735577345,
        0.00018018634000327438,
        -0.0008496973314322531,
        -0.006420067977160215,
        -0.0036472948268055916,
        -0.015262597240507603,
        0.007527943234890699,
        -0.004430217202752829,
        0.010927969589829445,
        0.00947196502238512,
        0.0019044759683310986,
        0.008549712598323822,
        -0.009949552826583385,
        -0.00004371197792352177,
        -0.012926818802952766,
        0.006179990246891975,
        0.003046032041311264,
        0.001451300224289298,
        0.0720120295882225,
        -0.0000044339053602016065,
        1.1343708038330078,
        -0.00001656272797845304,
        -0.0006009776843711734,
        0.0003397856780793518,
        -0.0010908335680142045,
        0.0008700944017618895,
        0.0001671831269050017,
        -0.0035634119994938374,
        -0.0012506787898018956,
        0.0659482330083847,
        0.5430269241333008,
        -0.0009583017090335488,
        0.004432165529578924,
        0.00332257361151278,
        0.0015937755815684795,
        0.006291126366704702,
        -0.003168330993503332,
        0.0008945693843998015,
        -0.00430321553722024,
        -0.0018441540887579322,
        0.002991829067468643,
        -0.0033083646558225155,
        0.49944552779197693,
        -0.0006873297388665378,
        -0.007982895709574223,
        -0.00020787502580787987,
        0.0030120296869426966,
        -0.0006507290527224541,
        0.010116823017597198,
        -0.0006961660110391676,
        -0.005283868405967951,
        0.025708265602588654,
        0.009471830911934376,
        0.5928126573562622,
        -0.034743230789899826,
        0.014389574527740479,
        -0.022646185010671616,
        -0.017281895503401756,
        0.0052947052754461765,
        -0.02652270719408989,
        0.0157555490732193,
        0.00540699390694499,
        0.026493560522794724,
        -0.004112561233341694,
        -0.011560666374862194,
        -0.0021570974495261908,
        0.0023233224637806416,
        0.00950366910547018,
        -0.0021375613287091255,
        -0.0017918961821123958,
        0.004530512262135744,
        -0.002438379218801856,
        0.0042989314533770084,
        -0.0006773906643502414,
        -0.00013629338354803622,
        -0.0015037570847198367,
        -0.0028650967869907618,
        0.0028395499102771282,
        -1.1287144422531128,
        -0.0028197213541716337,
        -0.001991061959415674,
        -0.0037503973580896854,
        0.0012469040229916573,
        0.0007536064949817955,
        0.002331659896299243,
        0.0031685112044215202,
        -0.0026233624666929245,
        -0.001687794690951705,
        0.0008308369433507323,
        -0.10867805778980255,
        -0.014120475389063358,
        0.06609014421701431,
        0.14810021221637726,
        -0.0041191973723471165,
        -0.16824741661548615,
        0.008206231519579887,
        -0.012361617758870125,
        0.2374451905488968,
        -0.13542605936527252,
        -0.13730379939079285,
        -0.3169741928577423,
        -0.006968039553612471,
        0.059280503541231155,
        -0.13781870901584625,
        0.1265164464712143,
        -0.06431802362203598,
        0.02764968015253544,
        0.21596364676952362,
        -0.0674913078546524,
        0.2064797580242157,
        -0.059011686593294144,
        0.24855338037014008,
        -0.046120915561914444,
        0.0030678107868880033,
        0.2877582311630249,
        0.00038207252509891987,
        -0.40315937995910645,
        0.0008513314533047378,
        -0.0060807703994214535,
        0.006326195318251848,
        -0.014618088491261005,
        0.00013387150829657912,
        -0.002318826038390398,
        -0.024613989517092705,
        -0.015548267401754856,
        0.24105475842952728,
        0.796630859375,
        -0.008247673511505127,
        0.0216947291046381,
        0.01012376882135868,
        -0.00863463245332241,
        0.030283167958259583,
        -0.014569807797670364,
        -0.007275878917425871,
        -0.02458178997039795,
        0.0058031282387673855,
        0.007894903421401978,
        0.0022250593174248934,
        -0.0009584889630787075,
        -0.00003552356065483764,
        0.8126516342163086,
        -0.0006198389455676079,
        -0.0010537143098190427,
        0.0002881606633309275,
        0.001987338298931718,
        0.0020703605841845274,
        0.0011092080967500806,
        -0.00015540473395958543,
        0.0013769539073109627,
        -0.0008251288672909141,
        -0.0020894715562462807,
        -0.001054180902428925,
        -0.0008481726981699467,
        0.0013293623924255371,
        0.0033850055187940598,
        -0.0001759785955073312,
        -0.0008105368469841778,
        0.004134158603847027,
        -0.0005316969472914934,
        -0.0019442534539848566,
        0.0012079784646630287,
        -0.002385246567428112,
        -0.06890446692705154,
        0.0012584769865497947,
        -1.1042611598968506,
        -0.00027465299353934824,
        0.0009308852022513747,
        -0.0011526364833116531,
        0.0014933967031538486,
        -0.000766057288274169,
        0.0004493229789659381,
        0.004293757490813732,
        0.0029870355501770973,
        -0.06282734870910645,
        -0.5253695249557495,
        0.0018786689033731818,
        -0.003262850223109126,
        -0.002250395016744733,
        0.00007981522503541782,
        -0.0030641143675893545,
        0.002655050018802285,
        -0.0009855089010670781,
        0.00567503459751606,
        0.0006497236900031567,
        -0.0019027332309633493,
        -0.002317282138392329,
        -0.2870214879512787,
        0.0025251025799661875,
        0.39941731095314026,
        -0.00155910465400666,
        0.003997755702584982,
        -0.004694988951086998,
        0.01672964356839657,
        -0.0025885647628456354,
        0.0006545020150952041,
        0.023999834433197975,
        0.01713598519563675,
        -0.23466597497463226,
        -0.7854833006858826,
        0.01015874557197094,
        -0.020403781905770302,
        -0.012880345806479454,
        0.010276922024786472,
        -0.028965478762984276,
        0.015143300406634808,
        0.007599331438541412,
        0.023985829204320908,
        -0.00607008021324873,
        -0.01064981333911419,
        -0.0015175838489085436,
        1.0629546642303467,
        0.0020387209951877594,
        -0.002766039688140154,
        -0.004172648768872023,
        -0.00030371439061127603,
        -0.0009488657815381885,
        0.004337644670158625,
        -0.00014507582818623632,
        -0.0027459526900202036,
        0.01318931020796299,
        0.004824943374842405,
        0.01192796602845192,
        -0.014213469810783863,
        0.0024144009221345186,
        -0.006439249496906996,
        -0.01127290166914463,
        0.001384994015097618,
        -0.006543638184666634,
        0.011559180915355682,
        0.004910837858915329,
        0.010554141364991665,
        -0.005195736885070801,
        -0.0044599720276892185,
        -0.09522080421447754,
        -0.22134080529212952,
        0.014577530324459076,
        -0.05716712772846222,
        -0.01524848211556673,
        -0.015697386115789413,
        0.1320216953754425,
        -0.07031772285699844,
        -0.06926131993532181,
        -0.006305495277047157,
        -0.08554616570472717,
        -0.071749247610569,
        0.3820480704307556,
        0.36016660928726196,
        0.03517239913344383,
        -0.016303416341543198,
        -0.07249220460653305,
        -0.11169268190860748,
        0.12647950649261475,
        0.045801278203725815,
        0.0013590619200840592,
        -0.014308552257716656,
        0.009557678364217281,
        -0.00287813157774508,
        -0.04654110223054886,
        -0.2140691578388214,
        0.03845955803990364,
        -0.054330915212631226,
        -0.02258279174566269,
        0.09249608218669891,
        -0.047424789518117905,
        0.09186763316392899,
        -0.06571074575185776,
        0.10630102455615997,
        0.043724916875362396,
        0.13882184028625488,
        -0.3073950409889221,
        -0.4229015111923218,
        0.010283276438713074,
        -0.04672964662313461,
        0.05562708154320717,
        -0.013482136651873589,
        -0.08849920332431793,
        0.0134861059486866,
        0.04116959869861603,
        -0.0541769303381443,
        -0.0225837305188179,
        -0.08818968385457993,
        -0.0005918638780713081,
        -0.00442869309335947,
        -0.004486592020839453,
        0.8141680955886841,
        0.0003922880860045552,
        -0.007390560116618872,
        -0.002305536298081279,
        0.0006672684685327113,
        -0.0026254241820424795,
        -0.0003609972191043198,
        0.0017248739022761583,
        -0.0008446367573924363,
        0.0004631824849639088,
        0.004113675095140934,
        -0.004987629130482674,
        0.004895373713225126,
        0.0006378046819008887,
        -0.0025142980739474297,
        -0.007638726849108934,
        0.0018216115422546864,
        0.002687235362827778,
        -0.0020568803884088993,
        -0.00469033420085907,
        0.0008533273939974606,
        -0.0037707281298935413,
        -0.10827537626028061,
        0.0023319225292652845,
        -0.21891474723815918,
        -0.001534581882879138,
        0.004962140694260597,
        -0.0036648937966674566,
        0.013282186351716518,
        -0.004303428810089827,
        -0.0011022421531379223,
        0.02183205634355545,
        0.011446978896856308,
        -0.08492464572191238,
        0.4272977113723755,
        0.01076776534318924,
        -0.018390635028481483,
        -0.012035541236400604,
        0.005439804866909981,
        -0.027281057089567184,
        0.014080659486353397,
        0.003971826750785112,
        0.02240213379263878,
        -0.006200217176228762,
        -0.008355147205293179,
        0.005848676431924105,
        -0.5343385338783264,
        -0.0019560123328119516,
        0.00869570393115282,
        -0.0002174584224121645,
        -0.0017353709554299712,
        -0.0030621211044490337,
        -0.011876420117914677,
        0.001104539493098855,
        0.0038100131787359715,
        -0.02026219107210636,
        -0.006067476700991392,
        -0.6010133028030396,
        0.021260173991322517,
        -0.007405074778944254,
        0.020006896927952766,
        0.015045983716845512,
        -0.00457929028198123,
        0.021349307149648666,
        -0.015464164316654205,
        -0.004955190699547529,
        -0.023579567670822144,
        0.005662309005856514,
        0.005554788745939732,
        -0.002722762990742922,
        -0.006833549123257399,
        -0.0033773407340049744,
        -0.002919685561209917,
        -0.0023782106582075357,
        -0.0012303550029173493,
        0.0003139997133985162,
        -0.00047423140495084226,
        0.0013979390496388078,
        -0.0038162560667842627,
        -0.0005959530244581401,
        0.0023867450654506683,
        0.004753760527819395,
        1.08246910572052,
        0.0021509435027837753,
        -0.0012053672689944506,
        0.0006507513462565839,
        -0.0003054510452784598,
        0.0009526431676931679,
        -0.001353565021418035,
        0.0016003665514290333,
        -0.0034276521764695644,
        0.002392237074673176,
        -0.0002689510292839259
      ],
      "bias": [
        -0.2406259924173355,
        0.11805134266614914,
        0.3802207112312317,
        -1.231656789779663,
        -0.04234922304749489,
        -0.26389387249946594,
        0.7950888872146606,
        -0.11995800584554672,
        0.2519255578517914,
        -0.02384561114013195,
        0.2124435156583786,
        -0.005082190968096256,
        -0.8053940534591675,
        1.1831499338150024,
        -0.5406717658042908,
        -1.1699389219284058
      ]
    },
    {
      "activation": "tanh",
      "weights": [
        0.015555489808321,
        0.2333850860595703,
        -0.09794171154499054,
        -0.9972683787345886,
        -0.003041221760213375,
        0.36668169498443604,
        -0.00316726160235703,
        -0.24065640568733215,
        -0.3676735758781433,
        -0.02012452483177185,
        -0.006952083669602871,
        0.001226929947733879,
        0.00046903654583729804,
        0.5297020077705383,
        0.10007721930742264,
        0.9775094389915466,
        -0.807517945766449,
        0.007542473264038563,
        -0.06447688490152359,
        -0.008719155564904213,
        0.0008462476544082165,
        0.09774162620306015,
        -0.005849791225045919,
        -0.00859483890235424,
        -0.08841889351606369,
        0.7348858118057251,
        -0.017870552837848663,
        0.01574329473078251,
        0.0014971838099882007,
        -0.15649856626987457,
        0.07669203728437424,
        -0.0037125847302377224,
        0.3182682991027832,
        0.11465860158205032,
        0.03695350140333176,
        0.025919610634446144,
        0.2200765758752823,
        -0.2628105878829956,
        0.26518240571022034,
        -0.02224445715546608,
        0.14539997279644012,
        0.03073139861226082,
        0.06508355587720871,
        -0.09545871615409851,
        0.2823088765144348,
        -0.3450787663459778,
        -0.24429023265838623,
        -0.010530529543757439,
        0.08223741501569748,
        -0.2910333573818207,
        0.1982721984386444,
        -0.34743714332580566,
        -0.02597656100988388,
        -0.3176432251930237,
        0.2958342432975769,
        -0.28958022594451904,
        -0.2080593705177307,
        0.24171900749206543,
        -0.07417149841785431,
        0.12967979907989502,
        -0.3500695526599884,
        -0.06310379505157471,
        0.060924869030714035,
        -0.3124917447566986,
        0.02288237027823925,
        -0.19506420195102692,
        0.06861710548400879,
        0.22202450037002563,
        0.28973257541656494,
        -0.2453208565711975,
        0.27947449684143066,
        -0.2112940400838852,
        0.2894524335861206,
        0.199253112077713,
        -0.02498268522322178,
        -0.032943595200777054,
        -0.23909997940063477,
        -0.19073553383350372,
        -0.261224627494812,
        -0.3247973620891571,
        -0.013492186553776264,
        0.9003748297691345,
        0.026366177946329117,
        -0.0007436865125782788,
        0.0007198877283371985,
        -0.4372831881046295,
        -0.8131731152534485,
        -0.9288061261177063,
        0.44475772976875305,
        0.01339719444513321,
        0.0036227134987711906,
        -0.0013820665189996362,
        0.8597190976142883,
        -0.33209529519081116,
        -0.025378691032528877,
        -0.0014229597290977836,
        -0.32037076354026794,
        0.052617285400629044,
        0.11020012199878693,
        -0.10033955425024033,
        -0.27873945236206055,
        0.29618072509765625,
        0.2844211757183075,
        0.3452063798904419,
        -0.26043564081192017,
        -0.30955782532691956,
        0.09147818386554718,
        -0.09818892925977707,
        0.3165648877620697,
        0.33294081687927246,
        -0.3239876329898834,
        0.17393627762794495,
        -0.007359121460467577,
        0.010053304024040699,
        0.4377966523170471,
        -0.006854179780930281,
        -0.0015165359945967793,
        0.18703323602676392,
        0.00007713157538091764,
        -0.010982136242091656,
        -0.18554800748825073,
        0.029679296538233757,
        -0.01120688859373331,
        0.021141592413187027,
        -0.002007658826187253,
        -0.3055253028869629,
        -0.5907608866691589,
        -0.006341267377138138,
        0.30308499932289124,
        -0.008914590813219547,
        0.0313369482755661,
        -0.2750210762023926,
        -0.29694750905036926,
        0.007019097451120615,
        0.31671565771102905,
        -0.12199538946151733,
        0.22915565967559814,
        0.1806938499212265,
        -0.29268643260002136,
        -0.06974707543849945,
        -0.26575616002082825,
        -0.007364570163190365,
        -0.2495332658290863,
        0.06906964629888535,
        0.2142173796892166,
        -0.2465725988149643,
        -0.09810321778059006,
        0.0064333765767514706,
        0.3139021694660187,
        0.09721152484416962,
        -0.015205558389425278,
        -0.12083235383033752,
        -0.30427905917167664,
        0.0272525567561388,
        -0.029589200392365456,
        0.05699538439512253,
        -0.2221556305885315,
        -0.0827856957912445,
        -0.3208993375301361,
        0.23814551532268524,
        0.015180830843746662,
        0.23256565630435944,
        -0.09692275524139404,
        -0.9994780421257019,
        -0.003162574488669634,
        0.36552694439888,
        -0.0015923252794891596,
        -0.24069547653198242,
        -0.3663635551929474,
        -0.019868718460202217,
        -0.007129182573407888,
        0.0011582832084968686,
        0.000028062167984899133,
        0.5324289202690125,
        0.0985848605632782,
        0.9796154499053955
      ],
      "bias": [
        -0.5148248672485352,
        0.1839434802532196,
        0,
        0,
        0,
        0.8043684363365173,
        0,
        0.22571443021297455,
        0,
        0,
        -0.5201134085655212
      ]
    }
  ],
  "meta": {
    "name": "Cloud",
    "slug": "cloud",
    "inputs": 24,
    "outputs": 11,
    "trackIndex": 8,
    "file": "cloud.json",
    "trained": "2025-10-23T15:03:45.016Z",
    "training": {
      "feature": "deltaHigh",
      "featureType": "signed",
      "output": "zoom",
      "orientation": "direct",
      "weight": 1,
      "epochs": 400,
      "samples": 4096,
      "learningRate": 0.01,
      "loss": 0.08607567846775055,
      "correlation": 0.9995378255844116,
      "fitness": 0.9995378255844116,
      "mse": 0.000325541797792539,
      "combinedFitness": 0.9132776856422424,
      "averageMse": 0.0573078878223896,
      "correlations": [
        {
          "feature": "deltaHigh",
          "featureType": "signed",
          "output": "zoom",
          "orientation": "direct",
          "weight": 1,
          "correlation": 0.9995378255844116,
          "fitness": 0.9995378255844116,
          "mse": 0.000325541797792539
        },
        {
          "feature": "bass",
          "featureType": "signed",
          "output": "fieldStrength",
          "orientation": "direct",
          "weight": 0.5,
          "correlation": 0.9968932271003723,
          "fitness": 0.9968932271003723,
          "mse": 0.0021779509261250496
        },
        {
          "feature": "mid",
          "featureType": "signed",
          "output": "glow",
          "orientation": "direct",
          "weight": 0.5,
          "correlation": 0.9994404911994934,
          "fitness": 0.9994404911994934,
          "mse": 0.0003955592692364007
        },
        {
          "feature": "deltaMid",
          "featureType": "signed",
          "output": "hueShift",
          "orientation": "direct",
          "weight": 0.5,
          "correlation": 0.6967478394508362,
          "fitness": 0.6967478394508362,
          "mse": 0.17093640565872192
        },
        {
          "feature": "deltaHigh",
          "featureType": "signed",
          "output": "spawnRate",
          "orientation": "direct",
          "weight": 0.5,
          "correlation": 0.9995391964912415,
          "fitness": 0.9995391964912415,
          "mse": 0.00032397423638030887
        },
        {
          "feature": "bass",
          "featureType": "signed",
          "output": "hueShift",
          "orientation": "direct",
          "weight": 0.5,
          "correlation": 0.7012474536895752,
          "fitness": 0.7012474536895752,
          "mse": 0.1696878969669342
        }
      ]
    }
  }
}
