{
  "input": 24,
  "normalization": {
    "mean": [
      0,
      0,
      0,
      0,
      0,
      0,
      0,
      0,
      0,
      0,
      0,
      0,
      0,
      0,
      0,
      0,
      0,
      0,
      0,
      0,
      0,
      0,
      0,
      0
    ],
    "std": [
      1,
      1,
      1,
      1,
      1,
      1,
      1,
      1,
      1,
      1,
      1,
      1,
      1,
      1,
      1,
      1,
      1,
      1,
      1,
      1,
      1,
      1,
      1,
      1
    ]
  },
  "layers": [
    {
      "activation": "relu",
      "weights": [
        -0.0012305075069889426,
        -0.2356003373861313,
        0.19244904816150665,
        -0.010980009101331234,
        0.006463369820266962,
        0.13596533238887787,
        -0.20027802884578705,
        -0.3280961513519287,
        -0.10780258476734161,
        -0.23592308163642883,
        0.12094743549823761,
        -0.25599169731140137,
        0.08848952502012253,
        0.1897132247686386,
        0.010038355365395546,
        -0.29563266038894653,
        -0.17996416985988617,
        0.2517857253551483,
        0.13374115526676178,
        -0.21369177103042603,
        0.3443690836429596,
        -0.27022090554237366,
        0.17475520074367523,
        0.2399175763130188,
        0.3282102346420288,
        -0.14903250336647034,
        0.2560499608516693,
        0.2585766911506653,
        -0.16917984187602997,
        0.17687557637691498,
        0.24574831128120422,
        -0.16933637857437134,
        0.12224530428647995,
        0.10864228010177612,
        0.18467026948928833,
        0.29250574111938477,
        -0.33321288228034973,
        -0.20646460354328156,
        0.12701748311519623,
        0.09834089130163193,
        0.14685188233852386,
        -0.004506744910031557,
        0.31031370162963867,
        -0.02452918514609337,
        -0.3291665315628052,
        0.00023556443920824677,
        -0.0015413427026942372,
        0.04527552053332329,
        -0.2521645128726959,
        0.0015808274038136005,
        0.12033320218324661,
        -0.13444946706295013,
        -0.15239320695400238,
        -0.19033603370189667,
        -0.22884157299995422,
        0.15954066812992096,
        0.12529978156089783,
        0.03713516145944595,
        -0.04997408390045166,
        0.27118101716041565,
        -0.10179740190505981,
        0.03861071541905403,
        -0.3493064045906067,
        0.17414753139019012,
        -0.06362337619066238,
        -0.31917625665664673,
        0.11159040033817291,
        0.3173520863056183,
        -0.10487598180770874,
        0.11933717876672745,
        -0.0038023609668016434,
        0.2565208971500397,
        0.0069276560097932816,
        0.12557271122932434,
        -0.25472161173820496,
        0.2724002003669739,
        0.1591498851776123,
        0.16391462087631226,
        0.12004127353429794,
        -0.23349672555923462,
        -0.18392887711524963,
        0.08361202478408813,
        -0.09996866434812546,
        0.2618756592273712,
        0.11122827976942062,
        -0.33966177701950073,
        0.008800865150988102,
        0.05187302082777023,
        -0.028293505311012268,
        0.05102832615375519,
        -0.0035445070825517178,
        0.21297593414783478,
        0.3083752393722534,
        -0.1972626894712448,
        -0.21598850190639496,
        0.1480444222688675,
        0.02812965400516987,
        -0.1477915644645691,
        0.08026906102895737,
        -0.1950458586215973,
        0.2342434674501419,
        -0.07129305601119995,
        0.1144689992070198,
        -0.09961538016796112,
        -0.29055020213127136,
        0.06793820858001709,
        0.2763938009738922,
        0.13854821026325226,
        0.24000053107738495,
        0.12334626168012619,
        -0.3472616672515869,
        0.01068150158971548,
        -0.06729110330343246,
        0.2615877687931061,
        0.1521647870540619,
        0.11629211157560349,
        -0.18824444711208344,
        -0.3171745240688324,
        0.03496064245700836,
        0.34749916195869446,
        -0.2814660966396332,
        0.3157575726509094,
        -0.3480607867240906,
        0.09192419052124023,
        0.2276548594236374,
        -0.032770272344350815,
        0.34634631872177124,
        -0.04780183732509613,
        -0.17449621856212616,
        0.11400565505027771,
        0.24220047891139984,
        0.17580731213092804,
        0.11751735210418701,
        -0.33826905488967896,
        0.029638206586241722,
        0.203263521194458,
        -0.1456935852766037,
        0.2807990312576294,
        0.0817452147603035,
        -0.027397984638810158,
        -0.15851224958896637,
        0.17075520753860474,
        0.08921226859092712,
        -0.11590240895748138,
        -0.16847842931747437,
        -0.24702715873718262,
        0.19387590885162354,
        -0.21642160415649414,
        -0.13804732263088226,
        0.058610063046216965,
        -0.07159203290939331,
        0.011700990609824657,
        -0.3499298393726349,
        -0.3439212143421173,
        -0.023162875324487686,
        -0.26326659321784973,
        -0.10943923145532608,
        0.19089443981647491,
        -0.22762489318847656,
        0.2604216933250427,
        0.032243434339761734,
        -0.13405679166316986,
        0.20260435342788696,
        0.026903491467237473,
        -0.299224853515625,
        -0.3176875412464142,
        0.3087746798992157,
        0.30920085310935974,
        0.30686500668525696,
        0.2821100950241089,
        -0.21708789467811584,
        -0.0024332450702786446,
        -0.2801479995250702,
        -0.0009436882683075964,
        -0.15276899933815002,
        0.2886185050010681,
        0.22152413427829742,
        -0.28030264377593994,
        0.3189663589000702,
        0.12173211574554443,
        0.2312883883714676,
        0.12928065657615662,
        -0.02810043841600418,
        0.034265581518411636,
        0.11572388559579849,
        -0.2116466909646988,
        -0.07871516793966293,
        0.17348861694335938,
        -0.2377183884382248,
        0.28128525614738464,
        0.1631069928407669,
        -0.17551332712173462,
        -0.21802784502506256,
        -0.324656218290329,
        0.12318210303783417,
        0.21346445381641388,
        -0.22023740410804749,
        0.15946821868419647,
        -0.22572998702526093,
        0.2534109354019165,
        0.3493689000606537,
        0.31343773007392883,
        0.03859463334083557,
        -0.22300024330615997,
        0.30539754033088684,
        -0.27596578001976013,
        -0.04214403033256531,
        0.05864102765917778,
        0.27653345465660095,
        0.2663862407207489,
        -0.1446710079908371,
        0.051828306168317795,
        -0.20300757884979248,
        -0.007555842865258455,
        -0.11980322003364563,
        0.15547063946723938,
        -0.17788851261138916,
        0.08457562327384949,
        -0.3313004970550537,
        0.03012870065867901,
        -0.15944258868694305,
        0.21087031066417694,
        0.27986109256744385,
        -0.18991898000240326,
        -0.051132120192050934,
        0.05270428955554962,
        -0.2069341540336609,
        -0.20946761965751648,
        -0.20530098676681519,
        -0.211753249168396,
        0.2007572501897812,
        -0.2144390046596527,
        0.09211136400699615,
        -0.33713793754577637,
        -0.14621245861053467,
        0.23724521696567535,
        0.31701287627220154,
        -0.2943604290485382,
        0.027713537216186523,
        -0.19205623865127563,
        -0.2571259140968323,
        0.2676740288734436,
        -0.07958538085222244,
        -0.328325480222702,
        -0.11551564186811447,
        0.1796756386756897,
        0.10151702910661697,
        -0.33019885420799255,
        -0.24333862960338593,
        -0.23110200464725494,
        -0.0718054324388504,
        0.014886255376040936,
        0.3020419776439667,
        -0.26103347539901733,
        0.08731719851493835,
        0.0851556658744812,
        0.3080716133117676,
        -0.2312055081129074,
        0.06532461941242218,
        -0.01578041911125183,
        -0.27362149953842163,
        0.29777270555496216,
        0.2751358151435852,
        0.31181639432907104,
        -0.2571195065975189,
        0.012283186428248882,
        0.18497063219547272,
        0.25518369674682617,
        0.09305643290281296,
        -0.12371593713760376,
        0.29832425713539124,
        -0.044665172696113586,
        -0.08662315458059311,
        -0.2936680018901825,
        0.3131156861782074,
        0.0376238115131855,
        -0.0938052088022232,
        -0.02196606807410717,
        0.25296279788017273,
        -0.17373378574848175,
        0.14940671622753143,
        -0.004113617818802595,
        0.22475531697273254,
        -0.11703505367040634,
        -0.03081905096769333,
        -0.033152516931295395,
        -0.017757875844836235,
        -0.19470837712287903,
        -0.2113197147846222,
        -0.06398232281208038,
        -0.10939193516969681,
        -0.31945496797561646,
        -0.16254167258739471,
        -0.16869811713695526,
        -0.33036187291145325,
        -0.3094780147075653,
        -0.29732123017311096,
        0.26987290382385254,
        0.09842801094055176,
        0.3436959981918335,
        0.23128245770931244,
        0.10659035295248032,
        0.26111283898353577,
        0.2739848792552948,
        -0.31402644515037537,
        0.3329358696937561,
        -0.001166369765996933,
        -0.19184669852256775,
        -0.11156012117862701,
        0.26694732904434204,
        0.3254329562187195,
        0.1868157535791397,
        0.252358078956604,
        0.008469119668006897,
        0.09334743022918701,
        0.2668004035949707,
        0.004770616535097361,
        0.23686137795448303,
        0.3010862171649933,
        0.2115369588136673,
        -0.1337519884109497,
        -0.28283628821372986,
        0.1625531166791916,
        -0.10502785444259644,
        0.09948327392339706,
        0.11303574591875076,
        -0.19489914178848267,
        0.2462395578622818,
        -0.03427334874868393,
        -0.2597114145755768,
        0.3446744978427887,
        0.30005452036857605,
        -0.1456499993801117,
        -0.30878695845603943,
        0.3078257739543915,
        0.07006580382585526,
        0.12809120118618011,
        0.23553626239299774,
        -0.24671173095703125,
        -0.15764398872852325,
        0.01192875299602747,
        -0.21777626872062683,
        -0.022325631231069565,
        0.1382734328508377,
        0.3275969624519348,
        -0.3074161410331726,
        0.06118760257959366,
        -0.11964252591133118,
        -0.10285919904708862,
        0.31126105785369873,
        0.27473345398902893,
        0.009843231178820133,
        -0.08079131692647934,
        -0.24795687198638916,
        -0.006210152991116047,
        -0.2050318568944931,
        -0.03843752667307854,
        0.22055207192897797,
        0.2522965371608734,
        -0.10967788100242615,
        -0.16029056906700134,
        0.3451762795448303,
        -0.32625097036361694,
        -0.2981298267841339,
        -0.24889369308948517,
        0.19370944797992706,
        0.15611650049686432,
        -0.012431107461452484,
        -0.27937081456184387,
        -0.12634140253067017,
        -0.11902925372123718,
        0.2930435836315155,
        -0.17704865336418152,
        -0.045997485518455505,
        -0.22530359029769897,
        0.2792413532733917,
        0.1415710300207138,
        0.1964552253484726,
        0.009567639790475368,
        0.3365073502063751,
        0.16284140944480896,
        0.10364830493927002,
        -0.25598523020744324,
        -0.1501869410276413
      ],
      "bias": [
        -0.008307204581797123,
        0.10664679855108261,
        -0.20727749168872833,
        0.04765917360782623,
        0.11048097908496857,
        0.1124337688088417,
        0.003017217153683305,
        0.09157583862543106,
        -0.2279355376958847,
        0.010977514088153839,
        0.09361816197633743,
        -0.05352173373103142,
        -0.10224530100822449,
        0.2372410148382187,
        0.09259868413209915,
        0.18108180165290833
      ]
    },
    {
      "activation": "tanh",
      "weights": [
        0.31992417573928833,
        0.22827866673469543,
        -0.0734790489077568,
        0.18022845685482025,
        0.3330969512462616,
        -0.20288856327533722,
        -0.1683664619922638,
        0.18058021366596222,
        0.22263780236244202,
        0.33298826217651367,
        -0.2963591516017914,
        0.071624256670475,
        -0.052511557936668396,
        0.20802122354507446,
        -0.19455905258655548,
        0.2915594279766083,
        -0.01192878931760788,
        -0.11735200136899948,
        -0.02434949390590191,
        0.23606181144714355,
        -0.13202863931655884,
        -0.051499512046575546,
        -0.14379939436912537,
        -0.23310688138008118,
        -0.18413186073303223,
        0.10650483518838882,
        0.15813922882080078,
        -0.2218385934829712,
        -0.16981397569179535,
        -0.19854339957237244,
        0.08735980093479156,
        0.20441700518131256,
        0.05002724379301071,
        -0.06384690850973129,
        0.2037854641675949,
        -0.32455793023109436,
        0.02257513999938965,
        -0.09906945377588272,
        -0.07289780676364899,
        0.24252189695835114,
        0.02225244604051113,
        -0.07668857276439667,
        -0.24502873420715332,
        0.06996037065982819,
        0.2067888230085373,
        -0.17912431061267853,
        0.019165946170687675,
        -0.22701382637023926,
        0.15113365650177002,
        -0.12981873750686646,
        -0.10732674598693848,
        -0.005242487881332636,
        -0.02702178619801998,
        0.32000014185905457,
        -0.023003116250038147,
        0.09336546808481216,
        -0.2999415397644043,
        0.004602591507136822,
        -0.22366243600845337,
        -0.24622730910778046,
        0.19837158918380737,
        -0.2517390847206116,
        0.24985919892787933,
        -0.26432088017463684,
        0.24936361610889435,
        -0.06293904781341553,
        -0.23026715219020844,
        0.24317117035388947,
        0.2008829563856125,
        -0.1962629109621048,
        0.05027104169130325,
        -0.03589143976569176,
        -0.1867506206035614,
        -0.17033876478672028,
        0.2399689108133316,
        0.14159512519836426,
        0.03890976309776306,
        -0.24762114882469177,
        -0.0026536129880696535,
        -0.2916467487812042,
        0.23542551696300507,
        0.006432077847421169,
        -0.272388219833374,
        -0.198936328291893,
        0.05587049946188927,
        0.3092704713344574,
        0.24346373975276947,
        -0.0586797259747982,
        -0.2665112316608429,
        0.32710739970207214,
        -0.046729497611522675,
        -0.04236103966832161,
        0.00014633334649261087,
        -0.15656577050685883,
        -0.23463721573352814,
        0.23295682668685913,
        -0.14293202757835388,
        0.3002694249153137,
        -0.043596554547548294,
        0.32577210664749146,
        0.28011366724967957,
        0.1318177431821823,
        -0.17303532361984253,
        -0.2945115864276886,
        0.31469860672950745,
        -0.09457194805145264,
        -0.08599672466516495,
        0.31508269906044006,
        -0.3412240445613861,
        -0.0441170297563076,
        0.304198682308197,
        0.11219208687543869,
        -0.3294060528278351,
        0.2695194482803345,
        0.12148277461528778,
        0.026208441704511642,
        0.00860639289021492,
        0.28002500534057617,
        0.12387606501579285,
        -0.10544891655445099,
        -0.11751056462526321,
        0.2809242308139801,
        0.002991657005622983,
        0.16255652904510498,
        0.1828494817018509,
        0.10046465694904327,
        -0.1968371719121933,
        -0.26895755529403687,
        0.09088530391454697,
        -0.29184767603874207,
        -0.06502711772918701,
        0.12648193538188934,
        -0.31579896807670593,
        -0.08947475999593735,
        -0.29542896151542664,
        -0.08865155279636383,
        -0.23270855844020844,
        -0.09072151780128479,
        0.0531974695622921,
        0.28796011209487915,
        -0.04438376799225807,
        0.27078327536582947,
        -0.12961362302303314,
        0.15464931726455688,
        0.3356741666793823,
        -0.08788284659385681,
        0.3463720381259918,
        -0.2614082992076874,
        -0.03202153742313385,
        -0.0551428459584713,
        0.10334304720163345,
        0.33205610513687134,
        0.04908062890172005,
        0.2555859386920929,
        0.02686433121562004,
        0.26563340425491333,
        0.12829631567001343,
        0.1541040688753128,
        -0.1025870218873024,
        -0.11385827511548996,
        -0.064455546438694,
        0.2973474860191345,
        0.13677459955215454,
        0.13502836227416992,
        -0.12415944039821625,
        -0.1431223750114441,
        -0.10547368973493576,
        0.21092545986175537,
        -0.3190194368362427,
        -0.0941673219203949,
        -0.09825750440359116,
        0.3177919089794159,
        -0.0941036269068718,
        -0.27165794372558594,
        0.20568498969078064,
        -0.22705809772014618
      ],
      "bias": [
        0.031918879598379135,
        -0.021338243037462234,
        0.05705520510673523,
        -0.17774410545825958,
        -0.1938890963792801,
        0.24481599032878876,
        0.09468188136816025,
        0.09231828898191452,
        -0.2066015601158142,
        0.14506122469902039,
        -0.05764307081699371
      ]
    }
  ],
  "meta": {
    "name": "Cloud",
    "slug": "cloud",
    "inputs": 24,
    "outputs": 11,
    "placeholder": true,
    "generated": "2025-10-21T21:04:10.445Z"
  }
}
