{
  "input": 24,
  "normalization": {
    "mean": [
      0,
      0,
      0,
      0,
      0,
      0,
      0,
      0,
      0,
      0,
      0,
      0,
      0,
      0,
      0,
      0,
      0,
      0,
      0,
      0,
      0,
      0,
      0,
      0
    ],
    "std": [
      1,
      1,
      1,
      1,
      1,
      1,
      1,
      1,
      1,
      1,
      1,
      1,
      1,
      1,
      1,
      1,
      1,
      1,
      1,
      1,
      1,
      1,
      1,
      1
    ]
  },
  "layers": [
    {
      "activation": "relu",
      "weights": [
        -0.018388068303465843,
        0.3156340420246124,
        0.1468791365623474,
        -0.1599583476781845,
        -0.3372059762477875,
        0.1383361965417862,
        0.016422955319285393,
        0.0711069107055664,
        0.0956464409828186,
        0.20613647997379303,
        -0.07302453368902206,
        0.0834415927529335,
        0.2881719768047333,
        -0.14459866285324097,
        -0.30058351159095764,
        -0.2320883870124817,
        0.06904543936252594,
        -0.07920075953006744,
        0.07023561745882034,
        -0.07074731588363647,
        -0.28783929347991943,
        0.1516132652759552,
        -0.06438075006008148,
        -0.08330291509628296,
        0.2999636232852936,
        -0.3373548090457916,
        -0.22327782213687897,
        -0.04349596053361893,
        0.007533705793321133,
        -0.12448761612176895,
        -0.34408724308013916,
        0.06340079754590988,
        -0.27717000246047974,
        -0.32785800099372864,
        -0.2400607168674469,
        0.08974441885948181,
        -0.13024280965328217,
        -0.2894430458545685,
        0.03244006261229515,
        -0.23074020445346832,
        0.2889498174190521,
        -0.234016552567482,
        -0.09558282792568207,
        0.3438451290130615,
        0.32671162486076355,
        -0.11702459305524826,
        -0.08696220815181732,
        -0.020096730440855026,
        0.2037689983844757,
        -0.25993871688842773,
        0.3075424134731293,
        0.27917906641960144,
        -0.15661120414733887,
        0.32081785798072815,
        0.22376558184623718,
        0.04224693402647972,
        -0.28301072120666504,
        0.17910902202129364,
        -0.24257105588912964,
        -0.04065950959920883,
        0.03307517617940903,
        0.10771511495113373,
        -0.029539531096816063,
        -0.2632577121257782,
        -0.15835566818714142,
        0.10994043201208115,
        -0.3051903247833252,
        -0.1769006997346878,
        -0.29135143756866455,
        0.16179272532463074,
        0.20794613659381866,
        -0.09528345614671707,
        -0.1967860758304596,
        0.21003256738185883,
        0.10617326945066452,
        0.006773094646632671,
        0.30448174476623535,
        -0.03296603262424469,
        -0.254161536693573,
        0.20799629390239716,
        -0.07308774441480637,
        -0.16851037740707397,
        0.03564231097698212,
        -0.1712552011013031,
        -0.3282223045825958,
        0.15731485188007355,
        0.25274011492729187,
        0.056555528193712234,
        -0.053395818918943405,
        -0.2994633913040161,
        0.045010536909103394,
        0.28567856550216675,
        0.050050705671310425,
        -0.11583271622657776,
        -0.08292436599731445,
        -0.23142001032829285,
        0.13224993646144867,
        0.1320936530828476,
        0.104767806828022,
        -0.02898677997291088,
        0.027886515483260155,
        0.1280526965856552,
        -0.14315970242023468,
        -0.23859083652496338,
        0.1614965945482254,
        0.022709306329488754,
        -0.27787166833877563,
        0.17394199967384338,
        -0.13134931027889252,
        -0.19116385281085968,
        -0.0711468979716301,
        -0.22296801209449768,
        0.09175802022218704,
        0.19641606509685516,
        0.07383905351161957,
        0.17315898835659027,
        0.18271803855895996,
        0.04439912363886833,
        -0.04566340893507004,
        -0.13856570422649384,
        -0.22385908663272858,
        0.10221635550260544,
        -0.29597294330596924,
        0.19425331056118011,
        -0.20539839565753937,
        -0.1416589766740799,
        0.32183486223220825,
        -0.017549987882375717,
        0.32422125339508057,
        -0.06904097646474838,
        0.08653419464826584,
        -0.21341928839683533,
        -0.2800653576850891,
        -0.08097521215677261,
        -0.2369154393672943,
        0.24067310988903046,
        -0.22050964832305908,
        0.12876257300376892,
        -0.11558151245117188,
        0.013560514897108078,
        -0.22841911017894745,
        -0.18961410224437714,
        -0.00827577244490385,
        0.0011876752832904458,
        -0.3084428906440735,
        -0.003583280835300684,
        -0.0074218944646418095,
        -0.33788856863975525,
        -0.05978190153837204,
        0.27364057302474976,
        0.060030754655599594,
        -0.2509046494960785,
        -0.08724609017372131,
        -0.010812729597091675,
        -0.30619707703590393,
        -0.19934339821338654,
        0.2680948078632355,
        -0.33357885479927063,
        -0.15512949228286743,
        -0.2881889045238495,
        0.33227819204330444,
        -0.09611445665359497,
        -0.0931716114282608,
        -0.13803184032440186,
        0.1236984059214592,
        -0.3067900836467743,
        -0.0725565031170845,
        0.021144002676010132,
        0.02990534156560898,
        -0.18074144423007965,
        0.28602734208106995,
        0.10396770387887955,
        0.16503456234931946,
        -0.11058361083269119,
        -0.262146532535553,
        0.23872163891792297,
        -0.004853955004364252,
        -0.29274845123291016,
        0.23128439486026764,
        -0.24207822978496552,
        0.26214009523391724,
        -0.2599586546421051,
        0.06533221900463104,
        0.18971224129199982,
        -0.34730932116508484,
        -0.15661218762397766,
        -0.22483012080192566,
        -0.2538553476333618,
        0.15156419575214386,
        -0.15189483761787415,
        -0.24562779068946838,
        0.09667008370161057,
        0.029151039198040962,
        -0.2843831479549408,
        -0.13059145212173462,
        -0.003664200659841299,
        -0.051105618476867676,
        0.013075031340122223,
        0.22523899376392365,
        -0.128101646900177,
        0.180820494890213,
        0.05706322565674782,
        0.08779047429561615,
        -0.08739741891622543,
        0.33717361092567444,
        0.34397804737091064,
        -0.11853673309087753,
        0.0766432136297226,
        0.1622655987739563,
        0.2942592203617096,
        0.10128669440746307,
        -0.347667396068573,
        -0.3121401071548462,
        -0.30672597885131836,
        0.08370941132307053,
        -0.3186928331851959,
        -0.2663766145706177,
        0.33065900206565857,
        -0.035587381571531296,
        -0.18036262691020966,
        -0.271906316280365,
        -0.019975394010543823,
        -0.03240024298429489,
        0.21984830498695374,
        0.03631793335080147,
        -0.10080470889806747,
        0.2443171739578247,
        0.2913179397583008,
        -0.18953002989292145,
        0.15297909080982208,
        0.0412391796708107,
        0.18911364674568176,
        -0.3027636706829071,
        -0.12807448208332062,
        0.0892748162150383,
        0.34431663155555725,
        -0.11108581721782684,
        0.087257519364357,
        -0.0355624184012413,
        0.06800760328769684,
        0.0067178113386034966,
        0.32622775435447693,
        -0.12030080705881119,
        0.29014283418655396,
        -0.03287234902381897,
        0.00015922437887638807,
        0.21881768107414246,
        -0.060330551117658615,
        -0.07968149334192276,
        0.1545065939426422,
        0.20258408784866333,
        0.2364857792854309,
        -0.1435312032699585,
        -0.28725770115852356,
        -0.05093180760741234,
        -0.3354507386684418,
        0.1688413769006729,
        0.3113984167575836,
        0.2243383824825287,
        -0.20163144171237946,
        0.007429025135934353,
        0.20559704303741455,
        0.2510349154472351,
        0.27514272928237915,
        0.16690155863761902,
        0.08262879401445389,
        -0.26173603534698486,
        0.298222154378891,
        0.2527495324611664,
        0.05436035990715027,
        0.1952110379934311,
        0.11606599390506744,
        -0.3455706238746643,
        -0.20806512236595154,
        0.10489964485168457,
        0.04531912878155708,
        -0.20273378491401672,
        0.20456495881080627,
        -0.21535415947437286,
        0.34701845049858093,
        -0.08523562550544739,
        0.10098855942487717,
        -0.2001538723707199,
        -0.08136710524559021,
        0.2866864502429962,
        -0.30432066321372986,
        -0.09244415909051895,
        0.2597777843475342,
        0.003114307066425681,
        -0.3234494626522064,
        0.290478378534317,
        -0.18009166419506073,
        -0.34058383107185364,
        0.002145972102880478,
        -0.2523278295993805,
        -0.12978652119636536,
        0.1481373906135559,
        0.3445534408092499,
        -0.04765286296606064,
        0.09616576880216599,
        0.12465467303991318,
        0.3172813653945923,
        0.24470490217208862,
        0.34442734718322754,
        0.22178520262241364,
        0.11373662203550339,
        0.016288839280605316,
        0.007861051708459854,
        -0.20095276832580566,
        -0.12565642595291138,
        -0.1681843250989914,
        0.13322998583316803,
        0.3159147799015045,
        -0.34030675888061523,
        0.2455965131521225,
        -0.007175510283559561,
        -0.2011876404285431,
        -0.27008283138275146,
        -0.19090531766414642,
        -0.2376011461019516,
        -0.2431846261024475,
        -0.27713316679000854,
        0.11472947895526886,
        -0.2870498299598694,
        0.040297165513038635,
        -0.3211904764175415,
        0.02245512418448925,
        -0.33120930194854736,
        0.23764324188232422,
        -0.06560266017913818,
        -0.07923947274684906,
        0.16316959261894226,
        -0.028824618086218834,
        -0.10868843644857407,
        0.13038411736488342,
        0.09170881658792496,
        0.18349933624267578,
        -0.3425537049770355,
        0.3176977038383484,
        -0.15304173529148102,
        -0.25802695751190186,
        0.02612617239356041,
        0.01472723763436079,
        -0.11521197110414505,
        -0.09698573499917984,
        -0.12322492152452469,
        0.3169902265071869,
        -0.030742457136511803,
        -0.13104739785194397,
        0.06990411877632141,
        -0.18931597471237183,
        -0.20531664788722992,
        0.1022423803806305,
        0.16019092500209808,
        0.12892481684684753,
        -0.31447622179985046,
        -0.34124982357025146,
        0.1159706637263298,
        -0.16384713351726532,
        -0.2192215770483017,
        0.1002466008067131,
        0.016583411023020744,
        0.21215955913066864,
        -0.22011798620224,
        0.3039992153644562,
        0.07689456641674042,
        -0.19757525622844696,
        -0.18101069331169128,
        0.17014355957508087,
        0.2545323073863983,
        -0.2247069627046585,
        0.1456359475851059,
        -0.07137830555438995,
        -0.19037911295890808,
        0.2921658754348755,
        0.24956004321575165,
        -0.27328720688819885,
        -0.1493009328842163,
        -0.16060864925384521,
        -0.20203764736652374,
        0.007724638096988201,
        0.20312193036079407,
        0.2834101617336273,
        -0.2568848729133606
      ],
      "bias": [
        -0.10017320513725281,
        -0.1176338717341423,
        0.19036459922790527,
        0.15245047211647034,
        -0.09031334519386292,
        0.023587707430124283,
        -0.1422557234764099,
        0.20282842218875885,
        -0.103624127805233,
        -0.06519097089767456,
        0.23462224006652832,
        -0.06413084268569946,
        -0.10821140557527542,
        -0.08977822959423065,
        0.20418649911880493,
        -0.007296992931514978
      ]
    },
    {
      "activation": "tanh",
      "weights": [
        0.27598291635513306,
        -0.3348906338214874,
        0.015843519940972328,
        -0.22503922879695892,
        0.14162632822990417,
        0.22287361323833466,
        -0.33839356899261475,
        0.2515529990196228,
        0.08978580683469772,
        0.12640491127967834,
        0.0003229011199437082,
        -0.30222636461257935,
        0.194583922624588,
        -0.05219303071498871,
        0.32316792011260986,
        -0.017319664359092712,
        -0.30146002769470215,
        0.023708976805210114,
        -0.2808045446872711,
        -0.07678422331809998,
        0.30600705742836,
        0.18108728528022766,
        0.0943925604224205,
        0.18030725419521332,
        -0.220860093832016,
        0.32325825095176697,
        -0.13158264756202698,
        -0.123625248670578,
        -0.17210863530635834,
        0.17084433138370514,
        -0.07554974406957626,
        0.3372192680835724,
        0.16821613907814026,
        -0.09597231447696686,
        -0.10349496454000473,
        0.2852475047111511,
        0.34550410509109497,
        0.33760517835617065,
        -0.3489072620868683,
        -0.34976717829704285,
        0.22395361959934235,
        0.0881950631737709,
        0.2816993296146393,
        -0.127940833568573,
        -0.021878525614738464,
        0.32945653796195984,
        0.1292845904827118,
        0.1368647664785385,
        -0.06118952855467796,
        0.10045485943555832,
        -0.07818831503391266,
        -0.03930457681417465,
        -0.19070319831371307,
        -0.05230383947491646,
        0.3379935324192047,
        -0.21221308410167694,
        -0.24152731895446777,
        -0.2996610701084137,
        0.22456638514995575,
        0.22813557088375092,
        -0.21742568910121918,
        0.2838119864463806,
        0.05194137990474701,
        0.20874232053756714,
        -0.294881135225296,
        -0.2935391962528229,
        -0.31713324785232544,
        -0.008392766118049622,
        0.0019404598278924823,
        -0.13177014887332916,
        -0.24645166099071503,
        -0.16563011705875397,
        0.043759509921073914,
        -0.2106052190065384,
        -0.3210265636444092,
        0.09878644347190857,
        0.32684561610221863,
        0.24231481552124023,
        0.0861697643995285,
        0.06490851193666458,
        -0.21919484436511993,
        -0.13270948827266693,
        -0.12325697392225266,
        -0.09481606632471085,
        0.18987473845481873,
        0.33276915550231934,
        0.2984050214290619,
        -0.3258400559425354,
        -0.19142921268939972,
        0.004859814886003733,
        0.2091776430606842,
        0.3163418173789978,
        0.24652081727981567,
        -0.24730680882930756,
        -0.1837819367647171,
        0.24004219472408295,
        0.08345138281583786,
        0.2735656499862671,
        0.34819868206977844,
        0.28627222776412964,
        -0.22209393978118896,
        -0.00040916111902333796,
        0.2743951082229614,
        0.06190412491559982,
        0.109857477247715,
        0.006509305909276009,
        -0.20901812613010406,
        -0.0069418479688465595,
        0.15167845785617828,
        0.3054051101207733,
        -0.260524183511734,
        -0.3383462131023407,
        0.24446579813957214,
        0.32737940549850464,
        0.30055683851242065,
        -0.1066630482673645,
        -0.10839016735553741,
        0.06325391680002213,
        0.08063638210296631,
        -0.16829714179039001,
        -0.1883801519870758,
        -0.3020142912864685,
        0.037313491106033325,
        -0.31852108240127563,
        0.15653806924819946,
        0.29388150572776794,
        0.12007392197847366,
        -0.06211564317345619,
        0.15900367498397827,
        0.07153846323490143,
        0.12383682280778885,
        -0.017899416387081146,
        -0.04101749137043953,
        -0.2868545949459076,
        0.23368364572525024,
        -0.2600495219230652,
        -0.021910421550273895,
        -0.05986249819397926,
        -0.30675986409187317,
        -0.186873659491539,
        -0.10614742338657379,
        0.30568596720695496,
        -0.10328545421361923,
        -0.2232157588005066,
        -0.34247109293937683,
        0.12433232367038727,
        0.2250843048095703,
        0.2652633786201477,
        -0.05900424346327782,
        0.32105669379234314,
        0.290326863527298,
        -0.0034496465232223272,
        0.2050095647573471,
        0.30626070499420166,
        -0.2812361419200897,
        0.12865541875362396,
        -0.10154405236244202,
        -0.1587534099817276,
        0.3441544771194458,
        0.34554624557495117,
        0.10003438591957092,
        -0.25542202591896057,
        -0.08225356042385101,
        -0.1519726812839508,
        -0.3289351761341095,
        0.08484262973070145,
        0.25358593463897705,
        0.2511674165725708,
        0.3186357915401459,
        -0.05494248867034912,
        0.02288738079369068,
        0.05499211698770523,
        -0.18498361110687256,
        0.17615652084350586,
        0.347364604473114,
        0.2009609490633011
      ],
      "bias": [
        0.0699184313416481,
        -0.11581157892942429,
        -0.08706291019916534,
        -0.20647525787353516,
        0.057093553245067596,
        0.09897579252719879,
        0.21310637891292572,
        -0.04913412034511566,
        -0.07506484538316727,
        -0.1926908940076828,
        -0.14651712775230408
      ]
    }
  ],
  "meta": {
    "name": "Ease Up",
    "slug": "ease-up",
    "inputs": 24,
    "outputs": 11,
    "placeholder": true,
    "generated": "2025-10-21T15:22:04.838Z"
  }
}
