{
  "input": 24,
  "normalization": {
    "mean": [
      -0.001980238826945424,
      -0.008246599696576595,
      -0.008642700500786304,
      -0.010983215644955635,
      -0.005619318690150976,
      0.5045837163925171,
      0.5029545426368713,
      0.4943086802959442,
      0.49687454104423523,
      -0.02197158709168434,
      -0.005186918191611767,
      -0.01086311787366867,
      0.0035876226611435413,
      -0.014918471686542034,
      0.014870929531753063,
      0.00445787888020277,
      0.012841468676924706,
      0.004445449914783239,
      0.0037558020558208227,
      -0.0027654299046844244,
      0.4988080561161041,
      0.5011178255081177,
      0.5005561709403992,
      0.4982379972934723
    ],
    "std": [
      0.5786393880844116,
      0.5813016295433044,
      0.5767665505409241,
      0.5662294030189514,
      0.5776087045669556,
      0.29057711362838745,
      0.2924783229827881,
      0.290098637342453,
      0.2855328619480133,
      0.581005334854126,
      0.5789807438850403,
      0.5772753953933716,
      0.5771393775939941,
      0.58119797706604,
      0.5762391686439514,
      0.5821625590324402,
      0.5772594213485718,
      0.5711265802383423,
      0.5780155062675476,
      0.582005500793457,
      0.28629371523857117,
      0.29143184423446655,
      0.28914374113082886,
      0.285940021276474
    ]
  },
  "layers": [
    {
      "activation": "relu",
      "weights": [
        -0.0013144449330866337,
        -0.9214101433753967,
        -0.0004221316776238382,
        0.0006670873262919486,
        -0.00019735316163860261,
        -0.0018636297900229692,
        -0.002018572762608528,
        -0.00009404423326486722,
        0.0004883628571406007,
        0.0006973790586926043,
        0.001022706856019795,
        0.0006051319651305676,
        0.5736497044563293,
        -0.0010838303714990616,
        0.0012410642812028527,
        -8.068411148087762e-7,
        0.001649031531997025,
        -0.001876003690995276,
        0.0016841971082612872,
        -0.0008828422869555652,
        0.0015748677542433143,
        0.0010117528727278113,
        -0.00024241098435595632,
        -0.00011856812488986179,
        0.001191230840049684,
        0.9918022155761719,
        -0.00037418180727399886,
        0.0034105631057173014,
        0.0005128515185788274,
        -0.0009939136216416955,
        -0.0010133053874596953,
        -0.0014779109042137861,
        0.00006602048233617097,
        0.0013736753026023507,
        0.0009805108420550823,
        -0.0006211008876562119,
        0.4560897946357727,
        0.0010723322629928589,
        0.0003072396502830088,
        -0.002410081448033452,
        -0.0021098777651786804,
        -0.00224075629375875,
        0.003041872289031744,
        0.0008171199006028473,
        -0.0007923885132186115,
        0.0005868613952770829,
        0.002586275339126587,
        -0.0012804408324882388,
        0.05691761523485184,
        0.5425459742546082,
        0.1011963039636612,
        0.01977069117128849,
        0.07152807712554932,
        0.20865611732006073,
        0.10903104394674301,
        -0.060529712587594986,
        0.15002194046974182,
        0.15623654425144196,
        -0.14845691621303558,
        -0.02087593451142311,
        -0.11537525802850723,
        -0.011053856462240219,
        -0.08636245876550674,
        -0.06098157912492752,
        -0.23113207519054413,
        -0.0015168538084253669,
        -0.04778849333524704,
        0.09691161662340164,
        -0.019211798906326294,
        -0.09684179723262787,
        0.10014288872480392,
        0.07009759545326233,
        0.10448598116636276,
        -0.4074881672859192,
        -0.07299110293388367,
        -0.07775434106588364,
        0.07941397279500961,
        0.19080303609371185,
        -0.020802410319447517,
        0.06619203090667725,
        0.14338183403015137,
        0.11527244746685028,
        -0.08870536834001541,
        0.0247722826898098,
        0.1136954203248024,
        0.06581418961286545,
        -0.07424963265657425,
        0.021770233288407326,
        -0.17226727306842804,
        0.09076430648565292,
        -0.09778113663196564,
        0.15364302694797516,
        -0.08655933290719986,
        0.05770698934793472,
        0.16336630284786224,
        0.13680733740329742,
        -0.045457806438207626,
        -0.1241622045636177,
        -0.01588398590683937,
        -0.019628357142210007,
        0.024769609794020653,
        0.009581858292222023,
        -0.05215194448828697,
        0.12846225500106812,
        -0.11044402420520782,
        -0.1226910948753357,
        -0.07213518768548965,
        -0.04451761767268181,
        0.614952564239502,
        -0.004869507625699043,
        -0.06244976446032524,
        0.022046640515327454,
        0.02693188190460205,
        0.039009761065244675,
        0.048690423369407654,
        -0.04474785551428795,
        -0.08156588673591614,
        0.12409130483865738,
        -0.08477509021759033,
        -0.047658100724220276,
        -0.00359349325299263,
        -1.073315978050232,
        -0.0002718274190556258,
        -0.002223007148131728,
        0.0007340062875300646,
        -0.0016579467337578535,
        0.00011545420420588925,
        0.0032864846289157867,
        -0.0005947866593487561,
        0.003859297139570117,
        -0.00008633056859252974,
        0.0019518674816936255,
        -0.45074132084846497,
        -0.0023257152643054724,
        -0.0013283203588798642,
        0.0034114972222596407,
        0.0030640929471701384,
        0.0005858690128661692,
        -0.00414450466632843,
        -0.0008772134897299111,
        0.002519173314794898,
        0.0015925746411085129,
        -0.0023712837137281895,
        0.00237286021001637,
        0.00012638463522307575,
        0.9094844460487366,
        0.0020407261326909065,
        0.0010365333873778582,
        0.0005417057545855641,
        0.001679778564721346,
        0.0005764774978160858,
        -0.0004222604038659483,
        -0.0010435053845867515,
        0.0022651217877864838,
        -0.001818841090425849,
        -0.00050125434063375,
        -0.6000720858573914,
        -0.0003378602850716561,
        0.0009317384101450443,
        -0.0001757677673595026,
        -0.0006176619790494442,
        -0.0012544800993055105,
        0.0007226707530207932,
        0.0016890609404072165,
        -0.00197671283967793,
        -0.000008432083632214926,
        0.002169285900890827,
        -0.0010230009211227298,
        0.007539486978203058,
        -0.3702777028083801,
        -0.002893170341849327,
        0.013933848589658737,
        -0.0012102965265512466,
        -0.002015880076214671,
        -0.006134337279945612,
        -0.00944918766617775,
        -0.003915386740118265,
        -0.005602519027888775,
        0.002466625766828656,
        -0.008516612462699413,
        -0.30180391669273376,
        0.0075760334730148315,
        0.0028268329333513975,
        -0.014985679648816586,
        -0.006481502205133438,
        -0.0031857190188020468,
        0.015820300206542015,
        -0.0024941153824329376,
        -0.006833010818809271,
        0.004801706876605749,
        0.010302379727363586,
        -0.008761558681726456,
        0.0009568374371156096,
        0.005782807245850563,
        -0.0019539110362529755,
        -0.001527724671177566,
        0.0006471163360401988,
        0.0036194100975990295,
        0.0020189625211060047,
        0.0006522028124891222,
        0.001883212709799409,
        -0.002896278165280819,
        -0.00031733582727611065,
        -0.0018401845591142774,
        0.8264408707618713,
        -0.0015937726711854339,
        -0.0007031061686575413,
        0.0022245491854846478,
        0.0007583827245980501,
        -0.0005454219644889235,
        -0.0015396550297737122,
        0.003297884715721011,
        -0.001193209202028811,
        0.0013377935392782092,
        0.0018247272819280624,
        0.000670281529892236,
        -0.068707175552845,
        -0.030370064079761505,
        0.09228590875864029,
        0.12327487021684647,
        -0.17649400234222412,
        -0.028348274528980255,
        -0.06322982907295227,
        -0.10558959096670151,
        -0.19355781376361847,
        -0.057327333837747574,
        0.0636090487241745,
        0.14897745847702026,
        0.31984400749206543,
        0.13817106187343597,
        0.022663351148366928,
        -0.07039085775613785,
        0.09122733026742935,
        0.0045566256158053875,
        -0.16910746693611145,
        0.11785395443439484,
        -0.11026183515787125,
        -0.017996076494455338,
        0.20648327469825745,
        -0.06640025228261948,
        0.006526479497551918,
        -1.1821695566177368,
        -0.0034441796597093344,
        -0.0014756661839783192,
        -0.0019060466438531876,
        -0.00045997597044333816,
        0.0016780785517767072,
        0.0034353735391050577,
        -0.0068174139596521854,
        0.003226945409551263,
        -0.0017116015078499913,
        -0.0010593993356451392,
        -0.0001409433170920238,
        0.0010675787925720215,
        -0.00440795486792922,
        -0.0009233846794813871,
        -0.002282138215377927,
        0.006039496976882219,
        0.004124170169234276,
        0.00004612237535184249,
        -0.0008417006465606391,
        -0.00038176760426722467,
        0.002687053754925728,
        -0.0011879828525707126,
        -0.0027015123050659895,
        1.1989504098892212,
        0.0013877090532332659,
        -0.0034726366866379976,
        0.0006455698166973889,
        0.0026227112393826246,
        0.0009571166592650115,
        -0.003201117506250739,
        -0.0006589416298083961,
        -0.002302483655512333,
        0.00021787616424262524,
        0.001884961617179215,
        0.0008074656943790615,
        -0.000882708583958447,
        -0.002182239666581154,
        0.002681759186089039,
        0.001755150267854333,
        0.0003070822567678988,
        -0.0008236855501309037,
        0.00187866878695786,
        0.002748282393440604,
        -0.00034560065250843763,
        -0.004507830832153559,
        -0.0017779325135052204,
        0.000287235074210912,
        0.8008476495742798,
        -0.0021579135209321976,
        -0.0011258155573159456,
        0.0008225671481341124,
        0.0009643686935305595,
        0.0006086892099119723,
        0.0009594429284334183,
        0.0023627660702914,
        0.0007423202623613179,
        -0.005902884528040886,
        0.001967168878763914,
        0.009171289391815662,
        0.0030432920902967453,
        -0.0009731595637276769,
        0.000145592144690454,
        -0.00020369398407638073,
        0.0009417172404937446,
        -0.0012995892902836204,
        -0.0012777623487636447,
        -0.0009927409701049328,
        -0.00446381326764822,
        0.0003186696849297732,
        0.003016955452039838,
        0.25267353653907776,
        0.10187182575464249,
        -0.13565635681152344,
        -0.17815017700195312,
        -0.07297776639461517,
        0.03538186475634575,
        0.002198646543547511,
        -0.21073639392852783,
        0.05637381970882416,
        0.124871164560318,
        -0.13094136118888855,
        0.12532013654708862,
        -0.13126961886882782,
        -0.2851683795452118,
        0.047711022198200226,
        0.21406452357769012,
        -0.28414949774742126,
        0.27027270197868347,
        0.17319539189338684,
        0.03704952076077461,
        -0.12312471121549606,
        -0.20063477754592896,
        -0.053412940353155136,
        -0.2283666580915451,
        -0.09018462896347046,
        0.48092854022979736,
        0.08069057017564774,
        0.010270974598824978,
        0.06060806289315224,
        -0.16006673872470856,
        -0.19901801645755768,
        0.09880035370588303,
        -0.27298492193222046,
        -0.056147586554288864,
        0.05791659653186798,
        -0.10854566842317581,
        0.2774612009525299,
        0.05506397411227226,
        -0.10028531402349472,
        -0.012461421079933643,
        0.12761761248111725,
        -0.05140332132577896,
        0.058135125786066055,
        -0.0972490906715393,
        -0.20080849528312683,
        0.10830208659172058,
        -0.04292735084891319,
        -0.1312476098537445,
        -0.0004946278058923781,
        -0.0046830130741000175,
        -0.0022111251018941402,
        -0.0010511804139241576,
        0.0012715581106022,
        -0.0008205201593227684,
        0.00034588886774145067,
        -0.0002665804931893945,
        0.0011820865329355001,
        -0.000009021830919664353,
        -0.0028474703431129456,
        0.00019911008712369949,
        -0.8071965575218201,
        0.0009216691250912845,
        -0.003635312430560589,
        -0.00027415406657382846,
        -0.0007346696802414954,
        0.0028258305974304676,
        -0.0017500810790807009,
        -0.004361133556813002,
        -0.000260325352428481,
        -0.002778387628495693,
        -0.0018881434807553887,
        0.001996109262108803
      ],
      "bias": [
        -0.09933634102344513,
        0.21466770768165588,
        0.03526388853788376,
        -0.050887346267700195,
        0.00716795539483428,
        -0.23761576414108276,
        0.08766146004199982,
        0.4599374234676361,
        -0.8528390526771545,
        -0.01171328779309988,
        -1.3527326583862305,
        -1.5657926797866821,
        -0.5723933577537537,
        -0.04227057099342346,
        -0.04578182101249695,
        -0.8161699175834656
      ]
    },
    {
      "activation": "tanh",
      "weights": [
        0.6260096430778503,
        0.5201494693756104,
        0.0008856812492012978,
        0.001142411376349628,
        0.005456302780658007,
        -0.5055492520332336,
        -0.6062717437744141,
        -0.09240564703941345,
        1.0611423254013062,
        0.0032625210005789995,
        0.0003611353749874979,
        0.004646444693207741,
        0.01994791068136692,
        0.0001069839418050833,
        0.002247210592031479,
        -0.9294129014015198,
        -0.30937686562538147,
        0.3180614411830902,
        -0.0050437734462320805,
        -0.002568988362327218,
        0.0026776809245347977,
        -0.35181722044944763,
        0.27011504769325256,
        -0.05780041590332985,
        0.016423925757408142,
        -0.002695576287806034,
        -0.9564208388328552,
        1.1313180923461914,
        0.38752254843711853,
        -0.0012517980067059398,
        -0.0001455613091820851,
        0.002847404917702079,
        0.1349734365940094,
        -0.021339114755392075,
        0.17424194514751434,
        -0.3117605149745941,
        0.27805736660957336,
        0.04662802815437317,
        -0.16300098598003387,
        0.1417454481124878,
        -0.30583396553993225,
        0.20250965654850006,
        0.01696573942899704,
        0.06950848549604416,
        -0.1489962488412857,
        0.04966047406196594,
        -0.28666096925735474,
        -0.06112288683652878,
        -0.31142961978912354,
        0.31387510895729065,
        -0.0052362410351634026,
        -0.0024428400211036205,
        0.0025845470372587442,
        -0.3501472473144531,
        0.26970726251602173,
        -0.06353354454040527,
        0.018969304859638214,
        -0.002403644844889641,
        -0.947770893573761,
        1.0566726922988892,
        0.4026082754135132,
        -0.0008833365864120424,
        -0.0003159487387165427,
        0.0038652929943054914,
        0.2676893472671509,
        -0.3173413574695587,
        -0.1432020366191864,
        0.0010618270607665181,
        -0.24256102740764618,
        0.34655696153640747,
        -0.3239286243915558,
        -0.29848146438598633,
        0.01637030951678753,
        -0.005885308142751455,
        0.29125455021858215,
        -0.009554445743560791,
        0.35093197226524353,
        0.11935373395681381,
        -0.279634028673172,
        -0.2989799976348877,
        -0.3114311099052429,
        0.31387093663215637,
        -0.005236430559307337,
        -0.0024429974146187305,
        0.00258447602391243,
        -0.3501468896865845,
        0.2697053849697113,
        -0.06353714317083359,
        0.018971813842654228,
        -0.0024036052636802197,
        -0.9477680325508118,
        1.0565229654312134,
        0.4026409685611725,
        -0.0008831946761347353,
        -0.0003156903840135783,
        0.0038679952267557383,
        -0.19824756681919098,
        -0.2940904200077057,
        -0.15367740392684937,
        0.1926148533821106,
        0.17684845626354218,
        -0.19587013125419617,
        -0.21481095254421234,
        -0.025302229449152946,
        0.15235765278339386,
        -0.010209674015641212,
        0.09093733876943588,
        0.2801769971847534,
        0.09418648481369019,
        0.13959988951683044,
        -0.19795623421669006,
        0.23954308032989502,
        0.15292169153690338,
        -0.29736408591270447,
        -0.0019657406955957413,
        0.167162224650383,
        0.3272882401943207,
        0.30069202184677124,
        0.1907701939344406,
        0.14902548491954803,
        -0.07010900229215622,
        0.1072855144739151,
        -0.05167990177869797,
        0.25298258662223816,
        0.07010084390640259,
        0.22533193230628967,
        -0.29019197821617126,
        0.31477266550064087,
        0.34711700677871704,
        -0.028915010392665863,
        0.11820219457149506,
        -0.09605447947978973,
        0.2864241600036621,
        0.24491241574287415,
        -0.07918133586645126,
        0.08493687212467194,
        0.23346775770187378,
        -0.3281743824481964,
        -0.15862196683883667,
        0.3205946981906891,
        0.1584271341562271,
        0.08081909269094467,
        0.12684030830860138,
        -0.04861239716410637,
        0.1779472827911377,
        -0.06349441409111023,
        0.33873382210731506,
        -0.22258654236793518,
        -0.011049075983464718,
        0.025262387469410896,
        -0.2335924357175827,
        -0.05585698410868645,
        0.33521342277526855,
        0.07368575781583786,
        0.09906597435474396,
        -0.3219499886035919,
        -0.15653946995735168,
        0.01687178760766983,
        -0.27912038564682007,
        -0.16137270629405975,
        0.3274030089378357,
        0.30514827370643616,
        0.020609693601727486,
        -0.05462239682674408,
        0.12740017473697662,
        0.0011679109884425998,
        -0.22561495006084442,
        -0.34248363971710205,
        -0.24220681190490723,
        -0.07366625964641571,
        -0.09550483524799347,
        -0.13032206892967224,
        -0.15507087111473083,
        -0.057013098150491714,
        0.02287904918193817,
        -0.320865660905838
      ],
      "bias": [
        -0.012135778553783894,
        -0.06467705219984055,
        0,
        -0.060862552374601364,
        0,
        -0.060858890414237976,
        0,
        0,
        0,
        0,
        0
      ]
    }
  ],
  "meta": {
    "name": "Built on the Steppers",
    "slug": "built-on-the-steppers",
    "inputs": 24,
    "outputs": 11,
    "trackIndex": 1,
    "file": "built-on-the-steppers.json",
    "trained": "2025-10-22T19:34:31.902Z",
    "training": {
      "feature": "bass",
      "featureType": "signed",
      "output": "fieldStrength",
      "orientation": "direct",
      "weight": 1,
      "epochs": 400,
      "samples": 4096,
      "learningRate": 0.01,
      "loss": 0.0002735185844358057,
      "correlation": 0.9997469186782837,
      "fitness": 0.9997469186782837,
      "mse": 0.00017378211487084627,
      "combinedFitness": 0.999690055847168,
      "averageMse": 0.0002234975399915129,
      "correlations": [
        {
          "feature": "bass",
          "featureType": "signed",
          "output": "fieldStrength",
          "orientation": "direct",
          "weight": 1,
          "correlation": 0.9997469186782837,
          "fitness": 0.9997469186782837,
          "mse": 0.00017378211487084627
        },
        {
          "feature": "bass",
          "featureType": "signed",
          "output": "glow",
          "orientation": "direct",
          "weight": 0.5,
          "correlation": 0.999743640422821,
          "fitness": 0.999743640422821,
          "mse": 0.00017730725812725723
        },
        {
          "feature": "bass",
          "featureType": "signed",
          "output": "repelImpulse",
          "orientation": "direct",
          "weight": 0.5,
          "correlation": 0.999743640422821,
          "fitness": 0.999743640422821,
          "mse": 0.00017729851242620498
        },
        {
          "feature": "deltaMid",
          "featureType": "signed",
          "output": "spawnRate",
          "orientation": "direct",
          "weight": 0.5,
          "correlation": 0.9994692206382751,
          "fitness": 0.9994692206382751,
          "mse": 0.00036560228909365833
        }
      ]
    }
  }
}
