{
  "input": 24,
  "normalization": {
    "mean": [
      0.004048527218401432,
      -0.001390334451571107,
      0.0025233838241547346,
      0.010376996360719204,
      0.009053786285221577,
      0.5055111050605774,
      0.49706268310546875,
      0.5059944987297058,
      0.5040419697761536,
      0.012554177083075047,
      -0.015861891210079193,
      -0.0021796012297272682,
      0.009256165474653244,
      -0.00992679875344038,
      0.004797377157956362,
      0.011640356853604317,
      0.014988267794251442,
      -0.0012362677371129394,
      0.0009228757699020207,
      -0.001716924598440528,
      0.5004000067710876,
      0.4961773753166199,
      0.49988800287246704,
      0.4920242130756378
    ],
    "std": [
      0.5852594375610352,
      0.5798167586326599,
      0.5776295065879822,
      0.5868083834648132,
      0.5843728184700012,
      0.2858113944530487,
      0.2893337905406952,
      0.2887791395187378,
      0.2892962694168091,
      0.5766914486885071,
      0.5754658579826355,
      0.5719249248504639,
      0.5727881789207458,
      0.5812160968780518,
      0.5802581310272217,
      0.5781767964363098,
      0.5824781656265259,
      0.5822835564613342,
      0.5802851319313049,
      0.5831906795501709,
      0.2901489734649658,
      0.286874920129776,
      0.28790539503097534,
      0.29139357805252075
    ]
  },
  "layers": [
    {
      "activation": "relu",
      "weights": [
        0.044385869055986404,
        -0.2634260058403015,
        -0.14644864201545715,
        -0.19326923787593842,
        -0.03432948514819145,
        0.04151177406311035,
        0.03998182341456413,
        -0.018969442695379257,
        -0.15713846683502197,
        -0.10445261001586914,
        -0.11419360339641571,
        -0.11163198947906494,
        -0.005546552129089832,
        -0.18618746101856232,
        0.04324448108673096,
        -0.08941157162189484,
        0.14447419345378876,
        -0.2446921467781067,
        0.08302734047174454,
        0.00512138893827796,
        0.1309674233198166,
        -0.07444271445274353,
        -0.08728163689374924,
        -0.09084051847457886,
        0.0010498198680579662,
        0.0019188576843589544,
        0.9383975267410278,
        0.00015559712483081967,
        0.0017238471191376448,
        0.002230147598311305,
        -0.004184025339782238,
        -0.0028598662465810776,
        -0.0024969452060759068,
        0.0007255058735609055,
        0.002043415093794465,
        -0.004065112676471472,
        -0.0012203127844259143,
        0.00111462885979563,
        0.0003517860604915768,
        -0.0007194933132268488,
        0.0008979614358395338,
        0.0012356801889836788,
        0.005108517594635487,
        0.001615370623767376,
        -0.0007452779682353139,
        -0.003014780580997467,
        -0.0021563167683780193,
        -0.0028915468137711287,
        -0.004816813860088587,
        -0.016623442992568016,
        -0.8051366806030273,
        -0.005711000878363848,
        0.000016135651094373316,
        -0.0008636930142529309,
        -0.0097131859511137,
        0.005173839628696442,
        -0.009456978179514408,
        -0.0065452163107693195,
        -0.000029489146982086822,
        -0.01827273517847061,
        -0.007845332846045494,
        -0.009075121954083443,
        -0.00229886407032609,
        -0.0005035450449213386,
        0.0017473275074735284,
        -0.0018165538785979152,
        0.0024539511650800705,
        -0.004587313160300255,
        -0.0022884199861437082,
        -0.005305411759763956,
        0.005002487450838089,
        0.0009825980523601174,
        -0.1545071005821228,
        -0.13362401723861694,
        -0.20148684084415436,
        0.2640577554702759,
        0.015211809426546097,
        0.029835021123290062,
        -0.25505030155181885,
        -0.22419986128807068,
        0.01699741557240486,
        0.027699938043951988,
        0.10722675174474716,
        0.013320435769855976,
        -0.2125483900308609,
        -0.08924109488725662,
        -0.08072967827320099,
        -0.15532080829143524,
        -0.16777403652668,
        -0.15997031331062317,
        -0.25190144777297974,
        0.07922005653381348,
        0.07255347818136215,
        0.13546818494796753,
        0.006677646189928055,
        -0.0023000140208750963,
        0.17404665052890778,
        0.17069019377231598,
        -0.312644898891449,
        0.14685377478599548,
        0.027691077440977097,
        0.021794162690639496,
        0.0888577252626419,
        0.0057306415401399136,
        -0.07486540824174881,
        0.022899307310581207,
        -0.17041327059268951,
        0.007965799421072006,
        -0.09114141017198563,
        -0.01078791543841362,
        -0.10953693836927414,
        -0.14572498202323914,
        -0.17934757471084595,
        -0.1716422140598297,
        0.15715505182743073,
        0.061944086104631424,
        0.000765506352763623,
        -0.15379810333251953,
        -0.20317824184894562,
        -0.03558370843529701,
        -0.2227581888437271,
        0.013344304636120796,
        -0.4685826599597931,
        0.13867436349391937,
        -0.038267042487859726,
        0.16796466708183289,
        0.15956979990005493,
        -0.031114919111132622,
        -0.05993788316845894,
        -0.07529725134372711,
        0.19938711822032928,
        -0.17175252735614777,
        0.044069431722164154,
        -0.007221112493425608,
        -0.2448159009218216,
        -0.03389879688620567,
        -0.0931769534945488,
        -0.027469880878925323,
        -0.20735380053520203,
        0.18245594203472137,
        -0.1720210611820221,
        0.10003884881734848,
        -0.037031691521406174,
        -0.19902566075325012,
        -0.2397557646036148,
        0.131569042801857,
        0.17834971845149994,
        -0.12244895100593567,
        -0.22965708374977112,
        -0.11062847822904587,
        0.1291164606809616,
        -0.0614590048789978,
        0.049885883927345276,
        -0.19423040747642517,
        0.08065541833639145,
        0.034555479884147644,
        -0.1670064628124237,
        0.08695687353610992,
        -0.18493908643722534,
        -0.0512167327105999,
        0.07754803448915482,
        0.19051790237426758,
        0.2560959756374359,
        -0.11518534272909164,
        0.28291189670562744,
        0.19248664379119873,
        -0.27528250217437744,
        0.22642432153224945,
        0.16374458372592926,
        -0.11974311619997025,
        -0.21461449563503265,
        0.19790273904800415,
        0.08695071190595627,
        0.20207539200782776,
        -0.07785797864198685,
        -0.05902524292469025,
        0.137056365609169,
        -0.056448690593242645,
        -0.16278836131095886,
        0.2783101499080658,
        0.17269670963287354,
        0.07272098958492279,
        0.318223237991333,
        0.1278277486562729,
        -0.18567420542240143,
        -0.22532299160957336,
        -0.006116803735494614,
        0.007587045896798372,
        -0.1519269347190857,
        0.0855650007724762,
        0.25153493881225586,
        0.0754547044634819,
        -0.0018208769615739584,
        -0.009151073172688484,
        0.6293893456459045,
        -0.0026574055664241314,
        0.0014950793702155352,
        -0.0007381161558441818,
        -0.006375241558998823,
        0.0009957399452105165,
        -0.003990941680967808,
        -0.005394469015300274,
        -0.0003702326794154942,
        -0.009144214913249016,
        -0.005167585797607899,
        -0.003745719790458679,
        -0.0006332328775897622,
        -0.0010466132080182433,
        0.0023375912569463253,
        -0.0013886718079447746,
        0.0022877876181155443,
        -0.0027226489037275314,
        -0.0026179892010986805,
        -0.0024920781143009663,
        0.0005860628443770111,
        0.0011656126007437706,
        0.1749698668718338,
        -0.26875120401382446,
        0.20630845427513123,
        -0.08920107036828995,
        -0.20434530079364777,
        -0.23095187544822693,
        -0.1147574633359909,
        0.025173865258693695,
        0.24195434153079987,
        0.0903531163930893,
        0.22103311121463776,
        -0.04063625633716583,
        0.17017535865306854,
        -0.07429905980825424,
        0.2141076922416687,
        0.05202165246009827,
        -0.05355923995375633,
        0.11156729608774185,
        0.12243018299341202,
        0.19796130061149597,
        0.2357759177684784,
        0.0761682316660881,
        0.05421203002333641,
        -0.07594954967498779,
        0.002838203916326165,
        0.01241878792643547,
        -1.052695631980896,
        0.0029510343447327614,
        -0.003995529841631651,
        0.0006855286774225533,
        0.005063939839601517,
        -0.00235416810028255,
        0.003604728728532791,
        0.0043418011628091335,
        0.00027730234432965517,
        0.007155478931963444,
        0.0012471654918044806,
        0.003903603181242943,
        0.0024218373000621796,
        -0.003894441295415163,
        -0.0008894760394468904,
        0.0016702398424968123,
        0.0008813132881186903,
        0.002342542866244912,
        0.0010647133458405733,
        0.003226954024285078,
        -0.0015218488406389952,
        0.00040157721377909184,
        0.131994366645813,
        0.23880377411842346,
        -0.07079467177391052,
        0.018294773995876312,
        -0.1025472953915596,
        -0.04030552878975868,
        0.23788316547870636,
        -0.0019272196805104613,
        -0.0027327246498316526,
        0.18552573025226593,
        -0.15359553694725037,
        0.2123127281665802,
        0.2540847957134247,
        0.11131302267313004,
        -0.0753067210316658,
        0.24174752831459045,
        0.24260759353637695,
        0.1360742747783661,
        -0.09125102311372757,
        -0.023202428594231606,
        -0.06916282325983047,
        0.21180297434329987,
        -0.1063021570444107,
        -0.19273553788661957,
        0.0362129881978035,
        -0.05095380172133446,
        0.7791039943695068,
        0.004589754156768322,
        0.019633879885077477,
        -0.05281468853354454,
        -0.053091153502464294,
        -0.0820356011390686,
        -0.03130073472857475,
        -0.05377590283751488,
        -0.021919501945376396,
        -0.02541559748351574,
        -0.08124096691608429,
        -0.017261013388633728,
        0.015813669189810753,
        -0.16922466456890106,
        0.10793709754943848,
        0.01789623126387596,
        0.0920010507106781,
        0.058858685195446014,
        0.003752894699573517,
        -0.041290998458862305,
        0.015352978371083736,
        0.055398549884557724,
        0.0106846047565341,
        -0.22441868484020233,
        0.24945630133152008,
        -0.13381248712539673,
        0.2373046875,
        -0.20188505947589874,
        0.15426188707351685,
        0.18083041906356812,
        0.1778879016637802,
        -0.08149988204240799,
        -0.11372118443250656,
        0.025280289351940155,
        0.18347670137882233,
        0.1345527023077011,
        0.26187822222709656,
        -0.2902131974697113,
        -0.2592029571533203,
        -0.1058255136013031,
        0.16999658942222595,
        0.1107441633939743,
        -0.19299963116645813,
        -0.011790644377470016,
        0.156402587890625,
        -0.2697456181049347,
        -0.20093387365341187,
        0.12286397814750671,
        0.45931634306907654,
        -0.22494590282440186,
        -0.031163010746240616,
        -0.1936221718788147,
        0.004776598885655403,
        0.012943991459906101,
        -0.12703390419483185,
        0.06282176822423935,
        0.15359891951084137,
        -0.26947423815727234,
        -0.21828418970108032,
        -0.047769561409950256,
        -0.24276268482208252,
        -0.08993388712406158,
        0.02663985826075077,
        0.13996073603630066,
        0.05483521521091461,
        -0.07292714715003967,
        0.20108285546302795,
        -0.14361536502838135,
        -0.14393028616905212,
        -0.09724531322717667,
        0.004456307273358107,
        0.008619050495326519,
        0.8449046611785889,
        0.0037555680610239506,
        0.00041276399861089885,
        0.0008629034273326397,
        0.004343606065958738,
        -0.004680959973484278,
        0.0032746836077421904,
        0.003042299300432205,
        -0.0016446621157228947,
        0.011190912686288357,
        0.0013191435718908906,
        0.005635462235659361,
        0.0034370908979326487,
        -0.006269277073442936,
        0.0015269662253558636,
        0.002492117928341031,
        0.0006852311780676246,
        0.005721625406295061,
        0.0024793820921331644,
        0.001511094975285232,
        -0.0009066688944585621,
        0.002064530970528722
      ],
      "bias": [
        0.006831754930317402,
        -1.1530930995941162,
        0.35804522037506104,
        0.018586676567792892,
        0.006057661958038807,
        0.040222350507974625,
        -0.03209654241800308,
        -0.010824908502399921,
        0.6747808456420898,
        -0.006962795741856098,
        -1.1280733346939087,
        -0.01996874250471592,
        -0.1927829384803772,
        -0.00029170227935537696,
        0.05282950401306152,
        -0.4580618441104889
      ]
    },
    {
      "activation": "tanh",
      "weights": [
        0.000019226554286433384,
        1.1878736019134521,
        -0.3402933180332184,
        0.000812334066722542,
        -0.0009873203234747052,
        -0.001917493063956499,
        -0.0006097420700825751,
        -0.0020860920194536448,
        0.5533766150474548,
        0.00025077853933908045,
        -1.2382370233535767,
        -0.00024451600620523095,
        -0.02693871594965458,
        0.0003847225452773273,
        0.0011066343868151307,
        0.5481986403465271,
        0.19794610142707825,
        0.3116350471973419,
        -0.013218743726611137,
        -0.33464348316192627,
        0.31616437435150146,
        0.16827966272830963,
        -0.07586178183555603,
        0.15442287921905518,
        0.010022631846368313,
        -0.2575657069683075,
        0.2738770842552185,
        0.32531410455703735,
        -0.29163074493408203,
        -0.046311669051647186,
        0.12073241174221039,
        0.019355541095137596,
        -0.34694162011146545,
        0.13064993917942047,
        0.034570373594760895,
        -0.0836411565542221,
        -0.022341487929224968,
        0.120932437479496,
        0.20313146710395813,
        -0.19654783606529236,
        -0.13278350234031677,
        0.08900494128465652,
        -0.1607828438282013,
        -0.29232481122016907,
        0.0815577581524849,
        -0.16114512085914612,
        -0.11830641329288483,
        0.07329054921865463,
        -0.2444150596857071,
        -0.19354166090488434,
        -0.07314471900463104,
        -0.2107359766960144,
        -0.17844921350479126,
        0.24871233105659485,
        0.2580084502696991,
        -0.31930452585220337,
        -0.32425814867019653,
        -0.016660692170262337,
        -0.21198564767837524,
        0.06358946859836578,
        0.15424078702926636,
        -0.12729600071907043,
        0.1541527956724167,
        -0.09290600568056107,
        -0.2599393129348755,
        -0.27069827914237976,
        0.27298504114151,
        -0.32444602251052856,
        -0.33725377917289734,
        -0.2242194563150406,
        0.03300339728593826,
        -0.24265098571777344,
        0.12658149003982544,
        -0.2962687015533447,
        -0.09242071211338043,
        0.04485165327787399,
        -0.2362128645181656,
        0.16742001473903656,
        0.29852497577667236,
        0.2634739875793457,
        -0.2697937488555908,
        0.15704037249088287,
        -0.04867592081427574,
        -0.30900537967681885,
        0.16625480353832245,
        -0.2877655625343323,
        -0.07950010150671005,
        -0.2799549400806427,
        -0.05996197834610939,
        0.21715815365314484,
        -0.13867215812206268,
        0.29479339718818665,
        -0.2072179615497589,
        0.2723939120769501,
        -0.32278409600257874,
        -0.3504573702812195,
        0.08652432262897491,
        0.11192763596773148,
        0.31798791885375977,
        -0.1798267513513565,
        0.18667690455913544,
        0.07096495479345322,
        0.14465084671974182,
        -0.117777980864048,
        -0.16278566420078278,
        0.0400717593729496,
        -0.24834728240966797,
        -0.2240435779094696,
        -0.31364545226097107,
        0.13859903812408447,
        0.22604462504386902,
        0.08991362154483795,
        -0.0564911812543869,
        -0.03985484316945076,
        0.1973978728055954,
        0.2667972445487976,
        0.008082976564764977,
        -0.00878507923334837,
        -0.23773343861103058,
        -0.2370295375585556,
        -0.09796399623155594,
        0.09570570290088654,
        -0.04771827533841133,
        0.266086220741272,
        0.021871687844395638,
        0.012023137882351875,
        0.03333483263850212,
        0.0732506811618805,
        -0.18775075674057007,
        0.0032514831982553005,
        0.3348107933998108,
        0.23901349306106567,
        -0.23671844601631165,
        0.1975948065519333,
        0.10968703031539917,
        -0.18729913234710693,
        -0.007120128255337477,
        -0.08240171521902084,
        -0.04789353534579277,
        -0.283494770526886,
        0.20204253494739532,
        0.1800866574048996,
        0.2441939413547516,
        0.24201063811779022,
        0.15595309436321259,
        0.04637308046221733,
        -0.20123955607414246,
        -0.17993968725204468,
        -0.21771930158138275,
        -0.10873757302761078,
        0.09571362286806107,
        0.3309377431869507,
        0.03302878886461258,
        -0.02387315221130848,
        0.3114631175994873,
        -0.014757804572582245,
        -0.1629001945257187,
        0.007804984226822853,
        -0.16602516174316406,
        -0.061287783086299896,
        -0.21411053836345673,
        0.24806712567806244,
        0.15191733837127686,
        -0.1888395994901657,
        -0.2176881581544876,
        0.1148282140493393,
        0.3252827525138855,
        -0.18248452246189117,
        0.27323785424232483,
        -0.08641471713781357,
        0.20367474853992462,
        0.34913119673728943,
        -0.15100359916687012,
        -0.2830732762813568,
        -0.34371763467788696,
        0.19129332900047302
      ],
      "bias": [
        -0.24468335509300232,
        0,
        0,
        0,
        0,
        0,
        0,
        0,
        0,
        0,
        0
      ]
    }
  ],
  "meta": {
    "name": "Ease Up",
    "slug": "ease-up",
    "inputs": 24,
    "outputs": 11,
    "trackIndex": 9,
    "file": "ease-up.json",
    "trained": "2025-10-22T14:00:58.114Z",
    "training": {
      "feature": "lowMid",
      "featureType": "signed",
      "output": "spawnRate",
      "orientation": "direct",
      "epochs": 400,
      "samples": 4096,
      "learningRate": 0.01,
      "loss": 0.00011635099508566782,
      "correlation": 0.9996675252914429,
      "fitness": 0.9996675252914429,
      "mse": 0.00022756367980036885
    }
  }
}
