{
  "input": 24,
  "normalization": {
    "mean": [
      0.013403921388089657,
      0.004707329906523228,
      0.015316897071897984,
      0.009477468207478523,
      -0.014739942736923695,
      0.4984622001647949,
      0.49672672152519226,
      0.5087608695030212,
      0.5048967599868774,
      -0.0018078603316098452,
      0.0009264631662517786,
      0.011794956400990486,
      0.01845388300716877,
      0.001125242211855948,
      -0.007407625205814838,
      -0.009755530394613743,
      0.002570579992607236,
      0.009217522107064724,
      -0.006873172242194414,
      -0.0009749152814038098,
      0.49822673201560974,
      0.5002068877220154,
      0.4988492429256439,
      0.5047361850738525
    ],
    "std": [
      0.5697688460350037,
      0.5671101212501526,
      0.5845144987106323,
      0.5765002965927124,
      0.5769301056861877,
      0.28550171852111816,
      0.2870796024799347,
      0.2864776849746704,
      0.2869325578212738,
      0.5733458399772644,
      0.5820834040641785,
      0.5735583305358887,
      0.578863799571991,
      0.5760481953620911,
      0.5788307189941406,
      0.5732349157333374,
      0.5784982442855835,
      0.576091468334198,
      0.5762694478034973,
      0.5764819979667664,
      0.28860214352607727,
      0.28894466161727905,
      0.28747978806495667,
      0.2895362377166748
    ]
  },
  "layers": [
    {
      "activation": "relu",
      "weights": [
        -0.10397520661354065,
        0.16944777965545654,
        0.3985912799835205,
        -0.20230528712272644,
        -0.23222202062606812,
        -0.20661140978336334,
        -0.21869412064552307,
        0.2124413251876831,
        -0.1971597969532013,
        -0.13756582140922546,
        -0.055738553404808044,
        -0.2193412035703659,
        0.2773648202419281,
        -0.21829620003700256,
        -0.2435522973537445,
        0.0764492079615593,
        -0.08597718179225922,
        0.17082037031650543,
        0.14008881151676178,
        0.06976435333490372,
        0.11513854563236237,
        -0.1963469386100769,
        -0.035105541348457336,
        -0.042125072330236435,
        -0.10770434886217117,
        -0.19620582461357117,
        0.36026084423065186,
        0.11965729296207428,
        -0.13225091993808746,
        -0.24403786659240723,
        -0.02780836634337902,
        -0.046181570738554,
        0.03212718665599823,
        -0.2886691391468048,
        0.036751557141542435,
        0.2431163489818573,
        -0.0844828337430954,
        -0.11532977223396301,
        0.13075916469097137,
        0.2039324790239334,
        0.11996502429246902,
        -0.05970824509859085,
        -0.21892154216766357,
        0.13201843202114105,
        -0.10932940989732742,
        0.10045905411243439,
        -0.20729579031467438,
        -0.20723102986812592,
        0.14207756519317627,
        -0.020186424255371094,
        0.5466747283935547,
        -0.1432797908782959,
        0.042724043130874634,
        0.060938067734241486,
        0.190383180975914,
        0.2802843153476715,
        -0.17808997631072998,
        0.12820574641227722,
        0.07676342129707336,
        0.03960417956113815,
        0.17371727526187897,
        -0.26037976145744324,
        0.27479106187820435,
        -0.18242311477661133,
        0.09548763930797577,
        -0.16577428579330444,
        0.05612267181277275,
        0.03621618077158928,
        -0.09892433881759644,
        0.18156744539737701,
        0.15839602053165436,
        0.12376859784126282,
        0.07936559617519379,
        0.22415055334568024,
        0.17075903713703156,
        0.03731425851583481,
        -0.12087647616863251,
        -0.24215978384017944,
        -0.01101493276655674,
        0.03769514337182045,
        0.011796141043305397,
        0.17497287690639496,
        0.03975014016032219,
        0.22065863013267517,
        -0.13146114349365234,
        -0.005760946776717901,
        -0.27494561672210693,
        0.2099529504776001,
        -0.24767830967903137,
        0.236888587474823,
        0.09975346177816391,
        -0.09880582243204117,
        0.14332637190818787,
        0.2587188482284546,
        0.0717092752456665,
        0.015156673267483711,
        -0.0026359017938375473,
        -0.008447607047855854,
        -0.6055985689163208,
        -0.0024593935813754797,
        -0.0012478806311264634,
        0.0014310084516182542,
        0.0010548151331022382,
        -0.005954766180366278,
        0.00030411797342821956,
        -0.0007274605450220406,
        0.0001681790454313159,
        -0.0012686180416494608,
        0.008421543054282665,
        0.0006645757821388543,
        0.002857358194887638,
        0.002685973886400461,
        0.003746917238458991,
        -0.0013284209417179227,
        0.006655780132859945,
        0.008069977164268494,
        0.006613945122808218,
        -0.001142070977948606,
        0.0014152777148410678,
        -0.003483253763988614,
        0.002170091960579157,
        0.008447620086371899,
        1.0748517513275146,
        0.0011866147397086024,
        -0.00045925224549137056,
        -0.0005207634530961514,
        -0.0002306223032064736,
        0.002291881013661623,
        -0.0024742083624005318,
        0.0008701965562067926,
        -0.0006433437811210752,
        0.00009913146641338244,
        -0.007110271602869034,
        0.0009930883534252644,
        -0.0037172341253608465,
        -0.004975981544703245,
        -0.0032420610077679157,
        -0.0003844468737952411,
        -0.007474806159734726,
        -0.004121799487620592,
        -0.0024868196342140436,
        -0.0009319541277363896,
        0.0010879256296902895,
        0.001749577233567834,
        0.18861308693885803,
        -0.003553698305040598,
        0.04791209474205971,
        0.07174648344516754,
        0.2752685546875,
        0.08122073858976364,
        -0.054021190851926804,
        -0.12185993790626526,
        -0.26910400390625,
        0.015065368264913559,
        0.2346118837594986,
        0.21211867034435272,
        -0.048006996512413025,
        0.24556361138820648,
        0.18656828999519348,
        0.009638490155339241,
        0.26059287786483765,
        0.036410026252269745,
        0.16305215656757355,
        0.21429874002933502,
        0.2014346569776535,
        -0.09485511481761932,
        -0.21744823455810547,
        0.09828847646713257,
        0.22296147048473358,
        -0.17505653202533722,
        0.03099464252591133,
        -0.19193032383918762,
        0.04465698078274727,
        -0.27707237005233765,
        0.15927250683307648,
        -0.19539767503738403,
        0.12309558689594269,
        -0.06359125673770905,
        -0.06971356272697449,
        -0.2501640021800995,
        -0.0951608419418335,
        -0.06717660278081894,
        0.10931380093097687,
        -0.2474719136953354,
        0.229710191488266,
        -0.22190067172050476,
        0.14173708856105804,
        0.1267635077238083,
        0.25639113783836365,
        0.12721633911132812,
        -0.2519224286079407,
        -0.19586226344108582,
        0.10351923108100891,
        -0.17213287949562073,
        0.4836575984954834,
        0.03451086953282356,
        -0.05646352842450142,
        0.0889367014169693,
        -0.1053488701581955,
        -0.023707516491413116,
        0.15289510786533356,
        0.0762733742594719,
        -0.19289810955524445,
        0.19016732275485992,
        0.11252152919769287,
        -0.05777507647871971,
        0.018568428233265877,
        -0.15300701558589935,
        -0.025045303627848625,
        0.16729362308979034,
        -0.13792230188846588,
        0.0584908202290535,
        -0.09138081222772598,
        -0.06067448854446411,
        -0.2287786304950714,
        0.07048814743757248,
        0.004844384733587503,
        0.006144046783447266,
        -0.8692247867584229,
        0.002189219929277897,
        0.0001288282364839688,
        -0.00038958177901804447,
        -0.0020872110035270452,
        0.004511105362325907,
        -0.0018329538870602846,
        0.00013676656817551702,
        0.0015223759692162275,
        0.0016993131721392274,
        -0.008145034313201904,
        -0.0001907043915707618,
        -0.002971797250211239,
        -0.001484988140873611,
        -0.0035384176298975945,
        -0.000123515710583888,
        -0.006996236275881529,
        -0.0051683178171515465,
        -0.006388870067894459,
        0.0029541898984462023,
        -0.0027772681787610054,
        0.0018909277860075235,
        -0.023673880845308304,
        0.12745219469070435,
        -0.13734395802021027,
        0.22242233157157898,
        -0.1073993444442749,
        -0.14896342158317566,
        0.27418792247772217,
        -0.038443274796009064,
        0.1631132960319519,
        -0.027242491021752357,
        -0.01629439927637577,
        0.2553633451461792,
        -0.04185967147350311,
        -0.02372393198311329,
        -0.13872888684272766,
        -0.017564084380865097,
        -0.2002333551645279,
        -0.27018794417381287,
        0.27551671862602234,
        0.21370287239551544,
        0.26578155159950256,
        -0.16122451424598694,
        0.23659157752990723,
        0.004838557913899422,
        -0.0026508208829909563,
        -0.009171922691166401,
        0.9087117314338684,
        -0.0020421433728188276,
        -0.003091302001848817,
        0.0002712034620344639,
        0.0018123332411050797,
        -0.006332051008939743,
        0.0004965933621861041,
        -0.0000343838291883003,
        0.0003447011986281723,
        -0.002620505401864648,
        0.010839504189789295,
        0.0009133201092481613,
        0.00016875480650924146,
        0.004949009977281094,
        0.0038738702423870564,
        -0.0007578608347103,
        0.008700714446604252,
        0.007371925283223391,
        0.00748770497739315,
        -0.003324568970128894,
        0.0014433427713811398,
        -0.0021496787667274475,
        0.2918418347835541,
        -0.10545901209115982,
        -0.16578948497772217,
        -0.019585609436035156,
        0.033799413591623306,
        -0.23399849236011505,
        -0.06441102176904678,
        -0.007305577863007784,
        -0.08277100324630737,
        0.2831757664680481,
        0.012099126353859901,
        0.0680072084069252,
        -0.061825577169656754,
        0.059513937681913376,
        0.2608959376811981,
        -0.27342894673347473,
        0.0009900431614369154,
        0.09470234811306,
        -0.049276694655418396,
        -0.25050100684165955,
        -0.022549763321876526,
        0.1971607506275177,
        -0.15601633489131927,
        0.14908453822135925,
        0.0029851309955120087,
        0.0037218837533146143,
        -0.942171573638916,
        -0.001441675005480647,
        0.0016550538130104542,
        -0.00026095006614923477,
        0.001050212886184454,
        -0.0025558401830494404,
        0.00029576721135526896,
        -0.002668076427653432,
        -0.000782150193117559,
        -0.003802028251811862,
        -0.001791562419384718,
        0.00015765271382406354,
        0.0007784253684803843,
        0.0026985579170286655,
        -0.0005612157401628792,
        0.0015006882604211569,
        0.0012329890159890056,
        -0.0004355287237558514,
        0.0018183510983362794,
        -0.0006222663214430213,
        0.0007808624068275094,
        0.00021819313406012952,
        0.0488632395863533,
        0.061396073549985886,
        0.003993271850049496,
        0.09503266215324402,
        -0.20056448876857758,
        -0.15193140506744385,
        0.234269917011261,
        -0.07808558642864227,
        0.23742441833019257,
        0.021753711625933647,
        -0.3044394254684448,
        -0.234178826212883,
        -0.10105767846107483,
        -0.14593425393104553,
        -0.04946906492114067,
        -0.07227198034524918,
        0.2100658118724823,
        0.25565627217292786,
        0.10754123330116272,
        0.06042063981294632,
        0.20801560580730438,
        0.07474317401647568,
        0.10512683540582657,
        0.08597433567047119,
        -0.0069899410009384155,
        -0.11890903115272522,
        0.10122337937355042,
        0.24476760625839233,
        0.09706316143274307,
        0.049735140055418015,
        -0.25491347908973694,
        0.09893544018268585,
        0.23947307467460632,
        0.1477636694908142,
        -0.24850155413150787,
        -0.22449570894241333,
        0.15469858050346375,
        -0.25427916646003723,
        0.19909445941448212,
        0.05062839016318321,
        -0.028860175982117653,
        -0.06772128492593765,
        -0.2275688797235489,
        -0.10026821494102478,
        0.07091527432203293,
        0.25406819581985474,
        -0.07096005231142044,
        0.04042481258511543
      ],
      "bias": [
        0.02986893616616726,
        0.04651931673288345,
        0.08848254382610321,
        -0.011555842123925686,
        0.6679218411445618,
        -1.1876078844070435,
        -0.03709099441766739,
        -0.010985276661813259,
        0.03443100303411484,
        -0.14065827429294586,
        -0.002959356177598238,
        0.023931758478283882,
        -0.003032362787052989,
        -1.1198786497116089,
        -0.008764373138546944,
        -0.0052334400825202465
      ]
    },
    {
      "activation": "tanh",
      "weights": [
        -0.0013721134746447206,
        0.005560917314141989,
        0.0037588158156722784,
        0.0015789696481078863,
        -0.4251638948917389,
        1.2920717000961304,
        0.0011526682646945119,
        0.0032633086666464806,
        0.0028708449099212885,
        -0.503529965877533,
        0.0007708374178037047,
        0.4538017213344574,
        -0.0032203844748437405,
        -1.2199386358261108,
        -0.0010471780551597476,
        0.0006607718532904983,
        -0.28756508231163025,
        0.2642591893672943,
        -0.21251444518566132,
        0.16658788919448853,
        0.029838453978300095,
        -0.1439674347639084,
        0.0776098296046257,
        0.26892969012260437,
        0.22701579332351685,
        -0.25959154963493347,
        -0.10813796520233154,
        -0.1544736623764038,
        0.08628097176551819,
        -0.30837738513946533,
        0.12094376236200333,
        0.3054719567298889,
        0.33099982142448425,
        -0.29338160157203674,
        -0.057954736053943634,
        0.341635137796402,
        0.04099380597472191,
        -0.23755477368831635,
        -0.07943030446767807,
        -0.0746530145406723,
        0.20411767065525055,
        -0.16138990223407745,
        0.21999932825565338,
        -0.3215068280696869,
        0.2164738029241562,
        0.20259493589401245,
        -0.10725998878479004,
        0.3140130937099457,
        -0.04790640249848366,
        -0.32652348279953003,
        0.17665842175483704,
        0.3349611759185791,
        0.3035218417644501,
        -0.0871773436665535,
        -0.2931666970252991,
        -0.23035483062267303,
        -0.06840228289365768,
        0.16591443121433258,
        -0.32344910502433777,
        0.26278698444366455,
        -0.0064710029400885105,
        -0.06297322362661362,
        0.24387429654598236,
        0.28517335653305054,
        -0.19280563294887543,
        -0.05590704455971718,
        0.10190163552761078,
        -0.23106369376182556,
        0.19951309263706207,
        0.057463642209768295,
        -0.16430653631687164,
        0.08930213004350662,
        0.21705982089042664,
        -0.14663048088550568,
        -0.1842479258775711,
        -0.3023167848587036,
        -0.2811724841594696,
        -0.029138097539544106,
        0.34186190366744995,
        0.16650553047657013,
        -0.3511504828929901,
        0.25180909037590027,
        0.26162514090538025,
        0.2475825399160385,
        -0.04359817877411842,
        -0.34385770559310913,
        0.011832977645099163,
        -0.11772720515727997,
        -0.015799110755324364,
        0.13972359895706177,
        0.08966071158647537,
        0.0818081796169281,
        0.043556634336709976,
        -0.12563247978687286,
        0.24798716604709625,
        -0.03836105391383171,
        0.2648458480834961,
        0.09188974648714066,
        -0.23983611166477203,
        -0.1759173423051834,
        -0.15129174292087555,
        -0.34848278760910034,
        0.14216729998588562,
        -0.026374926790595055,
        -0.11487691849470139,
        -0.23842674493789673,
        0.14607590436935425,
        -0.10996628552675247,
        0.07404589653015137,
        -0.11884243041276932,
        0.30539995431900024,
        0.26458555459976196,
        0.03406095504760742,
        -0.0609140619635582,
        0.15500198304653168,
        0.14282314479351044,
        -0.2843526303768158,
        -0.2077062726020813,
        0.29122593998908997,
        0.13199637830257416,
        -0.1659778207540512,
        0.21832557022571564,
        -0.12805047631263733,
        -0.23211747407913208,
        -0.13191895186901093,
        0.24608302116394043,
        -0.27083972096443176,
        0.036339543759822845,
        -0.28695663809776306,
        0.14325086772441864,
        0.27288779616355896,
        -0.19300581514835358,
        0.10094140470027924,
        -0.22862409055233002,
        -0.23041094839572906,
        -0.07062190026044846,
        -0.28292006254196167,
        -0.15443968772888184,
        -0.08610843867063522,
        0.19911839067935944,
        -0.04069692641496658,
        0.20217265188694,
        0.10232960432767868,
        0.12652532756328583,
        -0.2373685985803604,
        -0.24033163487911224,
        -0.35169708728790283,
        0.07686014473438263,
        -0.19390647113323212,
        0.0317172035574913,
        0.3198224604129791,
        -0.10463518649339676,
        0.002388222608715296,
        -0.06681381911039352,
        0.07369085401296616,
        -0.028630392625927925,
        -0.1475639045238495,
        0.1322038322687149,
        0.25750234723091125,
        -0.21533918380737305,
        0.10598526895046234,
        0.0992918387055397,
        -0.14017795026302338,
        -0.008662309497594833,
        0.014576125890016556,
        0.2104727029800415,
        0.11510311812162399,
        0.009928355924785137,
        0.08529457449913025,
        0.04379905387759209,
        0.06975173205137253,
        0.05813167244195938,
        -0.2227240800857544,
        0.045503437519073486,
        -0.08890903741121292,
        -0.22019006311893463
      ],
      "bias": [
        0.26488837599754333,
        0,
        0,
        0,
        0,
        0,
        0,
        0,
        0,
        0,
        0
      ]
    }
  ],
  "meta": {
    "name": "Ease Up",
    "slug": "ease-up",
    "inputs": 24,
    "outputs": 11,
    "trackIndex": 9,
    "file": "ease-up.json",
    "trained": "2025-10-22T06:36:11.580Z",
    "training": {
      "feature": "lowMid",
      "featureType": "signed",
      "output": "spawnRate",
      "orientation": "direct",
      "epochs": 400,
      "samples": 4096,
      "learningRate": 0.01,
      "loss": 0.00013065611710771918,
      "correlation": 0.9996320009231567,
      "fitness": 0.9996320009231567,
      "mse": 0.0002540954446885735
    }
  }
}
