{
  "input": 23,
  "normalization": {
    "mean": [
      0,
      0,
      0,
      0,
      0,
      0,
      0,
      0,
      0,
      0,
      0,
      0,
      0,
      0,
      0,
      0,
      0,
      0,
      0,
      0,
      0,
      0,
      0
    ],
    "std": [
      1,
      1,
      1,
      1,
      1,
      1,
      1,
      1,
      1,
      1,
      1,
      1,
      1,
      1,
      1,
      1,
      1,
      1,
      1,
      1,
      1,
      1,
      1
    ]
  },
  "layers": [
    {
      "activation": "relu",
      "weights": [
        -0.120663,
        -0.066743,
        -0.17991,
        -0.172235,
        0.167787,
        0.049877,
        -0.249745,
        0.140221,
        0.162645,
        -0.054834,
        -0.072407,
        -0.21373,
        0.084243,
        -0.111353,
        0.029947,
        0.121288,
        -0.227128,
        0.200524,
        -0.220303,
        0.09425,
        -0.023958,
        -0.029545,
        0.084778,
        -0.059611,
        0.024909,
        0.085418,
        -0.052228,
        0.108715,
        -0.186085,
        -0.050531,
        0.119619,
        0.119712,
        0.122719,
        -0.096798,
        0.099532,
        0.173523,
        -0.055524,
        -0.024263,
        0.207655,
        -0.046065,
        0.109526,
        0.227034,
        0.082043,
        0.19848,
        0.118548,
        0.063352,
        0.076521,
        0.229956,
        0.224265,
        0.033668,
        0.160981,
        -0.230307,
        -0.074273,
        0.239864,
        0.050686,
        -0.022135,
        0.164274,
        0.118494,
        -0.083862,
        -0.20883,
        0.135206,
        -0.023053,
        0.150081,
        -0.246824,
        -0.245756,
        -0.208178,
        -0.206816,
        0.157671,
        -0.057156,
        -0.09769,
        -0.155012,
        -0.049703,
        0.021408,
        -0.143575,
        -0.188332,
        -0.041188,
        0.124485,
        -0.207137,
        -0.032832,
        0.147265,
        0.176991,
        -0.133671,
        -0.070716,
        0.214416,
        0.095534,
        -0.15087,
        -0.222754,
        -0.018288,
        0.003902,
        0.166848,
        0.062372,
        0.141113,
        -0.123231,
        -0.249087,
        0.188343,
        0.058104,
        0.150684,
        0.215877,
        -0.237321,
        -0.049808,
        -0.033583,
        -0.005791,
        0.145959,
        -0.113795,
        -0.168296,
        0.186428,
        0.050367,
        0.176703,
        0.118474,
        0.00937,
        0.164107,
        -0.149187,
        -0.066398,
        -0.149578,
        -0.09673,
        0.039809,
        0.027272,
        0.060519,
        0.017694,
        0.212733,
        0.027985,
        0.243725,
        -0.097599,
        -0.165613,
        -0.081697,
        -0.073787,
        0.091155,
        0.141001,
        -0.209629,
        0.11244,
        0.033713,
        -0.146119,
        0.045287,
        -0.138641,
        -0.116666,
        -0.223633,
        -0.174613,
        0.140444,
        0.146101,
        -0.1556,
        0.093494,
        -0.159624,
        0.16862,
        -0.173986,
        -0.101788,
        -0.041823,
        0.065666,
        -0.009928,
        -0.010688,
        0.081612,
        -0.185672,
        0.189542,
        0.072276,
        -0.067318,
        -0.133779,
        -0.070353,
        0.11607,
        -0.146996,
        -0.24567,
        0.116188,
        -0.246802,
        0.238896,
        -0.203956,
        -0.195653,
        -0.063894,
        0.058994,
        0.118941,
        -0.106694,
        0.138991,
        0.212185,
        -0.139106,
        -0.163035,
        0.019089,
        0.108696,
        0.021051,
        0.066094,
        0.076497,
        -0.017866,
        0.063263,
        -0.05778,
        -0.023411,
        0.065303,
        -0.001493,
        0.188569,
        -0.175907,
        -0.112411,
        -0.202116,
        -0.13164,
        -0.197105,
        0.076758,
        0.112744,
        0.105794,
        0.220625,
        0.172944,
        -0.096507,
        -0.129991,
        0.12209,
        0.087666,
        0.203672,
        -0.232645,
        -0.239385,
        -0.034322,
        -0.129167,
        -0.087729,
        -0.158634,
        -0.167544,
        -0.199193,
        0.072088,
        0.075696,
        0.035149,
        0.206911,
        -0.09392,
        0.210599,
        0.109796,
        0.190653,
        0.244053,
        -0.177685,
        -0.167372,
        -0.04449,
        -0.025194,
        -0.211834,
        -0.16174,
        0.140334,
        0.239764,
        -0.024328,
        -0.187408,
        -0.126056,
        -0.247899,
        -0.186984,
        -0.106764,
        -0.22252,
        0.186663,
        0.02992,
        0.035261,
        -0.233934,
        0.211004,
        -0.017007,
        0.225097,
        0.126357,
        -0.147152,
        0.10461,
        0.050387,
        -0.028475,
        0.024291,
        0.139401,
        -0.241389,
        -0.199749,
        0.148049,
        -0.042616,
        0.062293,
        0.011278,
        -0.043923,
        -0.142169,
        0.073604,
        -0.149899,
        0.155855,
        -0.097081,
        -0.123835,
        -0.110658,
        -0.215332,
        -0.054775,
        -0.133122,
        -0.230619,
        0.197188,
        0.138129,
        0.125585,
        0.050805,
        -0.243337,
        -0.1568,
        0.195372,
        0.155232,
        -0.074964,
        -0.026397,
        -0.218672,
        -0.003916,
        0.072304,
        -0.062383,
        0.000577,
        0.025849,
        -0.049578,
        -0.028696,
        -0.058608,
        0.051431,
        -0.097923,
        -0.225597,
        -0.0858,
        -0.205892,
        -0.000366,
        -0.011486,
        -0.097703,
        -0.204305,
        -0.065432,
        0.181619,
        -0.154921,
        -0.102546,
        0.102703,
        0.128028,
        0.011614,
        0.143323,
        -0.044441,
        -0.202219,
        -0.152655,
        0.084028,
        -0.186873,
        0.094601,
        -0.198238,
        0.083625,
        -0.041617,
        0.006431,
        -0.230162,
        -0.144943,
        -0.04115,
        -0.042357,
        -0.094956,
        0.076275,
        -0.214475,
        -0.223042,
        0.186769,
        0.063481,
        -0.075516,
        -0.179838,
        0.249935,
        0.103075,
        -0.198529,
        -0.088335,
        0.109639,
        0.168839,
        -0.035208,
        -0.106036,
        0.038623,
        -0.124042,
        0.096816,
        0.199093,
        -0.019606,
        0.1484,
        0.04941,
        -0.018907,
        0.005795,
        0.201251,
        0.223606,
        -0.02641,
        -0.054151,
        0.064547,
        0.238824,
        -0.138471,
        -0.041318,
        0.000176,
        -0.038051,
        0.081131,
        -0.086655,
        -0.211592,
        0.091598,
        0.087135,
        0.098341,
        -0.014386,
        0.117861,
        -0.248611,
        -0.112332,
        -0.120258,
        0.102852,
        0.181849,
        0.1222,
        -0.004892,
        -0.147631,
        -0.123947,
        0.089208,
        0.123068,
        0.173982
      ],
      "bias": [
        0.099252,
        0.043137,
        -0.007949,
        0.016744,
        0.077361,
        -0.058649,
        0.088021,
        0.045459,
        -0.008138,
        0.07122,
        0.060626,
        0.067877,
        -0.048351,
        -0.07549,
        0.055255,
        0.067993
      ]
    },
    {
      "activation": "tanh",
      "weights": [
        0.064212,
        -0.04233,
        -0.174794,
        0.199226,
        0.034706,
        -0.118726,
        0.092341,
        0.075273,
        0.071324,
        0.198597,
        0.128988,
        -0.178427,
        0.107314,
        -0.108967,
        -0.142548,
        0.187807,
        0.08986,
        0.114107,
        0.172383,
        0.17588,
        0.197392,
        -0.189995,
        0.141099,
        0.131547,
        -0.03178,
        0.167363,
        -0.181652,
        0.023928,
        -0.128243,
        -0.165428,
        -0.143211,
        -0.130834,
        0.153557,
        0.092847,
        -0.005587,
        0.154474,
        -0.114562,
        0.095318,
        -0.199822,
        -0.181173,
        0.051934,
        -0.021619,
        -0.04091,
        -0.153464,
        -0.195676,
        0.151565,
        0.077986,
        -0.170029,
        -0.086515,
        -0.027833,
        -0.106722,
        0.15767,
        -0.047171,
        -0.089099,
        0.061895,
        0.184092,
        -0.157435,
        -0.185188,
        0.016673,
        0.037255,
        0.08654,
        -0.02629,
        0.067461,
        -0.179478,
        -0.067091,
        0.196362,
        -0.170833,
        0.064771,
        -0.010121,
        -0.197293,
        -0.041983,
        0.187211,
        -0.072211,
        -0.061668,
        -0.122739,
        -0.186917,
        -0.001242,
        0.117466,
        -0.126417,
        -0.083492,
        0.005169,
        -0.199261,
        0.045468,
        0.03672,
        -0.151769,
        -0.086045,
        -0.115232,
        -0.074056,
        -0.112138,
        0.114132,
        -0.02728,
        0.085159,
        -0.154842,
        0.109062,
        0.171677,
        0.14401,
        -0.121315,
        -0.163376,
        -0.006225,
        0.141102,
        -0.034147,
        -0.18987,
        0.127821,
        -0.139059,
        -0.179383,
        -0.164079,
        -0.194379,
        -0.116238,
        0.078749,
        0.009488,
        -0.010981,
        0.104498,
        -0.018047,
        -0.003644,
        0.058884,
        -0.022859,
        0.092045,
        -0.096019,
        0.187305,
        0.040745,
        -0.133535,
        0.150919,
        0.074235,
        -0.016687,
        0.026369,
        -0.160497,
        0.029838,
        0.199834,
        0.14855,
        0.038291,
        0.083794,
        -0.099296,
        0.012432,
        0.080526,
        0.102802,
        0.126786,
        0.133395,
        -0.115132,
        -0.002461,
        0.127373,
        -0.186317,
        -0.195368,
        0.000318,
        0.057271,
        -0.057871,
        0.0118,
        -0.105292,
        -0.150705,
        -0.126032,
        -0.077955,
        0.178346,
        -0.181612,
        -0.178024,
        -0.132981,
        -0.159789,
        -0.146358,
        -0.109816,
        0.120162,
        -0.066406,
        0.154451
      ],
      "bias": [
        0.045355,
        0.020568,
        -0.043492,
        0.041766,
        0.027484,
        0.033271,
        -0.023144,
        0.019441,
        -0.012412,
        -0.011214
      ]
    }
  ],
  "meta": {
    "name": "Ease Up",
    "slug": "ease-up",
    "inputs": 23,
    "outputs": 10,
    "placeholder": true
  }
}
