{
  "input": 24,
  "normalization": {
    "mean": [
      0,
      0,
      0,
      0,
      0,
      0,
      0,
      0,
      0,
      0,
      0,
      0,
      0,
      0,
      0,
      0,
      0,
      0,
      0,
      0,
      0,
      0,
      0,
      0
    ],
    "std": [
      1,
      1,
      1,
      1,
      1,
      1,
      1,
      1,
      1,
      1,
      1,
      1,
      1,
      1,
      1,
      1,
      1,
      1,
      1,
      1,
      1,
      1,
      1,
      1
    ]
  },
  "layers": [
    {
      "activation": "relu",
      "weights": [
        0.2645752727985382,
        0.0224912129342556,
        0.24038182199001312,
        0.05109260976314545,
        -0.03850303217768669,
        0.11776331812143326,
        0.2014755755662918,
        0.2380771040916443,
        -0.18068036437034607,
        -0.23105496168136597,
        0.17843832075595856,
        -0.2988961935043335,
        -0.3125342130661011,
        -0.28799498081207275,
        -0.22926825284957886,
        -0.3113252818584442,
        0.26842525601387024,
        0.2668936252593994,
        -0.07045093178749084,
        -0.2727862298488617,
        0.13367518782615662,
        0.02173415571451187,
        0.16279223561286926,
        0.21148213744163513,
        -0.13008072972297668,
        0.3057541251182556,
        0.0009412973886355758,
        -0.025059310719370842,
        0.0078020356595516205,
        -0.10943419486284256,
        -0.06689883768558502,
        -0.0995398759841919,
        0.0019260067492723465,
        0.245870441198349,
        0.30178701877593994,
        0.34666678309440613,
        0.04897412657737732,
        -0.1536700576543808,
        -0.3320963978767395,
        -0.011487810872495174,
        -0.11958792060613632,
        -0.33832499384880066,
        -0.24969492852687836,
        -0.23905278742313385,
        0.29463616013526917,
        -0.17200598120689392,
        -0.10354693233966827,
        0.3447253406047821,
        0.2572289705276489,
        0.07759296149015427,
        0.016493432223796844,
        -0.025302862748503685,
        0.12914684414863586,
        0.14928992092609406,
        -0.23797538876533508,
        0.22046351432800293,
        -0.12136445194482803,
        0.1886029690504074,
        0.12681742012500763,
        0.1616763323545456,
        0.19571015238761902,
        0.3149718642234802,
        -0.08379118889570236,
        0.2425384521484375,
        -0.12284298241138458,
        -0.14352203905582428,
        -0.10155870765447617,
        -0.33846792578697205,
        -0.17950783669948578,
        -0.08606252074241638,
        0.21001753211021423,
        -0.31016507744789124,
        0.31236907839775085,
        -0.05485142394900322,
        0.18785713613033295,
        -0.3177054822444916,
        -0.1917344480752945,
        -0.07886125892400742,
        0.31280001997947693,
        0.0336032472550869,
        -0.21186122298240662,
        0.12206171452999115,
        -0.23868373036384583,
        -0.13854274153709412,
        -0.09265822917222977,
        0.07256712764501572,
        0.23443293571472168,
        -0.011736900545656681,
        -0.14742152392864227,
        -0.12887516617774963,
        0.13990069925785065,
        -0.20953251421451569,
        -0.1684839278459549,
        0.2621529996395111,
        0.3189646005630493,
        -0.04540455341339111,
        0.32996687293052673,
        -0.23380360007286072,
        0.002444508718326688,
        -0.20052815973758698,
        -0.15989576280117035,
        -0.34144729375839233,
        -0.20144891738891602,
        -0.1811942309141159,
        0.24131542444229126,
        0.14067648351192474,
        0.31200551986694336,
        0.024341244250535965,
        0.3263753354549408,
        0.31961023807525635,
        -0.005147857125848532,
        -0.12847357988357544,
        -0.06516702473163605,
        0.15830548107624054,
        0.3414360582828522,
        0.20078976452350616,
        -0.17775364220142365,
        -0.26170194149017334,
        -0.30057528614997864,
        0.28202345967292786,
        0.10263154655694962,
        -0.1049165278673172,
        -0.11232778429985046,
        -0.28323879837989807,
        -0.057392824441194534,
        -0.23714867234230042,
        0.07066724449396133,
        0.26438048481941223,
        0.29376330971717834,
        -0.053999871015548706,
        -0.0752871111035347,
        0.09611707180738449,
        -0.19553008675575256,
        0.051418568938970566,
        -0.07598373293876648,
        -0.21911409497261047,
        -0.18975581228733063,
        -0.24234573543071747,
        0.16954249143600464,
        0.15313628315925598,
        0.3192184269428253,
        -0.23313798010349274,
        0.1340666115283966,
        0.1872052550315857,
        0.24335558712482452,
        -0.21053968369960785,
        0.018155241385102272,
        -0.25041598081588745,
        0.11720871180295944,
        0.09204259514808655,
        0.003202721942216158,
        -0.177072212100029,
        -0.1691194474697113,
        -0.23971432447433472,
        -0.17194850742816925,
        0.10729917138814926,
        -0.04716767370700836,
        0.06726041436195374,
        0.19425638020038605,
        0.10540828108787537,
        -0.055253930389881134,
        0.24991969764232635,
        0.15775728225708008,
        -0.1876620650291443,
        -0.314717173576355,
        0.2687714993953705,
        0.24746395647525787,
        -0.11060396581888199,
        -0.1620441973209381,
        0.20965948700904846,
        0.1458957940340042,
        0.3402138650417328,
        0.3131024241447449,
        0.18752112984657288,
        0.2883765697479248,
        -0.24371793866157532,
        0.3259815275669098,
        -0.2727356553077698,
        0.19618774950504303,
        -0.1543547809123993,
        -0.10042804479598999,
        -0.26196324825286865,
        0.3081612288951874,
        -0.2790224254131317,
        0.30082154273986816,
        -0.02087801694869995,
        -0.11614887416362762,
        0.1306871920824051,
        -0.13316845893859863,
        0.18187333643436432,
        -0.29185009002685547,
        -0.25768864154815674,
        0.2753230631351471,
        0.0440228246152401,
        0.31744688749313354,
        -0.3301266133785248,
        -0.23405101895332336,
        0.2391120344400406,
        0.20504693686962128,
        -0.0676078125834465,
        -0.3263082206249237,
        -0.311919242143631,
        -0.23475252091884613,
        -0.261160671710968,
        -0.1501503586769104,
        -0.28843411803245544,
        -0.09511574357748032,
        -0.0645388513803482,
        -0.3421936333179474,
        -0.02824345976114273,
        0.16769899427890778,
        0.09808430820703506,
        0.14372731745243073,
        0.11817950010299683,
        -0.08498813211917877,
        0.032513197511434555,
        -0.14476877450942993,
        0.3287593722343445,
        0.16189397871494293,
        0.15785591304302216,
        -0.24516814947128296,
        -0.21894870698451996,
        0.10551957786083221,
        0.32211998105049133,
        -0.02108466438949108,
        -0.2507544457912445,
        0.1670934408903122,
        0.017479214817285538,
        -0.01922788843512535,
        0.31231674551963806,
        -0.00235786777921021,
        0.2183525711297989,
        -0.16815464198589325,
        -0.038331735879182816,
        -0.1725420504808426,
        0.1653967648744583,
        0.060834288597106934,
        -0.03775784373283386,
        0.03320781886577606,
        -0.22451774775981903,
        0.24406711757183075,
        0.32465696334838867,
        -0.27654460072517395,
        -0.2386169582605362,
        0.14720667898654938,
        0.045330315828323364,
        -0.20863310992717743,
        -0.1774856597185135,
        0.09686984866857529,
        -0.29243797063827515,
        -0.1727171540260315,
        -0.13399378955364227,
        -0.05841652303934097,
        -0.18095673620700836,
        -0.2559872269630432,
        0.21880663931369781,
        -0.2527107298374176,
        -0.046816255897283554,
        0.11513705551624298,
        0.18999792635440826,
        0.12300220876932144,
        0.11799784004688263,
        -0.29657304286956787,
        0.2007899284362793,
        -0.11149866878986359,
        -0.23342692852020264,
        -0.09202495962381363,
        -0.2759161591529846,
        0.20513850450515747,
        -0.3041679561138153,
        -0.16895316541194916,
        -0.17007315158843994,
        0.30494338274002075,
        -0.23490679264068604,
        -0.061201028525829315,
        0.2988899052143097,
        -0.0690397247672081,
        0.15673291683197021,
        0.19068403542041779,
        -0.2068621814250946,
        -0.07342427968978882,
        -0.2084653526544571,
        -0.20132441818714142,
        0.10288641601800919,
        0.3081915080547333,
        -0.3376932740211487,
        0.030755501240491867,
        -0.026917507871985435,
        0.17296217381954193,
        0.04414615035057068,
        0.1322792023420334,
        0.3233502507209778,
        0.09136632084846497,
        0.1793578714132309,
        -0.2859765589237213,
        -0.29351967573165894,
        -0.056666649878025055,
        -0.25134575366973877,
        0.3431037962436676,
        0.297678142786026,
        -0.0015009160852059722,
        -0.16690178215503693,
        -0.08111730962991714,
        0.29588091373443604,
        0.13362982869148254,
        0.07283567637205124,
        -0.3421335816383362,
        -0.2852039039134979,
        0.26179584860801697,
        0.08057589083909988,
        -0.20838598906993866,
        0.21876364946365356,
        -0.3071257770061493,
        -0.012170619331300259,
        0.25779083371162415,
        0.309882789850235,
        -0.29853343963623047,
        0.18667376041412354,
        0.2966307997703552,
        -0.3449041545391083,
        -0.0351107195019722,
        0.23991772532463074,
        -0.09908062219619751,
        0.04002302885055542,
        0.14506718516349792,
        0.34656432271003723,
        -0.00007074559107422829,
        0.21366605162620544,
        -0.24286748468875885,
        -0.18073095381259918,
        0.2637694776058197,
        0.24600905179977417,
        -0.11085788905620575,
        0.05000182241201401,
        -0.34265437722206116,
        0.06520476937294006,
        -0.022973164916038513,
        0.15331536531448364,
        0.010380435734987259,
        -0.09959162026643753,
        -0.31146475672721863,
        -0.18367673456668854,
        0.025150837376713753,
        0.26604050397872925,
        -0.30543985962867737,
        0.18371891975402832,
        -0.2882360816001892,
        -0.13773249089717865,
        0.045032888650894165,
        0.18068154156208038,
        -0.21406210958957672,
        0.3030383288860321,
        -0.09637106955051422,
        -0.3026495575904846,
        -0.07895497977733612,
        0.2834516167640686,
        -0.1529396027326584,
        0.31081622838974,
        -0.0037056272849440575,
        -0.09682958573102951,
        -0.028466911986470222,
        0.03385613486170769,
        -0.1878543645143509,
        -0.13719891011714935,
        0.23657847940921783,
        -0.024937909096479416,
        0.3102208375930786,
        -0.30456557869911194,
        -0.12025444209575653,
        0.31140589714050293,
        0.32426413893699646,
        -0.1249111220240593,
        0.20240069925785065,
        -0.22195236384868622,
        -0.0895293578505516,
        -0.3246917128562927,
        -0.2704097032546997,
        -0.29786914587020874,
        0.07585408538579941,
        -0.1801948994398117,
        0.30105990171432495,
        -0.13967695832252502,
        0.12980805337429047,
        0.059367887675762177
      ],
      "bias": [
        0.08834302425384521,
        0.032210204750299454,
        -0.1269536018371582,
        -0.23092134296894073,
        0.2256491631269455,
        -0.2002851366996765,
        0.07441426813602448,
        -0.20381714403629303,
        -0.15790393948554993,
        -0.10047498345375061,
        0.21373531222343445,
        -0.0301024429500103,
        -0.2499907910823822,
        0.19463416934013367,
        0.20412713289260864,
        0.2069110870361328
      ]
    },
    {
      "activation": "tanh",
      "weights": [
        -0.31040462851524353,
        0.22398611903190613,
        0.17789368331432343,
        -0.2583392560482025,
        0.29579851031303406,
        -0.22673174738883972,
        0.1262228786945343,
        -0.01725849136710167,
        0.11445301026105881,
        0.06539429724216461,
        0.2652711570262909,
        -0.12792356312274933,
        -0.18432509899139404,
        0.1411207914352417,
        0.28807514905929565,
        -0.2197851985692978,
        -0.17222394049167633,
        -0.08304203301668167,
        -0.33171436190605164,
        0.004147867206484079,
        0.23226653039455414,
        -0.31721925735473633,
        -0.1177302822470665,
        0.03837002068758011,
        -0.31520965695381165,
        0.2479947805404663,
        -0.028685851022601128,
        -0.20380042493343353,
        -0.2599860727787018,
        0.2517680823802948,
        0.17016880214214325,
        -0.14269918203353882,
        0.1436784565448761,
        -0.07524916529655457,
        0.08786453306674957,
        0.3416863977909088,
        -0.04188787564635277,
        -0.04044835641980171,
        0.1758372038602829,
        0.1885315626859665,
        0.18993723392486572,
        0.023006746545433998,
        0.14224641025066376,
        0.01825273223221302,
        -0.1441720724105835,
        -0.22873330116271973,
        -0.21764738857746124,
        0.006501201540231705,
        -0.2955630123615265,
        0.2769955098628998,
        0.30493053793907166,
        -0.01772500015795231,
        0.2176913470029831,
        -0.10363088548183441,
        -0.2102067768573761,
        -0.05203765258193016,
        0.2454160451889038,
        0.25924402475357056,
        0.0315876342356205,
        -0.08169519156217575,
        0.14982472360134125,
        -0.1757991760969162,
        0.0047864108346402645,
        0.2476705014705658,
        -0.34188970923423767,
        0.29401567578315735,
        0.08348267525434494,
        0.2702637314796448,
        0.05648142471909523,
        -0.15812434256076813,
        0.07185722887516022,
        0.1960180103778839,
        -0.32360950112342834,
        -0.1790274679660797,
        -0.1836143434047699,
        0.3314022719860077,
        0.17705512046813965,
        0.08313688635826111,
        0.3472845256328583,
        0.2705834209918976,
        -0.09068546444177628,
        -0.18722787499427795,
        -0.02303064428269863,
        -0.10625584423542023,
        0.11902913451194763,
        0.017603328451514244,
        0.23054616153240204,
        0.14434050023555756,
        -0.24495017528533936,
        -0.26433753967285156,
        0.052699942141771317,
        0.15473052859306335,
        -0.19409789144992828,
        0.22382983565330505,
        -0.17336514592170715,
        -0.1852000206708908,
        -0.15367814898490906,
        -0.1513499915599823,
        0.06826412677764893,
        0.2541181445121765,
        0.19917166233062744,
        0.1138290986418724,
        -0.11912336945533752,
        -0.13891558349132538,
        -0.19241076707839966,
        0.21090993285179138,
        -0.13329529762268066,
        0.1826179325580597,
        0.349636048078537,
        0.14948652684688568,
        0.34051385521888733,
        0.122962586581707,
        0.10607732832431793,
        0.3482334613800049,
        -0.004677413962781429,
        0.23489609360694885,
        -0.2795941233634949,
        -0.31509658694267273,
        -0.25279247760772705,
        0.23965126276016235,
        -0.32118943333625793,
        -0.13256265223026276,
        0.06521167606115341,
        -0.3078853189945221,
        -0.03919357806444168,
        -0.21065959334373474,
        -0.20966172218322754,
        0.07375315576791763,
        0.263724684715271,
        0.023536082357168198,
        0.09877744317054749,
        -0.3464047610759735,
        -0.10007163137197495,
        -0.2473383992910385,
        -0.2515476942062378,
        0.3124183714389801,
        -0.32829007506370544,
        0.3464658856391907,
        0.24845071136951447,
        -0.208468958735466,
        0.17619697749614716,
        0.18246422708034515,
        0.04884979873895645,
        0.18534281849861145,
        0.018712112680077553,
        -0.23227672278881073,
        -0.0425603985786438,
        0.2867891788482666,
        -0.15428249537944794,
        -0.12752436101436615,
        0.11197300255298615,
        0.11795532703399658,
        -0.18241536617279053,
        -0.007755357772111893,
        0.02523745968937874,
        0.31123441457748413,
        -0.3385894000530243,
        -0.034174803644418716,
        0.2583608627319336,
        0.15376988053321838,
        -0.04309852421283722,
        -0.202671617269516,
        -0.1411559283733368,
        0.12296458333730698,
        0.13803230226039886,
        -0.22378607094287872,
        0.14548490941524506,
        -0.04135509207844734,
        -0.2857612371444702,
        0.011092450469732285,
        -0.1554591804742813,
        -0.2323126494884491,
        -0.16122129559516907,
        -0.13938918709754944,
        0.09520968049764633,
        0.1478116512298584
      ],
      "bias": [
        0.17624948918819427,
        -0.21140162646770477,
        -0.1592578887939453,
        -0.07969442754983902,
        -0.11648546159267426,
        0.08694486320018768,
        -0.09007705748081207,
        -0.080400250852108,
        -0.18894803524017334,
        0.05212007835507393,
        0.002178312512114644
      ]
    }
  ],
  "meta": {
    "name": "Ease Up",
    "slug": "ease-up",
    "inputs": 24,
    "outputs": 11,
    "placeholder": true,
    "generated": "2025-10-21T21:06:06.812Z"
  }
}
