{
  "input": 24,
  "normalization": {
    "mean": [
      0,
      0,
      0,
      0,
      0,
      0,
      0,
      0,
      0,
      0,
      0,
      0,
      0,
      0,
      0,
      0,
      0,
      0,
      0,
      0,
      0,
      0,
      0,
      0
    ],
    "std": [
      1,
      1,
      1,
      1,
      1,
      1,
      1,
      1,
      1,
      1,
      1,
      1,
      1,
      1,
      1,
      1,
      1,
      1,
      1,
      1,
      1,
      1,
      1,
      1
    ]
  },
  "layers": [
    {
      "activation": "relu",
      "weights": [
        -0.28739264607429504,
        -0.01452900841832161,
        -0.315325528383255,
        -0.3461655080318451,
        -0.207814559340477,
        0.30670225620269775,
        -0.2520923912525177,
        -0.26930540800094604,
        -0.07102170586585999,
        0.27040860056877136,
        0.18213778734207153,
        0.1760653555393219,
        -0.2619168758392334,
        -0.13710013031959534,
        -0.060357436537742615,
        0.049166154116392136,
        -0.2917705476284027,
        0.07127784192562103,
        0.2805197834968567,
        0.24435578286647797,
        -0.2616983950138092,
        0.10412858426570892,
        -0.27991798520088196,
        0.13295389711856842,
        -0.2489873766899109,
        -0.04802263155579567,
        -0.06764664500951767,
        0.1374107450246811,
        -0.15700095891952515,
        -0.18647357821464539,
        -0.033966559916734695,
        -0.3465130925178528,
        0.3449825048446655,
        0.11862615495920181,
        0.29758939146995544,
        0.2991092801094055,
        -0.1038740947842598,
        0.1621919721364975,
        0.26457566022872925,
        0.05179698020219803,
        0.04195781797170639,
        -0.023052813485264778,
        0.02072715200483799,
        0.16205988824367523,
        -0.15988363325595856,
        -0.307472825050354,
        0.1579611450433731,
        -0.2962673306465149,
        -0.18214137852191925,
        0.13067784905433655,
        0.3396012783050537,
        -0.2901850938796997,
        -0.1756950467824936,
        -0.17607411742210388,
        -0.26847660541534424,
        -0.048508595675230026,
        -0.2378731518983841,
        -0.14950866997241974,
        -0.006442978046834469,
        -0.08772768825292587,
        0.07971283793449402,
        0.03555699810385704,
        0.07111415266990662,
        -0.035906996577978134,
        -0.20194797217845917,
        0.11407770216464996,
        -0.20018793642520905,
        0.34012097120285034,
        -0.031329091638326645,
        -0.19376306235790253,
        0.027708644047379494,
        0.09376900643110275,
        -0.31024131178855896,
        -0.11341080814599991,
        0.11148969829082489,
        0.2004581242799759,
        -0.20232528448104858,
        0.19995169341564178,
        0.21305596828460693,
        -0.16241015493869781,
        0.28728488087654114,
        0.25029465556144714,
        -0.117645762860775,
        -0.32063525915145874,
        0.009842337109148502,
        -0.19973231852054596,
        0.16091406345367432,
        0.22609207034111023,
        -0.06080629676580429,
        0.058803096413612366,
        -0.002865760587155819,
        -0.07123606652021408,
        -0.0692577213048935,
        -0.16698460280895233,
        -0.11606578528881073,
        -0.23200687766075134,
        -0.18374793231487274,
        0.2147909551858902,
        0.19850681722164154,
        0.0844116136431694,
        -0.2751396894454956,
        0.2534496784210205,
        0.14027586579322815,
        0.03731067478656769,
        0.2897859215736389,
        -0.23867733776569366,
        -0.050071097910404205,
        0.1823016107082367,
        0.34558311104774475,
        -0.18791517615318298,
        -0.22271579504013062,
        -0.32815787196159363,
        -0.06400695443153381,
        -0.16384151577949524,
        0.07593011856079102,
        0.07087439298629761,
        0.08777058869600296,
        -0.19813169538974762,
        0.029516205191612244,
        0.3209967613220215,
        0.14355333149433136,
        0.31012097001075745,
        0.17912672460079193,
        0.2790217995643616,
        0.22157658636569977,
        0.34842994809150696,
        0.3401797413825989,
        -0.24246031045913696,
        0.19837403297424316,
        -0.1541202962398529,
        0.08608183264732361,
        0.0636119619011879,
        0.16039742529392242,
        -0.05610857158899307,
        -0.1400109976530075,
        -0.2767730951309204,
        -0.3220694959163666,
        0.21781547367572784,
        0.0690218061208725,
        -0.11033980548381805,
        -0.3068076968193054,
        0.07872650027275085,
        -0.018654974177479744,
        0.3084329664707184,
        -0.21366570889949799,
        0.08334339410066605,
        -0.1982574760913849,
        0.14911632239818573,
        0.22555634379386902,
        0.008401553146541119,
        -0.020843086764216423,
        -0.2720451056957245,
        -0.029667561873793602,
        0.004098467528820038,
        -0.2719116806983948,
        0.27497604489326477,
        -0.045422717928886414,
        -0.29565250873565674,
        -0.3195516765117645,
        -0.3271298110485077,
        0.06867477297782898,
        0.17238672077655792,
        -0.17585931718349457,
        0.20439305901527405,
        0.2667176425457001,
        0.31248486042022705,
        0.24666333198547363,
        -0.07290635257959366,
        0.16592293977737427,
        0.19722230732440948,
        -0.11291646212339401,
        -0.1847912222146988,
        -0.1060272753238678,
        0.348070353269577,
        -0.31883275508880615,
        -0.2778916358947754,
        -0.22662323713302612,
        -0.318294495344162,
        -0.17048393189907074,
        0.08427945524454117,
        0.0856924057006836,
        -0.2816964387893677,
        0.18455857038497925,
        -0.23739804327487946,
        -0.0460420660674572,
        -0.25720545649528503,
        0.3061126172542572,
        0.20666979253292084,
        -0.0004895507590845227,
        0.34976229071617126,
        0.2424190491437912,
        -0.23539790511131287,
        -0.12078399956226349,
        0.11424458771944046,
        -0.05971727520227432,
        -0.24589215219020844,
        -0.3061313033103943,
        0.25636208057403564,
        0.21310076117515564,
        -0.20286260545253754,
        0.20495980978012085,
        -0.28092750906944275,
        -0.04600800201296806,
        0.11627467721700668,
        0.30372875928878784,
        -0.2474346160888672,
        -0.3095990717411041,
        0.0014062130358070135,
        -0.09405874460935593,
        -0.017140191048383713,
        0.05958164855837822,
        -0.1199808195233345,
        -0.006730149500072002,
        0.2760377526283264,
        0.041956741362810135,
        -0.05042029544711113,
        -0.015756402164697647,
        -0.10670635849237442,
        0.1590629369020462,
        0.08392944931983948,
        -0.2910764813423157,
        0.09350123256444931,
        -0.003743845270946622,
        0.13251666724681854,
        0.12493380159139633,
        0.23694449663162231,
        0.16327574849128723,
        -0.06696957349777222,
        0.26660943031311035,
        0.10374520719051361,
        -0.12637463212013245,
        0.34250977635383606,
        -0.24299325048923492,
        0.0892338901758194,
        -0.10507826507091522,
        -0.34767675399780273,
        0.14415933191776276,
        -0.24443545937538147,
        0.1208779513835907,
        -0.0019599113147705793,
        -0.1879340559244156,
        -0.343977153301239,
        0.044422298669815063,
        -0.028043707832694054,
        -0.07012330740690231,
        -0.05759849026799202,
        -0.14245633780956268,
        -0.18681876361370087,
        -0.21723149716854095,
        -0.016588710248470306,
        -0.21938249468803406,
        -0.08480257540941238,
        -0.15066757798194885,
        0.09830820560455322,
        0.037662360817193985,
        -0.16695037484169006,
        0.18925975263118744,
        0.0213896743953228,
        -0.14459867775440216,
        -0.2961520552635193,
        -0.02619083784520626,
        0.0972542092204094,
        -0.2501218020915985,
        0.1841530203819275,
        -0.24756526947021484,
        -0.33386772871017456,
        0.16220411658287048,
        0.09822563827037811,
        -0.2710248827934265,
        -0.0003558364696800709,
        -0.29057711362838745,
        -0.24339531362056732,
        -0.2388889640569687,
        0.10349324345588684,
        0.21994102001190186,
        -0.013537459075450897,
        0.3390466570854187,
        0.04524978995323181,
        0.3369683027267456,
        0.317518413066864,
        0.08268143236637115,
        0.23255303502082825,
        0.026874594390392303,
        0.058438487350940704,
        0.06165098771452904,
        0.03544703498482704,
        0.0016896752640604973,
        0.19480592012405396,
        0.2927217185497284,
        -0.3424026668071747,
        0.2993853688240051,
        0.19436034560203552,
        -0.3290655016899109,
        0.2947484850883484,
        -0.04322098195552826,
        0.23579347133636475,
        0.004377115983515978,
        0.24384933710098267,
        0.027137288823723793,
        -0.06238650530576706,
        -0.16961807012557983,
        0.348868191242218,
        0.11540676653385162,
        0.09838225692510605,
        -0.07271458208560944,
        0.2730185389518738,
        0.03497235104441643,
        0.06053784862160683,
        0.23242811858654022,
        -0.1544065624475479,
        0.10601537674665451,
        0.07329610735177994,
        0.09931524097919464,
        -0.07920438796281815,
        -0.09450269490480423,
        -0.09123978763818741,
        -0.3078277111053467,
        -0.05422259867191315,
        0.031076470389962196,
        0.286060631275177,
        0.20478378236293793,
        0.2524929344654083,
        -0.253834992647171,
        -0.21228249371051788,
        -0.031954552978277206,
        -0.23912601172924042,
        0.2916888892650604,
        0.25280994176864624,
        -0.2602982521057129,
        -0.34071215987205505,
        0.2707575857639313,
        0.06451578438282013,
        0.12776951491832733,
        0.1016605868935585,
        -0.1574830561876297,
        -0.0892120972275734,
        0.13201159238815308,
        -0.33395999670028687,
        0.23170864582061768,
        -0.2515597343444824,
        0.08131857216358185,
        -0.30689841508865356,
        -0.22969979047775269,
        0.1352270245552063,
        -0.3239293396472931,
        0.33869242668151855,
        0.3306107223033905,
        0.20827661454677582,
        0.2221258133649826,
        0.13062012195587158,
        -0.2713466286659241,
        -0.17191924154758453,
        -0.23222456872463226,
        0.21970735490322113,
        0.2380872368812561,
        0.20574992895126343,
        0.06372663378715515,
        0.24334381520748138,
        0.005226071458309889,
        -0.34813961386680603,
        -0.0337744764983654,
        -0.052786409854888916,
        0.19661813974380493,
        0.06526219099760056,
        0.24589695036411285,
        0.15757694840431213,
        0.2913816273212433,
        0.08122822642326355,
        -0.23901629447937012,
        -0.23529072105884552,
        -0.16198615729808807,
        -0.1453642100095749,
        -0.049321021884679794,
        -0.18267373740673065,
        0.26879793405532837,
        -0.2048957198858261,
        -0.1662064492702484,
        0.06854545325040817,
        0.3070566952228546,
        -0.252244234085083,
        -0.30720630288124084,
        0.30672287940979004,
        -0.053573690354824066,
        -0.13928824663162231
      ],
      "bias": [
        0.04166952893137932,
        0.04004760459065437,
        -0.17041675746440887,
        0.06724215298891068,
        -0.16500122845172882,
        -0.0833745077252388,
        -0.22095707058906555,
        0.04848943650722504,
        0.23367860913276672,
        -0.13092796504497528,
        -0.18613600730895996,
        0.10479006916284561,
        -0.10530305653810501,
        -0.20056110620498657,
        -0.14828607439994812,
        -0.0021794242784380913
      ]
    },
    {
      "activation": "tanh",
      "weights": [
        -0.0025956693571060896,
        -0.06997761875391006,
        -0.3025268614292145,
        -0.12826360762119293,
        -0.30328503251075745,
        -0.010355775244534016,
        0.1616850048303604,
        0.21377433836460114,
        0.23169653117656708,
        0.20095527172088623,
        -0.3499675393104553,
        -0.07285191118717194,
        -0.20199275016784668,
        0.2754223346710205,
        -0.3072759807109833,
        0.288013756275177,
        -0.1288287341594696,
        -0.30899667739868164,
        -0.3298497200012207,
        0.2730937898159027,
        -0.3299028277397156,
        -0.25834596157073975,
        0.19437627494335175,
        -0.19669976830482483,
        -0.18330803513526917,
        -0.09754209220409393,
        0.16571848094463348,
        0.02443316951394081,
        -0.24618111550807953,
        -0.2996831238269806,
        0.06961113214492798,
        0.12110567092895508,
        -0.17885830998420715,
        -0.12428532540798187,
        -0.21086260676383972,
        0.3189879059791565,
        -0.0011975636007264256,
        -0.12746763229370117,
        -0.0970778688788414,
        0.23372355103492737,
        -0.16217203438282013,
        0.26507294178009033,
        -0.1965179592370987,
        -0.04743184894323349,
        0.1386139839887619,
        -0.32161426544189453,
        -0.10803544521331787,
        0.1672660857439041,
        0.1090983971953392,
        -0.07895570248365402,
        0.28030097484588623,
        0.1451803296804428,
        -0.2969473600387573,
        0.07954598218202591,
        -0.1913711428642273,
        0.15448851883411407,
        0.34755438566207886,
        -0.12165064364671707,
        0.28407594561576843,
        0.3034175932407379,
        -0.15903975069522858,
        -0.2613806128501892,
        -0.13850708305835724,
        0.3082787096500397,
        0.30083611607551575,
        0.2309732288122177,
        -0.23323309421539307,
        -0.24490082263946533,
        -0.08364106714725494,
        0.04151670262217522,
        0.0628809854388237,
        -0.11728078126907349,
        -0.11808467656373978,
        0.1530562937259674,
        -0.25076308846473694,
        -0.27347850799560547,
        -0.0927555114030838,
        -0.29302412271499634,
        0.3183383643627167,
        0.10272300243377686,
        0.023243343457579613,
        0.2142258584499359,
        -0.20040249824523926,
        0.22403976321220398,
        0.038560494780540466,
        0.3231864273548126,
        -0.14425812661647797,
        0.2452978640794754,
        -0.03150723874568939,
        -0.29827219247817993,
        -0.14679807424545288,
        0.3297753632068634,
        -0.2074981927871704,
        0.20764802396297455,
        -0.03574351221323013,
        -0.185493603348732,
        -0.32913368940353394,
        -0.33660757541656494,
        0.1872601956129074,
        0.34787696599960327,
        0.09724676609039307,
        0.07006458193063736,
        -0.27684295177459717,
        0.009063875302672386,
        -0.16286079585552216,
        -0.24396537244319916,
        0.32432588934898376,
        -0.2108341008424759,
        -0.24047012627124786,
        -0.3080814778804779,
        -0.317493736743927,
        0.04732748493552208,
        0.30461758375167847,
        0.16123506426811218,
        -0.08805883675813675,
        -0.07917199283838272,
        -0.10086025297641754,
        -0.3225216269493103,
        0.23271773755550385,
        0.0644415020942688,
        0.06515376269817352,
        0.288330614566803,
        -0.1835608333349228,
        -0.018670598044991493,
        -0.21413728594779968,
        -0.2632264494895935,
        -0.06843528896570206,
        0.19546306133270264,
        -0.04023074358701706,
        -0.09960584342479706,
        0.03410192206501961,
        -0.16076555848121643,
        0.07312720268964767,
        -0.08256515860557556,
        0.08611615747213364,
        -0.27573153376579285,
        0.07178787142038345,
        -0.1286277025938034,
        -0.06950294971466064,
        0.17936791479587555,
        -0.1836102157831192,
        -0.3204001188278198,
        -0.012342964299023151,
        0.340623676776886,
        0.23456071317195892,
        0.16820350289344788,
        -0.2605786919593811,
        0.0018238164484500885,
        -0.23911574482917786,
        0.24208693206310272,
        -0.1461477279663086,
        -0.12710848450660706,
        0.03754313290119171,
        0.2234276831150055,
        -0.3112923204898834,
        0.02062808722257614,
        0.08704455941915512,
        0.0500236377120018,
        0.07529282569885254,
        -0.2613699436187744,
        0.31684014201164246,
        -0.25400039553642273,
        -0.10089712589979172,
        0.2557521462440491,
        -0.11637800931930542,
        -0.11957617849111557,
        -0.13015933334827423,
        -0.3029407560825348,
        -0.11855986714363098,
        -0.11074452102184296,
        0.1790994554758072,
        -0.0902671068906784,
        -0.060239531099796295,
        0.21515345573425293,
        0.3188851773738861,
        0.14545056223869324
      ],
      "bias": [
        -0.07926314324140549,
        0.09859409183263779,
        0.2325865626335144,
        0.10823261737823486,
        -0.1860940158367157,
        0.039387643337249756,
        0.09344548732042313,
        0.245290145277977,
        0.023853711783885956,
        -0.21012422442436218,
        0.11667449027299881
      ]
    }
  ],
  "meta": {
    "name": "Epoch ∞",
    "slug": "epoch-infinity",
    "inputs": 24,
    "outputs": 11,
    "placeholder": true,
    "generated": "2025-10-21T15:22:04.839Z"
  }
}
