{
  "input": 24,
  "normalization": {
    "mean": [
      0,
      0,
      0,
      0,
      0,
      0,
      0,
      0,
      0,
      0,
      0,
      0,
      0,
      0,
      0,
      0,
      0,
      0,
      0,
      0,
      0,
      0,
      0,
      0
    ],
    "std": [
      1,
      1,
      1,
      1,
      1,
      1,
      1,
      1,
      1,
      1,
      1,
      1,
      1,
      1,
      1,
      1,
      1,
      1,
      1,
      1,
      1,
      1,
      1,
      1
    ]
  },
  "layers": [
    {
      "activation": "relu",
      "weights": [
        0.12025203555822372,
        -0.11251291632652283,
        0.13375450670719147,
        -0.24603544175624847,
        -0.19753867387771606,
        0.3264620006084442,
        -0.3268704116344452,
        0.21411389112472534,
        -0.29637670516967773,
        -0.14587745070457458,
        -0.1778934746980667,
        0.34835875034332275,
        0.0710957795381546,
        0.20916622877120972,
        -0.2523743212223053,
        0.2710815668106079,
        -0.2823028564453125,
        -0.11278156191110611,
        -0.10661766678094864,
        -0.20484019815921783,
        -0.22253310680389404,
        -0.1718904972076416,
        -0.1838931143283844,
        -0.09715558588504791,
        0.1084609106183052,
        -0.18335101008415222,
        -0.3262784481048584,
        -0.01585664600133896,
        -0.1384577602148056,
        -0.2154082953929901,
        0.18796715140342712,
        0.13787050545215607,
        -0.01034611091017723,
        -0.17330506443977356,
        0.3187963366508484,
        0.1727612167596817,
        0.08160607516765594,
        -0.2249707579612732,
        -0.0957450196146965,
        0.28973498940467834,
        -0.10448337346315384,
        -0.1354748159646988,
        0.341453492641449,
        -0.3119001090526581,
        0.2289147973060608,
        -0.3094915747642517,
        -0.20156611502170563,
        0.08808542788028717,
        -0.10136974602937698,
        -0.10607730597257614,
        0.135550394654274,
        0.3340609669685364,
        0.05571204423904419,
        0.07600949704647064,
        -0.34720379114151,
        -0.13628984987735748,
        -0.1210947185754776,
        -0.3072092831134796,
        -0.17903168499469757,
        0.11463417857885361,
        -0.31700971722602844,
        0.19404160976409912,
        0.18334899842739105,
        0.23876237869262695,
        0.004298428073525429,
        0.021127456799149513,
        0.2070733904838562,
        -0.10518013685941696,
        -0.09229885786771774,
        -0.15999720990657806,
        0.13997939229011536,
        0.0952577143907547,
        0.2275785356760025,
        0.3116462826728821,
        0.07960902899503708,
        0.05208972841501236,
        -0.032645318657159805,
        -0.06196482479572296,
        0.18178151547908783,
        -0.0638805702328682,
        0.23207436501979828,
        0.308616578578949,
        -0.2282116562128067,
        0.02761130779981613,
        -0.021908311173319817,
        -0.34508416056632996,
        -0.30714133381843567,
        -0.2997353971004486,
        -0.1293604075908661,
        0.14572378993034363,
        0.27279871702194214,
        -0.03393534570932388,
        -0.04902064800262451,
        -0.1045195609331131,
        -0.34502974152565,
        -0.3253520429134369,
        -0.0758766159415245,
        -0.3395204246044159,
        -0.038327138870954514,
        -0.0639156699180603,
        -0.2688400149345398,
        0.2888212502002716,
        -0.3100806176662445,
        -0.1654857099056244,
        0.05463491752743721,
        -0.14210475981235504,
        0.15145619213581085,
        -0.2825844883918762,
        0.08515400439500809,
        0.33376652002334595,
        -0.06044255197048187,
        -0.19706112146377563,
        -0.15961387753486633,
        0.03161345422267914,
        0.1736137419939041,
        0.2947196066379547,
        0.19164787232875824,
        -0.20555458962917328,
        0.13011908531188965,
        0.05095944553613663,
        0.11030097305774689,
        -0.22444979846477509,
        -0.3279320299625397,
        0.34531211853027344,
        -0.3175903856754303,
        -0.20344659686088562,
        -0.22735857963562012,
        0.3055216670036316,
        0.2779398262500763,
        -0.15267550945281982,
        0.2976037263870239,
        0.03424946218729019,
        -0.013705745339393616,
        -0.00006345797009998932,
        -0.22772015631198883,
        0.14796783030033112,
        0.29568761587142944,
        -0.11362016946077347,
        0.115430548787117,
        -0.3363630771636963,
        0.21379531919956207,
        0.001099098240956664,
        -0.20814566314220428,
        -0.2799427807331085,
        -0.10619473457336426,
        0.34999963641166687,
        -0.11364629864692688,
        -0.11810459196567535,
        0.03776726499199867,
        0.28139322996139526,
        -0.20893357694149017,
        0.21894685924053192,
        -0.3346233069896698,
        0.1589353382587433,
        -0.037797026336193085,
        -0.09011691808700562,
        -0.07381542026996613,
        -0.11068457365036011,
        -0.30638766288757324,
        -0.02158968523144722,
        -0.18732602894306183,
        0.07665853947401047,
        0.07706336677074432,
        -0.17553028464317322,
        0.012890161015093327,
        0.31487882137298584,
        -0.1702367663383484,
        -0.13177429139614105,
        0.22068019211292267,
        -0.13403746485710144,
        0.08405975252389908,
        0.1783760040998459,
        0.1452864408493042,
        0.34290075302124023,
        0.07907155901193619,
        0.10442893952131271,
        -0.032809387892484665,
        0.04423860087990761,
        0.1949479877948761,
        0.28612953424453735,
        0.24980176985263824,
        0.00866155419498682,
        -0.23799297213554382,
        0.03874439001083374,
        -0.15861019492149353,
        -0.0714913159608841,
        0.15170462429523468,
        0.15358582139015198,
        0.3283355236053467,
        0.041631028056144714,
        -0.30684351921081543,
        0.08775810897350311,
        -0.24896152317523956,
        0.021240033209323883,
        -0.23886840045452118,
        -0.18513736128807068,
        -0.01594475470483303,
        0.26562997698783875,
        -0.3052133023738861,
        0.2674924433231354,
        0.1623634696006775,
        0.29753825068473816,
        0.33570149540901184,
        -0.02946200780570507,
        0.29053765535354614,
        0.28807806968688965,
        -0.24747060239315033,
        -0.22387446463108063,
        -0.054983869194984436,
        0.20601260662078857,
        -0.1473792940378189,
        0.04375626519322395,
        -0.25845226645469666,
        0.19363698363304138,
        0.2764172852039337,
        0.12751322984695435,
        0.2870796322822571,
        -0.06489749997854233,
        -0.20292989909648895,
        -0.08084920793771744,
        0.030209625139832497,
        -0.060326021164655685,
        0.10637136548757553,
        0.033266469836235046,
        -0.2875311076641083,
        0.0302872471511364,
        -0.1513780653476715,
        -0.29550912976264954,
        0.12628675997257233,
        -0.3370586335659027,
        -0.1571224331855774,
        0.2598668038845062,
        0.30630868673324585,
        0.11592667549848557,
        0.1307872086763382,
        0.2622351348400116,
        -0.32485151290893555,
        -0.29974228143692017,
        -0.022192060947418213,
        0.32273414731025696,
        0.22367078065872192,
        -0.08681721985340118,
        -0.008393733762204647,
        -0.12162367254495621,
        -0.0038280815351754427,
        0.15961669385433197,
        0.11231327056884766,
        -0.2231268286705017,
        -0.17907054722309113,
        -0.07708333432674408,
        0.02272655814886093,
        -0.06310921162366867,
        -0.3086453378200531,
        -0.04588906466960907,
        -0.08685445785522461,
        -0.19147449731826782,
        0.16448558866977692,
        -0.008409173227846622,
        0.32026270031929016,
        0.05822764337062836,
        0.003870322136208415,
        -0.11768750101327896,
        -0.016825512051582336,
        0.02517043985426426,
        -0.13078390061855316,
        -0.06531160324811935,
        -0.014078154228627682,
        0.3379857838153839,
        0.06527603417634964,
        0.04325123131275177,
        -0.2962389886379242,
        0.13114161789417267,
        0.1386885941028595,
        -0.16650879383087158,
        -0.1669810712337494,
        -0.19469869136810303,
        -0.12547874450683594,
        0.1945377141237259,
        -0.0760725885629654,
        -0.09658757597208023,
        -0.3177911341190338,
        -0.18202157318592072,
        -0.08726348727941513,
        -0.3467688262462616,
        0.10066383332014084,
        0.17164495587348938,
        -0.06827931106090546,
        -0.060367561876773834,
        -0.22526231408119202,
        -0.07096197456121445,
        -0.07003580033779144,
        0.05610588937997818,
        0.010187686420977116,
        0.12205667793750763,
        -0.2634265720844269,
        0.18605002760887146,
        -0.34906116127967834,
        0.07266875356435776,
        0.11158976703882217,
        -0.1788896918296814,
        -0.2423921674489975,
        -0.25046464800834656,
        0.28248894214630127,
        0.3173086941242218,
        -0.2466660887002945,
        -0.17316654324531555,
        0.21110084652900696,
        -0.3456422984600067,
        0.1609848588705063,
        -0.1985517293214798,
        -0.08358177542686462,
        0.1829562485218048,
        -0.0654870793223381,
        -0.19784292578697205,
        -0.08845170587301254,
        0.1960136443376541,
        -0.12591570615768433,
        -0.05289999395608902,
        -0.12183152139186859,
        -0.2791891098022461,
        0.20135453343391418,
        0.09971097856760025,
        0.20273709297180176,
        -0.20955300331115723,
        0.26311933994293213,
        -0.3095913827419281,
        -0.05360248684883118,
        0.2893340289592743,
        -0.0602913573384285,
        -0.22810111939907074,
        -0.04113101586699486,
        0.19028936326503754,
        0.001093750586733222,
        -0.3467148542404175,
        0.22741293907165527,
        0.24404096603393555,
        0.28720682859420776,
        0.16101482510566711,
        -0.22892442345619202,
        -0.2284429967403412,
        0.2628362774848938,
        0.27727222442626953,
        -0.027153704315423965,
        -0.02112632431089878,
        -0.16812139749526978,
        -0.12130915373563766,
        0.10911345481872559,
        -0.18137307465076447,
        -0.33723747730255127,
        -0.07216325402259827,
        0.06275201588869095,
        -0.27421924471855164,
        0.002901605796068907,
        -0.20720921456813812,
        -0.19696283340454102,
        -0.08213844895362854,
        0.06152975931763649,
        0.1708340346813202,
        0.040390580892562866,
        -0.33874213695526123,
        0.08916927874088287,
        -0.1650896519422531,
        -0.3135005831718445,
        -0.10307219624519348,
        -0.1299949586391449,
        0.18374726176261902,
        -0.3049432635307312,
        -0.08217255026102066,
        -0.21630699932575226,
        -0.15076704323291779,
        -0.10685473680496216,
        -0.1312715858221054,
        0.19981054961681366,
        -0.17861875891685486,
        -0.2466229796409607,
        0.192238450050354,
        -0.07866506278514862,
        0.21898861229419708,
        0.2290515899658203,
        -0.022892091423273087,
        0.23797085881233215,
        -0.15077807009220123,
        0.037821799516677856,
        -0.3341594636440277
      ],
      "bias": [
        -0.06495381146669388,
        -0.24006123840808868,
        -0.16141143441200256,
        -0.14575785398483276,
        0.15073780715465546,
        -0.2066747546195984,
        -0.006038269028067589,
        0.1852974146604538,
        0.06063218414783478,
        -0.10939115285873413,
        -0.14096051454544067,
        0.06503038853406906,
        -0.1547868400812149,
        0.18983694911003113,
        0.09193578362464905,
        0.16173121333122253
      ]
    },
    {
      "activation": "tanh",
      "weights": [
        -0.291739284992218,
        -0.3239539563655853,
        0.1927756816148758,
        0.013148690573871136,
        -0.0658828392624855,
        -0.2971831262111664,
        0.09400372207164764,
        -0.08853432536125183,
        0.025462821125984192,
        0.2847766578197479,
        0.018933169543743134,
        -0.19117724895477295,
        -0.07482916116714478,
        -0.349976509809494,
        -0.002504470758140087,
        0.05858444422483444,
        -0.042005084455013275,
        0.2940140664577484,
        -0.30520060658454895,
        -0.17508955299854279,
        -0.10146957635879517,
        -0.17333582043647766,
        0.3463783264160156,
        -0.2704651653766632,
        -0.11207251250743866,
        -0.334302693605423,
        0.17664210498332977,
        0.11630944162607193,
        0.05408276244997978,
        -0.07881268858909607,
        -0.0690758004784584,
        0.25716501474380493,
        -0.07642332464456558,
        -0.06987644731998444,
        0.22980356216430664,
        -0.07956208288669586,
        0.22386780381202698,
        0.31811752915382385,
        0.055319249629974365,
        0.23573142290115356,
        -0.15045244991779327,
        0.13735495507717133,
        0.21317386627197266,
        -0.1336665153503418,
        -0.08544497191905975,
        0.12845033407211304,
        0.22674109041690826,
        -0.07317748665809631,
        -0.23984844982624054,
        0.3292979598045349,
        0.081712506711483,
        0.021146586164832115,
        -0.2174185961484909,
        0.16522882878780365,
        -0.20322087407112122,
        0.18687979876995087,
        0.07281553745269775,
        -0.0011030684690922499,
        0.318996787071228,
        -0.2756749093532562,
        -0.1164863333106041,
        0.16808094084262848,
        -0.21882620453834534,
        -0.16327503323554993,
        0.09271705895662308,
        -0.20426645874977112,
        0.2155841588973999,
        0.2917480170726776,
        -0.1808987408876419,
        -0.1699112206697464,
        -0.13140302896499634,
        0.2907203435897827,
        0.2723658084869385,
        -0.09798360615968704,
        0.22841890156269073,
        -0.21227248013019562,
        -0.23365923762321472,
        0.2652992904186249,
        0.26755887269973755,
        0.13403257727622986,
        0.20042678713798523,
        0.07015404850244522,
        -0.24944016337394714,
        -0.3337780237197876,
        0.006093901116400957,
        0.28658702969551086,
        -0.2594555914402008,
        -0.12831272184848785,
        -0.3159126341342926,
        -0.21404358744621277,
        -0.01689814403653145,
        0.19027318060398102,
        -0.13977281749248505,
        -0.030904412269592285,
        -0.34017089009284973,
        -0.3008061647415161,
        0.1298462450504303,
        -0.06547806411981583,
        -0.2987173795700073,
        -0.30411824584007263,
        0.19231253862380981,
        0.29200735688209534,
        0.04056097939610481,
        -0.10873536020517349,
        0.17320100963115692,
        0.34319502115249634,
        -0.1301877200603485,
        -0.11917679756879807,
        -0.0491315983235836,
        -0.30862143635749817,
        -0.09092304110527039,
        0.3005749583244324,
        -0.18876919150352478,
        -0.07956655323505402,
        -0.0706549659371376,
        -0.25185370445251465,
        0.16164705157279968,
        -0.057311560958623886,
        -0.2878943681716919,
        0.22443543374538422,
        0.1934788078069687,
        0.15875719487667084,
        -0.0002516736276447773,
        -0.1361345797777176,
        0.12225726991891861,
        0.0411934033036232,
        0.30363360047340393,
        0.28430262207984924,
        0.19024132192134857,
        0.1557205766439438,
        0.10450588166713715,
        0.08937385678291321,
        0.0032414402812719345,
        0.03394976630806923,
        0.26963457465171814,
        -0.21309196949005127,
        -0.32220858335494995,
        0.07839412242174149,
        0.2055845856666565,
        -0.2921661138534546,
        -0.1494152545928955,
        -0.22348138689994812,
        0.15690061450004578,
        0.04145464673638344,
        -0.25836604833602905,
        0.2974289059638977,
        -0.026034580543637276,
        0.1656164526939392,
        0.333717942237854,
        -0.09438733011484146,
        0.20608201622962952,
        -0.10549525171518326,
        0.21145179867744446,
        -0.11292015761137009,
        -0.035012826323509216,
        -0.31068918108940125,
        0.2727205753326416,
        0.23639370501041412,
        0.09419246017932892,
        -0.08537552505731583,
        0.297192245721817,
        0.053747568279504776,
        -0.24111613631248474,
        -0.07637375593185425,
        0.03663850575685501,
        -0.29741084575653076,
        0.3023839592933655,
        0.16605030000209808,
        -0.05898723006248474,
        -0.04710507392883301,
        0.05256533622741699,
        -0.12607342004776,
        -0.012639414519071579,
        -0.2512872815132141,
        0.015700530260801315,
        0.1129545271396637
      ],
      "bias": [
        -0.01417399849742651,
        0.024513309821486473,
        -0.18853187561035156,
        0.18388064205646515,
        -0.037292320281267166,
        -0.19334770739078522,
        -0.17826490104198456,
        -0.1862686276435852,
        -0.1701670140028,
        0.22572588920593262,
        0.00012411814532242715
      ]
    }
  ],
  "meta": {
    "name": "Epoch ∞",
    "slug": "epoch-infinity",
    "inputs": 24,
    "outputs": 11,
    "placeholder": true,
    "generated": "2025-10-21T20:13:30.762Z"
  }
}
