{
  "input": 24,
  "normalization": {
    "mean": [
      0,
      0,
      0,
      0,
      0,
      0,
      0,
      0,
      0,
      0,
      0,
      0,
      0,
      0,
      0,
      0,
      0,
      0,
      0,
      0,
      0,
      0,
      0,
      0
    ],
    "std": [
      1,
      1,
      1,
      1,
      1,
      1,
      1,
      1,
      1,
      1,
      1,
      1,
      1,
      1,
      1,
      1,
      1,
      1,
      1,
      1,
      1,
      1,
      1,
      1
    ]
  },
  "layers": [
    {
      "activation": "relu",
      "weights": [
        -0.120857,
        -0.112095,
        -0.022264,
        -0.190743,
        -0.165446,
        0.176022,
        0.034737,
        0.182145,
        -0.091712,
        -0.083559,
        0.20073,
        -0.056136,
        0.095813,
        -0.087262,
        -0.084217,
        -0.11176,
        0.196295,
        0.192924,
        0.130404,
        0.150859,
        0.130499,
        0.18904,
        0.249662,
        0,
        -0.095466,
        -0.03379,
        -0.135487,
        0.148108,
        0.225177,
        -0.091012,
        0.140813,
        -0.174183,
        0.04215,
        0.141062,
        0.100006,
        -0.099155,
        0.212148,
        0.016189,
        0.064736,
        -0.241569,
        -0.119323,
        0.243275,
        -0.21778,
        -0.197749,
        -0.079804,
        -0.183418,
        0.063798,
        0,
        -0.121974,
        -0.141017,
        0.075331,
        -0.143375,
        0.064821,
        -0.16022,
        -0.099493,
        -0.150954,
        0.154314,
        -0.227707,
        0.181689,
        -0.163774,
        -0.236615,
        -0.031406,
        -0.188295,
        0.197601,
        0.1503,
        0.175505,
        0.091943,
        -0.037302,
        -0.070165,
        0.043009,
        0.056105,
        0,
        0.06691,
        0.007631,
        0.192763,
        -0.154758,
        0.023763,
        0.179102,
        0.17577,
        -0.108137,
        -0.134742,
        -0.036798,
        0.233273,
        -0.204052,
        -0.173168,
        -0.133621,
        -0.100062,
        -0.099347,
        -0.121478,
        -0.102997,
        0.113378,
        0.200555,
        -0.171123,
        -0.224396,
        0.119091,
        0,
        -0.159795,
        -0.146816,
        -0.088777,
        0.084875,
        0.085851,
        -0.077425,
        -0.160818,
        -0.036234,
        -0.221907,
        0.235582,
        -0.059399,
        -0.230412,
        -0.101669,
        -0.121318,
        -0.111039,
        0.054152,
        0.006776,
        0.067423,
        -0.105972,
        0.000186,
        -0.065135,
        -0.055331,
        -0.061539,
        0,
        0.169041,
        0.239885,
        0.037541,
        -0.172602,
        0.067254,
        0.054607,
        0.099607,
        -0.003649,
        -0.178983,
        0.089763,
        0.189899,
        0.14771,
        -0.127385,
        0.172162,
        -0.034705,
        -0.088827,
        0.237907,
        -0.173743,
        -0.212145,
        -0.151583,
        -0.011102,
        0.031999,
        -0.126352,
        0,
        0.247319,
        -0.249527,
        -0.083248,
        -0.165337,
        -0.223966,
        0.125358,
        -0.235883,
        0.090326,
        0.192261,
        0.086358,
        -0.152539,
        -0.249766,
        -0.072017,
        -0.00005,
        0.220957,
        0.194619,
        -0.004978,
        0.070282,
        0.225968,
        0.204145,
        -0.218304,
        0.117645,
        0.095567,
        0,
        0.115577,
        -0.064093,
        0.230484,
        0.165014,
        0.104893,
        0.154969,
        -0.044998,
        -0.178987,
        -0.175603,
        -0.172521,
        -0.188575,
        -0.052464,
        0.245405,
        0.097563,
        0.05099,
        -0.248949,
        0.183053,
        0.046784,
        0.192723,
        -0.027044,
        0.104798,
        -0.185948,
        0.004056,
        0,
        0.122031,
        -0.050821,
        0.098826,
        0.214358,
        -0.015279,
        -0.193617,
        0.11793,
        -0.124555,
        -0.203932,
        -0.062798,
        0.211299,
        -0.091889,
        0.079093,
        0.231923,
        -0.083042,
        -0.001228,
        -0.214545,
        -0.164274,
        -0.039442,
        0.135261,
        -0.004815,
        -0.207855,
        0.229768,
        0,
        0.195844,
        0.058324,
        0.181162,
        -0.071151,
        0.130531,
        0.186254,
        -0.146508,
        0.233714,
        -0.101276,
        0.125563,
        -0.012384,
        -0.107214,
        -0.047717,
        0.172235,
        -0.178863,
        -0.156027,
        0.178058,
        -0.09102,
        0.033014,
        0.043072,
        -0.161037,
        0.173535,
        -0.121765,
        0,
        -0.176102,
        0.177642,
        -0.109284,
        -0.198506,
        0.235482,
        -0.028202,
        0.026069,
        -0.118565,
        -0.073382,
        -0.044756,
        0.043907,
        0.08203,
        -0.226911,
        0.143738,
        -0.122447,
        -0.087364,
        0.067889,
        0.22967,
        0.044604,
        0.223321,
        0.219735,
        -0.165347,
        0.165035,
        0,
        -0.013006,
        0.030199,
        0.034091,
        -0.235069,
        0.044921,
        0.244764,
        0.19278,
        -0.126306,
        -0.082818,
        0.198116,
        -0.224391,
        0.047503,
        -0.095376,
        -0.001006,
        -0.077583,
        0.076871,
        -0.166105,
        -0.175108,
        0.201077,
        -0.238914,
        -0.077907,
        0.021946,
        0.077865,
        0,
        -0.242637,
        -0.137387,
        -0.16969,
        -0.230828,
        0.137516,
        -0.141253,
        0.180322,
        -0.23637,
        -0.090039,
        -0.043398,
        0.129794,
        -0.071288,
        -0.110139,
        0.153892,
        0.137726,
        0.240863,
        -0.074764,
        -0.113824,
        -0.005248,
        -0.196769,
        0.111833,
        0.117101,
        -0.144355,
        0,
        -0.059942,
        -0.245416,
        -0.115795,
        -0.055818,
        -0.218206,
        -0.041545,
        -0.223147,
        0.125678,
        -0.120006,
        -0.143492,
        -0.05213,
        0.167523,
        0.016069,
        0.107973,
        -0.114588,
        0.133005,
        -0.007063,
        -0.075837,
        -0.203327,
        -0.021244,
        -0.176348,
        0.005022,
        0.079957,
        0,
        0.051119,
        -0.143924,
        -0.105859,
        -0.013304,
        -0.198244,
        -0.00237,
        -0.114962,
        0.199972,
        0.167803,
        -0.170774,
        0.236515,
        0.181106,
        0.186893,
        0.022405,
        0.079923,
        -0.239127,
        0.042353,
        0.098771,
        0.026122,
        0.076913,
        -0.141115,
        0.195766,
        0.104961,
        0,
        0.083892,
        0.194056,
        0.127859,
        -0.204896,
        -0.012019,
        -0.204104,
        0.157205,
        0.026979,
        0.082212,
        -0.17808,
        0.012844,
        0.166701,
        0.084282,
        -0.160107,
        -0.17751,
        0.11376,
        0.203348,
        0.055644,
        0.245989,
        -0.229715,
        -0.212595,
        -0.161757,
        0.224488,
        0
      ],
      "bias": [
        -0.094115,
        0.011111,
        0.095141,
        -0.046239,
        -0.024939,
        -0.071074,
        -0.073373,
        -0.095909,
        0.089112,
        0.009532,
        0.095024,
        0.050098,
        0.072224,
        -0.029855,
        0.073135,
        -0.06231
      ]
    },
    {
      "activation": "tanh",
      "weights": [
        0.054087,
        -0.032949,
        -0.164068,
        -0.170274,
        -0.040385,
        0.166827,
        -0.029808,
        -0.025553,
        -0.008036,
        -0.02688,
        -0.082271,
        0.15838,
        0.139061,
        0.143975,
        0.053009,
        0.132942,
        -0.122115,
        -0.183795,
        0.148695,
        -0.009072,
        0.066289,
        -0.063433,
        0.068441,
        -0.089616,
        0.000835,
        0.051144,
        -0.083668,
        -0.165197,
        -0.153103,
        -0.065828,
        0.099214,
        -0.179093,
        -0.052718,
        0.037585,
        -0.141835,
        -0.114747,
        -0.184391,
        0.042494,
        0.125349,
        -0.119085,
        0.120712,
        0.09389,
        -0.137476,
        0.035501,
        -0.131695,
        0.199781,
        -0.062568,
        0.081739,
        -0.11384,
        0.176046,
        -0.105672,
        -0.1881,
        -0.180944,
        -0.181768,
        -0.125094,
        -0.012708,
        -0.060262,
        -0.118435,
        0.045863,
        -0.165912,
        -0.017851,
        0.150402,
        -0.010653,
        -0.143273,
        0.103169,
        0.178396,
        -0.187437,
        0.000147,
        -0.020874,
        -0.019392,
        0.032745,
        0.092094,
        0.143318,
        0.058828,
        0.193795,
        -0.003242,
        0.170808,
        -0.158662,
        -0.129213,
        -0.189009,
        0.016723,
        0.118396,
        -0.181364,
        0.134353,
        0.114331,
        -0.045346,
        -0.078863,
        0.144228,
        -0.060875,
        -0.140209,
        -0.103342,
        0.10728,
        0.045176,
        -0.101402,
        0.016718,
        -0.141523,
        -0.119999,
        -0.07824,
        -0.006293,
        0.078951,
        0.184199,
        -0.001399,
        -0.106006,
        0.103931,
        0.082096,
        0.03302,
        -0.167317,
        0.092004,
        -0.130336,
        0.04389,
        0.106249,
        -0.113041,
        -0.19405,
        -0.108844,
        -0.080676,
        -0.196545,
        0.114273,
        0.128888,
        0.161869,
        -0.132235,
        -0.100566,
        0.166534,
        0.192987,
        0.144856,
        -0.012802,
        0.019628,
        -0.112374,
        0.08304,
        -0.00772,
        0.031204,
        -0.097573,
        0.107455,
        0.021111,
        -0.154846,
        0.016956,
        -0.006377,
        -0.084391,
        0.012805,
        -0.093419,
        -0.147657,
        -0.155781,
        0.11393,
        0.00324,
        0.057152,
        0.146468,
        0.173476,
        -0.199654,
        0.14562,
        0.037289,
        -0.144757,
        -0.141912,
        0.025724,
        0.077356,
        0.013758,
        -0.134635,
        0.118546,
        -0.184315,
        0.085613,
        0.014619,
        -0.031448,
        0,
        0,
        0,
        0,
        0,
        0,
        0,
        0,
        0,
        0,
        0,
        0,
        0,
        0,
        0,
        0
      ],
      "bias": [
        0.027689,
        0.025375,
        -0.038549,
        0.038175,
        0.034099,
        -0.04995,
        0.003935,
        0.004904,
        -0.005332,
        -0.043557,
        0
      ]
    }
  ],
  "meta": {
    "name": "Epoch ∞",
    "slug": "epoch-infinity",
    "inputs": 24,
    "outputs": 11,
    "placeholder": true
  }
}
