{
  "input": 24,
  "normalization": {
    "mean": [
      0,
      0,
      0,
      0,
      0,
      0,
      0,
      0,
      0,
      0,
      0,
      0,
      0,
      0,
      0,
      0,
      0,
      0,
      0,
      0,
      0,
      0,
      0,
      0
    ],
    "std": [
      1,
      1,
      1,
      1,
      1,
      1,
      1,
      1,
      1,
      1,
      1,
      1,
      1,
      1,
      1,
      1,
      1,
      1,
      1,
      1,
      1,
      1,
      1,
      1
    ]
  },
  "layers": [
    {
      "activation": "relu",
      "weights": [
        0.09740220010280609,
        0.15676382184028625,
        -0.1887979507446289,
        -0.024616220965981483,
        0.3280054032802582,
        -0.28786501288414,
        -0.30466386675834656,
        0.2289912849664688,
        0.15342944860458374,
        0.21636272966861725,
        0.11107446253299713,
        -0.3304033875465393,
        -0.05013217404484749,
        -0.05425666272640228,
        -0.1759200543165207,
        -0.29869115352630615,
        -0.34724166989326477,
        0.10299865901470184,
        -0.051751621067523956,
        -0.3145664632320404,
        0.1626734435558319,
        0.1392248123884201,
        0.3297380208969116,
        0.15189549326896667,
        -0.16247618198394775,
        0.30307185649871826,
        -0.1415887027978897,
        -0.2579278349876404,
        -0.22305740416049957,
        -0.15023747086524963,
        0.19520971179008484,
        0.1332484781742096,
        -0.16789977252483368,
        -0.16621093451976776,
        0.2051316797733307,
        -0.1585572212934494,
        0.00010364481568103656,
        -0.12390073388814926,
        0.34351271390914917,
        -0.11135777831077576,
        0.06591615825891495,
        0.05728672072291374,
        0.1514144092798233,
        -0.03369900956749916,
        0.3375578820705414,
        0.08358169347047806,
        0.14998389780521393,
        0.32184815406799316,
        0.16308392584323883,
        -0.10493188351392746,
        -0.27472758293151855,
        0.30311134457588196,
        0.07583892345428467,
        0.29497551918029785,
        -0.3262559175491333,
        -0.23615345358848572,
        -0.2893119156360626,
        -0.1392410546541214,
        0.3490646183490753,
        0.025794167071580887,
        -0.334457129240036,
        -0.12864598631858826,
        -0.0612931065261364,
        0.3236415684223175,
        -0.2718054950237274,
        0.3200121819972992,
        0.13922785222530365,
        0.11961697041988373,
        0.2538469135761261,
        -0.21321120858192444,
        -0.21217843890190125,
        0.17902977764606476,
        -0.08228863775730133,
        0.10065517574548721,
        -0.2205309271812439,
        -0.004381945822387934,
        0.3277025520801544,
        -0.1796872913837433,
        0.2754337191581726,
        0.19481463730335236,
        -0.04564020410180092,
        0.3398860692977905,
        0.05777569115161896,
        -0.14908216893672943,
        -0.08311039954423904,
        -0.20187251269817352,
        0.22173675894737244,
        0.2995128631591797,
        0.011683989316225052,
        0.15015913546085358,
        -0.08448430150747299,
        -0.053962454199790955,
        -0.26455461978912354,
        -0.06061653047800064,
        -0.1342518925666809,
        0.048948608338832855,
        -0.19501180946826935,
        0.11128133535385132,
        -0.044082533568143845,
        0.2711140215396881,
        -0.07783706486225128,
        0.3070192337036133,
        -0.13314850628376007,
        0.30724671483039856,
        -0.18927080929279327,
        -0.13521833717823029,
        -0.07759130746126175,
        -0.24406732618808746,
        -0.17075081169605255,
        0.1789691001176834,
        0.33010756969451904,
        -0.21744538843631744,
        -0.14719358086585999,
        0.04500611126422882,
        0.1999056190252304,
        0.012190939858555794,
        -0.12371919304132462,
        0.1818094104528427,
        -0.3356429934501648,
        0.15913310647010803,
        -0.27009692788124084,
        0.0269780196249485,
        0.06899257004261017,
        -0.07990299165248871,
        0.013974660076200962,
        0.10235725343227386,
        0.31472864747047424,
        -0.22005832195281982,
        0.30439090728759766,
        0.26259422302246094,
        -0.09361201524734497,
        0.25786256790161133,
        0.14661693572998047,
        0.047244153916835785,
        -0.12455279380083084,
        0.12458191066980362,
        -0.0010820089373737574,
        0.2084268480539322,
        -0.12483889609575272,
        0.2708044648170471,
        -0.280836820602417,
        -0.023801900446414948,
        -0.2973040044307709,
        -0.2291579246520996,
        0.03244747966527939,
        0.2553517520427704,
        0.1090344488620758,
        0.06865643709897995,
        0.30355173349380493,
        -0.2671177387237549,
        -0.23834583163261414,
        -0.11318422108888626,
        0.18318608403205872,
        0.1665618121623993,
        -0.07076329737901688,
        0.23146750032901764,
        -0.12076003104448318,
        0.13341495394706726,
        -0.12660805881023407,
        0.13229069113731384,
        0.2886962890625,
        -0.30900320410728455,
        -0.1538279801607132,
        0.04887143149971962,
        -0.164259135723114,
        -0.32118260860443115,
        -0.31658756732940674,
        0.24799898266792297,
        0.04980531707406044,
        -0.20619510114192963,
        0.25904175639152527,
        0.1256689578294754,
        -0.02269895002245903,
        0.26485270261764526,
        -0.1742383986711502,
        0.11596018075942993,
        0.3098020851612091,
        -0.16547541320323944,
        0.05270840972661972,
        0.07601884007453918,
        0.1177324578166008,
        0.036117710173130035,
        -0.2687820792198181,
        0.29188665747642517,
        -0.3456694781780243,
        -0.07148648798465729,
        0.1801975965499878,
        -0.1734311282634735,
        0.05743005871772766,
        -0.03520001843571663,
        -0.1694742888212204,
        -0.042758550494909286,
        0.15593977272510529,
        -0.20331856608390808,
        0.06912383437156677,
        0.20973838865756989,
        -0.039606451988220215,
        -0.21200580894947052,
        -0.23044131696224213,
        0.031487416476011276,
        -0.27121368050575256,
        -0.03192906081676483,
        -0.02850673533976078,
        -0.24432501196861267,
        -0.22672635316848755,
        -0.3143330514431,
        -0.23449401557445526,
        -0.33420515060424805,
        0.24218836426734924,
        0.13815607130527496,
        -0.1397225558757782,
        0.15025454759597778,
        0.27232375741004944,
        0.010083328001201153,
        -0.10389354825019836,
        0.0063773454166948795,
        0.12458141148090363,
        0.18673941493034363,
        -0.05278041213750839,
        -0.2578131854534149,
        0.23532035946846008,
        -0.011284258216619492,
        -0.07269735634326935,
        0.05860385671257973,
        0.3283397853374481,
        0.18133406341075897,
        0.06637156754732132,
        0.13245287537574768,
        0.06405651569366455,
        -0.0774216428399086,
        0.2409740686416626,
        0.1817627102136612,
        -0.16864827275276184,
        0.13960935175418854,
        0.24877940118312836,
        0.11689025908708572,
        0.07391006499528885,
        -0.18791408836841583,
        0.027600696310400963,
        -0.25582924485206604,
        -0.02231043390929699,
        0.11827707290649414,
        0.30832216143608093,
        -0.013209671713411808,
        -0.2781131863594055,
        0.3494718372821808,
        0.33809319138526917,
        -0.30457162857055664,
        -0.3272038400173187,
        0.09049545973539352,
        0.16770011186599731,
        0.058054860681295395,
        0.11679577082395554,
        0.008962215855717659,
        0.1566019356250763,
        0.12308597564697266,
        0.03371986374258995,
        -0.1843351572751999,
        -0.20178377628326416,
        0.23796238005161285,
        -0.31344226002693176,
        0.2386534959077835,
        -0.129744753241539,
        0.12894797325134277,
        -0.31023940443992615,
        -0.20423242449760437,
        -0.002875376958400011,
        -0.27230268716812134,
        -0.10413429141044617,
        -0.25626808404922485,
        0.2879072427749634,
        -0.14470604062080383,
        0.3446980118751526,
        0.2559988796710968,
        0.03419284522533417,
        0.06890017539262772,
        -0.2887377440929413,
        -0.3214264512062073,
        0.02558741718530655,
        -0.31761619448661804,
        -0.14647632837295532,
        0.28368619084358215,
        0.32733070850372314,
        -0.3452133238315582,
        -0.02949470840394497,
        0.26955944299697876,
        0.1577056497335434,
        -0.2178741991519928,
        0.04419352486729622,
        -0.17871281504631042,
        0.32578593492507935,
        0.14546148478984833,
        0.04786615073680878,
        0.14868518710136414,
        -0.13282135128974915,
        0.0017400661017745733,
        -0.287049800157547,
        0.06542982161045074,
        0.11293792724609375,
        -0.22322013974189758,
        0.3020903170108795,
        -0.19053439795970917,
        -0.3014524281024933,
        0.18915218114852905,
        0.29071861505508423,
        -0.19209301471710205,
        -0.15853729844093323,
        0.02572372555732727,
        0.0907910093665123,
        0.3058517873287201,
        0.2761487364768982,
        0.2146986573934555,
        0.21302346885204315,
        0.0670415535569191,
        -0.3219059407711029,
        -0.13078054785728455,
        0.08069967478513718,
        0.14401109516620636,
        -0.23226624727249146,
        -0.27793774008750916,
        0.09900064766407013,
        -0.32928892970085144,
        -0.2882522940635681,
        -0.3317958116531372,
        0.041293803602457047,
        0.2587314248085022,
        -0.26363569498062134,
        -0.2974681854248047,
        0.1649566888809204,
        0.31763413548469543,
        0.14184711873531342,
        0.20943917334079742,
        -0.028609629720449448,
        -0.2955547869205475,
        -0.32356971502304077,
        0.2756657600402832,
        0.1962229609489441,
        -0.22170616686344147,
        0.0022463309578597546,
        -0.23640431463718414,
        -0.11619792133569717,
        0.06743252277374268,
        0.07609197497367859,
        -0.21230098605155945,
        -0.023577986285090446,
        -0.008199851959943771,
        0.017076455056667328,
        0.20511485636234283,
        0.06840433925390244,
        0.1008802279829979,
        -0.1447838991880417,
        -0.12164875119924545,
        0.017643563449382782,
        0.24461542069911957,
        0.07307925820350647,
        0.1838887631893158,
        0.020051265135407448,
        0.10824328660964966,
        0.05134636163711548,
        0.22528685629367828,
        -0.3008764386177063,
        -0.08733021467924118,
        -0.09178972244262695,
        0.13192421197891235,
        0.26751038432121277,
        0.1328059285879135,
        -0.272023469209671,
        -0.09036806225776672,
        -0.25116392970085144,
        -0.23778237402439117,
        0.15759044885635376,
        -0.33478567004203796,
        -0.10726930946111679,
        -0.18762442469596863,
        -0.19432058930397034,
        -0.17341725528240204,
        0.031079979613423347,
        0.033097825944423676,
        0.24082109332084656,
        0.16451777517795563,
        0.19267261028289795,
        0.18814848363399506,
        -0.17839859426021576,
        0.13004139065742493
      ],
      "bias": [
        -0.23613241314888,
        -0.04320903122425079,
        -0.19772914052009583,
        0.20640453696250916,
        -0.20758241415023804,
        0.08603765815496445,
        0.18944092094898224,
        0.1710655391216278,
        0.21484170854091644,
        0.05268821865320206,
        -0.05442207679152489,
        0.21929025650024414,
        0.05264020338654518,
        0.1405985802412033,
        -0.21938614547252655,
        0.22220231592655182
      ]
    },
    {
      "activation": "tanh",
      "weights": [
        0.11614838242530823,
        -0.2073511779308319,
        -0.22934748232364655,
        -0.2616181969642639,
        0.2552359700202942,
        0.13638156652450562,
        -0.2738467752933502,
        -0.01858171448111534,
        0.3116074800491333,
        0.17697970569133759,
        0.0810534805059433,
        0.16259048879146576,
        -0.3334847688674927,
        0.10795032978057861,
        0.3313583433628082,
        -0.14425288140773773,
        0.152239128947258,
        -0.03746117278933525,
        -0.04063621908426285,
        0.10385815799236298,
        -0.25326430797576904,
        0.12231506407260895,
        0.21990826725959778,
        -0.34960901737213135,
        -0.12749552726745605,
        -0.17932066321372986,
        0.21437853574752808,
        0.2932535409927368,
        -0.3342803418636322,
        -0.1956637054681778,
        0.316913366317749,
        0.12035442143678665,
        -0.15219414234161377,
        -0.18566372990608215,
        0.10608844459056854,
        0.3253771662712097,
        0.08245925605297089,
        -0.19434905052185059,
        -0.2630496025085449,
        0.17414772510528564,
        -0.14880597591400146,
        0.05310680717229843,
        0.1371382623910904,
        0.06806820631027222,
        0.04984741285443306,
        -0.3449295461177826,
        -0.22070500254631042,
        0.09597837924957275,
        0.19577570259571075,
        0.04635945335030556,
        -0.21725936233997345,
        -0.16139531135559082,
        -0.26372402906417847,
        0.06575565785169601,
        0.33362409472465515,
        -0.2838771939277649,
        -0.1123453825712204,
        -0.11630171537399292,
        0.01927376538515091,
        -0.1245761588215828,
        0.07208845764398575,
        -0.1090654507279396,
        -0.036515966057777405,
        -0.029770342633128166,
        0.20229099690914154,
        0.10025706142187119,
        0.0016516506439074874,
        -0.06130111217498779,
        -0.07005687803030014,
        -0.2916909158229828,
        0.06745647639036179,
        0.34354162216186523,
        0.2985689640045166,
        -0.2380291223526001,
        -0.10567609965801239,
        0.10004407912492752,
        0.02294657565653324,
        0.0009745445568114519,
        0.23360446095466614,
        0.16910842061042786,
        0.17534935474395752,
        0.3242257535457611,
        0.22445932030677795,
        0.2238084375858307,
        -0.04325370490550995,
        -0.15969040989875793,
        0.25635749101638794,
        -0.10870619863271713,
        0.34119293093681335,
        0.16795244812965393,
        0.03776753693819046,
        0.25110912322998047,
        -0.10400854796171188,
        -0.16013510525226593,
        -0.061996959149837494,
        -0.2343815267086029,
        -0.10040858387947083,
        0.323769211769104,
        0.09523782879114151,
        0.2509419023990631,
        -0.12765826284885406,
        -0.23108217120170593,
        -0.11543695628643036,
        0.06729216873645782,
        -0.022002361714839935,
        0.13130944967269897,
        0.20919178426265717,
        0.19973209500312805,
        0.07068132609128952,
        -0.023062514141201973,
        -0.01754290796816349,
        -0.16300663352012634,
        0.1763281375169754,
        -0.07044696807861328,
        -0.2038058489561081,
        -0.23199066519737244,
        -0.18203052878379822,
        0.17142319679260254,
        -0.3149924874305725,
        0.20515026152133942,
        0.005189894698560238,
        0.27438852190971375,
        0.18513363599777222,
        0.32797476649284363,
        0.26084592938423157,
        0.17668886482715607,
        -0.24817997217178345,
        -0.1959102898836136,
        -0.08400555700063705,
        -0.20917914807796478,
        -0.19414743781089783,
        -0.13473094999790192,
        0.26886844635009766,
        0.23648884892463684,
        0.2402695119380951,
        0.19513896107673645,
        -0.347105473279953,
        0.1229734793305397,
        -0.1727558821439743,
        -0.03824565187096596,
        -0.31928032636642456,
        -0.2520851790904999,
        0.22709432244300842,
        0.2887859046459198,
        0.20141607522964478,
        -0.2107841968536377,
        0.30028459429740906,
        -0.19593873620033264,
        0.3236269950866699,
        -0.012694657780230045,
        0.1725771427154541,
        0.12542062997817993,
        0.07672393321990967,
        0.25961148738861084,
        0.2719217538833618,
        0.3313113749027252,
        -0.019263260066509247,
        0.18790468573570251,
        -0.1151873916387558,
        0.27680936455726624,
        0.13201570510864258,
        -0.24825063347816467,
        -0.14417095482349396,
        -0.1280207633972168,
        0.07539864629507065,
        -0.12698525190353394,
        -0.2977741062641144,
        0.32301613688468933,
        0.10607846826314926,
        -0.3356013596057892,
        -0.16659227013587952,
        0.1291385442018509,
        0.10540147125720978,
        -0.09921085834503174,
        0.20518536865711212,
        -0.3110503852367401
      ],
      "bias": [
        0.07800682634115219,
        0.059642087668180466,
        0.012975797057151794,
        -0.0024514554534107447,
        0.03505757078528404,
        0.2139073610305786,
        0.189046710729599,
        -0.15458600223064423,
        -0.22049207985401154,
        0.19241391122341156,
        -0.04911478981375694
      ]
    }
  ],
  "meta": {
    "name": "Last Pack",
    "slug": "last-pack",
    "inputs": 24,
    "outputs": 11,
    "placeholder": true,
    "generated": "2025-10-21T15:22:04.838Z"
  }
}
