{
  "input": 24,
  "normalization": {
    "mean": [
      0,
      0,
      0,
      0,
      0,
      0,
      0,
      0,
      0,
      0,
      0,
      0,
      0,
      0,
      0,
      0,
      0,
      0,
      0,
      0,
      0,
      0,
      0,
      0
    ],
    "std": [
      1,
      1,
      1,
      1,
      1,
      1,
      1,
      1,
      1,
      1,
      1,
      1,
      1,
      1,
      1,
      1,
      1,
      1,
      1,
      1,
      1,
      1,
      1,
      1
    ]
  },
  "layers": [
    {
      "activation": "relu",
      "weights": [
        0.11093158274888992,
        0.21747858822345734,
        0.2545259892940521,
        -0.08349411189556122,
        -0.30524182319641113,
        0.27480024099349976,
        0.06894053518772125,
        -0.13536815345287323,
        0.1821153163909912,
        0.34869101643562317,
        -0.050062451511621475,
        0.25272542238235474,
        0.20916637778282166,
        -0.05372332036495209,
        0.2698409855365753,
        -0.007544986438006163,
        0.09004271775484085,
        0.02987688034772873,
        0.14123867452144623,
        -0.3460351824760437,
        -0.01228759903460741,
        -0.0858050286769867,
        0.1677689105272293,
        -0.15132984519004822,
        0.28732702136039734,
        0.09866797924041748,
        0.027840154245495796,
        0.21911340951919556,
        0.01584639772772789,
        -0.09939254075288773,
        0.12409859150648117,
        -0.16367733478546143,
        0.2744688093662262,
        0.0517534539103508,
        0.08870737254619598,
        0.3190858066082001,
        0.09632696956396103,
        -0.07230604439973831,
        0.0097725261002779,
        -0.22042495012283325,
        0.07749644666910172,
        0.2912903130054474,
        0.14557507634162903,
        0.09015534818172455,
        -0.19137193262577057,
        -0.2127947062253952,
        -0.09133291989564896,
        0.27958595752716064,
        0.16851645708084106,
        0.01026766188442707,
        0.2880408763885498,
        -0.11380431801080704,
        0.1688290536403656,
        -0.205389142036438,
        -0.20348115265369415,
        -0.2837883532047272,
        0.10332316905260086,
        -0.23959605395793915,
        -0.22499483823776245,
        0.3191920518875122,
        -0.18115878105163574,
        -0.14560610055923462,
        -0.05287269502878189,
        0.22191579639911652,
        -0.09892331808805466,
        0.02887677401304245,
        -0.17098701000213623,
        -0.32552656531333923,
        0.029794136062264442,
        0.10226019471883774,
        -0.26725199818611145,
        -0.06722551584243774,
        -0.17294569313526154,
        -0.18435701727867126,
        -0.23567725718021393,
        0.2213248908519745,
        0.3268073797225952,
        -0.08851350098848343,
        0.045982297509908676,
        -0.31505972146987915,
        0.3176761269569397,
        0.12454009801149368,
        0.17726470530033112,
        -0.07940777391195297,
        0.15401454269886017,
        0.11306687444448471,
        -0.20094650983810425,
        0.27411678433418274,
        0.07858067750930786,
        0.00017873999604489654,
        -0.30126824975013733,
        -0.20366457104682922,
        0.2019229233264923,
        0.1021355465054512,
        -0.3066086173057556,
        0.11263483762741089,
        0.13528497517108917,
        -0.3320082426071167,
        -0.23672790825366974,
        -0.1251254826784134,
        -0.18724475800991058,
        0.07189299911260605,
        -0.010564422234892845,
        0.2119501233100891,
        -0.09358935058116913,
        0.02932252548635006,
        -0.08781212568283081,
        0.19065940380096436,
        -0.27750006318092346,
        0.34157007932662964,
        0.24167419970035553,
        0.3347451388835907,
        -0.03951581194996834,
        -0.24905537068843842,
        0.3066255748271942,
        -0.18729926645755768,
        0.2561168372631073,
        0.09378571063280106,
        -0.009039424359798431,
        -0.32203057408332825,
        0.09777341783046722,
        0.14778576791286469,
        0.12072712182998657,
        -0.26275476813316345,
        0.11708404868841171,
        0.015718499198555946,
        0.003412351245060563,
        0.14845523238182068,
        -0.3446139991283417,
        0.11793643981218338,
        -0.24759215116500854,
        0.20520824193954468,
        -0.2958230972290039,
        -0.17790819704532623,
        0.22328239679336548,
        0.33034101128578186,
        -0.26877614855766296,
        0.21687422692775726,
        -0.3334401249885559,
        -0.2546093761920929,
        0.2601582407951355,
        0.1019323542714119,
        -0.07772940397262573,
        -0.21745173633098602,
        -0.2509850859642029,
        0.008573760278522968,
        0.17191791534423828,
        -0.11146705597639084,
        -0.22889970242977142,
        0.157125324010849,
        -0.21307766437530518,
        -0.3066648542881012,
        -0.34444501996040344,
        -0.06299389898777008,
        -0.29921582341194153,
        0.09045474231243134,
        0.0764043852686882,
        -0.2519975006580353,
        0.3174339532852173,
        0.062460146844387054,
        0.06873087584972382,
        0.1146446168422699,
        0.04442746937274933,
        0.16831322014331818,
        0.22423920035362244,
        0.08571816235780716,
        0.10649926215410233,
        0.2778460383415222,
        -0.09189403057098389,
        -0.33958348631858826,
        0.0379481166601181,
        0.08244048058986664,
        -0.15633291006088257,
        0.17264242470264435,
        0.29703184962272644,
        0.3284771144390106,
        0.3214634656906128,
        -0.1548231989145279,
        -0.1389770656824112,
        -0.10049451142549515,
        -0.13633787631988525,
        -0.2101118564605713,
        -0.12736421823501587,
        -0.05975153297185898,
        0.16792602837085724,
        0.13604362308979034,
        -0.26435333490371704,
        0.2321329414844513,
        0.15286260843276978,
        -0.27868732810020447,
        0.1927829086780548,
        0.013119738548994064,
        0.25418180227279663,
        -0.2584054470062256,
        0.17188988626003265,
        0.09897040575742722,
        0.272858202457428,
        -0.21569539606571198,
        -0.3354259133338928,
        0.11737623810768127,
        0.19130656123161316,
        0.1330348253250122,
        0.23300530016422272,
        -0.026126926764845848,
        -0.06330553442239761,
        -0.02066791243851185,
        -0.27879902720451355,
        0.2310614287853241,
        -0.32972025871276855,
        0.257968932390213,
        0.068105548620224,
        -0.3283071517944336,
        -0.08664917945861816,
        -0.08929984271526337,
        -0.2861526608467102,
        -0.15331199765205383,
        -0.2501295208930969,
        -0.02675185725092888,
        -0.3232487738132477,
        0.14831562340259552,
        0.23900599777698517,
        0.06829778850078583,
        -0.18420352041721344,
        0.05127764493227005,
        -0.2190287560224533,
        -0.1898079514503479,
        -0.2857058048248291,
        0.21320046484470367,
        -0.08617814630270004,
        0.32420244812965393,
        -0.3116692304611206,
        -0.12424936890602112,
        0.318459689617157,
        0.23626820743083954,
        0.3069358468055725,
        0.16783283650875092,
        -0.29958900809288025,
        0.18865539133548737,
        -0.25026223063468933,
        0.28463584184646606,
        0.3336355686187744,
        0.1575353741645813,
        -0.191833958029747,
        -0.28398042917251587,
        0.08110997825860977,
        -0.05483604222536087,
        0.13943997025489807,
        0.13961154222488403,
        -0.2612868547439575,
        0.0985935628414154,
        0.3215884268283844,
        0.2930583357810974,
        -0.10808172076940536,
        0.280966579914093,
        -0.07254806905984879,
        -0.1309150606393814,
        0.0845014899969101,
        -0.16081306338310242,
        -0.2817331850528717,
        0.25348806381225586,
        -0.3010977804660797,
        -0.22294102609157562,
        0.28289347887039185,
        -0.2736097574234009,
        -0.08715823292732239,
        0.11787484586238861,
        0.31297537684440613,
        -0.1418958455324173,
        -0.04340580105781555,
        -0.13611464202404022,
        0.22526592016220093,
        -0.16203810274600983,
        -0.3137228190898895,
        0.32523298263549805,
        0.11544492840766907,
        -0.0018144490895792842,
        -0.3336821496486664,
        -0.12082526832818985,
        -0.21988166868686676,
        -0.1124582514166832,
        0.046254221349954605,
        -0.19963699579238892,
        -0.028808917850255966,
        0.11965109407901764,
        0.22025863826274872,
        0.3245144784450531,
        0.18407204747200012,
        -0.34595775604248047,
        0.14769817888736725,
        0.2687092125415802,
        0.08333541452884674,
        0.06846809387207031,
        0.13750478625297546,
        -0.12046808749437332,
        -0.06084180250763893,
        -0.34968796372413635,
        -0.28091609477996826,
        -0.1770317405462265,
        0.011161773465573788,
        -0.21600215137004852,
        0.04806394502520561,
        0.04171976074576378,
        -0.3435518145561218,
        0.16371780633926392,
        0.1590488702058792,
        -0.09881465137004852,
        -0.1587938815355301,
        -0.0807134211063385,
        0.30892062187194824,
        -0.17018482089042664,
        0.1019381731748581,
        0.22305727005004883,
        -0.11156971752643585,
        0.09030164778232574,
        -0.1679612249135971,
        -0.0611693300306797,
        0.12441936135292053,
        0.3227674961090088,
        0.24693693220615387,
        -0.3089941143989563,
        0.008447638712823391,
        0.3234882652759552,
        -0.25737619400024414,
        -0.3400958180427551,
        -0.11791253834962845,
        -0.2747422456741333,
        -0.07217711955308914,
        -0.269519567489624,
        -0.060536593198776245,
        -0.008557853288948536,
        -0.1683853268623352,
        0.08522221446037292,
        0.07614170014858246,
        0.3109945058822632,
        0.17395423352718353,
        0.10422150045633316,
        0.09713470935821533,
        0.2535977363586426,
        0.257147878408432,
        -0.24643495678901672,
        0.01723216101527214,
        0.08603211492300034,
        0.09530013799667358,
        0.1651911586523056,
        0.10300099849700928,
        -0.17485660314559937,
        -0.15525157749652863,
        0.2583901584148407,
        0.027486367151141167,
        -0.34983208775520325,
        0.04856495559215546,
        0.26621606945991516,
        -0.07817601412534714,
        0.02208654023706913,
        0.3266204595565796,
        0.31473487615585327,
        -0.3303269147872925,
        -0.10953449457883835,
        0.3448917865753174,
        -0.0023152364883571863,
        -0.004613089840859175,
        -0.118370920419693,
        0.2692743241786957,
        -0.009958355687558651,
        0.3249483108520508,
        -0.29260343313217163,
        -0.1261511892080307,
        -0.12360762804746628,
        -0.25285908579826355,
        0.324368953704834,
        -0.27986082434654236,
        0.24841608107089996,
        0.1845216602087021,
        0.1350165754556656,
        0.11778438836336136,
        -0.344780832529068,
        0.2820701599121094,
        -0.342533141374588,
        -0.12623080611228943,
        -0.1333499252796173,
        -0.28813302516937256,
        -0.3426379859447479,
        0.11923543363809586,
        0.04732469841837883
      ],
      "bias": [
        -0.19915828108787537,
        0.03208288177847862,
        -0.23571863770484924,
        -0.07809199392795563,
        -0.24969743192195892,
        -0.11876272410154343,
        -0.04533110931515694,
        0.1357472538948059,
        0.18722358345985413,
        0.20298099517822266,
        0.16094934940338135,
        -0.1365722417831421,
        0.08410347998142242,
        -0.1457638293504715,
        0.015055900439620018,
        -0.21765144169330597
      ]
    },
    {
      "activation": "tanh",
      "weights": [
        -0.25114670395851135,
        -0.1665295511484146,
        -0.15172016620635986,
        -0.12571996450424194,
        0.1461532711982727,
        0.02931671217083931,
        -0.20707917213439941,
        -0.05327743664383888,
        0.13378410041332245,
        0.04797525703907013,
        -0.07347562164068222,
        0.29739683866500854,
        -0.2473817765712738,
        -0.03706929460167885,
        -0.22138294577598572,
        0.27369189262390137,
        0.22832031548023224,
        0.2334510087966919,
        -0.15268822014331818,
        -0.151127889752388,
        0.13882750272750854,
        -0.07156867533922195,
        0.30064624547958374,
        -0.0741371363401413,
        -0.24548529088497162,
        0.2516252100467682,
        0.16018901765346527,
        -0.05666634440422058,
        0.07820767164230347,
        -0.2295318841934204,
        0.04888889566063881,
        0.3333238363265991,
        -0.30065035820007324,
        -0.14024221897125244,
        -0.24216246604919434,
        -0.2150370180606842,
        0.19279462099075317,
        -0.17527197301387787,
        -0.08813505619764328,
        0.04245523735880852,
        0.0661260336637497,
        0.31460466980934143,
        0.31373536586761475,
        -0.03973885625600815,
        0.2893889248371124,
        0.19854462146759033,
        -0.3376549184322357,
        0.15053895115852356,
        0.30333471298217773,
        -0.1223730519413948,
        -0.19386236369609833,
        -0.16039283573627472,
        -0.23063667118549347,
        0.23239773511886597,
        0.2776698172092438,
        -0.03873208910226822,
        -0.054159704595804214,
        -0.14188171923160553,
        -0.0002615735575091094,
        -0.13634611666202545,
        0.04645814374089241,
        -0.24773456156253815,
        0.24963675439357758,
        -0.1949952244758606,
        -0.05770229548215866,
        -0.002938470570370555,
        0.22328221797943115,
        0.016611458733677864,
        0.3480663597583771,
        -0.01870102807879448,
        0.0756789818406105,
        0.23995135724544525,
        -0.00178231718018651,
        0.25964242219924927,
        0.19865193963050842,
        0.3126729428768158,
        -0.16602228581905365,
        -0.08272462338209152,
        -0.32892999053001404,
        0.32617390155792236,
        0.04015165939927101,
        0.2903253734111786,
        -0.22578343749046326,
        0.0050879232585430145,
        -0.3137957751750946,
        0.02478436380624771,
        0.25816649198532104,
        0.19512934982776642,
        0.14570674300193787,
        0.13316015899181366,
        0.03440520539879799,
        0.15145252645015717,
        -0.07854390889406204,
        -0.2185208648443222,
        -0.3052070736885071,
        0.17634998261928558,
        -0.29937562346458435,
        -0.2735818028450012,
        0.02536894753575325,
        -0.07924998551607132,
        0.0886324793100357,
        -0.019584165886044502,
        0.05794544517993927,
        -0.1783318668603897,
        -0.219041109085083,
        -0.22662173211574554,
        -0.021669097244739532,
        0.2519152760505676,
        0.33606186509132385,
        -0.33757030963897705,
        -0.034012164920568466,
        0.268261194229126,
        0.2918086349964142,
        0.12130104750394821,
        0.20011268556118011,
        0.253165066242218,
        0.1211276650428772,
        -0.02085636556148529,
        0.32425177097320557,
        -0.22831040620803833,
        0.16263844072818756,
        0.017338937148451805,
        0.13805168867111206,
        -0.3168787360191345,
        0.1515384316444397,
        -0.20338578522205353,
        0.3395237624645233,
        -0.22528930008411407,
        0.007173255551606417,
        0.22224202752113342,
        0.0032157632522284985,
        -0.0052813137881457806,
        0.000892752199433744,
        0.20374900102615356,
        0.13469074666500092,
        0.31617724895477295,
        0.2123364359140396,
        -0.26130878925323486,
        -0.006110907532274723,
        0.26570582389831543,
        -0.1255757361650467,
        0.1454252302646637,
        0.23597420752048492,
        -0.2959326505661011,
        -0.2068895846605301,
        0.11995122581720352,
        -0.17068156599998474,
        -0.01290445402264595,
        -0.022648857906460762,
        -0.0623767264187336,
        -0.006704226601868868,
        0.022442404180765152,
        0.2883111834526062,
        0.2002631425857544,
        0.03406967595219612,
        0.15403014421463013,
        0.06351210176944733,
        0.20657789707183838,
        0.28834620118141174,
        -0.23065698146820068,
        -0.2615588903427124,
        0.06193913519382477,
        -0.26747360825538635,
        0.18227171897888184,
        -0.22936682403087616,
        -0.03619895875453949,
        -0.008009684272110462,
        0.3489426374435425,
        -0.10684458166360855,
        -0.02353835478425026,
        0.10491850227117538,
        -0.22679616510868073,
        0.14105114340782166,
        -0.10891172289848328,
        0.04521869868040085,
        -0.093620166182518
      ],
      "bias": [
        0.03772217780351639,
        -0.04375584051012993,
        0.1370842009782791,
        0.2312534600496292,
        0.04200486093759537,
        0.0962204858660698,
        0.2201930731534958,
        0.19487003982067108,
        0.15265028178691864,
        -0.21956460177898407,
        0.13149142265319824
      ]
    }
  ],
  "meta": {
    "name": "Last Pack",
    "slug": "last-pack",
    "inputs": 24,
    "outputs": 11,
    "placeholder": true,
    "generated": "2025-10-21T20:44:38.157Z"
  }
}
