{
  "input": 24,
  "normalization": {
    "mean": [
      0.006947462912648916,
      -0.0006116722943261266,
      -0.001020651776343584,
      -0.001092450926080346,
      -0.0032468033023178577,
      0.4951537549495697,
      0.5043392181396484,
      0.4968476891517639,
      0.49784332513809204,
      0.005107587203383446,
      -0.0003499258018564433,
      0.007738139946013689,
      0.009472084231674671,
      0.005030113272368908,
      -0.003212166717275977,
      0.0038613288197666407,
      0.0048906151205301285,
      0.008075989782810211,
      0.0013381927274167538,
      -0.005099858622997999,
      0.5060138702392578,
      0.4963800013065338,
      0.5076652765274048,
      0.500526487827301
    ],
    "std": [
      0.5820063352584839,
      0.5751851797103882,
      0.5778937339782715,
      0.5811824202537537,
      0.5792092084884644,
      0.2897196114063263,
      0.2873866558074951,
      0.2874634563922882,
      0.2916969358921051,
      0.579867422580719,
      0.5774970650672913,
      0.5778088569641113,
      0.5751920342445374,
      0.5730718374252319,
      0.5732851624488831,
      0.5763426423072815,
      0.573599100112915,
      0.578654408454895,
      0.578212559223175,
      0.5743166208267212,
      0.2892081141471863,
      0.2900514304637909,
      0.2892513573169708,
      0.28818827867507935
    ]
  },
  "layers": [
    {
      "activation": "relu",
      "weights": [
        -0.36028730869293213,
        0.23811636865139008,
        0.1853037178516388,
        -0.09254112094640732,
        0.05397731438279152,
        0.042554281651973724,
        0.0557328499853611,
        -0.025879770517349243,
        0.08021849393844604,
        -0.09086491912603378,
        -0.05251447111368179,
        0.02697029709815979,
        0.13536880910396576,
        0.030136380344629288,
        -0.06553538888692856,
        0.19737859070301056,
        0.03193259611725807,
        -0.08391139656305313,
        -0.006175978109240532,
        0.08591081947088242,
        0.0927530974149704,
        0.04631968215107918,
        0.03925516456365585,
        -0.02696613408625126,
        0.0015794282080605626,
        -1.1260271072387695,
        0.003005325561389327,
        0.0038500980008393526,
        0.002240783302113414,
        -0.00003180619751219638,
        0.004737794399261475,
        0.0017808421980589628,
        0.0014819285133853555,
        0.003334502223879099,
        -0.0021792396437376738,
        0.00033362829708494246,
        -0.002231460763141513,
        0.005767312832176685,
        -0.0025659515522420406,
        0.004961676429957151,
        -0.0015865409513935447,
        0.0005802726955153048,
        -0.0006605712114833295,
        -0.0019070166163146496,
        0.005345391109585762,
        -0.0037146070972085,
        0.0022710387129336596,
        -0.0038889211136847734,
        0.8828361630439758,
        -0.002535125007852912,
        -0.004970539826899767,
        0.0006244797841645777,
        0.0009846622124314308,
        0.0015669355634599924,
        0.001568189007230103,
        -0.0007794491830281913,
        -0.003629849525168538,
        -0.0008637256105430424,
        -0.0013575420016422868,
        -0.002381014870479703,
        0.0006647042464464903,
        0.0015254243044182658,
        -0.0016480018384754658,
        -0.00028774290694855154,
        0.0009100690367631614,
        0.0034500493202358484,
        -0.0035304753109812737,
        0.0012567542726173997,
        0.0014012684114277363,
        0.0014924039132893085,
        0.002845387440174818,
        0.002928266068920493,
        -0.42052873969078064,
        0.06230207905173302,
        -0.18191038072109222,
        0.003304473590105772,
        -0.003386940574273467,
        -0.0037042293697595596,
        -0.00307090999558568,
        0.007131451275199652,
        0.0012067921925336123,
        0.012198211625218391,
        0.0018423103028908372,
        -0.009437491185963154,
        -0.010674073360860348,
        0.002992886584252119,
        -0.0016172693576663733,
        -0.010320269502699375,
        0.00025412195827811956,
        0.004392848815768957,
        0.0008898672531358898,
        -0.005227430257946253,
        -0.0013912920840084553,
        -0.009169998578727245,
        -0.007485178764909506,
        -0.001503969426266849,
        -0.6325573325157166,
        -0.7356377840042114,
        0.4166930913925171,
        0.0009906727354973555,
        -0.0012067952193319798,
        -0.0005192868411540985,
        -0.0012061866000294685,
        0.0011735779698938131,
        0.000033765460102586076,
        0.002260748762637377,
        -0.0006847092299722135,
        -0.002712876768782735,
        -0.0028700323309749365,
        0.0012386735761538148,
        0.0010620912071317434,
        -0.003803448984399438,
        -0.0006690656300634146,
        0.0012352395569905639,
        0.0005376571789383888,
        -0.0015622571809217334,
        -0.0017194274114444852,
        -0.0014489305904135108,
        0.0005310258129611611,
        -0.0002074146905215457,
        0.007222023326903582,
        -0.884964108467102,
        -0.006046015303581953,
        0.0006348033202812076,
        0.0012409203918650746,
        -0.0007751263910904527,
        0.0019622354302555323,
        0.0026223089080303907,
        0.005944080650806427,
        0.00474913464859128,
        -0.0017494026105850935,
        -0.006106714718043804,
        -0.0034828248899430037,
        0.004630666691809893,
        -0.005962161812931299,
        0.0013331180671229959,
        0.0026738722808659077,
        -0.001091380720026791,
        0.0014094089856371284,
        0.0009246826521120965,
        0.0023678068537265062,
        -0.006244140211492777,
        -0.003625518409535289,
        -0.0026439304929226637,
        -0.0038924934342503548,
        1.3636728525161743,
        0.0035701729357242584,
        -0.002114543691277504,
        0.0036675818264484406,
        0.0033054465893656015,
        -0.0036001955159008503,
        -0.0005669462843798101,
        -0.004646467976272106,
        -0.004190306179225445,
        0.0011476068757474422,
        0.0025830515660345554,
        0.004502640105783939,
        -0.004263268318027258,
        0.003312296001240611,
        -0.0018795536598190665,
        -0.002015454461798072,
        -0.0007772272801958025,
        -0.002762553747743368,
        0.001237827935256064,
        -0.003007334191352129,
        0.005589491222053766,
        0.005270487163215876,
        0.005080529022961855,
        -0.0023240346927195787,
        0.0030307983979582787,
        0.8075664639472961,
        0.00161843525711447,
        0.0003583238285500556,
        -0.0011817349586635828,
        -0.0006393938092514873,
        0.002556505613029003,
        0.0019003356574103236,
        0.0037607355043292046,
        0.00038276484701782465,
        -0.004530234262347221,
        -0.0014013993786647916,
        0.003752870485186577,
        -0.0006935566198080778,
        -0.0024348804727196693,
        -0.000966086401604116,
        0.00009155424049822614,
        0.0003818415862042457,
        -0.0005632994580082595,
        0.000213693332625553,
        -0.0031447287183254957,
        -0.0029484345577657223,
        -0.000490653736051172,
        0.00012353940110187978,
        -0.0010103355161845684,
        0.9179225564002991,
        0.002800612710416317,
        -0.00199813861399889,
        -0.0009875090327113867,
        0.001612753956578672,
        0.00010825597564689815,
        -0.0023125929292291403,
        -0.005998986307531595,
        0.004775742068886757,
        -0.0018095312407240272,
        0.0027398988604545593,
        -0.00448247417807579,
        -0.0002038855745922774,
        0.0052596936002373695,
        0.0017006418202072382,
        0.0009271581075154245,
        -0.002049385104328394,
        0.004467183258384466,
        -0.001016624504700303,
        -0.003158669453114271,
        -0.0015878950944170356,
        -0.0005160567816346884,
        0.23589491844177246,
        -0.18557938933372498,
        -0.2273012101650238,
        -0.12112914770841599,
        0.021513311192393303,
        -0.03373618423938751,
        0.13964807987213135,
        -0.039897531270980835,
        -0.03433855250477791,
        0.0328933447599411,
        0.06618782132863998,
        0.16312634944915771,
        0.1292734444141388,
        -0.02154221013188362,
        0.005085012875497341,
        0.03380294516682625,
        -0.1349104940891266,
        0.1309043914079666,
        0.07824326306581497,
        -0.18708300590515137,
        -0.004524488467723131,
        -0.12679877877235413,
        -0.12414619326591492,
        0.1322539895772934,
        0.3156282603740692,
        -0.28477615118026733,
        -0.17071358859539032,
        0.0932338684797287,
        -0.07787029445171356,
        -0.0544971264898777,
        -0.05548177659511566,
        0.03132714703679085,
        -0.09357919543981552,
        0.10444134473800659,
        0.04469403997063637,
        -0.02639925107359886,
        -0.1366889476776123,
        -0.014871458522975445,
        0.09033279120922089,
        -0.25087395310401917,
        -0.031187547370791435,
        0.09761171787977219,
        -0.01856318674981594,
        -0.09996938705444336,
        -0.10855983197689056,
        -0.04714518040418625,
        -0.02434178814291954,
        0.04687446355819702,
        0.6500632762908936,
        0.7476611733436584,
        -0.42091435194015503,
        -0.0014784992672502995,
        0.0013424501521512866,
        0.0012865657918155193,
        -0.00024322238459717482,
        0.0012846544850617647,
        0.0014852063031867146,
        -0.0002692492853384465,
        -0.00003620831193984486,
        -0.0006710356683470309,
        0.003190254792571068,
        0.0006279951194301248,
        -0.001820927020162344,
        0.0022130226716399193,
        0.00025097158504649997,
        -0.00135995470918715,
        0.0009670870495028794,
        -0.0005737959872931242,
        0.0006892508827149868,
        0.0010127585846930742,
        0.0016660614637658,
        -0.0006313418853096664,
        0.24059148132801056,
        -0.39766591787338257,
        0.38778191804885864,
        -0.031673431396484375,
        -0.03666217252612114,
        -0.002631344133988023,
        -0.02324814535677433,
        0.02685624547302723,
        -0.016026122495532036,
        0.008431723341345787,
        -0.0010052183642983437,
        0.009476292878389359,
        -0.0012721995590254664,
        -0.016875602304935455,
        -0.024648765102028847,
        -0.024878181517124176,
        0.01299448311328888,
        0.029279734939336777,
        -0.004683445207774639,
        -0.013439466245472431,
        0.0047507924027740955,
        -0.01068893913179636,
        0.026931941509246826,
        0.011415451765060425,
        -0.8578925132751465,
        0.004527050536125898,
        -0.0002815146872308105,
        -0.001599584356881678,
        0.0024388099554926157,
        -0.00029468501452356577,
        -0.0001690150675131008,
        0.0003958319721277803,
        0.002358403755351901,
        0.0008640681044198573,
        0.0023053567856550217,
        -0.002048337133601308,
        0.0001578854426043108,
        0.0012256749905645847,
        0.0004382105835247785,
        0.00039649655809625983,
        -0.0026412152219563723,
        0.0041124033741652966,
        0.0021953340619802475,
        -0.0012030708603560925,
        -0.0006894067046232522,
        -0.0003967118973378092,
        -0.0004913511802442372,
        0.0019429706735536456,
        0.000415789894759655,
        -0.00003101283800788224,
        -1.1338728666305542,
        0.00011588107736315578,
        -0.0018936439882963896,
        -0.0002066680317511782,
        0.0010526726255193353,
        0.0005267725791782141,
        -0.000023962798877619207,
        -0.0008706560474820435,
        -0.00224254815839231,
        0.0018043152522295713,
        0.004947260953485966,
        -0.004813818261027336,
        0.003436034545302391,
        0.001774378470145166,
        0.0018751940224319696,
        0.0013024925719946623,
        0.0018253964371979237,
        -0.0005843097460456192,
        -0.0022799342405050993,
        0.0031606878619641066,
        0.001573242712765932,
        0.0037559529300779104,
        0.11446971446275711,
        0.0730016753077507,
        0.080175019800663,
        0.1848059892654419,
        0.025238925591111183,
        0.0601433701813221,
        -0.030777854844927788,
        -0.06050483509898186,
        -0.03750832378864288,
        -0.04258670657873154,
        -0.0488516166806221,
        -0.19622962176799774,
        -0.1301838904619217,
        0.0024921060539782047,
        0.11121471226215363,
        0.08980170637369156,
        0.18005253374576569,
        0.07869285345077515,
        -0.12361123412847519,
        0.0865781158208847,
        -0.10640914738178253,
        -0.09142596274614334,
        -0.12753047049045563,
        -0.09881482273340225
      ],
      "bias": [
        0.10286112874746323,
        -1.2186522483825684,
        -0.9372107982635498,
        0.9788063168525696,
        -0.1715814471244812,
        0.9596905708312988,
        -1.4829021692276,
        0.8788410425186157,
        -1.0007363557815552,
        -0.0594027079641819,
        -0.0965963751077652,
        0.1712275594472885,
        0.054395224899053574,
        -0.919756293296814,
        -1.237635850906372,
        -0.018988333642482758
      ]
    },
    {
      "activation": "tanh",
      "weights": [
        0.0016030074330046773,
        -0.0006760463584214449,
        0.0001063448071363382,
        -0.17850880324840546,
        0.11550530791282654,
        -0.1055244505405426,
        0.06485868245363235,
        0.6766963005065918,
        1.079796314239502,
        -0.001553817535750568,
        0.00020033621694892645,
        -0.1112431213259697,
        0.0009239423088729382,
        -0.0024195557925850153,
        -1.3722268342971802,
        -0.0019184253178536892,
        0.017796393483877182,
        -0.860873818397522,
        -0.003519391641020775,
        0.3157719075679779,
        -0.22659990191459656,
        -0.4926765561103821,
        1.027635097503662,
        0.1808176040649414,
        -0.005446470808237791,
        0.0005046871956437826,
        -0.016741512343287468,
        0.2229745239019394,
        0.001382728572934866,
        -0.005875765811651945,
        -0.13264372944831848,
        0.002986910054460168,
        0.017796402797102928,
        -0.8608736395835876,
        -0.0035193779040127993,
        0.31577223539352417,
        -0.22660009562969208,
        -0.49267637729644775,
        1.027634859085083,
        0.18081778287887573,
        -0.005446466617286205,
        0.0005046957521699369,
        -0.016741512343287468,
        0.2229747325181961,
        0.00138275814242661,
        -0.005875782575458288,
        -0.13264384865760803,
        0.002986905863508582,
        0.2669265866279602,
        -0.33702072501182556,
        0.05985092371702194,
        -0.15980291366577148,
        -0.11731747537851334,
        -0.14037232100963593,
        -0.05739781633019447,
        0.13909822702407837,
        0.09644627571105957,
        0.35009145736694336,
        0.2549493610858917,
        0.07429129630327225,
        0.12268652021884918,
        0.3320831060409546,
        0.048568323254585266,
        -0.3317373991012573,
        -0.25102469325065613,
        -0.2315400391817093,
        0.2471475899219513,
        0.10918312519788742,
        0.03942693769931793,
        -0.17255978286266327,
        0.11791224777698517,
        0.11986692249774933,
        -0.006582875270396471,
        0.1696184277534485,
        0.006462398450821638,
        0.17801758646965027,
        -0.25831127166748047,
        -0.08403023332357407,
        -0.16952288150787354,
        0.13684985041618347,
        0.01779642514884472,
        -0.8608736395835876,
        -0.0035193676594644785,
        0.31577208638191223,
        -0.22660000622272491,
        -0.49267643690109253,
        1.0276349782943726,
        0.18081767857074738,
        -0.005446458235383034,
        0.0005046991864219308,
        -0.016741514205932617,
        0.22297465801239014,
        0.0013827786315232515,
        -0.0058758012019097805,
        -0.13264383375644684,
        0.0029869151767343283,
        -0.2714587450027466,
        0.2778432369232178,
        0.031647685915231705,
        0.3174937069416046,
        -0.011560036800801754,
        0.17239150404930115,
        0.3105081617832184,
        0.07614459097385406,
        0.15460634231567383,
        0.13498637080192566,
        0.1542048454284668,
        0.18723347783088684,
        0.2003237009048462,
        0.2740721106529236,
        0.0028791073709726334,
        -0.3069346249103546,
        0.18299271166324615,
        0.061256926506757736,
        -0.14932383596897125,
        -0.13172824680805206,
        0.27013811469078064,
        0.21316353976726532,
        0.2043558955192566,
        0.26304352283477783,
        -0.0710952877998352,
        0.13261522352695465,
        -0.10524214804172516,
        0.2564828097820282,
        -0.03684688359498978,
        -0.02127102203667164,
        -0.2893144190311432,
        -0.1735287606716156,
        -0.16104334592819214,
        -0.17412282526493073,
        -0.25859981775283813,
        -0.2844557762145996,
        -0.1263445019721985,
        -0.20263636112213135,
        0.29506751894950867,
        -0.24105890095233917,
        0.22968903183937073,
        0.04213652014732361,
        0.04167225956916809,
        0.11160971224308014,
        -0.08783654123544693,
        0.27079519629478455,
        0.12440217286348343,
        0.28468286991119385,
        0.11819341033697128,
        -0.3020317852497101,
        0.22293561697006226,
        -0.24684828519821167,
        -0.20114164054393768,
        -0.20641081035137177,
        0.2045433521270752,
        0.02349024824798107,
        -0.2338912934064865,
        0.1506875455379486,
        -0.07483906298875809,
        -0.14028429985046387,
        -0.2226622998714447,
        -0.34971487522125244,
        0.32056158781051636,
        -0.02495063841342926,
        -0.031903643161058426,
        -0.002439473755657673,
        1.0849242210388184,
        -0.43099725246429443,
        -0.6824665069580078,
        0.5249561667442322,
        -0.34710532426834106,
        0.26147565245628357,
        0.0014395432081073523,
        0.0005042999400757253,
        0.028527775779366493,
        0.671076238155365,
        0.009535891935229301,
        -1.1008158922195435,
        -0.1885773092508316,
        0.00020162669534329325
      ],
      "bias": [
        -0.2960307002067566,
        -0.03867459297180176,
        -0.03867529332637787,
        0,
        0,
        -0.038675010204315186,
        0,
        0,
        0,
        0,
        -0.41609349846839905
      ]
    }
  ],
  "meta": {
    "name": "Last Pack",
    "slug": "last-pack",
    "inputs": 24,
    "outputs": 11,
    "trackIndex": 7,
    "file": "last-pack.json",
    "trained": "2025-10-22T16:25:28.923Z",
    "training": {
      "feature": "lowMid",
      "featureType": "signed",
      "output": "spawnRate",
      "orientation": "direct",
      "weight": 1,
      "epochs": 400,
      "samples": 4096,
      "learningRate": 0.01,
      "loss": 0.0004812882689293474,
      "correlation": 0.9995462894439697,
      "fitness": 0.9995462894439697,
      "mse": 0.00031780055724084377,
      "combinedFitness": 0.9995326399803162,
      "averageMse": 0.0003200145729351789,
      "correlations": [
        {
          "feature": "lowMid",
          "featureType": "signed",
          "output": "spawnRate",
          "orientation": "direct",
          "weight": 1,
          "correlation": 0.9995462894439697,
          "fitness": 0.9995462894439697,
          "mse": 0.00031780055724084377
        },
        {
          "feature": "bass",
          "featureType": "signed",
          "output": "fieldStrength",
          "orientation": "direct",
          "weight": 0.5,
          "correlation": 0.9995202422142029,
          "fitness": 0.9995202422142029,
          "mse": 0.00032065174309536815
        },
        {
          "feature": "bass",
          "featureType": "signed",
          "output": "cohesion",
          "orientation": "direct",
          "weight": 0.5,
          "correlation": 0.9995202422142029,
          "fitness": 0.9995202422142029,
          "mse": 0.00032065174309536815
        },
        {
          "feature": "sub",
          "featureType": "signed",
          "output": "zoom",
          "orientation": "direct",
          "weight": 0.5,
          "correlation": 0.9995425343513489,
          "fitness": 0.9995425343513489,
          "mse": 0.0003203171363566071
        },
        {
          "feature": "bass",
          "featureType": "signed",
          "output": "glow",
          "orientation": "direct",
          "weight": 0.5,
          "correlation": 0.9995202422142029,
          "fitness": 0.9995202422142029,
          "mse": 0.00032065174309536815
        }
      ]
    }
  }
}
