{
  "input": 23,
  "normalization": {
    "mean": [
      0,
      0,
      0,
      0,
      0,
      0,
      0,
      0,
      0,
      0,
      0,
      0,
      0,
      0,
      0,
      0,
      0,
      0,
      0,
      0,
      0,
      0,
      0
    ],
    "std": [
      1,
      1,
      1,
      1,
      1,
      1,
      1,
      1,
      1,
      1,
      1,
      1,
      1,
      1,
      1,
      1,
      1,
      1,
      1,
      1,
      1,
      1,
      1
    ]
  },
  "layers": [
    {
      "activation": "relu",
      "weights": [
        -0.121051,
        -0.157447,
        0.135381,
        -0.209252,
        0.001321,
        -0.197833,
        -0.180782,
        0.224068,
        0.15393,
        -0.112283,
        -0.026133,
        0.101458,
        0.107382,
        -0.06317,
        -0.19838,
        0.155192,
        0.119718,
        0.185324,
        -0.018888,
        0.207469,
        -0.215045,
        -0.092374,
        -0.085455,
        -0.131321,
        -0.092489,
        0.143607,
        -0.151555,
        -0.158361,
        0.004062,
        -0.167843,
        0.032015,
        -0.035411,
        0.159406,
        -0.203191,
        0.202158,
        -0.249226,
        0.087902,
        0.153736,
        -0.190792,
        -0.192582,
        -0.122976,
        -0.162594,
        0.022458,
        0.141911,
        0.014616,
        0.064243,
        0.179532,
        -0.011991,
        -0.073602,
        0.179581,
        -0.031339,
        -0.090133,
        -0.124712,
        -0.041773,
        -0.242057,
        0.06672,
        0.199103,
        0.053959,
        0.110632,
        0.146019,
        -0.011795,
        -0.081746,
        0.150519,
        0.097835,
        -0.070358,
        0.133574,
        0.066487,
        -0.071652,
        0.169367,
        0.231509,
        0.170275,
        -0.064772,
        0.169075,
        0.191101,
        0.046535,
        -0.107273,
        0.159241,
        -0.062348,
        -0.040764,
        -0.180719,
        -0.085096,
        -0.212666,
        -0.196525,
        0.08546,
        0.205773,
        -0.092085,
        0.01676,
        0.245043,
        -0.102793,
        -0.009093,
        -0.011163,
        0.09707,
        -0.196358,
        -0.044546,
        0.134103,
        0.111646,
        0.021017,
        0.129274,
        -0.084315,
        -0.02266,
        0.089769,
        -0.023046,
        0.235243,
        0.152971,
        -0.035042,
        0.070936,
        0.227555,
        -0.068398,
        -0.104922,
        0.125476,
        0.123949,
        0.149558,
        -0.063872,
        0.038917,
        -0.026348,
        -0.201727,
        -0.047503,
        0.014562,
        0.137102,
        -0.078224,
        0.081229,
        -0.044511,
        0.090301,
        -0.192353,
        -0.238776,
        -0.046415,
        0.204264,
        0.104229,
        0.053953,
        -0.181849,
        -0.211368,
        0.121934,
        0.107228,
        0.214351,
        -0.186499,
        0.201429,
        0.238612,
        0.106853,
        -0.151463,
        0.156547,
        0.24001,
        -0.171051,
        -0.116552,
        -0.075298,
        0.130022,
        0.222476,
        -0.181145,
        0.182645,
        0.20561,
        -0.081144,
        0.041638,
        -0.189642,
        -0.130361,
        -0.043445,
        0.123823,
        0.210916,
        -0.164133,
        0.055286,
        -0.190939,
        0.119102,
        -0.062065,
        -0.007742,
        0.075771,
        0.156622,
        -0.106077,
        0.150791,
        0.190997,
        0.016699,
        0.003036,
        -0.063391,
        -0.205935,
        -0.214115,
        -0.124018,
        -0.117885,
        0.174074,
        0.035887,
        -0.074396,
        -0.116028,
        0.030305,
        -0.056774,
        -0.030678,
        0.144294,
        0.129597,
        -0.180457,
        -0.080032,
        0.010768,
        -0.100233,
        0.060356,
        0.166547,
        0.036008,
        0.123116,
        0.145096,
        -0.12849,
        0.20146,
        0.019104,
        -0.053787,
        0.036096,
        -0.12382,
        0.130244,
        0.23019,
        -0.189706,
        0.205773,
        0.050283,
        -0.141749,
        0.149004,
        -0.248167,
        0.158729,
        -0.1804,
        0.040951,
        -0.172824,
        0.150788,
        -0.145019,
        0.161908,
        0.097188,
        -0.223225,
        0.053395,
        -0.071188,
        0.142604,
        -0.169939,
        -0.07024,
        0.056304,
        -0.195985,
        0.047613,
        0.116352,
        -0.157711,
        -0.246563,
        0.212199,
        -0.074174,
        0.034053,
        -0.136765,
        -0.129684,
        0.168622,
        -0.248489,
        0.067727,
        0.204899,
        0.232592,
        0.069146,
        0.037774,
        0.226879,
        0.057639,
        -0.016795,
        0.113673,
        0.074653,
        -0.236815,
        0.115704,
        0.066661,
        -0.164473,
        -0.188709,
        0.131825,
        -0.115652,
        -0.071808,
        0.21323,
        -0.027761,
        -0.099616,
        0.210297,
        -0.087672,
        0.126943,
        0.213678,
        0.100186,
        0.100893,
        -0.197838,
        -0.032515,
        0.126852,
        -0.145971,
        -0.043124,
        0.183663,
        -0.052817,
        0.08817,
        -0.189458,
        -0.027581,
        -0.005449,
        -0.022882,
        0.048568,
        0.062859,
        0.047809,
        0.083426,
        0.077109,
        0.224649,
        0.134771,
        0.087922,
        -0.196272,
        -0.223897,
        -0.190788,
        0.125183,
        0.045518,
        -0.000996,
        -0.034521,
        -0.14221,
        -0.208792,
        -0.094513,
        -0.020244,
        0.047158,
        0.168853,
        -0.072727,
        0.09205,
        0.003759,
        0.095638,
        0.222588,
        0.067968,
        -0.075444,
        0.211386,
        -0.078936,
        -0.195664,
        -0.24954,
        -0.177691,
        -0.248055,
        0.167731,
        -0.198394,
        0.206584,
        0.125901,
        -0.020011,
        0.073289,
        -0.241697,
        -0.134221,
        0.189735,
        0.200348,
        0.071367,
        -0.093423,
        -0.10597,
        0.222821,
        0.189881,
        -0.090021,
        -0.000836,
        -0.08932,
        -0.123382,
        -0.136246,
        -0.065327,
        0.030468,
        -0.123888,
        -0.138678,
        -0.040352,
        0.061637,
        -0.226062,
        -0.118182,
        0.225386,
        -0.004599,
        0.178754,
        0.015951,
        -0.116546,
        -0.026063,
        0.078653,
        0.207978,
        0.153223,
        0.152709,
        -0.151606,
        0.209103,
        -0.112063,
        -0.206232,
        0.009077,
        0.062617,
        -0.196615,
        0.222812,
        -0.033178,
        0.066084,
        0.158226,
        -0.092173,
        0.082013,
        -0.219105,
        -0.199955,
        0.042129,
        0.045671,
        -0.215504,
        0.116181,
        0.139609,
        0.164518,
        -0.014399,
        0.053418,
        -0.225007
      ],
      "bias": [
        -0.087482,
        -0.020915,
        -0.001769,
        0.090778,
        0.072761,
        -0.083499,
        -0.034768,
        -0.037277,
        -0.013637,
        -0.052155,
        -0.070578,
        0.032318,
        -0.007201,
        0.01578,
        0.091015,
        0.007387
      ]
    },
    {
      "activation": "tanh",
      "weights": [
        0.043962,
        -0.023567,
        -0.153342,
        -0.139775,
        -0.115476,
        0.05238,
        -0.151957,
        -0.126379,
        -0.087396,
        0.147642,
        0.106469,
        0.095186,
        0.170807,
        -0.003084,
        -0.151433,
        0.078076,
        0.06591,
        -0.081697,
        0.125006,
        -0.194024,
        -0.064814,
        0.06313,
        -0.004218,
        0.08922,
        0.033449,
        -0.065075,
        0.014315,
        0.045677,
        -0.177963,
        0.033773,
        -0.05836,
        0.172648,
        0.141007,
        -0.017677,
        0.121916,
        0.016031,
        0.14578,
        -0.010329,
        0.050519,
        -0.056997,
        0.189491,
        -0.190601,
        0.165959,
        -0.175535,
        -0.067714,
        -0.152003,
        0.196878,
        -0.066494,
        -0.141165,
        -0.020076,
        -0.104622,
        -0.133871,
        0.085282,
        0.125564,
        0.087918,
        0.190492,
        0.036911,
        -0.051682,
        0.075052,
        0.030921,
        -0.122242,
        -0.072906,
        -0.088766,
        -0.107067,
        -0.126571,
        0.16043,
        0.195959,
        -0.064476,
        -0.031628,
        0.15851,
        0.107474,
        -0.003023,
        -0.041153,
        0.179323,
        0.110328,
        0.180432,
        -0.057142,
        -0.03479,
        -0.132009,
        0.105475,
        0.028277,
        0.036053,
        -0.008196,
        -0.168014,
        -0.019569,
        -0.004648,
        -0.042493,
        -0.037487,
        -0.009612,
        0.005449,
        -0.179404,
        0.129401,
        -0.154806,
        0.088134,
        -0.13824,
        -0.027056,
        -0.118682,
        0.006897,
        -0.006362,
        0.0168,
        0.002544,
        0.187073,
        0.060167,
        -0.05308,
        -0.056425,
        -0.169881,
        -0.140256,
        -0.099755,
        0.060578,
        0.078292,
        -0.176521,
        0.06942,
        0.029946,
        0.185957,
        0.179764,
        0.029768,
        0.1365,
        -0.046205,
        0.136433,
        0.094785,
        -0.067596,
        0.182149,
        -0.088261,
        -0.0936,
        -0.051974,
        0.199753,
        0.145414,
        -0.033754,
        -0.16399,
        0.024116,
        0.12106,
        -0.085795,
        0.029791,
        0.009783,
        -0.068891,
        -0.139541,
        0.097823,
        0.140742,
        -0.184377,
        -0.022687,
        -0.125245,
        0.023228,
        0.006162,
        0.057032,
        -0.049193,
        -0.064848,
        0.105985,
        0.041945,
        -0.19939,
        0.188441,
        -0.062169,
        -0.16694,
        -0.067265,
        0.160497,
        -0.10948,
        -0.016549,
        0.141186,
        0.051065,
        0.095644,
        0.182654
      ],
      "bias": [
        0.010023,
        0.030183,
        -0.033606,
        0.034584,
        0.040714,
        -0.033172,
        0.031015,
        -0.009632,
        0.001748,
        0.024099
      ]
    }
  ],
  "meta": {
    "name": "Last Pack",
    "slug": "last-pack",
    "inputs": 23,
    "outputs": 10,
    "placeholder": true
  }
}
