{
  "input": 24,
  "normalization": {
    "mean": [
      -0.005601377226412296,
      0.009456096217036247,
      0.01290016807615757,
      0.004000558052212,
      0.0003115695435553789,
      0.5027157068252563,
      0.5021232962608337,
      0.501044750213623,
      0.5018872618675232,
      0.013781815767288208,
      0.012163640931248665,
      -0.00275687244720757,
      0.006203081458806992,
      0.0011637276038527489,
      -0.006803637370467186,
      -0.0118215037509799,
      -0.01270301640033722,
      -0.0011989191407337785,
      -0.004591740667819977,
      0.013184452429413795,
      0.5010085701942444,
      0.49160295724868774,
      0.4977280795574188,
      0.4967493414878845
    ],
    "std": [
      0.5833814740180969,
      0.5794063806533813,
      0.5788257122039795,
      0.577020525932312,
      0.5784399509429932,
      0.2892519533634186,
      0.29003891348838806,
      0.291442334651947,
      0.28881406784057617,
      0.5736395120620728,
      0.5734719038009644,
      0.5820896029472351,
      0.5778557062149048,
      0.5768413543701172,
      0.5738306045532227,
      0.5738009810447693,
      0.5728234052658081,
      0.5749368071556091,
      0.5733405947685242,
      0.5857126712799072,
      0.285966157913208,
      0.2930969297885895,
      0.28881868720054626,
      0.2881435453891754
    ]
  },
  "layers": [
    {
      "activation": "relu",
      "weights": [
        -0.06298898905515671,
        -0.36001303791999817,
        -0.1620604395866394,
        -0.04048605263233185,
        -0.013490916229784489,
        0.09283608943223953,
        -0.022866159677505493,
        -0.0035707757342606783,
        -0.0941639095544815,
        -0.08062423020601273,
        -0.5125174522399902,
        -0.04230765625834465,
        -0.0006245534168556333,
        0.039501991122961044,
        -0.15224696695804596,
        -0.004374590702354908,
        0.07259846478700638,
        -0.04013367369771004,
        -0.02875007502734661,
        0.06297855079174042,
        0.009402426891028881,
        0.002152159111574292,
        -0.003177428850904107,
        -0.019565753638744354,
        0.017483312636613846,
        0.7256069779396057,
        0.12313924729824066,
        0.0035432027652859688,
        -0.009454186074435711,
        -0.013773544691503048,
        0.02697133831679821,
        0.0015734790358692408,
        -0.011655283160507679,
        0.0038765135686844587,
        0.6275922060012817,
        -0.0030256249010562897,
        0.0033197863958775997,
        0.0032013847958296537,
        0.07633534073829651,
        -0.035826604813337326,
        0.011988571844995022,
        0.014133627526462078,
        -0.013264980167150497,
        -0.027838489040732384,
        0.018277456983923912,
        0.005840256344527006,
        -0.022554142400622368,
        -0.008873716928064823,
        0.001271996763534844,
        -0.20753544569015503,
        0.4581572413444519,
        0.014945310540497303,
        0.007971400395035744,
        0.016963135451078415,
        0.014567048288881779,
        -0.005182616878300905,
        -0.0016899392940104008,
        0.012739269062876701,
        0.012721356935799122,
        -0.0003522261686157435,
        -0.0017159603303298354,
        0.005327360704541206,
        -0.003099689492955804,
        0.009368173778057098,
        -0.009183983318507671,
        0.005045513156801462,
        -0.0025803218595683575,
        -0.020691532641649246,
        -0.00521670188754797,
        0.005019946023821831,
        0.008631893433630466,
        0.007775573991239071,
        -0.006013174075633287,
        0.03290953487157822,
        -0.9026013612747192,
        -0.0013305878965184093,
        0.0018677663756534457,
        -0.002160522388294339,
        -0.0038990683387964964,
        -0.000546939205378294,
        -0.0023525413125753403,
        -0.0035099508240818977,
        0.00172778673004359,
        0.0010986286215484142,
        0.0004330480587668717,
        -0.0005571714718826115,
        0.00035831256536766887,
        -0.001796526717953384,
        0.006889578886330128,
        0.003362707095220685,
        -0.000025663719497970305,
        0.004425969906151295,
        0.0014292530249804258,
        -0.001977119594812393,
        -0.006131352391093969,
        -0.004142178222537041,
        0.02800482138991356,
        -0.6437302231788635,
        -0.5730555057525635,
        0.006895158905535936,
        -0.012908156029880047,
        -0.014739377424120903,
        0.03992071747779846,
        -0.0053235306404531,
        -0.016571491956710815,
        0.00851727556437254,
        0.1539822369813919,
        -0.001123699825257063,
        0.005774271674454212,
        0.0026026302948594093,
        0.08157411962747574,
        -0.04933970794081688,
        0.018063796684145927,
        0.019273847341537476,
        -0.019247354939579964,
        -0.04668339714407921,
        0.01914721541106701,
        0.014414314180612564,
        -0.03207901120185852,
        -0.010929143987596035,
        -0.0032521903049200773,
        1.0158623456954956,
        -0.004471964202821255,
        -0.00035953035694547,
        0.0015253343153744936,
        0.0011365792015567422,
        -0.002728791208937764,
        0.0026766809169203043,
        -0.00016971523291431367,
        0.00341490819118917,
        -0.000663787592202425,
        0.0016826303908601403,
        -0.0003484756452962756,
        0.00023674539988860488,
        -0.0030327741988003254,
        -0.00005803049498354085,
        0.000769866572227329,
        -0.0011735936859622598,
        0.0016726399771869183,
        -0.005573037080466747,
        0.0029117020312696695,
        0.0033493286464363337,
        -0.0034595937468111515,
        -0.00037404074100777507,
        -0.00046088785165920854,
        -0.9669522047042847,
        0.008985106833279133,
        -0.0032097185030579567,
        0.0007034707232378423,
        0.004320869222283363,
        -0.0010641650296747684,
        0.005476718302816153,
        0.0058059669099748135,
        0.0026143521536141634,
        0.0030771607998758554,
        -0.0008962069405242801,
        0.00447516655549407,
        0.000687587889842689,
        -0.0005509239272214472,
        0.0009589556721039116,
        -0.0005545667372643948,
        0.0009115670109167695,
        0.004569534212350845,
        0.00471882987767458,
        -0.003782847197726369,
        -0.0024672597646713257,
        -0.0021218524780124426,
        -0.0003937989240512252,
        -0.002825300209224224,
        -0.0006770937470719218,
        0.9088588953018188,
        0.0034459070302546024,
        0.004281607922166586,
        -0.000786792254075408,
        0.005001327022910118,
        -0.00021171555272303522,
        -0.0012453828239813447,
        -0.0011798645136877894,
        0.002656999509781599,
        -0.0005570025532506406,
        0.0023009248543530703,
        -0.0015417495742440224,
        -0.000017002166714519262,
        -0.001677780062891543,
        0.0016936517786234617,
        -0.0027427019085735083,
        0.00264629814773798,
        0.002262558089569211,
        0.004430706147104502,
        0.0004631963965948671,
        -0.002951581496745348,
        -0.00481803435832262,
        -0.01853034272789955,
        -0.7318076491355896,
        -0.12378811836242676,
        -0.003020502394065261,
        0.006937742233276367,
        0.01393837109208107,
        -0.025368837639689445,
        -0.00029402089421637356,
        0.011389974504709244,
        -0.0051506380550563335,
        -0.6331685781478882,
        0.001959766959771514,
        -0.004644482862204313,
        -0.0021066488698124886,
        -0.07766654342412949,
        0.036658454686403275,
        -0.013069546781480312,
        -0.013750363141298294,
        0.009988842532038689,
        0.026595674455165863,
        -0.019161369651556015,
        -0.007834679447114468,
        0.022046580910682678,
        0.01139763742685318,
        -0.001425387803465128,
        0.30433931946754456,
        -0.2680259644985199,
        0.003800870617851615,
        0.003994982689619064,
        0.008171495981514454,
        0.0012967733200639486,
        -0.002048614900559187,
        0.0032903840765357018,
        0.0016106762923300266,
        -0.5490179657936096,
        -0.0006289053708314896,
        -0.0034832663368433714,
        -0.00021006123279221356,
        -0.008353538811206818,
        0.005840345751494169,
        -0.00644052354618907,
        -0.0009941888274624944,
        0.00030024416628293693,
        -0.001599410199560225,
        -0.005666693672537804,
        -0.000047580124373780563,
        0.006545921787619591,
        0.0035767406225204468,
        -0.0003436799452174455,
        -0.007117343135178089,
        -0.0033828679006546736,
        0.00040009288932196796,
        0.00476998882368207,
        -0.0009349329629912972,
        0.001873914385214448,
        0.0016612065955996513,
        0.0009134376887232065,
        0.0044076209887862206,
        -1.1585350036621094,
        0.0019915439188480377,
        0.0010990762384608388,
        -0.005600814241915941,
        0.004733305424451828,
        0.00038131533074192703,
        0.0038882142398506403,
        -0.003011849243193865,
        -0.0011823490494862199,
        0.0005883023841306567,
        -0.0031490738037973642,
        -0.0009138260502368212,
        0.002828077180311084,
        0.002569985343143344,
        -0.0012497279094532132,
        -0.0030458709225058556,
        -0.0011948945466428995,
        0.0037706121802330017,
        -0.004531187005341053,
        0.0009796979138627648,
        0.00011005469423253089,
        -0.000759083079174161,
        0.0012555425055325031,
        -0.001745007000863552,
        1.1727546453475952,
        -0.0011115596862509847,
        0.0013836845755577087,
        0.0013043010840192437,
        0.0004828335077036172,
        0.0002455614448990673,
        0.0010727738263085485,
        -0.0006001285510137677,
        -0.0014554852386936545,
        -0.0014952854253351688,
        -0.0014194016112014651,
        0.00015122519107535481,
        0.0007459002663381398,
        0.0035407161340117455,
        -0.013588378205895424,
        0.06175481900572777,
        -0.4145120680332184,
        0.004560498520731926,
        0.008707641623914242,
        0.014578530564904213,
        -0.012334727682173252,
        -0.0021582527551800013,
        0.010851645842194557,
        0.0035879607312381268,
        0.14021921157836914,
        0.0006065478082746267,
        -0.007635558024048805,
        -0.0007415737491101027,
        -0.290343314409256,
        0.02948719635605812,
        -0.014742279425263405,
        -0.008155668154358864,
        0.009684733115136623,
        0.011283614672720432,
        -0.012515602633357048,
        -0.002627020003274083,
        0.019962375983595848,
        0.011283007450401783,
        -0.012548722326755524,
        0.06381961703300476,
        -0.28145772218704224,
        0.0021403583232313395,
        0.006692629307508469,
        0.017039835453033447,
        -0.010361604392528534,
        -0.0017274493584409356,
        0.004794849082827568,
        0.0009144466021098197,
        0.016301648691296577,
        0.0006746359285898507,
        0.0022134766913950443,
        -0.0003673997416626662,
        0.523440957069397,
        0.027745990082621574,
        -0.008094283752143383,
        -0.004489676095545292,
        0.00664194580167532,
        0.009469169192016125,
        -0.010067430324852467,
        -0.0025014362763613462,
        0.01864444650709629,
        0.006205573212355375,
        -0.0036578092258423567,
        -0.7081350684165955,
        0.04090564697980881,
        -0.03549235686659813,
        0.002966013504192233,
        0.026956701651215553,
        -0.025389406830072403,
        -0.034578293561935425,
        0.007960831746459007,
        0.009830917231738567,
        0.13626965880393982,
        0.009458496235311031,
        0.02934059500694275,
        0.01022205501794815,
        -0.03862326964735985,
        0.039005786180496216,
        -0.002579938620328903,
        -0.015738945454359055,
        0.017128949984908104,
        -0.007610715925693512,
        -0.07595223188400269,
        0.0028444493655115366,
        -0.015527344308793545,
        0.026051104068756104,
        -0.02182164043188095,
        0.5317488312721252,
        0.48439541459083557,
        -0.006532615516334772,
        0.009090797044336796,
        0.013425963930785656,
        -0.034456729888916016,
        0.0016761166043579578,
        0.014583747833967209,
        -0.006471643224358559,
        -0.1307043731212616,
        0.0007113091996870935,
        -0.00456981360912323,
        -0.0032369073014706373,
        -0.07289779931306839,
        0.04122065752744675,
        -0.0141089903190732,
        -0.016254646703600883,
        0.014605439268052578,
        0.03858388215303421,
        -0.018235648050904274,
        -0.009409152902662754,
        0.029584812000393867,
        0.0128628546372056
      ],
      "bias": [
        0.0067394450306892395,
        -0.15884220600128174,
        0.6739205718040466,
        -0.9140568375587463,
        -0.1890634447336197,
        -1.0810414552688599,
        -1.0274417400360107,
        -0.8928502202033997,
        0.156729593873024,
        1.5555545091629028,
        -1.3158893585205078,
        -1.2886502742767334,
        1.2748397588729858,
        1.3542317152023315,
        0.17770834267139435,
        0.14262564480304718
      ]
    },
    {
      "activation": "tanh",
      "weights": [
        -0.0023395768366754055,
        -0.013909970410168171,
        0.3553103804588318,
        -0.9044536352157593,
        -0.30672356486320496,
        -0.019970562309026718,
        0.00442055007442832,
        0.8496310710906982,
        0.015003903768956661,
        -0.20305679738521576,
        0.0008934817160479724,
        -0.0005623103934340179,
        -0.42629706859588623,
        -0.18579788506031036,
        0.010641438886523247,
        0.3571704626083374,
        -0.002498467219993472,
        0.27313727140426636,
        0.02724662981927395,
        -0.008133212104439735,
        0.017974048852920532,
        -0.0023974294308573008,
        -0.0023138548713177443,
        0.0011121779680252075,
        -0.26563069224357605,
        -0.7111128568649292,
        -0.8985599875450134,
        0.9067889451980591,
        0.4197371006011963,
        0.17750808596611023,
        -0.0014292753767222166,
        -0.019418388605117798,
        -0.00248034973628819,
        0.273190975189209,
        0.027492232620716095,
        -0.008213620632886887,
        0.018029436469078064,
        -0.0024450665805488825,
        -0.0023408483248203993,
        0.001118938555009663,
        -0.2656852900981903,
        -0.7110041379928589,
        -0.8985756039619446,
        0.9067914485931396,
        0.4198644161224365,
        0.17757010459899902,
        -0.0014167982153594494,
        -0.019456299021840096,
        0.016300395131111145,
        0.172271728515625,
        0.06861428171396255,
        0.16103261709213257,
        -0.1899179071187973,
        -0.013278113678097725,
        -0.03251796215772629,
        0.17502571642398834,
        -0.3427347242832184,
        0.07849346101284027,
        -0.17297902703285217,
        0.046751584857702255,
        -0.32610905170440674,
        0.3278549909591675,
        -0.3055741786956787,
        -0.15742440521717072,
        -0.30863019824028015,
        0.03227311745285988,
        0.32026660442352295,
        0.06584112346172333,
        0.28956568241119385,
        -0.2792951762676239,
        0.33138203620910645,
        0.023172538727521896,
        0.2579730749130249,
        -0.22048227488994598,
        0.21575352549552917,
        0.16232271492481232,
        0.0934649184346199,
        -0.27980583906173706,
        0.18904973566532135,
        -0.1098375916481018,
        -0.0028328602202236652,
        0.46019187569618225,
        -0.10842572152614594,
        0.03121730498969555,
        -0.2389095276594162,
        0.9288095831871033,
        -0.9075023531913757,
        -0.007680573035031557,
        -0.4498140215873718,
        0.4656641185283661,
        -0.0002911702322307974,
        -0.004687332548201084,
        0.03260456398129463,
        -0.0022661748807877302,
        0.03324253484606743,
        0.2725275158882141,
        -0.0025194031186401844,
        0.2730697989463806,
        0.02694679982960224,
        -0.008035163395106792,
        0.017905322834849358,
        -0.00233844923786819,
        -0.002280787331983447,
        0.0011039956007152796,
        -0.26556360721588135,
        -0.7112469673156738,
        -0.8985439538955688,
        0.9067848920822144,
        0.41958341002464294,
        0.17743372917175293,
        -0.0014456897042691708,
        -0.019370554015040398,
        -0.058250438421964645,
        -0.06777030974626541,
        -0.07700065523386002,
        -0.01665656268596649,
        0.01570354402065277,
        0.131710946559906,
        -0.25791797041893005,
        -0.0066481647081673145,
        0.28187134861946106,
        -0.1194288432598114,
        0.32182711362838745,
        0.3308490812778473,
        0.003914052154868841,
        -0.30616655945777893,
        -0.05562322214245796,
        -0.34775057435035706,
        -0.002856811275705695,
        0.4600978493690491,
        -0.10880406200885773,
        0.03132980316877365,
        -0.23900160193443298,
        0.9289878010749817,
        -0.9073843359947205,
        -0.007688281591981649,
        -0.4497310221195221,
        0.4654892086982727,
        -0.00027613004203885794,
        -0.004680857062339783,
        0.03241319581866264,
        -0.002356888260692358,
        0.03321957588195801,
        0.27259132266044617,
        0.20845139026641846,
        -0.13671688735485077,
        0.13724970817565918,
        -0.212701678276062,
        -0.06650040298700333,
        0.09915374219417572,
        0.06692509353160858,
        0.24062158167362213,
        -0.3011387884616852,
        -0.2534365952014923,
        -0.10646466910839081,
        -0.08214959502220154,
        0.3189661502838135,
        -0.11847379803657532,
        -0.12251583486795425,
        -0.11461874842643738,
        -0.033276475965976715,
        0.0340903103351593,
        -0.029192347079515457,
        -0.0010785107733681798,
        0.03518690541386604,
        -0.0057977777905762196,
        -0.011069484986364841,
        0.010664151981472969,
        -0.0189646165817976,
        -0.0972023755311966,
        0.007727291900664568,
        0.001414138125255704,
        -0.6727692484855652,
        0.9695077538490295,
        -0.005367340985685587,
        -0.05044397711753845
      ],
      "bias": [
        0.8278030753135681,
        0.36816975474357605,
        0.36759239435195923,
        0,
        0,
        -0.6576181054115295,
        0.36887308955192566,
        0,
        -0.6567276120185852,
        0,
        -0.28197532892227173
      ]
    }
  ],
  "meta": {
    "name": "Last Pack",
    "slug": "last-pack",
    "inputs": 24,
    "outputs": 11,
    "trackIndex": 7,
    "file": "last-pack.json",
    "trained": "2025-10-23T06:51:34.644Z",
    "training": {
      "feature": "lowMid",
      "featureType": "signed",
      "output": "spawnRate",
      "orientation": "direct",
      "weight": 1,
      "epochs": 400,
      "samples": 4096,
      "learningRate": 0.01,
      "loss": 0.0014763701474294066,
      "correlation": 0.9994313716888428,
      "fitness": 0.9994313716888428,
      "mse": 0.00041023152880370617,
      "combinedFitness": 0.9989311695098877,
      "averageMse": 0.0007783876499161124,
      "correlations": [
        {
          "feature": "lowMid",
          "featureType": "signed",
          "output": "spawnRate",
          "orientation": "direct",
          "weight": 1,
          "correlation": 0.9994313716888428,
          "fitness": 0.9994313716888428,
          "mse": 0.00041023152880370617
        },
        {
          "feature": "deltaBass",
          "featureType": "signed",
          "output": "fieldStrength",
          "orientation": "direct",
          "weight": 0.5,
          "correlation": 0.9995108842849731,
          "fitness": 0.9995108842849731,
          "mse": 0.0003263409889768809
        },
        {
          "feature": "deltaBass",
          "featureType": "signed",
          "output": "cohesion",
          "orientation": "direct",
          "weight": 0.5,
          "correlation": 0.9995108246803284,
          "fitness": 0.9995108246803284,
          "mse": 0.0003263683174736798
        },
        {
          "feature": "deltaRms",
          "featureType": "signed",
          "output": "zoom",
          "orientation": "direct",
          "weight": 0.5,
          "correlation": 0.9950079917907715,
          "fitness": 0.9950079917907715,
          "mse": 0.003399014938622713
        },
        {
          "feature": "bass",
          "featureType": "signed",
          "output": "glow",
          "orientation": "direct",
          "weight": 0.5,
          "correlation": 0.9995229244232178,
          "fitness": 0.9995229244232178,
          "mse": 0.0003302167751826346
        },
        {
          "feature": "bass",
          "featureType": "signed",
          "output": "sparkleDensity",
          "orientation": "direct",
          "weight": 0.5,
          "correlation": 0.9995229244232178,
          "fitness": 0.9995229244232178,
          "mse": 0.0003302336554042995
        },
        {
          "feature": "deltaBass",
          "featureType": "signed",
          "output": "sizeJitter",
          "orientation": "direct",
          "weight": 0.5,
          "correlation": 0.9995109438896179,
          "fitness": 0.9995109438896179,
          "mse": 0.00032630719942972064
        }
      ]
    }
  }
}
