{
  "input": 24,
  "normalization": {
    "mean": [
      0,
      0,
      0,
      0,
      0,
      0,
      0,
      0,
      0,
      0,
      0,
      0,
      0,
      0,
      0,
      0,
      0,
      0,
      0,
      0,
      0,
      0,
      0,
      0
    ],
    "std": [
      1,
      1,
      1,
      1,
      1,
      1,
      1,
      1,
      1,
      1,
      1,
      1,
      1,
      1,
      1,
      1,
      1,
      1,
      1,
      1,
      1,
      1,
      1,
      1
    ]
  },
  "layers": [
    {
      "activation": "relu",
      "weights": [
        -0.119694,
        0.160016,
        0.03186,
        -0.079694,
        -0.166047,
        -0.080845,
        -0.172152,
        -0.069396,
        -0.065567,
        0.088787,
        0.061907,
        -0.0017,
        0.026397,
        -0.231809,
        0.100763,
        -0.213474,
        0.155757,
        0.238525,
        0.026157,
        -0.188799,
        0.20376,
        -0.122473,
        -0.23964,
        0,
        0.119662,
        -0.181597,
        0.189946,
        -0.053911,
        0.026403,
        -0.161453,
        -0.007251,
        0.088628,
        0.007517,
        0.031,
        -0.080817,
        0.092967,
        -0.019605,
        0.085911,
        0.030741,
        -0.046228,
        -0.179772,
        -0.059221,
        -0.048895,
        -0.018996,
        0.089902,
        0.128378,
        0.061124,
        0,
        0.068994,
        0.084824,
        -0.031069,
        -0.081113,
        0.141781,
        -0.080742,
        0.051826,
        0.193958,
        0.032541,
        0.005729,
        0.077202,
        0.029833,
        0.179905,
        -0.095953,
        -0.247291,
        -0.126318,
        0.148986,
        0.141529,
        0.06575,
        -0.062557,
        0.109926,
        0.230978,
        -0.123464,
        0,
        0.079314,
        0.031772,
        0.23797,
        -0.097758,
        0.019735,
        -0.025499,
        -0.125974,
        -0.212404,
        -0.06911,
        -0.013002,
        0.217223,
        0.082207,
        0.063816,
        0.243807,
        -0.213191,
        0.069937,
        0.202167,
        0.178461,
        -0.176614,
        0.020641,
        -0.143298,
        -0.003793,
        -0.248779,
        0,
        0.059586,
        0.239561,
        0.073942,
        -0.075753,
        -0.025147,
        0.182385,
        -0.119837,
        -0.11768,
        -0.091964,
        -0.212652,
        0.172749,
        -0.03071,
        -0.00143,
        0.225159,
        -0.142602,
        -0.210546,
        0.176963,
        0.219105,
        0.014503,
        0.10395,
        -0.072712,
        -0.120815,
        0.227314,
        0,
        -0.106351,
        -0.035793,
        0.175409,
        -0.030825,
        -0.059875,
        -0.105126,
        -0.035684,
        -0.067347,
        -0.098761,
        0.060999,
        0.107781,
        -0.191619,
        -0.017069,
        -0.118585,
        -0.151836,
        0.146413,
        -0.06625,
        0.140434,
        0.228878,
        0.057918,
        0.213712,
        -0.207676,
        -0.02558,
        0,
        0.140011,
        -0.185969,
        -0.022796,
        -0.131056,
        0.13155,
        -0.170705,
        0.068687,
        -0.202572,
        -0.067304,
        0.008641,
        0.198566,
        0.238502,
        0.246054,
        0.137501,
        -0.171132,
        0.123001,
        0.222215,
        0.226477,
        0.066577,
        0.097299,
        0.117501,
        0.108901,
        0.041358,
        0,
        -0.144506,
        0.096728,
        0.173659,
        -0.208435,
        -0.170498,
        -0.061197,
        0.084822,
        0.228878,
        0.151124,
        0.027967,
        -0.035337,
        -0.123144,
        -0.074854,
        0.138495,
        0.14161,
        0.203731,
        -0.02246,
        0.145658,
        0.189705,
        -0.005245,
        -0.132177,
        -0.079221,
        0.111133,
        0,
        -0.165597,
        0.079642,
        -0.206824,
        0.138371,
        -0.106234,
        -0.071365,
        0.086812,
        -0.24246,
        -0.156587,
        -0.148347,
        -0.135533,
        0.1795,
        -0.162926,
        -0.133618,
        0.137242,
        0.11027,
        0.136418,
        0.11544,
        -0.077793,
        -0.20268,
        0.07227,
        0.034012,
        0.156003,
        0,
        -0.04669,
        0.16256,
        -0.194919,
        0.097218,
        -0.216172,
        -0.167675,
        -0.108684,
        -0.024654,
        -0.0293,
        -0.193928,
        0.05769,
        -0.230867,
        0.087423,
        -0.13218,
        -0.076128,
        0.122137,
        0.048294,
        -0.190872,
        0.210482,
        0.028306,
        -0.18221,
        0.010422,
        -0.031761,
        0,
        0.045388,
        0.231766,
        0.225942,
        0.204098,
        -0.081018,
        -0.092967,
        -0.232392,
        -0.056594,
        0.125053,
        -0.15913,
        -0.091875,
        -0.107827,
        -0.036292,
        -0.072945,
        -0.051356,
        -0.011515,
        -0.037939,
        0.239944,
        0.02128,
        -0.242844,
        -0.031007,
        0.063195,
        -0.17819,
        0,
        0.006655,
        -0.05039,
        -0.235329,
        0.092859,
        0.032383,
        0.112231,
        0.244107,
        -0.197119,
        0.115361,
        0.125703,
        -0.194914,
        0.091262,
        0.230392,
        -0.190141,
        -0.072104,
        0.174845,
        0.002755,
        -0.193063,
        0.044832,
        0.03619,
        0.077499,
        -0.133231,
        0.044498,
        0,
        -0.161112,
        0.190396,
        0.003545,
        -0.143328,
        0.140243,
        -0.145384,
        -0.093021,
        0.094313,
        0.096617,
        0.202191,
        0.115681,
        -0.145757,
        -0.018223,
        0.144321,
        0.085543,
        -0.096907,
        -0.036466,
        0.139594,
        -0.089037,
        0.100064,
        0.209001,
        -0.015823,
        0.081713,
        0,
        0.033066,
        0.013769,
        0.163047,
        -0.216741,
        -0.030203,
        -0.224669,
        -0.073693,
        -0.126642,
        -0.149673,
        -0.24395,
        -0.120321,
        -0.207272,
        0.172751,
        0.205991,
        0.003207,
        -0.207376,
        0.248466,
        0.040934,
        0.137251,
        -0.012891,
        -0.071358,
        -0.104135,
        0.099825,
        0,
        -0.137149,
        0.028451,
        -0.00072,
        0.22435,
        0.004256,
        -0.199399,
        -0.061405,
        0.231874,
        -0.083265,
        -0.065237,
        0.01198,
        -0.023167,
        -0.044064,
        0.18443,
        -0.013061,
        0.230405,
        -0.004258,
        -0.152221,
        0.210932,
        -0.209474,
        0.092857,
        -0.045889,
        0.144368,
        0,
        -0.167371,
        0.030774,
        0.132403,
        0.011267,
        0.040167,
        -0.249034,
        -0.236435,
        -0.112082,
        0.178985,
        -0.195918,
        0.142947,
        0.174827,
        -0.095399,
        0.078984,
        0.004657,
        0.022292,
        0.216461,
        0.192428,
        -0.115732,
        -0.095109,
        0.098227,
        0.047195,
        -0.078543,
        0
      ],
      "bias": [
        0.066086,
        0.003266,
        0.076601,
        -0.06834,
        -0.01114,
        0.003476,
        0.094995,
        -0.047702,
        -0.094389,
        -0.020343,
        0.088635,
        -0.043225,
        -0.051226,
        0.096333,
        -0.034145,
        -0.080492
      ]
    },
    {
      "activation": "tanh",
      "weights": [
        0.114835,
        -0.089237,
        0.171577,
        0.046727,
        0.010158,
        0.053507,
        -0.096912,
        0.179405,
        0.068123,
        0.125986,
        -0.014715,
        0.137541,
        -0.051419,
        -0.173676,
        0.079664,
        0.062135,
        -0.050263,
        0.003616,
        -0.109174,
        -0.099358,
        0.052906,
        -0.022807,
        0.104391,
        0.037365,
        -0.194852,
        -0.05154,
        0.12843,
        0.169555,
        -0.003942,
        0.136567,
        -0.155341,
        0.110461,
        -0.015069,
        -0.030844,
        -0.124346,
        -0.099416,
        -0.165419,
        -0.040563,
        0.174327,
        -0.091611,
        0.108044,
        -0.199163,
        0.041918,
        0.101714,
        -0.115581,
        -0.089514,
        -0.019245,
        0.171133,
        0.05011,
        0.152775,
        -0.11197,
        -0.113476,
        -0.178305,
        -0.025756,
        0.196836,
        -0.031907,
        0.156699,
        -0.118952,
        -0.129276,
        -0.14691,
        -0.191505,
        -0.10975,
        0.058026,
        0.039494,
        -0.118392,
        -0.113808,
        -0.087812,
        -0.012111,
        0.043648,
        0.113199,
        -0.015624,
        -0.137204,
        0.050143,
        0.135854,
        -0.105407,
        0.09471,
        -0.061493,
        -0.101893,
        -0.112438,
        0.044092,
        -0.0526,
        -0.187545,
        -0.020372,
        -0.051444,
        0.117731,
        0.110461,
        0.102919,
        0.034521,
        0.031547,
        0.185841,
        -0.046969,
        -0.025446,
        0.045066,
        -0.038619,
        0.146469,
        -0.028327,
        -0.127898,
        -0.189059,
        -0.005884,
        0.051857,
        0.074126,
        0.067771,
        0.096955,
        -0.154005,
        0.113221,
        0.050424,
        0.070312,
        0.042554,
        -0.075825,
        -0.162522,
        -0.197131,
        -0.007807,
        0.06197,
        0.122354,
        -0.043315,
        0.045575,
        -0.019094,
        -0.020553,
        -0.085513,
        0.105645,
        0.101616,
        0.072846,
        -0.119524,
        -0.024403,
        -0.177774,
        0.138878,
        -0.059102,
        -0.016196,
        0.129901,
        0.073726,
        0.19063,
        0.066949,
        -0.030966,
        0.057383,
        0.132035,
        -0.007395,
        0.022325,
        0.04518,
        0.052327,
        -0.097478,
        0.061003,
        -0.141859,
        -0.014292,
        0.057868,
        0.120431,
        0.003418,
        -0.033485,
        -0.032331,
        -0.142637,
        -0.143946,
        0.179635,
        -0.018291,
        0.145081,
        -0.066675,
        0.114437,
        0.12912,
        -0.13732,
        -0.107095,
        -0.071531,
        -0.116056,
        0,
        0,
        0,
        0,
        0,
        0,
        0,
        0,
        0,
        0,
        0,
        0,
        0,
        0,
        0,
        0
      ],
      "bias": [
        0.033685,
        -0.00347,
        0.031792,
        -0.04028,
        -0.005591,
        0.049378,
        0.041459,
        -0.007876,
        -0.047811,
        -0.049498,
        0
      ]
    }
  ],
  "meta": {
    "name": "Meditation",
    "slug": "meditation",
    "inputs": 24,
    "outputs": 11,
    "placeholder": true
  }
}
