{
  "input": 24,
  "normalization": {
    "mean": [
      0.008097071200609207,
      -0.01271191518753767,
      -0.015040191821753979,
      -0.017143569886684418,
      0.0007620834512636065,
      0.4986453354358673,
      0.5019952654838562,
      0.4895389676094055,
      0.5086475610733032,
      0.007030603941529989,
      0.019160300493240356,
      0.019297035411000252,
      -0.001963030081242323,
      -0.012994902208447456,
      0.0018894508248195052,
      0.007678449619561434,
      -0.010924916714429855,
      -0.010516476817429066,
      0.0012940336018800735,
      -0.002084913197904825,
      0.4995807111263275,
      0.5066618919372559,
      0.4962187111377716,
      0.49615994095802307
    ],
    "std": [
      0.5725310444831848,
      0.581015944480896,
      0.5672407150268555,
      0.578548789024353,
      0.5759639143943787,
      0.2901681065559387,
      0.2873517870903015,
      0.28913652896881104,
      0.28705650568008423,
      0.5819228291511536,
      0.5793641805648804,
      0.5743315815925598,
      0.5804483890533447,
      0.5684110522270203,
      0.5787112712860107,
      0.5798162817955017,
      0.5763413906097412,
      0.579373836517334,
      0.5805903077125549,
      0.580177366733551,
      0.28941819071769714,
      0.28763675689697266,
      0.28610995411872864,
      0.28860872983932495
    ]
  },
  "layers": [
    {
      "activation": "relu",
      "weights": [
        0.03518259897828102,
        0.33179429173469543,
        0.2175453007221222,
        -0.20131038129329681,
        -0.21684545278549194,
        0.07286901772022247,
        0.22470416128635406,
        -0.19820699095726013,
        0.21775002777576447,
        0.2256295382976532,
        0.11325650662183762,
        -0.04326522350311279,
        -0.025787975639104843,
        0.1688663363456726,
        -0.16450536251068115,
        0.1505999118089676,
        0.22194023430347443,
        0.018364418298006058,
        -0.18121741712093353,
        0.019799938425421715,
        -0.1805303990840912,
        -0.1324119120836258,
        0.15461644530296326,
        -0.06791234016418457,
        0.00048386488924734294,
        -0.7964967489242554,
        -0.001285069272853434,
        0.00010193703201366588,
        -0.00009650825086282566,
        0.00028578046476468444,
        -0.0007717192056588829,
        -0.001071013743057847,
        0.0005591909284703434,
        -0.0008884947746992111,
        -0.0012122612679377198,
        -0.00043325312435626984,
        0.00047083565732464194,
        -0.0005632670945487916,
        0.0003032254462596029,
        0.00014015099441166967,
        0.0006574768922291696,
        0.001526326290331781,
        0.0001281302684219554,
        0.0018854797817766666,
        0.0011386334663257003,
        -0.0012716802302747965,
        0.0008021498215384781,
        0.000694982532877475,
        -0.21656882762908936,
        -0.38089311122894287,
        0.06327693164348602,
        -0.2070329487323761,
        -0.09009881317615509,
        -0.0013359979493543506,
        0.17850694060325623,
        -0.23596452176570892,
        0.20714080333709717,
        0.08597052842378616,
        -0.022654371336102486,
        0.14447982609272003,
        0.27924832701683044,
        -0.0929824486374855,
        -0.04352863132953644,
        0.0879250317811966,
        0.24145196378231049,
        0.19887900352478027,
        -0.03228477016091347,
        0.06339319050312042,
        -0.0006382121937349439,
        -0.21533584594726562,
        -0.14873892068862915,
        0.192878857254982,
        -0.0020228882785886526,
        -0.9523504972457886,
        -0.0002440834214212373,
        0.004459011368453503,
        0.001789962174370885,
        0.002226634882390499,
        0.002024266868829727,
        -0.0010333881946280599,
        0.0032838061451911926,
        -0.0008240295574069023,
        0.0028344278689473867,
        -0.0006952297990210354,
        -0.004519352689385414,
        0.0032333035487681627,
        0.002429489977657795,
        -0.003244086867198348,
        -0.0014768079854547977,
        0.0008700103498995304,
        0.0000853412930155173,
        0.0006595739396288991,
        -0.0045263818465173244,
        -0.0006832914659753442,
        0.0006025111651979387,
        -0.0015171368140727282,
        -0.08429383486509323,
        -0.4618910849094391,
        -0.21321284770965576,
        -0.12070829421281815,
        0.06852874904870987,
        -0.07976385205984116,
        -0.08488450944423676,
        -0.08854344487190247,
        0.11966753751039505,
        0.09197457879781723,
        -0.008116189390420914,
        0.06414221227169037,
        -0.09546882659196854,
        0.1163826584815979,
        -0.07717189937829971,
        0.08495694398880005,
        -0.1147269606590271,
        0.22217221558094025,
        -0.027382446452975273,
        0.09130020439624786,
        0.18519535660743713,
        0.04544627293944359,
        -0.026472285389900208,
        -0.019546769559383392,
        -0.16160902380943298,
        -0.28089091181755066,
        0.187606543302536,
        -0.20592743158340454,
        -0.054646268486976624,
        -0.2714513838291168,
        0.10260988026857376,
        -0.28590643405914307,
        -0.18729525804519653,
        0.046078167855739594,
        0.2118690013885498,
        0.08507657051086426,
        0.08372678607702255,
        0.1438130885362625,
        0.19601501524448395,
        -0.09011434018611908,
        -0.17089998722076416,
        -0.10032941401004791,
        -0.014043929055333138,
        0.08306646347045898,
        -0.11711728572845459,
        -0.23371200263500214,
        -0.18553268909454346,
        -0.25163495540618896,
        0.09463784843683243,
        0.5978695750236511,
        -0.006311890669167042,
        0.06771429628133774,
        -0.006390205584466457,
        0.019505714997649193,
        0.07673981785774231,
        0.05594693124294281,
        -0.06105585768818855,
        0.09216275066137314,
        -0.05973972752690315,
        -0.014827682636678219,
        -0.027957472950220108,
        0.18042859435081482,
        -0.15633992850780487,
        -0.017408141866326332,
        -0.0060199289582669735,
        -0.09101607650518417,
        0.13788190484046936,
        -0.12845388054847717,
        -0.17925910651683807,
        -0.030483821406960487,
        -0.06141131743788719,
        0.005125225521624088,
        -0.2518150806427002,
        -0.2222617268562317,
        -0.17125000059604645,
        -0.18774889409542084,
        -0.2051951289176941,
        0.059676337987184525,
        -0.09853921085596085,
        -0.2822049856185913,
        -0.17613758146762848,
        -0.18037129938602448,
        -0.02008431777358055,
        -0.08103937655687332,
        -0.18470269441604614,
        0.24978211522102356,
        0.1383376568555832,
        -0.13374553620815277,
        0.04970414191484451,
        0.201482355594635,
        0.1032659038901329,
        0.2632810175418854,
        0.08700471371412277,
        -0.24860572814941406,
        -0.24004743993282318,
        -0.25591471791267395,
        0.22892841696739197,
        -0.12531335651874542,
        0.05434870347380638,
        0.18889862298965454,
        -0.22363689541816711,
        0.2304859161376953,
        -0.10710898786783218,
        -0.2087867110967636,
        -0.1071646437048912,
        0.07463833689689636,
        0.01745958998799324,
        0.13750697672367096,
        0.2829953730106354,
        -0.12270612269639969,
        0.01793084293603897,
        -0.14432042837142944,
        0.2610759735107422,
        0.009957005269825459,
        -0.1548166126012802,
        0.1390811800956726,
        -0.10049663484096527,
        0.0034763156436383724,
        0.1455370932817459,
        0.08278690278530121,
        -0.015020651742815971,
        -0.027486000210046768,
        -0.05004621669650078,
        -0.014890504069626331,
        -0.08909496665000916,
        -0.28446832299232483,
        0.2538903057575226,
        -0.2767143249511719,
        -0.051242560148239136,
        -0.08325076848268509,
        0.11173766851425171,
        -0.027182968333363533,
        -0.022543342784047127,
        -0.15322424471378326,
        0.05751657858490944,
        -0.05581643804907799,
        -0.11459483951330185,
        0.12064135074615479,
        -0.11041706800460815,
        -0.17191863059997559,
        0.15537723898887634,
        0.11864025890827179,
        0.04337581247091293,
        -0.06416963785886765,
        -0.11394747346639633,
        0.35460567474365234,
        -0.22497433423995972,
        -0.011855271644890308,
        -0.18180641531944275,
        -0.18429283797740936,
        0.006259802728891373,
        -0.1672419160604477,
        -0.013609322719275951,
        0.036033645272254944,
        -0.10315442085266113,
        -0.21257904171943665,
        0.15085582435131073,
        -0.17817279696464539,
        0.14275147020816803,
        0.02760785073041916,
        -0.0809558629989624,
        0.12214067578315735,
        -0.20271076261997223,
        -0.0708853229880333,
        0.127145454287529,
        -0.03706260398030281,
        0.046676766127347946,
        0.16383863985538483,
        0.18615427613258362,
        0.28342345356941223,
        0.11759701371192932,
        -0.02588381990790367,
        -0.029568549245595932,
        -0.07984334975481033,
        -0.05548457056283951,
        0.04771270975470543,
        0.08603136986494064,
        0.15347997844219208,
        -0.07191671431064606,
        -0.10539743304252625,
        0.25342828035354614,
        -0.23864202201366425,
        -0.1955546736717224,
        0.1270960420370102,
        -0.03955774009227753,
        -0.11743054538965225,
        -0.2368871122598648,
        0.1278938204050064,
        -0.23561495542526245,
        -0.12645092606544495,
        -0.10216259956359863,
        -0.2087758481502533,
        0.07415902614593506,
        -0.5460715889930725,
        0.0244480911642313,
        0.01723761484026909,
        -0.012165590189397335,
        0.034737881273031235,
        0.07601122558116913,
        -0.0016075302846729755,
        -0.05812736973166466,
        0.06808941811323166,
        -0.013143390417098999,
        -0.021059168502688408,
        -0.038718290627002716,
        0.16378720104694366,
        -0.12788207828998566,
        0.03578461334109306,
        0.00826819334179163,
        -0.09306637942790985,
        0.11423521488904953,
        -0.08606775850057602,
        -0.1287669986486435,
        -0.03439592197537422,
        -0.050435759127140045,
        -0.017414003610610962,
        -0.23957115411758423,
        -0.2901594042778015,
        -0.23465323448181152,
        -0.2073812335729599,
        -0.22343029081821442,
        0.002448789309710264,
        0.07044623792171478,
        -0.13796178996562958,
        -0.15183688700199127,
        0.03546181693673134,
        -0.20300409197807312,
        0.0027247199323028326,
        0.08254591375589371,
        -0.15243981778621674,
        0.2852073907852173,
        0.14852052927017212,
        -0.18141555786132812,
        -0.021489061415195465,
        -0.16467216610908508,
        -0.06672921776771545,
        0.16805383563041687,
        -0.2161874920129776,
        -0.06296993046998978,
        0.13341458141803741,
        -0.0017227723728865385,
        1.1371771097183228,
        -0.0015147870872169733,
        -0.0006881735753268003,
        -0.002816111082211137,
        0.0012606638483703136,
        0.001188569818623364,
        -0.003935921937227249,
        -0.001037033274769783,
        -0.0017872079042717814,
        0.0021007517352700233,
        0.0029111315961927176,
        -0.001179064274765551,
        0.0018388638272881508,
        -0.00083043152699247,
        -0.0009933680994436145,
        0.0033046044409275055,
        0.0024244270753115416,
        0.0018745905254036188,
        0.0013428733218461275,
        0.002526895608752966,
        0.0004082582308910787,
        0.005324716214090586,
        0.002362600527703762,
        -0.21598386764526367,
        0.17567166686058044,
        -0.1447726935148239,
        0.1282677948474884,
        0.044693704694509506,
        0.23515631258487701,
        -0.05795258283615112,
        -0.2498461902141571,
        0.06596989929676056,
        -0.09890166670084,
        0.19307874143123627,
        -0.2162671685218811,
        0.20066425204277039,
        -0.21739526093006134,
        -0.09591791033744812,
        -0.09814769774675369,
        -0.13401128351688385,
        -0.22274374961853027,
        0.19390709698200226,
        0.22169329226016998,
        0.1745220422744751,
        0.01004121545702219,
        0.04704761877655983,
        0.11936431378126144
      ],
      "bias": [
        -0.013718044385313988,
        0.8969358801841736,
        0.030715901404619217,
        -1.0444116592407227,
        0.025937004014849663,
        0.019061610102653503,
        0.15325339138507843,
        -0.027360256761312485,
        -0.021917330101132393,
        0.008543135598301888,
        0.0021693850867450237,
        -0.0038374667055904865,
        0.05067428573966026,
        -0.013057801872491837,
        -1.2836284637451172,
        -0.009053760208189487
      ]
    },
    {
      "activation": "tanh",
      "weights": [
        -0.2907271087169647,
        0.2993375062942505,
        -0.17276577651500702,
        0.2793579399585724,
        0.2832029163837433,
        -0.24304349720478058,
        -0.062289025634527206,
        0.005493146367371082,
        -0.19282495975494385,
        0.07917337119579315,
        0.10326003283262253,
        -0.224770650267601,
        0.1385766714811325,
        0.1675519347190857,
        -0.017048867419362068,
        0.05546426773071289,
        0.0020720770116895437,
        -0.7959204316139221,
        0.00046742259291931987,
        -1.1584175825119019,
        0.0026996906381100416,
        0.0011294035939499736,
        -0.003274295013397932,
        0.00030381878605112433,
        -0.0027675756718963385,
        0.0012893429957330227,
        0.0019119096687063575,
        -0.00342894671484828,
        -0.000944820698350668,
        -0.0022321788128465414,
        1.5111148357391357,
        0.0005333063309080899,
        -0.31372785568237305,
        0.03585531935095787,
        -0.19671960175037384,
        -0.28398609161376953,
        -0.04593447595834732,
        -0.18322767317295074,
        0.18601854145526886,
        0.29847243428230286,
        -0.2914969325065613,
        0.0909305065870285,
        -0.2734336853027344,
        0.34232592582702637,
        0.2678850293159485,
        0.15351809561252594,
        -0.17431868612766266,
        -0.07224293798208237,
        0.0013583630789071321,
        0.19670753180980682,
        0.187822163105011,
        -0.16579851508140564,
        -0.02495388686656952,
        0.007051059510558844,
        -0.1812060922384262,
        0.14655277132987976,
        -0.3521372973918915,
        -0.20686495304107666,
        0.0752478614449501,
        -0.04481889307498932,
        0.11172863095998764,
        -0.3054196834564209,
        0.19875934720039368,
        -0.1793612390756607,
        0.052586231380701065,
        0.0030494960956275463,
        0.1361154019832611,
        0.08689311891794205,
        0.06619177013635635,
        -0.14796003699302673,
        0.05101078003644943,
        -0.1316053420305252,
        -0.07282624393701553,
        -0.0005835408228449523,
        -0.28993380069732666,
        -0.23974549770355225,
        0.012335601262748241,
        -0.14847500622272491,
        -0.05871396139264107,
        0.10585927218198776,
        0.31236404180526733,
        -0.3290896415710449,
        -0.03409869223833084,
        -0.12185528874397278,
        0.2236345410346985,
        0.2480967789888382,
        0.1369401514530182,
        -0.06224701553583145,
        0.21334263682365417,
        -0.226091668009758,
        0.3481539785861969,
        -0.08077589422464371,
        0.10854855179786682,
        0.25973621010780334,
        -0.0715828686952591,
        0.31088218092918396,
        0.2483530342578888,
        0.16385772824287415,
        -0.27605658769607544,
        0.07248147577047348,
        0.22495360672473907,
        0.10029052942991257,
        -0.09180180728435516,
        -0.21336127817630768,
        0.29734134674072266,
        -0.12427187711000443,
        -0.24205251038074493,
        -0.015342126600444317,
        -0.1196894645690918,
        0.22087307274341583,
        -0.11081099510192871,
        0.04435070976614952,
        -0.09221851825714111,
        0.21322503685951233,
        0.33956378698349,
        0.08192004263401031,
        -0.33217817544937134,
        0.23050594329833984,
        -0.32468777894973755,
        -0.0831182450056076,
        -0.05589877441525459,
        -0.21584655344486237,
        -0.029787437990307808,
        -0.12876425683498383,
        0.2121584564447403,
        0.2555900514125824,
        -0.06108701229095459,
        -0.06860758364200592,
        0.0215961541980505,
        -0.0010152258910238743,
        0.23705917596817017,
        0.02009192295372486,
        0.26288124918937683,
        -0.00158024113625288,
        -0.16618992388248444,
        0.006490930449217558,
        -0.3060745596885681,
        0.2435074895620346,
        -0.04362605884671211,
        -0.019472703337669373,
        -0.0020155073143541813,
        -0.24693533778190613,
        -0.05712961405515671,
        0.033196523785591125,
        0.3529205322265625,
        0.31039750576019287,
        -0.12992849946022034,
        0.07835286855697632,
        0.12729033827781677,
        -0.10374544560909271,
        0.04230485484004021,
        0.15852579474449158,
        -0.22951200604438782,
        -0.03379925340414047,
        0.14041373133659363,
        -0.12739528715610504,
        0.3006661832332611,
        -0.34907251596450806,
        0.32436880469322205,
        0.0475306361913681,
        0.3406616449356079,
        0.2096967250108719,
        -0.05933413654565811,
        -0.32689908146858215,
        -0.26224610209465027,
        -0.24958696961402893,
        -0.3372242748737335,
        0.09258503466844559,
        -0.022364312782883644,
        -0.0003739552339538932,
        0.272248238325119,
        0.24181680381298065,
        0.2400246113538742,
        -0.23370257019996643,
        0.15183278918266296,
        0.2983156740665436
      ],
      "bias": [
        0,
        0.702781081199646,
        0,
        0,
        0,
        0,
        0,
        0,
        0,
        0,
        0
      ]
    }
  ],
  "meta": {
    "name": "Meditation",
    "slug": "meditation",
    "inputs": 24,
    "outputs": 11,
    "trackIndex": 0,
    "file": "meditation.json",
    "trained": "2025-10-22T05:52:07.396Z",
    "training": {
      "feature": "bass",
      "featureType": "signed",
      "output": "fieldStrength",
      "orientation": "direct",
      "epochs": 400,
      "samples": 4096,
      "learningRate": 0.01,
      "loss": 0.00015786071890033782,
      "correlation": 0.9995548129081726,
      "fitness": 0.9995548129081726,
      "mse": 0.00030825656722299755
    }
  }
}
