{
  "input": 24,
  "normalization": {
    "mean": [
      0.0015071795787662268,
      0.014116273261606693,
      -0.002045614179223776,
      0.002704060170799494,
      0.003371718805283308,
      0.500409722328186,
      0.5005112290382385,
      0.5059691667556763,
      0.49657830595970154,
      0.013225188478827477,
      0.0008705791551619768,
      0.0016391575336456299,
      -0.0019690953195095062,
      -0.006653471849858761,
      0.011276012286543846,
      -0.0015211852733045816,
      -0.015410136431455612,
      0.0013446940574795008,
      -0.0014303112402558327,
      0.015895670279860497,
      0.4959900975227356,
      0.5063667893409729,
      0.5120866298675537,
      0.5012044310569763
    ],
    "std": [
      0.5762103199958801,
      0.5725687742233276,
      0.5731161236763,
      0.5765177607536316,
      0.5747665762901306,
      0.285541296005249,
      0.2877020835876465,
      0.2907377779483795,
      0.2882440686225891,
      0.5803514122962952,
      0.5736571550369263,
      0.5743010640144348,
      0.5855106115341187,
      0.5764343738555908,
      0.5827662348747253,
      0.5719463229179382,
      0.5794956088066101,
      0.5748114585876465,
      0.5728525519371033,
      0.5820929408073425,
      0.2895747125148773,
      0.2908867299556732,
      0.28843554854393005,
      0.290298730134964
    ]
  },
  "layers": [
    {
      "activation": "relu",
      "weights": [
        -0.002649327041581273,
        -0.005998525302857161,
        -0.9135474562644958,
        -0.0033986514899879694,
        -0.004261572379618883,
        -0.003681513946503401,
        -0.0007939444622024894,
        0.001092444988898933,
        -0.0000031595357086189324,
        -0.0032778459135442972,
        0.000022922396965441294,
        0.005214859265834093,
        -0.0031704187858849764,
        0.006466332823038101,
        0.0024407044984400272,
        -0.0011506215669214725,
        -0.00174850900657475,
        -0.0010059624910354614,
        -0.002809604862704873,
        0.0016709222691133618,
        0.00211337604559958,
        -0.0030341290403157473,
        0.0011048169108107686,
        -0.003074038540944457,
        -0.03745058551430702,
        0.2835254967212677,
        0.10925960540771484,
        0.1752977967262268,
        0.24104389548301697,
        -0.07274290174245834,
        -0.10466470569372177,
        0.151920348405838,
        -0.10872101783752441,
        0.013485213741660118,
        0.18539829552173615,
        -0.19109642505645752,
        -0.0028045601211488247,
        0.12314795702695847,
        -0.042113158851861954,
        0.25808700919151306,
        -0.0514153316617012,
        -0.01426844485104084,
        0.1153683215379715,
        -0.2476312816143036,
        0.009220056235790253,
        0.07541558891534805,
        0.1378905177116394,
        0.154485821723938,
        0.0010851032566279173,
        0.66898113489151,
        0.7831754684448242,
        -0.001956455409526825,
        -0.0017670044908300042,
        -0.001441007712855935,
        -0.00023929490998852998,
        -0.0004479385388549417,
        0.0002149172651115805,
        -0.000868080067448318,
        -0.0022634512279182673,
        -0.00011945627920795232,
        -0.0007762657478451729,
        -0.000648115761578083,
        -0.0018731718882918358,
        0.0007756128907203674,
        0.0016106927068904042,
        -0.0025486049707978964,
        -0.00015279027866199613,
        0.004476968664675951,
        0.0011913757771253586,
        0.00002300117557751946,
        0.0005311854183673859,
        -0.002285075606778264,
        0.0630103126168251,
        -0.6279716491699219,
        -0.27456945180892944,
        0.02357446774840355,
        0.11509362608194351,
        0.09288185834884644,
        -0.0793844684958458,
        0.07517696917057037,
        -0.10970241576433182,
        -0.04764964058995247,
        0.11407121270895004,
        -0.037040453404188156,
        -0.05320461466908455,
        0.14083324372768402,
        0.06277035176753998,
        -0.04359504580497742,
        -0.12778174877166748,
        0.0874200388789177,
        0.008237836882472038,
        -0.004832238890230656,
        -0.1356818526983261,
        -0.014334647916257381,
        -0.08390054851770401,
        0.031180892139673233,
        -0.0005188885843381286,
        1.0397827625274658,
        0.004470163956284523,
        -0.0044967010617256165,
        -0.0021542212925851345,
        0.00011642422032309696,
        0.001017503789626062,
        -0.0014537812676280737,
        0.004820591304451227,
        -0.002238290151581168,
        0.00020861711527686566,
        -0.00010742185259005055,
        -0.0024812831543385983,
        -0.002878626110032201,
        0.001736429869197309,
        -0.0014574277447536588,
        0.0017743342323228717,
        0.0016716569662094116,
        0.0002839532389771193,
        -0.0020840265788137913,
        0.0029258050490170717,
        0.004383939318358898,
        -0.0020026760175824165,
        0.003543320344761014,
        -0.00009316195792052895,
        -1.0070337057113647,
        0.005252353847026825,
        -0.0010361999738961458,
        0.00044006071402691305,
        0.0007937574409879744,
        0.001675342326052487,
        -0.0014792821602895856,
        -0.0024184049107134342,
        -0.0001449904520995915,
        -0.0007746224291622639,
        -0.004723636899143457,
        -0.00357184954918921,
        0.00046914673293940723,
        0.002426944440230727,
        0.0019781484734266996,
        0.004452230408787727,
        0.0026864612009376287,
        -0.0029202173464000225,
        -0.0001533741015009582,
        -0.0006022021407261491,
        -0.00445408234372735,
        0.003591660177335143,
        -0.00006155557639431208,
        0.19350653886795044,
        -0.5152903199195862,
        -0.18480798602104187,
        0.004028317518532276,
        -0.04111453890800476,
        -0.16948266327381134,
        -0.13062454760074615,
        -0.08223752677440643,
        0.10277263820171356,
        0.040859974920749664,
        -0.15562301874160767,
        -0.07171604782342911,
        0.13409166038036346,
        -0.13063935935497284,
        -0.13182306289672852,
        -0.04735748469829559,
        0.0047258129343390465,
        -0.12563703954219818,
        0.20109669864177704,
        0.09360569715499878,
        0.031584497541189194,
        -0.15684686601161957,
        -0.070390485227108,
        -0.00892466027289629,
        -0.000498542154673487,
        -0.8648935556411743,
        0.6340901255607605,
        0.00033224138314835727,
        -0.0009136445005424321,
        0.0021859067492187023,
        -0.0012462296290323138,
        0.0005771015421487391,
        -0.00029725575586780906,
        -0.0026377353351563215,
        0.0024425871670246124,
        -0.00010915593156823888,
        -0.0021440403070300817,
        0.0015996453585103154,
        0.0003017755807377398,
        0.0004709254135377705,
        -0.00038960608071647584,
        0.0002915652876254171,
        0.0012625927338376641,
        0.0008734462899155915,
        -0.0019317322876304388,
        -0.000037935602449579164,
        -0.0005219658487476408,
        0.00048014894127845764,
        0.0005648992955684662,
        0.8972638845443726,
        -0.6632435917854309,
        0.00034162544761784375,
        0.0010760552249848843,
        0.0004357125435490161,
        0.00017075655341614038,
        0.0015964347403496504,
        0.0019379283767193556,
        0.0013077969197183847,
        -0.001125243492424488,
        0.0006853327504359186,
        0.0002848507137969136,
        -0.0023279411252588034,
        -0.0013868325622752309,
        0.0014606077456846833,
        0.0026943020056933165,
        0.0006196059985086322,
        0.001154151395894587,
        -0.00008235944551415741,
        0.001489938935264945,
        0.002491579856723547,
        0.0010405918583273888,
        0.0004164934216532856,
        -0.0012988005764782429,
        -0.6986335515975952,
        -0.8216896653175354,
        0.0022698661778122187,
        0.0009622711222618818,
        0.0019287312170490623,
        -0.0012785051949322224,
        0.0024076378904283047,
        -0.0016225932631641626,
        -0.0018566446378827095,
        0.00477960892021656,
        -0.0004963762476108968,
        -0.0005222633481025696,
        0.0013587388675659895,
        0.002107883570715785,
        0.0019302543951198459,
        -0.0030013311188668013,
        0.0011984976008534431,
        -0.0008601904264651239,
        -0.0031815345864742994,
        -0.0035870259162038565,
        0.002093683695420623,
        -0.00036560901207849383,
        0.0008295594598166645,
        -0.24649187922477722,
        0.37397128343582153,
        -0.09301391243934631,
        -0.04134874790906906,
        -0.12468555569648743,
        -0.2058432549238205,
        0.21020178496837616,
        -0.13964100182056427,
        -0.1124507486820221,
        0.03024216555058956,
        0.18608315289020538,
        -0.10216067731380463,
        -0.24698442220687866,
        -0.1088857501745224,
        0.12503357231616974,
        -0.09885017573833466,
        -0.11807768791913986,
        -0.10870538651943207,
        0.07731141149997711,
        -0.13539497554302216,
        -0.273008793592453,
        -0.011937186121940613,
        -0.16522230207920074,
        -0.05279962718486786,
        0.001943207927979529,
        0.35785067081451416,
        0.25799283385276794,
        -0.037105437368154526,
        0.14183083176612854,
        0.1508922129869461,
        0.2105029672384262,
        0.18792584538459778,
        0.1358286291360855,
        -0.0062856366857886314,
        0.22318878769874573,
        0.2186843752861023,
        0.07457158714532852,
        -0.06573991477489471,
        0.12864360213279724,
        0.08911033719778061,
        0.05728539079427719,
        0.1900148093700409,
        -0.09890728443861008,
        -0.03962825983762741,
        -0.1607062667608261,
        0.04687517136335373,
        0.005757963750511408,
        -0.04219343513250351,
        0.04445294290781021,
        -0.3936440646648407,
        0.04979686066508293,
        0.1103488877415657,
        0.029816552996635437,
        -0.043815650045871735,
        0.10704224556684494,
        0.15715178847312927,
        0.07372166961431503,
        0.21337991952896118,
        0.15584510564804077,
        -0.02348950132727623,
        0.22102124989032745,
        -0.024532239884138107,
        -0.17847897112369537,
        -0.03933407738804817,
        0.13029399514198303,
        -0.11052348464727402,
        0.058720119297504425,
        -0.09964621067047119,
        -0.048239659518003464,
        0.06247648969292641,
        0.2535915970802307,
        0.10627174377441406,
        -0.007695573847740889,
        -0.001981326611712575,
        0.9085327982902527,
        -0.0017859141808003187,
        -0.002107527805492282,
        -0.002717687049880624,
        -0.0006584182265214622,
        0.002336336998268962,
        0.0018900902941823006,
        0.00006079783634049818,
        -0.004740645177662373,
        -0.0019595613703131676,
        0.004876071587204933,
        0.002848793752491474,
        0.0007855718140490353,
        -0.0014683972112834454,
        0.000058009194617625326,
        -0.001095683895982802,
        0.00302138295955956,
        0.0010573990875855088,
        0.0004758849972859025,
        -0.003149281954392791,
        -0.0036416531074792147,
        -0.0031696828082203865,
        -0.1893903911113739,
        0.3126804530620575,
        -0.4091751277446747,
        0.14268873631954193,
        -0.16588374972343445,
        0.1168326810002327,
        -0.03368664160370827,
        -0.003147401614114642,
        0.013516168110072613,
        0.0028825129847973585,
        0.12402527779340744,
        -0.062036190181970596,
        -0.07255670428276062,
        0.12653982639312744,
        0.08671464771032333,
        -0.015193662606179714,
        -0.05322255194187164,
        -0.028862185776233673,
        -0.027563614770770073,
        -0.22086194157600403,
        -0.014942904934287071,
        -0.06529153138399124,
        0.06871818751096725,
        -0.050858691334724426,
        -0.04391935095191002,
        -0.587191641330719,
        -0.1725803017616272,
        -0.181954488158226,
        0.1155116856098175,
        -0.1522078514099121,
        0.21946458518505096,
        0.02229035273194313,
        -0.06548770517110825,
        0.1595456898212433,
        -0.1750023066997528,
        0.042512472718954086,
        0.019933853298425674,
        -0.028203345835208893,
        0.13475199043750763,
        -0.07237070053815842,
        -0.07721816003322601,
        -0.11550820618867874,
        0.02191651426255703,
        0.001374615472741425,
        -0.14181162416934967,
        -0.11614098399877548,
        0.10427632927894592,
        -0.06279757618904114
      ],
      "bias": [
        -1.0098401308059692,
        -0.009407510049641132,
        -0.16266390681266785,
        0.23565632104873657,
        -1.1385939121246338,
        -1.1156717538833618,
        0.026957295835018158,
        -0.06555190682411194,
        0.0651119127869606,
        0.17255128920078278,
        -0.045690491795539856,
        0.0019515544408932328,
        0.09915231913328171,
        -1.000562071800232,
        -0.023323699831962585,
        0.12374800443649292
      ]
    },
    {
      "activation": "tanh",
      "weights": [
        -0.06326771527528763,
        -0.10378255695104599,
        -0.23499809205532074,
        0.14154493808746338,
        -0.34467148780822754,
        0.3007570803165436,
        0.05529653653502464,
        0.26615840196609497,
        -0.2790534794330597,
        -0.34449949860572815,
        0.2887715697288513,
        -0.160765141248703,
        0.15501391887664795,
        0.3459893763065338,
        0.20304004848003387,
        0.33856797218322754,
        -1.14472496509552,
        0.002510544378310442,
        0.4854789972305298,
        0.0031568934209644794,
        -0.000032517418731004,
        -0.006931327283382416,
        -0.0033897082321345806,
        0.3786648213863373,
        -0.3642053008079529,
        -0.4642055332660675,
        -0.0024874359369277954,
        0.004169446416199207,
        0.0003127931850031018,
        1.0990358591079712,
        0.00197180756367743,
        -0.00031231719185598195,
        0.03949475288391113,
        -0.3046944737434387,
        0.19874307513237,
        0.30655890703201294,
        0.3057306110858917,
        -0.006578154396265745,
        0.25085774064064026,
        -0.1457727998495102,
        -0.2360372096300125,
        -0.06250503659248352,
        -0.3124663531780243,
        -0.01694091595709324,
        0.13940447568893433,
        -0.12475740164518356,
        0.21760132908821106,
        -0.3494706451892853,
        0.14418989419937134,
        -0.22221161425113678,
        -0.10426609963178635,
        0.23590995371341705,
        -0.11709558963775635,
        0.04058927297592163,
        -0.10821553319692612,
        0.002572840778157115,
        -0.34933483600616455,
        0.33553895354270935,
        0.019710185006260872,
        0.0011901421239599586,
        0.11828451603651047,
        -0.036359213292598724,
        -0.1161627396941185,
        -0.1316843330860138,
        -0.2629348039627075,
        -0.21210633218288422,
        -0.14659859240055084,
        -0.2765270471572876,
        0.31242597103118896,
        0.20777453482151031,
        0.2417285293340683,
        0.31217142939567566,
        0.1481672078371048,
        0.03136271983385086,
        0.3147674798965454,
        0.20848053693771362,
        -0.2357012778520584,
        0.27741655707359314,
        0.042109277099370956,
        0.348556250333786,
        0.052927833050489426,
        0.25796979665756226,
        0.18208076059818268,
        0.169319286942482,
        0.21144236624240875,
        -0.34016498923301697,
        -0.11983026564121246,
        -0.3058529198169708,
        0.31144580245018005,
        -0.22862374782562256,
        -0.15946820378303528,
        0.2602895498275757,
        0.18515796959400177,
        0.05208832770586014,
        -0.033867087215185165,
        -0.3279896378517151,
        -0.23019467294216156,
        -0.1682642698287964,
        0.3496509790420532,
        0.2877562940120697,
        0.2921734154224396,
        -0.21344342827796936,
        -0.1370990127325058,
        -0.15486504137516022,
        -0.06730140000581741,
        0.26252952218055725,
        0.010068396106362343,
        0.304164856672287,
        0.2223588228225708,
        -0.2054593861103058,
        -0.19639623165130615,
        -0.3084185719490051,
        -0.003236791817471385,
        0.002962876111268997,
        0.3566082715988159,
        0.008467545732855797,
        1.0089529752731323,
        -0.9391277432441711,
        -0.0023839622735977173,
        -0.4402018189430237,
        0.4262831211090088,
        -0.34182193875312805,
        0.0033396310172975063,
        0.0028454242274165154,
        -0.001122694811783731,
        -0.00407952256500721,
        0.0013298735721036792,
        -0.001353047788143158,
        -0.191452756524086,
        -0.01825321838259697,
        0.16007289290428162,
        -0.3406074047088623,
        0.15167741477489471,
        -0.17574486136436462,
        -0.07609102874994278,
        -0.2169106900691986,
        -0.28127026557922363,
        -0.13930515944957733,
        0.17654766142368317,
        0.07601794600486755,
        -0.073194220662117,
        -0.3132938742637634,
        0.09897249937057495,
        -0.29396164417266846,
        0.19953899085521698,
        -0.10586424171924591,
        -0.2197740077972412,
        -0.17913992702960968,
        -0.3292418122291565,
        0.2616199851036072,
        0.19350849092006683,
        0.20593133568763733,
        0.2792898714542389,
        0.21284815669059753,
        -0.18880127370357513,
        -0.291145384311676,
        0.25244900584220886,
        0.2770727276802063,
        -0.12017015367746353,
        0.09870826452970505,
        0.0032367813400924206,
        -0.002962880302220583,
        -0.3566082715988159,
        -0.008467529900372028,
        -1.0089530944824219,
        0.9391278028488159,
        0.0023839641362428665,
        0.4402017891407013,
        -0.4262831211090088,
        0.34182193875312805,
        -0.0033396335784345865,
        -0.0028454239945858717,
        0.0011227030772715807,
        0.004079557955265045,
        -0.001329887192696333,
        0.0013530503492802382
      ],
      "bias": [
        0,
        0.09922918677330017,
        0,
        0,
        0,
        0,
        0,
        0.042087115347385406,
        0,
        0,
        -0.042087115347385406
      ]
    }
  ],
  "meta": {
    "name": "System.js",
    "slug": "system-js",
    "inputs": 24,
    "outputs": 11,
    "trackIndex": 3,
    "file": "system-js.json",
    "trained": "2025-10-22T15:10:38.874Z",
    "training": {
      "feature": "lowMid",
      "featureType": "signed",
      "output": "fieldStrength",
      "orientation": "direct",
      "weight": 1,
      "epochs": 400,
      "samples": 4096,
      "learningRate": 0.01,
      "loss": 0.00031262956326827407,
      "correlation": 0.9995386600494385,
      "fitness": 0.9995386600494385,
      "mse": 0.0003080034803133458,
      "combinedFitness": 0.999547004699707,
      "averageMse": 0.0003029486397281289,
      "correlations": [
        {
          "feature": "lowMid",
          "featureType": "signed",
          "output": "fieldStrength",
          "orientation": "direct",
          "weight": 1,
          "correlation": 0.9995386600494385,
          "fitness": 0.9995386600494385,
          "mse": 0.0003080034803133458
        },
        {
          "feature": "bass",
          "featureType": "signed",
          "output": "hueShift",
          "orientation": "direct",
          "weight": 0.5,
          "correlation": 0.9995554089546204,
          "fitness": 0.9995554089546204,
          "mse": 0.0003004212339874357
        },
        {
          "feature": "bass",
          "featureType": "signed",
          "output": "zoom",
          "orientation": "inverse",
          "weight": 0.5,
          "correlation": -0.9995554089546204,
          "fitness": 0.9995554089546204,
          "mse": 0.00030042120488360524
        }
      ]
    }
  }
}
