{
  "input": 24,
  "normalization": {
    "mean": [
      0,
      0,
      0,
      0,
      0,
      0,
      0,
      0,
      0,
      0,
      0,
      0,
      0,
      0,
      0,
      0,
      0,
      0,
      0,
      0,
      0,
      0,
      0,
      0
    ],
    "std": [
      1,
      1,
      1,
      1,
      1,
      1,
      1,
      1,
      1,
      1,
      1,
      1,
      1,
      1,
      1,
      1,
      1,
      1,
      1,
      1,
      1,
      1,
      1,
      1
    ]
  },
  "layers": [
    {
      "activation": "relu",
      "weights": [
        0.308782160282135,
        0.249300017952919,
        0.190055251121521,
        0.09480930864810944,
        0.05476193130016327,
        -0.2867516279220581,
        0.16360314190387726,
        -0.12394517660140991,
        -0.34701862931251526,
        0.11455068737268448,
        0.29290542006492615,
        0.3462662398815155,
        -0.06774191558361053,
        0.15468630194664001,
        -0.1241089329123497,
        -0.30862030386924744,
        -0.03905653581023216,
        0.18329398334026337,
        0.30889827013015747,
        -0.2776634693145752,
        0.20376168191432953,
        -0.26250460743904114,
        0.33739808201789856,
        0.10349312424659729,
        0.0314304456114769,
        -0.24337489902973175,
        0.10299117863178253,
        0.3023802936077118,
        -0.0925835520029068,
        -0.1863977462053299,
        -0.2328662872314453,
        0.27168765664100647,
        -0.02255425974726677,
        -0.0845893919467926,
        -0.29255110025405884,
        0.26643872261047363,
        -0.22557827830314636,
        0.09037276357412338,
        0.2585103511810303,
        0.15411598980426788,
        -0.242865189909935,
        -0.08478331565856934,
        -0.21639977395534515,
        -0.14784757792949677,
        -0.167863130569458,
        -0.2784343659877777,
        -0.24172553420066833,
        -0.2473934143781662,
        0.09012828767299652,
        0.03181757032871246,
        -0.1574602574110031,
        0.006181325763463974,
        0.3208252787590027,
        0.16799397766590118,
        0.0596759207546711,
        -0.12074404209852219,
        -0.01112285628914833,
        0.056774307042360306,
        -0.30099061131477356,
        -0.015515041537582874,
        0.28982892632484436,
        0.012262972071766853,
        0.07061325758695602,
        0.29200583696365356,
        -0.0702446773648262,
        0.2936253249645233,
        -0.16389328241348267,
        0.10710467398166656,
        -0.05652027577161789,
        0.040230415761470795,
        -0.1984662562608719,
        0.24679698050022125,
        0.13018716871738434,
        -0.30268964171409607,
        0.3165203630924225,
        -0.3024669587612152,
        0.07496453821659088,
        -0.3309502899646759,
        0.031767841428518295,
        -0.26793724298477173,
        0.2705266773700714,
        0.0311617162078619,
        0.21894624829292297,
        0.12865355610847473,
        0.09038732200860977,
        0.1270347535610199,
        -0.3184051513671875,
        -0.2706091105937958,
        0.022605041041970253,
        0.005684884265065193,
        -0.1564696729183197,
        0.14623786509037018,
        -0.29746076464653015,
        -0.08033446967601776,
        0.29126882553100586,
        -0.08071629703044891,
        -0.3204939365386963,
        -0.0950847715139389,
        -0.302713006734848,
        0.06824269890785217,
        0.09727627038955688,
        -0.2554667890071869,
        -0.04894363135099411,
        -0.15102331340312958,
        -0.2060949206352234,
        -0.06673941761255264,
        -0.15795178711414337,
        -0.2898639142513275,
        -0.27971339225769043,
        0.11214622855186462,
        0.3161303400993347,
        0.2267215996980667,
        0.2930508255958557,
        -0.22563007473945618,
        0.16177093982696533,
        0.16918019950389862,
        -0.2776510417461395,
        0.09974026679992676,
        0.16979043185710907,
        0.07091838866472244,
        0.19744668900966644,
        -0.03382277488708496,
        -0.2557244300842285,
        0.22506844997406006,
        0.04027758166193962,
        0.16573067009449005,
        0.07793458551168442,
        -0.2531284689903259,
        0.2633758783340454,
        0.22694110870361328,
        0.07617469877004623,
        0.22453247010707855,
        0.09645280241966248,
        0.14521674811840057,
        0.017794013023376465,
        -0.1801295429468155,
        0.32022538781166077,
        -0.19978578388690948,
        -0.17833426594734192,
        0.188324972987175,
        0.1274048089981079,
        -0.11874251812696457,
        0.08522286266088486,
        0.10290084034204483,
        -0.024722253903746605,
        0.07030478864908218,
        -0.28427594900131226,
        0.23896285891532898,
        -0.1874805986881256,
        0.31282368302345276,
        0.3074917793273926,
        0.24627891182899475,
        -0.2413867712020874,
        -0.004672794137150049,
        0.34850218892097473,
        0.3099323511123657,
        0.08639955520629883,
        0.2662655711174011,
        -0.0708535835146904,
        0.2876422107219696,
        0.28888770937919617,
        -0.15943102538585663,
        0.2125699818134308,
        0.25123265385627747,
        0.04982703551650047,
        -0.037483565509319305,
        -0.11723067611455917,
        -0.2467796802520752,
        -0.27570605278015137,
        -0.10339327156543732,
        0.05979032441973686,
        -0.27716198563575745,
        0.2146099954843521,
        0.007811288349330425,
        0.17146645486354828,
        -0.05264478549361229,
        -0.1658070683479309,
        0.12014439702033997,
        -0.18130114674568176,
        0.03992832452058792,
        -0.16298295557498932,
        0.002887190319597721,
        0.16556774079799652,
        -0.08472437411546707,
        -0.04706176742911339,
        0.20873188972473145,
        0.2232334464788437,
        -0.1252710372209549,
        -0.11276636272668839,
        -0.24868391454219818,
        -0.345559686422348,
        -0.33872202038764954,
        0.019565492868423462,
        -0.09548450261354446,
        0.08655724674463272,
        -0.18709640204906464,
        -0.2881473898887634,
        -0.0725976824760437,
        -0.12332791090011597,
        -0.02064347080886364,
        0.23023615777492523,
        0.21365578472614288,
        0.13302579522132874,
        0.002241038717329502,
        0.33777424693107605,
        -0.03748191148042679,
        0.19101399183273315,
        -0.2990422546863556,
        0.16326753795146942,
        0.022072695195674896,
        -0.3405021131038666,
        -0.23109176754951477,
        -0.29184678196907043,
        -0.276043176651001,
        0.07800483703613281,
        0.22670289874076843,
        0.12412182241678238,
        0.011214624159038067,
        0.12058433145284653,
        0.21692651510238647,
        0.2619912028312683,
        -0.07679878175258636,
        -0.3373473584651947,
        -0.061531443148851395,
        -0.19633321464061737,
        -0.2001689374446869,
        -0.012180146761238575,
        -0.017479438334703445,
        -0.029684051871299744,
        -0.1735437512397766,
        0.06876489520072937,
        0.23146933317184448,
        -0.2536671459674835,
        -0.23317840695381165,
        -0.3397265672683716,
        -0.2353680431842804,
        -0.26418083906173706,
        0.24470803141593933,
        0.24835748970508575,
        0.266496479511261,
        0.19092217087745667,
        0.03960201516747475,
        -0.24010609090328217,
        -0.1043725460767746,
        -0.31416159868240356,
        -0.19096027314662933,
        0.21882759034633636,
        -0.2076045572757721,
        0.33699461817741394,
        -0.3021664023399353,
        0.08094339817762375,
        -0.1658305823802948,
        0.2162727266550064,
        0.28237366676330566,
        0.16971170902252197,
        -0.317279189825058,
        0.1327229142189026,
        0.031624987721443176,
        -0.15817773342132568,
        0.247977152466774,
        -0.2628791332244873,
        0.23790907859802246,
        0.33713531494140625,
        -0.042066603899002075,
        -0.013267414644360542,
        0.24067755043506622,
        -0.28974515199661255,
        0.02813776582479477,
        0.24583658576011658,
        -0.2997775375843048,
        0.04064572975039482,
        -0.3464900255203247,
        -0.2699680030345917,
        0.21346014738082886,
        0.23016265034675598,
        0.32916006445884705,
        0.22484050691127777,
        -0.06634227931499481,
        0.07113531976938248,
        -0.2019352912902832,
        -0.12014886736869812,
        0.2241179198026657,
        0.09902589023113251,
        -0.11467409133911133,
        -0.20937755703926086,
        0.18734663724899292,
        -0.2692890465259552,
        -0.23389707505702972,
        0.3190809190273285,
        0.34295329451560974,
        -0.31138497591018677,
        -0.1782563477754593,
        0.2003808319568634,
        0.1037900373339653,
        0.033669985830783844,
        0.2630665898323059,
        0.00837526936084032,
        -0.03772073611617088,
        0.040919117629528046,
        -0.27136269211769104,
        -0.1406208872795105,
        -0.048939768224954605,
        0.06939584016799927,
        0.23223654925823212,
        -0.2867617905139923,
        -0.25194627046585083,
        -0.34098392724990845,
        -0.19502556324005127,
        0.2677423357963562,
        0.06105649843811989,
        -0.16606628894805908,
        0.33976495265960693,
        0.12088377773761749,
        0.25858432054519653,
        0.010413451120257378,
        0.34709593653678894,
        -0.163595512509346,
        0.025630192831158638,
        -0.23201583325862885,
        0.23925259709358215,
        -0.24320392310619354,
        -0.10407926142215729,
        -0.09999768435955048,
        0.19500744342803955,
        0.30628257989883423,
        -0.1967315524816513,
        -0.17051871120929718,
        0.05414584279060364,
        0.1840781569480896,
        0.10934854298830032,
        -0.15751436352729797,
        0.08777080476284027,
        0.15074363350868225,
        -0.09558218717575073,
        0.31525322794914246,
        0.09137000143527985,
        -0.19562660157680511,
        0.30717912316322327,
        0.2576572597026825,
        0.17125347256660461,
        0.04584366828203201,
        -0.2533487379550934,
        0.19388924539089203,
        -0.25396785140037537,
        0.23154670000076294,
        0.05243581160902977,
        0.11752179265022278,
        -0.20392614603042603,
        -0.10325321555137634,
        0.07230213284492493,
        0.34229883551597595,
        0.15729288756847382,
        0.08865553885698318,
        -0.23885048925876617,
        0.25147315859794617,
        0.3008027970790863,
        0.1725645810365677,
        0.24279531836509705,
        -0.022776968777179718,
        -0.06526519358158112,
        0.019041206687688828,
        0.266471803188324,
        -0.30456259846687317,
        0.32943302392959595,
        0.24821221828460693,
        -0.12668126821517944,
        -0.10413908213376999,
        0.014075134880840778,
        0.2968885004520416,
        -0.11811800301074982,
        -0.1128397062420845,
        0.02492501586675644,
        0.3014153838157654,
        -0.22168228030204773,
        0.034742724150419235,
        0.34103721380233765,
        -0.22187446057796478,
        -0.22768770158290863,
        0.30945059657096863,
        0.16339029371738434,
        0.04495345428586006,
        0.028206389397382736,
        -0.15542566776275635,
        -0.305217444896698
      ],
      "bias": [
        -0.02637254260480404,
        0.09471147507429123,
        -0.040322382003068924,
        -0.23871161043643951,
        -0.009562010876834393,
        -0.009675263427197933,
        0.2227846384048462,
        -0.08144397288560867,
        0.10583073645830154,
        0.03953006491065025,
        0.12732326984405518,
        -0.23129425942897797,
        0.015190977603197098,
        -0.21521076560020447,
        -0.0018776708748191595,
        -0.2058674395084381
      ]
    },
    {
      "activation": "tanh",
      "weights": [
        0.21571242809295654,
        -0.17770901322364807,
        0.16467176377773285,
        0.2967955470085144,
        -0.0822974294424057,
        0.04970266669988632,
        -0.09831435978412628,
        -0.1190718486905098,
        0.12867438793182373,
        -0.047855935990810394,
        0.1983383148908615,
        0.004726506303995848,
        0.3063529431819916,
        -0.12538769841194153,
        0.2228405922651291,
        0.2891247272491455,
        0.14930082857608795,
        -0.18662698566913605,
        0.07057413458824158,
        -0.18799157440662384,
        -0.1285766363143921,
        0.21085894107818604,
        -0.347342848777771,
        0.29776257276535034,
        -0.28118476271629333,
        0.00009583497740095481,
        -0.12914198637008667,
        -0.003992858342826366,
        0.2210223376750946,
        0.2599981427192688,
        0.06561078131198883,
        -0.18418675661087036,
        -0.017554322257637978,
        0.24067695438861847,
        0.2944852411746979,
        -0.2519511878490448,
        -0.28147825598716736,
        -0.29297348856925964,
        0.12260207533836365,
        0.042314738035202026,
        0.2370242029428482,
        0.008266866207122803,
        0.20309381186962128,
        -0.1517850160598755,
        -0.0986088290810585,
        -0.0013079886557534337,
        0.06749918311834335,
        0.02056642435491085,
        -0.24520719051361084,
        0.3422234058380127,
        -0.2629227638244629,
        -0.0021121464669704437,
        -0.1605994552373886,
        0.15083268284797668,
        -0.109137624502182,
        -0.13708427548408508,
        -0.23049907386302948,
        0.20628155767917633,
        0.18232978880405426,
        -0.19027553498744965,
        0.039045993238687515,
        -0.19344063103199005,
        0.21141968667507172,
        -0.16398851573467255,
        -0.29441139101982117,
        -0.24604947865009308,
        0.09618274122476578,
        0.1368066370487213,
        -0.08673284202814102,
        -0.1503220647573471,
        -0.1866416186094284,
        0.19495002925395966,
        0.08742442727088928,
        -0.017173362895846367,
        0.13522817194461823,
        -0.20776484906673431,
        -0.11718302220106125,
        0.2577778100967407,
        0.12008628994226456,
        -0.06941887736320496,
        -0.14160577952861786,
        -0.03984450548887253,
        -0.038937196135520935,
        -0.02212955616414547,
        0.19137051701545715,
        0.07693184912204742,
        0.0615215040743351,
        -0.20542766153812408,
        -0.07568090409040451,
        -0.1835760921239853,
        -0.3166917860507965,
        0.145138218998909,
        -0.2500482201576233,
        0.0016807849751785398,
        0.10198147594928741,
        -0.20984375476837158,
        -0.027931807562708855,
        -0.0020667840726673603,
        -0.025039751082658768,
        -0.16556484997272491,
        -0.003576909890398383,
        -0.002915765857324004,
        -0.08288545906543732,
        0.032010793685913086,
        0.2335440069437027,
        -0.2642943263053894,
        -0.10675214231014252,
        -0.04510173574090004,
        0.023899391293525696,
        -0.0791640654206276,
        -0.24308744072914124,
        0.18392089009284973,
        -0.3104575574398041,
        0.20130467414855957,
        0.0902397483587265,
        -0.34007975459098816,
        -0.3000696301460266,
        -0.23731833696365356,
        0.05942998826503754,
        0.25741103291511536,
        0.16958540678024292,
        0.0890243798494339,
        0.07447020709514618,
        0.11792013794183731,
        0.06895507127046585,
        0.06016431376338005,
        0.27231529355049133,
        0.2540874779224396,
        -0.03071613237261772,
        0.18643879890441895,
        -0.017216365784406662,
        -0.010494419373571873,
        -0.2957160472869873,
        0.2949618995189667,
        0.30466336011886597,
        -0.17563417553901672,
        0.2309885174036026,
        0.19289954006671906,
        0.3213725984096527,
        -0.15021726489067078,
        0.21042199432849884,
        -0.28965896368026733,
        -0.05595407634973526,
        -0.06625276058912277,
        -0.2900708019733429,
        -0.1857311874628067,
        -0.2191418558359146,
        0.14998453855514526,
        -0.11832607537508011,
        -0.23069563508033752,
        0.12093449383974075,
        0.056992966681718826,
        0.2602829039096832,
        0.2239060401916504,
        -0.28433936834335327,
        0.32835957407951355,
        0.2534293830394745,
        -0.10664542764425278,
        0.157906174659729,
        -0.07432559132575989,
        0.22034341096878052,
        -0.06359551101922989,
        -0.013975723646581173,
        0.012222625315189362,
        0.11016485095024109,
        -0.2625065743923187,
        0.04632300138473511,
        -0.3023777902126312,
        0.15707653760910034,
        -0.18494603037834167,
        0.038737040013074875,
        -0.05616384744644165,
        -0.2718935012817383,
        -0.14987023174762726,
        -0.04627315327525139,
        0.3055613040924072
      ],
      "bias": [
        0.12113095819950104,
        0.19151775538921356,
        -0.1614038050174713,
        -0.07907106727361679,
        0.036586638540029526,
        -0.08207216113805771,
        0.14461493492126465,
        -0.11150974780321121,
        -0.018786491826176643,
        0.03339359909296036,
        -0.04302319511771202
      ]
    }
  ],
  "meta": {
    "name": "System.js",
    "slug": "system-js",
    "inputs": 24,
    "outputs": 11,
    "placeholder": true,
    "generated": "2025-10-21T15:22:04.837Z"
  }
}
