{
  "input": 24,
  "normalization": {
    "mean": [
      0,
      0,
      0,
      0,
      0,
      0,
      0,
      0,
      0,
      0,
      0,
      0,
      0,
      0,
      0,
      0,
      0,
      0,
      0,
      0,
      0,
      0,
      0,
      0
    ],
    "std": [
      1,
      1,
      1,
      1,
      1,
      1,
      1,
      1,
      1,
      1,
      1,
      1,
      1,
      1,
      1,
      1,
      1,
      1,
      1,
      1,
      1,
      1,
      1,
      1
    ]
  },
  "layers": [
    {
      "activation": "relu",
      "weights": [
        -0.118725,
        -0.113224,
        0.243631,
        0.012847,
        0.000118,
        -0.211568,
        -0.09456,
        0.220986,
        0.206221,
        0.232408,
        0.196221,
        0.210331,
        -0.03145,
        0.147735,
        0.17158,
        -0.048236,
        0.038643,
        -0.223474,
        -0.227382,
        0.028153,
        -0.068523,
        -0.215401,
        -0.064058,
        0,
        -0.201064,
        0.111898,
        -0.205526,
        -0.055593,
        -0.055909,
        -0.13682,
        0.03603,
        0.057638,
        -0.104677,
        -0.060719,
        -0.064836,
        0.086402,
        -0.212732,
        0.227346,
        0.085744,
        0.199889,
        0.186522,
        -0.227967,
        0.175175,
        -0.120034,
        -0.018676,
        0.138208,
        0.058895,
        0,
        0.061468,
        -0.060309,
        0.213597,
        -0.195895,
        0.122582,
        0.068824,
        0.177925,
        0.148051,
        0.014397,
        0.033593,
        -0.00987,
        -0.058829,
        -0.056328,
        0.016924,
        -0.129788,
        -0.229583,
        0.147892,
        0.029882,
        -0.122744,
        0.083063,
        -0.073332,
        -0.195715,
        -0.189772,
        0,
        -0.243683,
        0.218556,
        0.025643,
        -0.216925,
        0.183045,
        0.137333,
        -0.21076,
        -0.049293,
        0.068918,
        0.006828,
        -0.212819,
        -0.012576,
        -0.238696,
        0.05833,
        -0.140799,
        0.044339,
        0.055204,
        0.079675,
        0.165059,
        0.037379,
        0.046556,
        -0.069957,
        -0.138671,
        0,
        0.242404,
        0.228209,
        -0.040458,
        -0.209609,
        -0.200979,
        0.148893,
        -0.002353,
        -0.185552,
        -0.150344,
        0.080486,
        0.19954,
        0.052375,
        0.165435,
        -0.23611,
        0.164429,
        -0.097794,
        0.235453,
        -0.07116,
        -0.135102,
        -0.142913,
        -0.079027,
        -0.092051,
        0.051358,
        0,
        0.24749,
        -0.098857,
        -0.2097,
        -0.079345,
        0.167517,
        -0.238238,
        0.184908,
        -0.037095,
        -0.031909,
        0.203695,
        -0.210651,
        0.025608,
        -0.175139,
        -0.027541,
        0.083888,
        -0.240886,
        0.013619,
        0.235582,
        0.096397,
        0.232501,
        0.151057,
        -0.240739,
        -0.191604,
        0,
        0.133921,
        -0.216337,
        -0.139086,
        -0.102488,
        0.09448,
        -0.167424,
        0.239162,
        0.136679,
        -0.200275,
        0.02721,
        -0.092179,
        -0.104608,
        0.17778,
        0.08546,
        0.08546,
        -0.186681,
        0.07821,
        0.023306,
        0.017085,
        -0.158407,
        -0.019328,
        0.101614,
        -0.170483,
        0,
        -0.027909,
        -0.102589,
        0.042971,
        0.147023,
        0.10001,
        -0.241336,
        -0.223661,
        -0.181235,
        0.090063,
        0.195041,
        0.092362,
        0.234623,
        0.241596,
        -0.244062,
        0.217127,
        -0.169035,
        -0.027054,
        0.228053,
        -0.06281,
        0.01292,
        0.170344,
        -0.156948,
        0.033697,
        0,
        -0.155286,
        -0.228306,
        -0.211532,
        -0.091619,
        -0.015364,
        -0.219488,
        0.06088,
        -0.090715,
        -0.033799,
        0.030362,
        -0.174559,
        -0.011009,
        0.052058,
        0.145097,
        0.070813,
        -0.046816,
        0.012221,
        -0.234799,
        -0.026419,
        0.182369,
        -0.196826,
        0.235568,
        0.011198,
        0,
        -0.165469,
        0.249424,
        0.075013,
        -0.012474,
        0.161575,
        -0.045949,
        0.172836,
        -0.239961,
        0.197346,
        -0.21017,
        -0.217249,
        0.082755,
        0.200039,
        -0.052525,
        0.009484,
        0.103939,
        -0.143177,
        0.142584,
        0.108371,
        0.182668,
        -0.116521,
        0.207828,
        0.043242,
        0,
        -0.186704,
        -0.22313,
        -0.078036,
        -0.127066,
        0.071899,
        0.103061,
        0.052223,
        0.161716,
        0.123749,
        -0.171107,
        0.211639,
        0.233959,
        -0.04411,
        -0.170181,
        -0.242114,
        0.218359,
        0.123872,
        -0.16816,
        0.085176,
        -0.047981,
        -0.073292,
        0.170313,
        -0.21421,
        0,
        -0.060294,
        0.04912,
        -0.126512,
        -0.217202,
        0.1886,
        -0.164879,
        0.203546,
        0.160537,
        -0.136157,
        -0.017975,
        -0.087017,
        0.044395,
        -0.164802,
        0.068912,
        0.099129,
        0.00649,
        -0.189862,
        -0.041358,
        0.164628,
        0.098776,
        -0.126329,
        0.237454,
        0.016691,
        0,
        0.240159,
        -0.119785,
        -0.01876,
        -0.237077,
        -0.190818,
        -0.23216,
        -0.237473,
        -0.213451,
        -0.08117,
        -0.009818,
        -0.062747,
        0.208852,
        -0.02496,
        -0.113654,
        -0.12461,
        -0.128382,
        0.245449,
        -0.065892,
        -0.075528,
        0.097425,
        -0.210026,
        -0.043259,
        0.020102,
        0,
        0.110574,
        0.229757,
        -0.021252,
        -0.01751,
        0.126467,
        -0.043938,
        0.050851,
        0.163091,
        0.242271,
        0.005669,
        -0.01048,
        0.2304,
        -0.113347,
        -0.04566,
        0.10137,
        0.008973,
        0.211407,
        -0.195091,
        0.087733,
        -0.089264,
        -0.067199,
        -0.028433,
        -0.050285,
        0,
        0.122628,
        -0.24457,
        0.086895,
        -0.160939,
        -0.160327,
        0.13641,
        -0.016774,
        -0.074876,
        -0.042488,
        -0.227289,
        -0.175132,
        -0.026729,
        -0.236529,
        -0.18055,
        -0.007215,
        -0.044986,
        -0.209767,
        -0.028047,
        -0.051726,
        0.135203,
        0.121167,
        0.169398,
        -0.072794,
        0,
        0.206576,
        0.061373,
        -0.197144,
        -0.058597,
        0.166988,
        0.213524,
        -0.064468,
        0.1887,
        -0.240372,
        0.12255,
        0.168032,
        0.098266,
        -0.078466,
        -0.221774,
        -0.093537,
        -0.137264,
        -0.189278,
        -0.110253,
        -0.083832,
        -0.066271,
        0.107245,
        -0.028678,
        0.168931,
        0
      ],
      "bias": [
        0.03292,
        -0.036605,
        -0.038848,
        0.046576,
        -0.099641,
        0.065601,
        -0.098032,
        0.059137,
        0.019359,
        0.088095,
        -0.083355,
        0.045672,
        -0.0541,
        0.068157,
        0.076456,
        -0.028978
      ]
    },
    {
      "activation": "tanh",
      "weights": [
        0.165458,
        -0.136145,
        0.117947,
        -0.105771,
        -0.014389,
        -0.17426,
        0.113834,
        -0.116463,
        0.064923,
        0.053375,
        -0.158419,
        0.053508,
        0.189848,
        0.161616,
        -0.098123,
        -0.063538,
        -0.190386,
        -0.106874,
        0.009269,
        0.025403,
        -0.09158,
        0.144381,
        0.067684,
        -0.056816,
        0.042076,
        0.129556,
        0.038512,
        -0.084817,
        0.120358,
        0.038562,
        -0.16747,
        -0.048245,
        -0.183695,
        -0.154534,
        0.156896,
        0.046693,
        0.183725,
        -0.176444,
        0.148475,
        -0.002049,
        0.164153,
        0.023292,
        0.124745,
        -0.043108,
        -0.035486,
        0.069406,
        -0.116476,
        0.112294,
        0.186734,
        -0.066617,
        -0.117219,
        0.015378,
        0.090561,
        0.037588,
        -0.068223,
        0.152093,
        0.070833,
        -0.052715,
        0.124776,
        0.068925,
        -0.06955,
        -0.19321,
        0.048591,
        -0.141533,
        -0.169693,
        -0.023978,
        -0.004791,
        -0.088993,
        0.097417,
        0.023691,
        0.010734,
        -0.061619,
        0.172497,
        -0.066624,
        -0.088076,
        -0.023663,
        -0.121744,
        0.078747,
        -0.098459,
        0.171675,
        -0.110368,
        -0.175829,
        -0.086212,
        -0.139608,
        -0.012769,
        -0.093032,
        -0.078929,
        0.143098,
        0.175232,
        -0.142451,
        -0.066659,
        -0.136051,
        -0.155025,
        -0.186299,
        0.121262,
        0.199337,
        -0.13448,
        0.185258,
        -0.005542,
        -0.037389,
        0.182399,
        -0.074587,
        0.066089,
        -0.168952,
        0.005825,
        -0.135073,
        -0.064997,
        -0.198654,
        0.169601,
        0.065468,
        0.016719,
        -0.120113,
        0.141988,
        -0.151648,
        -0.145514,
        0.114009,
        -0.130232,
        0.054912,
        0.041668,
        0.170545,
        -0.063232,
        -0.005227,
        0.086717,
        -0.032119,
        0.018083,
        0.038253,
        -0.148043,
        0.167774,
        0.111252,
        0.109161,
        -0.102534,
        -0.166805,
        -0.074364,
        0.03424,
        0.161268,
        -0.141577,
        -0.088745,
        -0.194507,
        0.107116,
        0.077671,
        -0.091677,
        -0.088349,
        -0.028901,
        0.058464,
        -0.101266,
        -0.004964,
        0.038322,
        0.086044,
        -0.159242,
        0.190064,
        0.180923,
        0.145029,
        0.068185,
        -0.000369,
        -0.011337,
        0.004598,
        -0.164825,
        0.065649,
        -0.076656,
        0.013437,
        0,
        0,
        0,
        0,
        0,
        0,
        0,
        0,
        0,
        0,
        0,
        0,
        0,
        0,
        0,
        0
      ],
      "bias": [
        0.022015,
        -0.027508,
        0.007076,
        -0.022326,
        -0.038665,
        -0.034515,
        0.006062,
        -0.035193,
        0.016789,
        0.012218,
        0
      ]
    }
  ],
  "meta": {
    "name": "System.js",
    "slug": "system-js",
    "inputs": 24,
    "outputs": 11,
    "placeholder": true
  }
}
