{
  "input": 24,
  "normalization": {
    "mean": [
      0,
      0,
      0,
      0,
      0,
      0,
      0,
      0,
      0,
      0,
      0,
      0,
      0,
      0,
      0,
      0,
      0,
      0,
      0,
      0,
      0,
      0,
      0,
      0
    ],
    "std": [
      1,
      1,
      1,
      1,
      1,
      1,
      1,
      1,
      1,
      1,
      1,
      1,
      1,
      1,
      1,
      1,
      1,
      1,
      1,
      1,
      1,
      1,
      1,
      1
    ]
  },
  "layers": [
    {
      "activation": "relu",
      "weights": [
        0.20539194345474243,
        -0.02603624202311039,
        -0.20381762087345123,
        0.3291112184524536,
        0.10150311142206192,
        -0.3263893723487854,
        -0.19083508849143982,
        0.34016889333724976,
        0.13725067675113678,
        0.27112317085266113,
        0.26452088356018066,
        0.27325448393821716,
        -0.24303358793258667,
        0.13918088376522064,
        -0.2085031270980835,
        -0.034167759120464325,
        -0.020182520151138306,
        0.3442317545413971,
        -0.06387071311473846,
        -0.053405679762363434,
        -0.039642225950956345,
        -0.11070886999368668,
        0.24895963072776794,
        0.3248036205768585,
        0.28137150406837463,
        -0.23017054796218872,
        0.008894671685993671,
        -0.2134333997964859,
        0.11503192782402039,
        0.024062056094408035,
        0.19344550371170044,
        -0.04052577167749405,
        -0.20526525378227234,
        -0.11327720433473587,
        0.2624552547931671,
        -0.23868706822395325,
        0.004701831843703985,
        0.2810041904449463,
        0.340742826461792,
        0.010407915338873863,
        -0.2724062502384186,
        0.0010829790262505412,
        -0.006812165025621653,
        -0.07240806519985199,
        0.3362525999546051,
        0.2025965303182602,
        -0.19995984435081482,
        -0.3242568373680115,
        0.0015213754959404469,
        0.03737560659646988,
        0.29678741097450256,
        0.10295010358095169,
        -0.09247899800539017,
        0.2405102699995041,
        -0.051869604736566544,
        -0.2876449525356293,
        -0.18318140506744385,
        -0.17507869005203247,
        0.2340194433927536,
        -0.23314237594604492,
        -0.3139517903327942,
        -0.09436234831809998,
        0.20455479621887207,
        -0.11171853542327881,
        0.31834468245506287,
        0.02369314432144165,
        0.06534269452095032,
        -0.10692039877176285,
        0.01772380992770195,
        0.1793234497308731,
        -0.035724349319934845,
        0.2718304991722107,
        -0.09638173133134842,
        0.29781410098075867,
        0.21493253111839294,
        0.25742554664611816,
        -0.2023901343345642,
        0.06645616143941879,
        -0.11247829347848892,
        0.16270336508750916,
        -0.20968012511730194,
        -0.13440704345703125,
        -0.018324516713619232,
        0.0411580465734005,
        -0.34834009408950806,
        0.31335726380348206,
        0.2277507185935974,
        0.010110431350767612,
        -0.2744435966014862,
        -0.1439199447631836,
        -0.08001783490180969,
        -0.10735130310058594,
        0.3289516866207123,
        0.012812304310500622,
        0.2741692066192627,
        0.10035691410303116,
        -0.0474374033510685,
        -0.04869098216295242,
        -0.18286940455436707,
        0.25237005949020386,
        0.34336617588996887,
        0.13249816000461578,
        -0.22392240166664124,
        0.2700726389884949,
        0.24024416506290436,
        -0.05095148831605911,
        0.23169058561325073,
        0.24585337936878204,
        -0.021430691704154015,
        0.2289954274892807,
        -0.34277915954589844,
        0.27072885632514954,
        0.18864142894744873,
        0.2342381626367569,
        0.2686474025249481,
        -0.17572171986103058,
        -0.22187615931034088,
        0.30274534225463867,
        -0.019195055589079857,
        -0.2989562451839447,
        -0.03229821100831032,
        -0.04197508469223976,
        0.0214217621833086,
        -0.06714284420013428,
        -0.15771417319774628,
        -0.22074328362941742,
        -0.06979314982891083,
        -0.05273158475756645,
        0.10979092866182327,
        0.02401982620358467,
        -0.1805870682001114,
        -0.08661965280771255,
        0.2600047290325165,
        -0.32803890109062195,
        -0.32657700777053833,
        -0.0654095932841301,
        0.0502961240708828,
        -0.0050070807337760925,
        -0.14961785078048706,
        -0.2452586144208908,
        -0.04524669796228409,
        -0.020258625969290733,
        -0.005912984721362591,
        -0.10777788609266281,
        0.2307298183441162,
        -0.15647673606872559,
        -0.08365562558174133,
        -0.32873138785362244,
        0.3181360065937042,
        0.010877955704927444,
        0.26493895053863525,
        0.14377304911613464,
        0.32178646326065063,
        0.2834900915622711,
        -0.16948933899402618,
        0.2984992563724518,
        -0.32357627153396606,
        0.1547842025756836,
        0.21407395601272583,
        -0.0720805823802948,
        -0.347480446100235,
        0.026455873623490334,
        0.02130548283457756,
        -0.15096929669380188,
        -0.1820540726184845,
        -0.21054652333259583,
        -0.12225168198347092,
        -0.003499736310914159,
        0.23167502880096436,
        -0.11356067657470703,
        -0.1266677975654602,
        0.1914265900850296,
        -0.1950574815273285,
        -0.18232278525829315,
        0.1504002809524536,
        -0.008309188298881054,
        -0.10776793956756592,
        0.051661957055330276,
        0.060188405215740204,
        0.12859144806861877,
        -0.13570408523082733,
        0.32716721296310425,
        0.2641024589538574,
        0.2052292376756668,
        0.08398604393005371,
        0.2461865097284317,
        -0.08662104606628418,
        0.26478904485702515,
        0.1412968933582306,
        -0.11829283833503723,
        -0.23344920575618744,
        -0.10919991880655289,
        -0.23431408405303955,
        0.18832865357398987,
        0.32120171189308167,
        0.2161252796649933,
        0.2740704417228699,
        -0.3227164149284363,
        0.047166675329208374,
        0.05040903389453888,
        -0.18724942207336426,
        -0.18253600597381592,
        -0.0908796414732933,
        0.14958743751049042,
        0.042574021965265274,
        -0.19878524541854858,
        -0.03255825489759445,
        -0.11878842860460281,
        0.15615491569042206,
        0.20292404294013977,
        0.294511616230011,
        -0.19618630409240723,
        0.26687780022621155,
        0.15248550474643707,
        0.08743180334568024,
        0.16062213480472565,
        -0.22450855374336243,
        -0.033218808472156525,
        0.04836682975292206,
        -0.16849979758262634,
        -0.31802263855934143,
        0.10798811167478561,
        -0.27577510476112366,
        0.25713908672332764,
        -0.22118522226810455,
        -0.07913269102573395,
        0.2576271891593933,
        0.04498719424009323,
        0.14837397634983063,
        -0.25132352113723755,
        0.025578614324331284,
        0.26363229751586914,
        0.09269002079963684,
        0.08193135261535645,
        -0.028077805414795876,
        -0.05019870027899742,
        -0.33637434244155884,
        -0.2337145209312439,
        -0.10087843984365463,
        -0.20554932951927185,
        -0.32265278697013855,
        -0.0363689661026001,
        -0.14240536093711853,
        -0.15370482206344604,
        -0.24515654146671295,
        -0.08108363300561905,
        -0.181366428732872,
        0.15791606903076172,
        -0.05984792113304138,
        -0.07302089035511017,
        0.27968829870224,
        0.13038575649261475,
        -0.20871777832508087,
        -0.18287862837314606,
        -0.26084640622138977,
        0.2600553333759308,
        -0.07092853635549545,
        0.14906656742095947,
        -0.181092768907547,
        -0.11197403818368912,
        0.24079512059688568,
        0.11984729766845703,
        0.2859184741973877,
        0.13805322349071503,
        0.18787509202957153,
        -0.006198903080075979,
        0.32861319184303284,
        0.07527276128530502,
        0.20971672236919403,
        -0.2925538122653961,
        0.3317410945892334,
        0.13451921939849854,
        -0.07197968661785126,
        0.31123945116996765,
        0.3106469213962555,
        -0.2711864411830902,
        0.22678057849407196,
        -0.19830018281936646,
        -0.11028701066970825,
        0.33799293637275696,
        -0.22963981330394745,
        -0.1484498530626297,
        -0.2475738227367401,
        0.12230826914310455,
        -0.12094061076641083,
        0.19243592023849487,
        -0.31265154480934143,
        -0.028763530775904655,
        0.02530256099998951,
        0.1996670514345169,
        -0.09910080581903458,
        0.29469653964042664,
        -0.18974503874778748,
        0.31192880868911743,
        0.29948392510414124,
        0.24901853501796722,
        -0.29080069065093994,
        -0.017446184530854225,
        -0.32490769028663635,
        -0.30447423458099365,
        -0.05141744390130043,
        0.2808910608291626,
        -0.20513330399990082,
        0.3288246989250183,
        -0.11362496018409729,
        -0.21739010512828827,
        -0.2848513722419739,
        0.04167031869292259,
        -0.1418643295764923,
        0.0974489375948906,
        0.09806318581104279,
        -0.046680521219968796,
        -0.3012044131755829,
        0.08789235353469849,
        -0.15198512375354767,
        0.07931835949420929,
        0.14737531542778015,
        -0.02233058772981167,
        -0.05145180597901344,
        -0.34357669949531555,
        0.25278404355049133,
        -0.03846053406596184,
        -0.23715566098690033,
        0.11557156592607498,
        0.31682687997817993,
        -0.23636393249034882,
        0.026765910908579826,
        -0.018081117421388626,
        0.1370518058538437,
        0.2324925661087036,
        0.10456269979476929,
        -0.02016417682170868,
        0.03138701245188713,
        0.13132278621196747,
        0.295195072889328,
        -0.03322721645236015,
        0.01511834654957056,
        0.049849722534418106,
        0.1205362007021904,
        0.29813697934150696,
        0.1003413200378418,
        0.16416430473327637,
        -0.00658356212079525,
        0.30573898553848267,
        0.04458972439169884,
        -0.2228192389011383,
        -0.3018518090248108,
        -0.34635019302368164,
        -0.3044240176677704,
        -0.13276326656341553,
        -0.2518266439437866,
        -0.346212238073349,
        0.2883932590484619,
        -0.270240843296051,
        0.33411261439323425,
        -0.1196112409234047,
        0.17417322099208832,
        0.27540576457977295,
        0.12676307559013367,
        -0.2715758681297302,
        -0.14081338047981262,
        0.17861394584178925,
        -0.24107412993907928,
        -0.16792643070220947,
        0.3346884548664093,
        0.08573462069034576,
        0.2781795561313629,
        0.09752608835697174,
        0.31470245122909546,
        0.031868625432252884,
        -0.2716265916824341,
        -0.20218773186206818,
        0.07524443417787552,
        -0.22168126702308655,
        0.005512076895684004,
        0.2684052884578705,
        0.24375489354133606,
        0.0102700712159276,
        0.0876968502998352,
        -0.233128160238266,
        -0.08710472285747528,
        -0.026458946987986565,
        0.11304128170013428,
        -0.28324833512306213
      ],
      "bias": [
        0.181244894862175,
        -0.1259586662054062,
        -0.24510252475738525,
        0.10639432072639465,
        0.14352384209632874,
        0.20374760031700134,
        0.2345716804265976,
        -0.16816745698451996,
        0.1245894655585289,
        -0.12808872759342194,
        0.09491457045078278,
        0.20221194624900818,
        -0.20014040172100067,
        -0.18186511099338531,
        -0.17174023389816284,
        -0.038758017122745514
      ]
    },
    {
      "activation": "tanh",
      "weights": [
        0.08456158638000488,
        -0.1509784460067749,
        -0.004661600571125746,
        -0.21915613114833832,
        0.24567697942256927,
        -0.22934438288211823,
        0.2547089457511902,
        0.3182406723499298,
        0.20624352991580963,
        0.2700413763523102,
        0.10121948271989822,
        0.05078277364373207,
        -0.050029486417770386,
        -0.014592830091714859,
        0.11376167833805084,
        0.34687379002571106,
        -0.10493814200162888,
        0.19058474898338318,
        0.09349473565816879,
        0.329973965883255,
        0.2180572748184204,
        0.23361048102378845,
        -0.009782399982213974,
        -0.16307717561721802,
        -0.3247896134853363,
        -0.3107241988182068,
        0.15188796818256378,
        -0.09515472501516342,
        -0.3006976246833801,
        -0.29835835099220276,
        0.3061002790927887,
        0.12725602090358734,
        0.16971883177757263,
        0.15049131214618683,
        0.3043401539325714,
        0.04687822610139847,
        0.0531027615070343,
        -0.34977811574935913,
        -0.3213435113430023,
        -0.30416417121887207,
        0.31311771273612976,
        0.3136315941810608,
        0.07223351299762726,
        -0.06379476934671402,
        -0.009549237787723541,
        0.20292794704437256,
        0.006021516863256693,
        0.22596892714500427,
        0.22213368117809296,
        0.22066962718963623,
        0.21446985006332397,
        0.19965167343616486,
        -0.2718639373779297,
        0.005752663593739271,
        0.007678339257836342,
        -0.21231825649738312,
        0.3036314845085144,
        -0.14768549799919128,
        0.32368117570877075,
        0.19122929871082306,
        0.3383813798427582,
        -0.10273262858390808,
        -0.2113211303949356,
        -0.07078775018453598,
        0.30583876371383667,
        -0.25087758898735046,
        0.13593164086341858,
        -0.18967567384243011,
        0.08658743649721146,
        0.2375929206609726,
        -0.01723143644630909,
        -0.21057762205600739,
        0.2642480134963989,
        0.14228424429893494,
        -0.2412402182817459,
        0.1860886514186859,
        0.32877054810523987,
        0.2865479290485382,
        0.12931852042675018,
        -0.2827291488647461,
        0.09089269489049911,
        -0.07322782278060913,
        -0.18674084544181824,
        -0.13684499263763428,
        -0.269377201795578,
        0.2373676300048828,
        -0.09368500858545303,
        0.19792519509792328,
        0.2774849534034729,
        0.1126398891210556,
        0.32088756561279297,
        -0.30816230177879333,
        -0.15322265028953552,
        0.08906836807727814,
        0.26467955112457275,
        0.31314900517463684,
        0.18093803524971008,
        -0.016250431537628174,
        0.037933461368083954,
        -0.020206857472658157,
        -0.2451515644788742,
        0.11653570830821991,
        -0.1763072907924652,
        -0.3245057165622711,
        0.2886120676994324,
        0.18826058506965637,
        0.2514475882053375,
        -0.010850349441170692,
        -0.19072869420051575,
        -0.15678337216377258,
        0.08825484663248062,
        0.2544899880886078,
        0.29481053352355957,
        -0.020419174805283546,
        -0.00864447932690382,
        -0.23964624106884003,
        0.03803607076406479,
        -0.10176793485879898,
        -0.255525141954422,
        0.305208295583725,
        -0.22739732265472412,
        0.2032722681760788,
        -0.13389453291893005,
        -0.30736929178237915,
        0.18495170772075653,
        -0.09702595323324203,
        -0.1408686488866806,
        -0.27291253209114075,
        -0.24386268854141235,
        0.03733878210186958,
        -0.20512588322162628,
        -0.33751916885375977,
        0.010589253157377243,
        -0.2444760799407959,
        -0.2800207734107971,
        0.008433915674686432,
        -0.32196560502052307,
        -0.3010873794555664,
        0.28329962491989136,
        -0.06080082058906555,
        -0.15396875143051147,
        -0.1752258837223053,
        0.1221284493803978,
        -0.12815916538238525,
        -0.18685752153396606,
        -0.2207295000553131,
        -0.14291295409202576,
        -0.1145348995923996,
        0.07438775897026062,
        0.12347039580345154,
        0.24986477196216583,
        -0.11302894353866577,
        -0.10588586330413818,
        0.3099605441093445,
        0.27011585235595703,
        0.16793806850910187,
        -0.028974948450922966,
        -0.05243263766169548,
        0.3356698751449585,
        0.1607811450958252,
        -0.29384899139404297,
        0.07526175677776337,
        0.05307415500283241,
        -0.2455146163702011,
        0.10243083536624908,
        -0.061255332082509995,
        0.19252318143844604,
        -0.07277863472700119,
        -0.1900135576725006,
        0.031150732189416885,
        0.16640467941761017,
        0.166631281375885,
        -0.26132065057754517,
        0.015087469480931759,
        0.04281299188733101,
        -0.1488611102104187
      ],
      "bias": [
        -0.1331244558095932,
        0.049331557005643845,
        0.037978243082761765,
        -0.23295855522155762,
        0.16020162403583527,
        0.05364181101322174,
        0.17297294735908508,
        0.1705004870891571,
        -0.09723220765590668,
        0.11984247714281082,
        0.20428383350372314
      ]
    }
  ],
  "meta": {
    "name": "System.js",
    "slug": "system-js",
    "inputs": 24,
    "outputs": 11,
    "placeholder": true,
    "generated": "2025-10-21T20:36:41.934Z"
  }
}
