{
  "input": 24,
  "normalization": {
    "mean": [
      0.002150697633624077,
      0.006245930213481188,
      -0.007508238777518272,
      0.007054820191115141,
      -0.0076192282140254974,
      0.4970792233943939,
      0.49775230884552,
      0.5016963481903076,
      0.5029721260070801,
      -0.007810546085238457,
      -0.006941365543752909,
      -0.006557432934641838,
      -0.005424576345831156,
      0.007790518458932638,
      -0.007627807557582855,
      -0.0031743012368679047,
      -0.004276511259377003,
      0.002009668853133917,
      0.0090866070240736,
      0.0033771488815546036,
      0.49971824884414673,
      0.4933023452758789,
      0.4974213242530823,
      0.5003979802131653
    ],
    "std": [
      0.576718270778656,
      0.5782548189163208,
      0.5792403817176819,
      0.5809178948402405,
      0.5813392400741577,
      0.29347124695777893,
      0.2859644889831543,
      0.29014459252357483,
      0.2914541959762573,
      0.5762304663658142,
      0.5810871720314026,
      0.5733699202537537,
      0.5811734199523926,
      0.5748304128646851,
      0.5755221843719482,
      0.575563371181488,
      0.5794582962989807,
      0.5790511965751648,
      0.5785261392593384,
      0.5765846371650696,
      0.2869347333908081,
      0.2866443395614624,
      0.28718650341033936,
      0.2904297113418579
    ]
  },
  "layers": [
    {
      "activation": "relu",
      "weights": [
        0.12136822938919067,
        -0.23309241235256195,
        -0.01700921356678009,
        0.08816581219434738,
        0.03601580485701561,
        0.21606869995594025,
        -0.08198422193527222,
        0.01899404264986515,
        0.06209377944469452,
        -0.22265248000621796,
        -0.27285856008529663,
        0.1053723692893982,
        -0.1938248872756958,
        -0.15968623757362366,
        0.15472356975078583,
        0.14516222476959229,
        -0.28411638736724854,
        -0.11499744653701782,
        -0.006322530563920736,
        -0.18000298738479614,
        -0.23812785744667053,
        0.2553800344467163,
        0.18824151158332825,
        -0.11914563179016113,
        -0.04160981625318527,
        0.10517521947622299,
        0.03668442368507385,
        0.7261939644813538,
        -0.11217502504587173,
        -0.10146357119083405,
        -0.14697733521461487,
        -0.05098523572087288,
        -0.007987633347511292,
        0.17524799704551697,
        -0.0470290407538414,
        0.09537342935800552,
        0.09567921608686447,
        -0.07847525179386139,
        -0.06641124188899994,
        0.13698098063468933,
        0.05744032934308052,
        0.20150607824325562,
        0.029927534982562065,
        -0.19787271320819855,
        -0.038674015551805496,
        0.07949857413768768,
        -0.034376464784145355,
        0.2933955490589142,
        -0.12645255029201508,
        0.06305507570505142,
        0.17908897995948792,
        -0.4444185197353363,
        -0.1381242722272873,
        -0.1570046991109848,
        0.27400851249694824,
        0.1268402338027954,
        0.18276366591453552,
        -0.03104463778436184,
        0.19723519682884216,
        0.12145565450191498,
        -0.07484017312526703,
        -0.02610241062939167,
        -0.061176467686891556,
        0.10373586416244507,
        -0.18570606410503387,
        0.10114976018667221,
        0.040709253400564194,
        0.14106835424900055,
        -0.030805952847003937,
        -0.1519399732351303,
        0.21913330256938934,
        0.11805537343025208,
        -0.19937235116958618,
        -0.006020430475473404,
        -0.12896332144737244,
        0.368893027305603,
        -0.25454580783843994,
        -0.2338678389787674,
        0.19874979555606842,
        -0.05172833055257797,
        -0.21660630404949188,
        0.20805329084396362,
        0.12316563725471497,
        -0.04609796777367592,
        0.03161780536174774,
        0.09820225834846497,
        -0.0004486982070375234,
        -0.17318794131278992,
        -0.23769930005073547,
        -0.20194996893405914,
        -0.05822218582034111,
        -0.09323561191558838,
        -0.007239528000354767,
        -0.20898382365703583,
        -0.21041728556156158,
        0.03797861188650131,
        0.1836920827627182,
        0.0026094859931617975,
        -0.1577959507703781,
        -0.11607597023248672,
        -0.24696168303489685,
        0.047062236815690994,
        0.03154878318309784,
        0.17300589382648468,
        -0.15289826691150665,
        -0.09659487754106522,
        -0.2568514943122864,
        -0.14041392505168915,
        -0.12382211536169052,
        0.1283310502767563,
        -0.16828487813472748,
        0.19286270439624786,
        -0.008904805406928062,
        -0.16369175910949707,
        -0.27490293979644775,
        0.07114456593990326,
        0.20868214964866638,
        0.042578328400850296,
        0.3094584345817566,
        -0.12254445999860764,
        0.11791520565748215,
        0.04030560329556465,
        -0.18456006050109863,
        0.07473347336053848,
        0.002734553534537554,
        0.2522277534008026,
        -0.16361987590789795,
        -0.05416291952133179,
        0.12359057366847992,
        -0.20552359521389008,
        -0.23519550263881683,
        -0.03976398706436157,
        0.08835073560476303,
        -0.16626761853694916,
        0.20492736995220184,
        -0.24048621952533722,
        -0.1741701364517212,
        -0.13377580046653748,
        0.11511168628931046,
        0.14643606543540955,
        -0.1142287477850914,
        -0.014417819678783417,
        -0.23502162098884583,
        0.039390794932842255,
        0.14950469136238098,
        0.23086659610271454,
        0.1768254190683365,
        -0.21437661349773407,
        0.16152608394622803,
        -0.18452012538909912,
        0.12823790311813354,
        0.04127676412463188,
        -0.05057470500469208,
        0.11598078161478043,
        0.003120522014796734,
        0.023620709776878357,
        -0.04904940351843834,
        -0.1272658258676529,
        -0.01937650702893734,
        0.007397991605103016,
        0.15664055943489075,
        -0.12802402675151825,
        0.08148127049207687,
        0.2126506119966507,
        0.20100528001785278,
        0.04673277214169502,
        -0.1634937822818756,
        0.035201385617256165,
        0.0015939417062327266,
        -0.000033532607631059363,
        -0.0032044665422290564,
        1.1273951530456543,
        0.0028949370607733727,
        0.001986859133467078,
        0.0007566186832264066,
        0.003072379855439067,
        0.004693318624049425,
        -0.002185155637562275,
        -0.0018609091639518738,
        0.0003735519712790847,
        -0.0037175617180764675,
        -0.0008135086973197758,
        -0.0009609806584194303,
        -0.0008258746238425374,
        0.00030337568023242056,
        -0.001752105774357915,
        -0.0008093153010122478,
        -0.00009686538396636024,
        -0.0010833155829459429,
        0.0007433417486026883,
        -0.0017996751703321934,
        0.0005532588111236691,
        -0.06919881701469421,
        -0.15225476026535034,
        -0.12984050810337067,
        -0.5109473466873169,
        0.13920170068740845,
        0.11101410537958145,
        0.20461519062519073,
        0.05092383548617363,
        0.05183865502476692,
        -0.1722530573606491,
        0.09960994124412537,
        -0.14708788692951202,
        -0.13053670525550842,
        0.06460127979516983,
        0.12839405238628387,
        -0.06438659131526947,
        -0.09259935468435287,
        -0.252265989780426,
        -0.07140306383371353,
        0.177565798163414,
        -0.03480512276291847,
        -0.11071059107780457,
        0.02813144028186798,
        -0.26233553886413574,
        -0.043314430862665176,
        0.1836734116077423,
        0.11052669584751129,
        -0.1116717979311943,
        0.22919438779354095,
        0.08675845712423325,
        0.0017991159111261368,
        0.1956961750984192,
        0.07864423096179962,
        -0.21765506267547607,
        0.10143033415079117,
        -0.08610254526138306,
        0.055818427354097366,
        -0.07048940658569336,
        0.032828234136104584,
        0.02255537360906601,
        -0.13249348104000092,
        -0.08484872430562973,
        -0.016537580639123917,
        -0.2611393630504608,
        0.12936435639858246,
        0.2397754192352295,
        -0.02550789900124073,
        0.21566221117973328,
        -0.2339957356452942,
        0.2548666000366211,
        -0.12425050139427185,
        -0.17517219483852386,
        0.1654103696346283,
        0.2693561315536499,
        -0.15905344486236572,
        0.1952163130044937,
        -0.16907045245170593,
        0.05985770747065544,
        -0.18593886494636536,
        0.07682456821203232,
        0.23594023287296295,
        0.15424387156963348,
        0.25234225392341614,
        0.3009450137615204,
        0.21728083491325378,
        0.08456084132194519,
        -0.2530577480792999,
        0.19387242197990417,
        -0.14238932728767395,
        -0.1682460904121399,
        0.2052994966506958,
        -0.26564639806747437,
        0.0013446765951812267,
        -0.0013901584316045046,
        0.003450209740549326,
        -0.915254533290863,
        0.0026028677821159363,
        -0.0037252847105264664,
        -0.0011730941478163004,
        -0.0035235502291470766,
        0.0023958885576575994,
        -0.0031242959666997194,
        0.0006202904041856527,
        -0.0017674581613391638,
        -0.0014695938443765044,
        0.0011228816583752632,
        -0.0021545619238168,
        -0.0025948460679501295,
        0.004568819887936115,
        0.0030108666978776455,
        -0.004033461678773165,
        0.004323911853134632,
        0.0007910854765214026,
        -0.003842732636258006,
        -0.00012881369912065566,
        0.001997071085497737,
        0.10588013380765915,
        -0.01500628236681223,
        -0.011552371084690094,
        -0.4193223714828491,
        0.07573552429676056,
        -0.07186596095561981,
        0.18314406275749207,
        0.09027451276779175,
        -0.033781275153160095,
        -0.05000913888216019,
        -0.07795176655054092,
        -0.09155096113681793,
        -0.09906976670026779,
        -0.01691580004990101,
        -0.151118203997612,
        -0.21287602186203003,
        0.09993570297956467,
        0.08502659946680069,
        -0.10815946757793427,
        0.00012476109259296209,
        0.06881553679704666,
        -0.010796571150422096,
        -0.09009087830781937,
        -0.16218243539333344,
        -0.00022164119582157582,
        0.0006553290877491236,
        -0.0005332441069185734,
        -0.8007051944732666,
        -0.0035932804457843304,
        -0.0019202472176402807,
        -0.00008386334229726344,
        -0.0021988279186189175,
        0.001018280629068613,
        0.00011734235158655792,
        -0.000022898999304743484,
        0.0009617803734727204,
        -0.0020967796444892883,
        -0.0007480283966287971,
        -0.00011539078695932403,
        -0.00012583895295392722,
        0.000860494386870414,
        0.0019692766945809126,
        0.0008917596423998475,
        -0.00003105760697508231,
        0.00024451661738567054,
        0.001948542078025639,
        -0.0019379300065338612,
        0.0006673843017779291,
        0.04533752426505089,
        -0.02273287996649742,
        0.025985216721892357,
        0.6184055209159851,
        -0.001909912913106382,
        0.08485744893550873,
        -0.0338466502726078,
        -0.09721022844314575,
        0.04202483221888542,
        -0.14122426509857178,
        0.09696745872497559,
        0.035691969096660614,
        0.02271212637424469,
        0.037205714732408524,
        0.21115437150001526,
        0.1160547062754631,
        -0.16474474966526031,
        -0.20069754123687744,
        0.03814084827899933,
        0.18345877528190613,
        -0.009537961333990097,
        0.006852054037153721,
        0.15871493518352509,
        -0.09902740269899368,
        0.09622303396463394,
        -0.1271582841873169,
        -0.1046915352344513,
        -0.29034239053726196,
        -0.0372106097638607,
        0.20028366148471832,
        -0.10766004770994186,
        -0.214677631855011,
        0.09186143428087234,
        -0.05891961231827736,
        -0.021890273317694664,
        0.07086071372032166,
        -0.2271760106086731,
        -0.047034554183483124,
        0.0529906339943409,
        0.05182803049683571,
        0.15879903733730316,
        0.10690353810787201,
        0.20441961288452148,
        0.02290670946240425,
        0.18932662904262543,
        -0.11105172336101532,
        0.11699048429727554,
        -0.24286983907222748
      ],
      "bias": [
        -0.020874658599495888,
        0.04578271880745888,
        -0.016848254948854446,
        0.02366058900952339,
        0.0003466230700723827,
        -0.02134808339178562,
        -0.021951105445623398,
        -1.2037004232406616,
        -0.011272809468209743,
        -0.005969012621790171,
        -0.011029411107301712,
        -1.023248314857483,
        0.11311767995357513,
        0.8543770909309387,
        0.01662335731089115,
        0.024893948808312416
      ]
    },
    {
      "activation": "tanh",
      "weights": [
        -0.28052282333374023,
        -0.2997508645057678,
        0.2735900282859802,
        0.13679832220077515,
        -0.3404761254787445,
        0.1692276895046234,
        0.30896735191345215,
        -0.021468156948685646,
        0.30044275522232056,
        0.026808777824044228,
        -0.297331303358078,
        0.11988984793424606,
        0.26044192910194397,
        -0.03604744002223015,
        -0.1025366261601448,
        0.14565417170524597,
        -0.06481287628412247,
        -0.05052836611866951,
        -0.24687346816062927,
        -0.2358483374118805,
        0.2519039511680603,
        0.27464547753334045,
        0.13851624727249146,
        -0.25408586859703064,
        0.3466939330101013,
        -0.18338751792907715,
        0.07654520124197006,
        0.08557876944541931,
        0.17332172393798828,
        0.21343888342380524,
        0.3320401608943939,
        0.26471540331840515,
        0.21191231906414032,
        -0.037770792841911316,
        0.16216497123241425,
        0.24825134873390198,
        0.07431095838546753,
        0.3229324221611023,
        -0.27488961815834045,
        0.26084449887275696,
        0.30638188123703003,
        -0.2690984308719635,
        0.028183553367853165,
        -0.30982598662376404,
        -0.07814903557300568,
        -0.25441479682922363,
        -0.05746106058359146,
        0.18834546208381653,
        -0.3430286645889282,
        0.20031672716140747,
        -0.0815204605460167,
        0.21119561791419983,
        -0.16159600019454956,
        0.17922882735729218,
        -0.09064431488513947,
        -0.2876003682613373,
        -0.17495207488536835,
        0.20653899013996124,
        -0.18269236385822296,
        -0.11461392045021057,
        -0.31600692868232727,
        -0.08094696700572968,
        -0.23119878768920898,
        0.035475488752126694,
        -0.01300832349807024,
        -0.3004632592201233,
        0.3386983573436737,
        0.0923110619187355,
        -0.2850267291069031,
        0.3106916844844818,
        -0.2848082482814789,
        -0.06354459375143051,
        -0.10836172848939896,
        0.2498677521944046,
        0.18700137734413147,
        -0.023376712575554848,
        0.11112051457166672,
        0.2850094139575958,
        -0.28800177574157715,
        -0.021304849535226822,
        -0.3214626610279083,
        -0.15042419731616974,
        -0.2946016490459442,
        0.16645550727844238,
        0.15409411489963531,
        -0.34797778725624084,
        -0.2701728045940399,
        -0.11752208322286606,
        0.24051854014396667,
        -0.2870692014694214,
        -0.27861741185188293,
        -0.1650353968143463,
        -0.06646741926670074,
        0.33495834469795227,
        -0.22309298813343048,
        0.20088066160678864,
        -0.19480063021183014,
        0.18136869370937347,
        -0.27427729964256287,
        0.3481082022190094,
        -0.22917602956295013,
        0.18769973516464233,
        -0.35231074690818787,
        -0.25777554512023926,
        -0.3291076123714447,
        -0.23434212803840637,
        -0.31371626257896423,
        -0.2700766623020172,
        -0.2405235320329666,
        -0.10016448050737381,
        0.21042680740356445,
        0.003463382599875331,
        0.0023087679874151945,
        -0.0070793707855045795,
        0.001107064075767994,
        -0.00001777975012373645,
        -0.002797938883304596,
        0.00042325511458329856,
        0.0019116869661957026,
        -1.4204524755477905,
        0.004390007816255093,
        0.002829598030075431,
        0.002849231706932187,
        1.1684893369674683,
        0.0015764310956001282,
        0.7822513580322266,
        -0.0024607486557215452,
        -0.000639449106529355,
        0.31852948665618896,
        0.30399295687675476,
        0.14682483673095703,
        -0.2610774338245392,
        0.19818294048309326,
        -0.28231677412986755,
        0.24204277992248535,
        0.07433290779590607,
        -0.10891764611005783,
        0.2060854434967041,
        -0.14154648780822754,
        -0.13971589505672455,
        0.2624821364879608,
        -0.2937755286693573,
        -0.038947924971580505,
        -0.2592412829399109,
        -0.026826035231351852,
        0.039141006767749786,
        0.13760223984718323,
        -0.16024985909461975,
        0.24434636533260345,
        0.2832716107368469,
        0.031072234734892845,
        -0.06329048424959183,
        -0.15268449485301971,
        -0.028480958193540573,
        -0.1604081690311432,
        0.07264529168605804,
        0.1054423525929451,
        -0.030125616118311882,
        0.12024819850921631,
        0.23327378928661346,
        -0.19890114665031433,
        0.2975226938724518,
        0.0424298495054245,
        -0.287614107131958,
        -0.33113864064216614,
        -0.3376462459564209,
        0.3200082778930664,
        -0.31717097759246826,
        -0.22479403018951416,
        -0.12649235129356384,
        -0.007630349136888981,
        -0.24602767825126648,
        0.1117091253399849,
        0.3439745306968689,
        0.1486745923757553,
        -0.23752173781394958
      ],
      "bias": [
        0,
        0,
        0,
        0,
        0,
        0,
        0,
        -0.6767930388450623,
        0,
        0,
        0
      ]
    }
  ],
  "meta": {
    "name": "System.js",
    "slug": "system-js",
    "inputs": 24,
    "outputs": 11,
    "trackIndex": 3,
    "file": "system-js.json",
    "trained": "2025-10-22T14:40:27.508Z",
    "training": {
      "feature": "mid",
      "featureType": "signed",
      "output": "hueShift",
      "orientation": "inverse",
      "epochs": 400,
      "samples": 4096,
      "learningRate": 0.01,
      "loss": 0.0001580466196173802,
      "correlation": -0.9995482563972473,
      "fitness": 0.9995482563972473,
      "mse": 0.0003088062221650034
    }
  }
}
