{
  "input": 24,
  "normalization": {
    "mean": [
      -0.00636969693005085,
      -0.0025991087313741446,
      -0.020705346018075943,
      0.00009467293421039358,
      0.0009292562026530504,
      0.5044431686401367,
      0.5043574571609497,
      0.49656879901885986,
      0.5030649304389954,
      0.01613215170800686,
      -0.0007591706234961748,
      -0.0050539905205369,
      -0.006636945530772209,
      -0.01751411333680153,
      -0.00669534457847476,
      0.008797277696430683,
      -0.008983504958450794,
      -0.0005488599417731166,
      -0.0019382874015718699,
      -0.006513341795653105,
      0.4947476089000702,
      0.5021337866783142,
      0.5010850429534912,
      0.5062656402587891
    ],
    "std": [
      0.5702459216117859,
      0.583522617816925,
      0.5758675932884216,
      0.5785985589027405,
      0.575884222984314,
      0.2895120680332184,
      0.28773045539855957,
      0.2910115122795105,
      0.28769147396087646,
      0.581018328666687,
      0.5754660367965698,
      0.5827259421348572,
      0.5808584690093994,
      0.5753359794616699,
      0.5735365748405457,
      0.5731473565101624,
      0.5711424350738525,
      0.5820966958999634,
      0.5761664509773254,
      0.5806441307067871,
      0.2875784933567047,
      0.2872599959373474,
      0.29121166467666626,
      0.28653377294540405
    ]
  },
  "layers": [
    {
      "activation": "relu",
      "weights": [
        -0.9572218656539917,
        0.020019056275486946,
        0.0871269479393959,
        -0.09167229384183884,
        0.001810360699892044,
        0.656613290309906,
        0.0029516988433897495,
        -0.004009601194411516,
        -0.003992161713540554,
        -0.002320867730304599,
        -0.0011728269746527076,
        0.003797875950112939,
        0.0022377301938831806,
        -0.0013582278043031693,
        0.0035783452913165092,
        -0.0030465214513242245,
        -0.0023324305657297373,
        -0.00378988403826952,
        0.0009060563170351088,
        -0.001014231937006116,
        -0.00492662051692605,
        0.0026865717954933643,
        0.00314115802757442,
        0.0020607078913599253,
        0.005861004814505577,
        0.33070817589759827,
        -0.3761255741119385,
        0.017130209133028984,
        -0.0025537542533129454,
        0.01749933511018753,
        0.01771441474556923,
        -0.013361410237848759,
        -0.020427798852324486,
        -0.015485430136322975,
        -0.015306477434933186,
        0.009957702830433846,
        0.019902067258954048,
        0.002489279955625534,
        0.002408073516562581,
        -0.0065703010186553,
        -0.004783727694302797,
        -0.008792984299361706,
        0.0035923155955970287,
        -0.006341458298265934,
        -0.01098220981657505,
        0.012225205078721046,
        0.009842390194535255,
        0.0074373711831867695,
        0.8533549308776855,
        -0.001607354381121695,
        -0.004274048376828432,
        -0.0003262437239754945,
        -0.0010083550587296486,
        0.00606423057615757,
        -0.0013851749245077372,
        -0.003289405722171068,
        0.0033935399260371923,
        -0.003939995542168617,
        0.0016754531534388661,
        -0.0004670877824537456,
        0.0026451307348906994,
        -0.00016487989341840148,
        0.0013576174387708306,
        -0.0014388838317245245,
        -0.0023673204705119133,
        0.002408824861049652,
        -0.0038845494855195284,
        0.004654960241168737,
        0.002081866143271327,
        -0.001120919012464583,
        0.0010674066143110394,
        0.0005861512036062777,
        -0.7321323752403259,
        0.5330443978309631,
        0.2522088587284088,
        -0.13956832885742188,
        0.0107956537976861,
        -0.7033839225769043,
        0.0043170456774532795,
        -0.016658596694469452,
        0.0053544361144304276,
        0.0019320721039548516,
        -0.001432068645954132,
        0.007440006360411644,
        0.007446968462318182,
        -0.002967718057334423,
        0.0006674744072370231,
        -0.001249621040187776,
        -0.004526121076196432,
        -0.006991611327975988,
        -0.0023216616827994585,
        0.00045543850865215063,
        0.003516151336953044,
        -0.006536820903420448,
        0.0027460032142698765,
        -0.002738181035965681,
        0.697192907333374,
        -0.5060967803001404,
        -0.2404080182313919,
        0.13475359976291656,
        -0.009356874972581863,
        0.664726972579956,
        -0.0045229289680719376,
        0.01363113708794117,
        -0.0041232043877244,
        -0.00401337118819356,
        0.0032446959521621466,
        -0.007723258342593908,
        -0.008210787549614906,
        0.004409927409142256,
        0.00031905999640002847,
        0.0007917342009022832,
        0.00017500121612101793,
        0.004676904063671827,
        0.0022844725754112005,
        -0.0018556674476712942,
        -0.0009581808117218316,
        0.006221776828169823,
        -0.0021523544564843178,
        0.001246802625246346,
        0.1848757117986679,
        -0.14904984831809998,
        0.3783147633075714,
        0.0357302688062191,
        0.01180934626609087,
        0.02251085638999939,
        0.006346607580780983,
        -0.03522904962301254,
        0.0035125610884279013,
        -0.01487948652356863,
        -0.006481786724179983,
        0.015115911141037941,
        0.014923620037734509,
        -0.010791264474391937,
        0.006758043542504311,
        -0.0043064686469733715,
        -0.007593854796141386,
        -0.008574024774134159,
        -0.006160627584904432,
        0.005793603602796793,
        -0.00046734398347325623,
        -0.0021164382342249155,
        0.010857577435672283,
        0.0017089474713429809,
        -0.2924627661705017,
        -0.6432681083679199,
        -0.028104623779654503,
        -0.022865278646349907,
        -0.01641184650361538,
        -0.11122903972864151,
        0.006929850205779076,
        0.013279827311635017,
        -0.02731425128877163,
        -0.013388232327997684,
        -0.005692173261195421,
        0.0055227275006473064,
        -0.005663095507770777,
        0.005388902500271797,
        0.0035089273005723953,
        0.001542992889881134,
        0.002560871886089444,
        0.004822172224521637,
        0.012575353495776653,
        -0.006073792465031147,
        -0.009255140088498592,
        0.013245847076177597,
        0.009894810616970062,
        0.014409663155674934,
        0.0792502909898758,
        0.1499859243631363,
        0.40128016471862793,
        -0.06179642304778099,
        -0.02615448646247387,
        0.052530668675899506,
        0.01052742637693882,
        0.02286636084318161,
        -0.03195147588849068,
        -0.006776183843612671,
        -0.005840200465172529,
        0.00783499889075756,
        0.006893316749483347,
        0.005662602838128805,
        0.004204810131341219,
        -0.0011702190386131406,
        0.003290383843705058,
        -0.0008594957762397826,
        0.011698522605001926,
        -0.013469298370182514,
        -0.00999437179416418,
        0.026757439598441124,
        0.006565581541508436,
        0.014998892322182655,
        0.0000755747314542532,
        -0.7731598019599915,
        -0.0008438293007202446,
        -0.0005484023713506758,
        0.00038630914059467614,
        -0.00018180081679020077,
        -0.0008203232428058982,
        -0.001004098798148334,
        -0.00077900878386572,
        0.000417022209148854,
        0.0038646417669951916,
        -0.0007541670929640532,
        -0.00037055352004244924,
        -0.0009257958154194057,
        -0.0014329329133033752,
        0.002597017213702202,
        -0.0003511754621285945,
        0.0013125642435625196,
        0.0018030904466286302,
        -0.002954253926873207,
        -0.0028258967213332653,
        0.002854370279237628,
        -0.002090523485094309,
        -0.0004990308079868555,
        1.0178325176239014,
        -0.02492140606045723,
        -0.09401898086071014,
        0.09437119960784912,
        -0.0016076464671641588,
        -0.6925334334373474,
        -0.0034949604887515306,
        0.005892249755561352,
        0.005393172614276409,
        0.004030189476907253,
        0.002762475749477744,
        0.0026134075596928596,
        -0.003706911811605096,
        -0.0003236351767554879,
        -0.0022667706944048405,
        0.0024026725441217422,
        0.001674926490522921,
        0.0040290262550115585,
        0.0013593967305496335,
        0.001331175328232348,
        0.0053478870540857315,
        -0.0037882900796830654,
        -0.0031703223939985037,
        -0.0037924146745353937,
        -0.0041705649346113205,
        -0.0022045052610337734,
        0.00138862116727978,
        -1.0098432302474976,
        -0.00261103268712759,
        -0.0008495260844938457,
        -0.0008556315442547202,
        0.005800255574285984,
        0.003664818126708269,
        -0.0032639310229569674,
        0.0024257430341094732,
        0.00147870066575706,
        -0.0009517153375782073,
        0.0009496132843196392,
        -0.004013451747596264,
        -0.000493225350510329,
        0.00817487109452486,
        0.0008475822396576405,
        0.0013357524294406176,
        -0.003707154421135783,
        -0.0014457136858254671,
        0.0002587557246442884,
        0.002288147807121277,
        0.0009820768609642982,
        0.8658168911933899,
        0.005293393041938543,
        0.00019950747082475573,
        -0.0015534517588093877,
        0.0014707102673128247,
        0.000773206353187561,
        0.0007085998076945543,
        -0.0018459998536854982,
        -0.001776689081452787,
        0.00249321642331779,
        -0.001718771061860025,
        -0.004449861589819193,
        -0.0018748091533780098,
        0.004346596077084541,
        -0.003246909473091364,
        0.0033301725052297115,
        0.0022573242895305157,
        0.004247255623340607,
        0.004177317954599857,
        0.0021111632231622934,
        0.001644645701162517,
        0.000023915259589557536,
        0.006090868264436722,
        0.005307120271027088,
        0.0025652481708675623,
        0.0008856261847540736,
        -0.0028786661569029093,
        1.004427433013916,
        -0.0024476596154272556,
        -0.0009162568603642285,
        -0.000028481608751462772,
        -0.001226207590661943,
        0.0035589649342000484,
        -0.0003425961476750672,
        0.0021132989786565304,
        -0.0039072479121387005,
        0.00009263531683245674,
        -0.0014179674908518791,
        -0.001520355581305921,
        0.0006336839287541807,
        0.0034439999144524336,
        -0.0026567624881863594,
        0.004649551585316658,
        -0.004939013626426458,
        0.002515969332307577,
        -0.0028865591157227755,
        -0.0036742580123245716,
        0.0022862409241497517,
        -0.0037062072660773993,
        0.2264580875635147,
        0.01796865276992321,
        0.4204605221748352,
        -0.015646735206246376,
        0.008680246770381927,
        -0.005098705179989338,
        0.013547931797802448,
        -0.014856639318168163,
        -0.01553708128631115,
        0.00007270160858752206,
        0.0020213029347360134,
        -0.022440670058131218,
        0.006278783082962036,
        0.006271797232329845,
        0.003201565006747842,
        0.0050772130489349365,
        0.013217165134847164,
        0.009349885396659374,
        0.002418644493445754,
        -0.0012683564564213157,
        0.0019823808688670397,
        0.009647954255342484,
        0.013377212919294834,
        -0.003618338843807578,
        -0.6948558688163757,
        0.00035313970874994993,
        -0.0017731462139636278,
        0.00063025375129655,
        -0.0003819410630967468,
        0.0027866109739989042,
        0.00532239954918623,
        -0.0033224390354007483,
        -0.0011335909366607666,
        -0.0008096796227619052,
        0.0028632015455514193,
        0.0007529827998951077,
        -0.0009074138943105936,
        -0.003558548865839839,
        0.00011766461102524772,
        -0.0015400940319523215,
        0.0018646101234480739,
        0.0021696211770176888,
        -0.00025255014770664275,
        -0.003081975970417261,
        -0.0017355730524286628,
        0.003458430990576744,
        0.0011422224342823029,
        0.08897805958986282,
        0.10239541530609131,
        -0.022620953619480133,
        -0.5929359197616577,
        -0.005738837644457817,
        0.020114054903388023,
        -0.004813504870980978,
        0.0017021831590682268,
        -0.007120870053768158,
        -0.012040850706398487,
        0.00025143256061710417,
        0.0019292260985821486,
        -0.015520277433097363,
        0.00009369017061544582,
        0.0030804441776126623,
        0.0013781585730612278,
        0.0018922502640634775,
        0.0077680181711912155,
        0.004359172657132149,
        0.007595990318804979,
        0.0008626913768239319,
        -0.002059423364698887,
        0.006095042452216148,
        0.006332164164632559
      ],
      "bias": [
        -0.004231322091072798,
        1.1476421356201172,
        0.8973228931427002,
        -0.2731374502182007,
        0.2548590898513794,
        1.0249022245407104,
        1.5761312246322632,
        1.0109628438949585,
        0.7520222663879395,
        -0.000536986393854022,
        -1.0648020505905151,
        -0.9571418166160583,
        -1.0419148206710815,
        1.0494800806045532,
        -0.5712926387786865,
        1.163784146308899
      ]
    },
    {
      "activation": "tanh",
      "weights": [
        0.08195504546165466,
        -0.6394866704940796,
        0.002949851332232356,
        0.15132030844688416,
        -0.15693295001983643,
        0.5074248313903809,
        -0.18394914269447327,
        0.5774604678153992,
        -0.0037617466878145933,
        -0.08130067586898804,
        0.009322567842900753,
        -0.0007306685438379645,
        -0.005962066352367401,
        0.021514268592000008,
        -0.007920600473880768,
        -0.07836205512285233,
        -0.7831341028213501,
        0.08925129473209381,
        -0.9982777833938599,
        -0.6189209818840027,
        0.6504343748092651,
        0.4121335446834564,
        -0.49935561418533325,
        0.2284395843744278,
        0.003576451912522316,
        0.7363612055778503,
        0.000038426467654062435,
        1.108219861984253,
        -0.001938485074788332,
        -0.031855545938014984,
        -0.006636542268097401,
        0.26794272661209106,
        0.1095130518078804,
        0.4721704125404358,
        0.0031542349606752396,
        0.3364720940589905,
        -0.35529202222824097,
        -0.26271852850914,
        -1.1755599975585938,
        0.3690650463104248,
        0.9253236055374146,
        -0.10444255918264389,
        -0.0005990015342831612,
        0.0038004866801202297,
        0.0022623944096267223,
        0.52529376745224,
        -0.6808499693870544,
        0.28128480911254883,
        0.31357046961784363,
        -0.1350662112236023,
        0.25665605068206787,
        0.2756010591983795,
        -0.3249489665031433,
        0.08592448383569717,
        -0.028521288186311722,
        -0.118490070104599,
        0.32133951783180237,
        0.1205475777387619,
        -0.10815580934286118,
        -0.30680614709854126,
        -0.15038113296031952,
        0.047255028039216995,
        0.300340473651886,
        -0.15262088179588318,
        0.3332583010196686,
        -0.17702323198318481,
        -0.10219711810350418,
        0.03454683721065521,
        -0.09219247847795486,
        0.08840524405241013,
        -0.3426297605037689,
        0.2557942271232605,
        -0.10924424976110458,
        -0.15113693475723267,
        0.32158163189888,
        -0.17483069002628326,
        0.35221102833747864,
        -0.06041533127427101,
        -0.1822255551815033,
        -0.24148640036582947,
        -0.020517949014902115,
        0.014971304684877396,
        0.00034742444404400885,
        -0.03703506663441658,
        0.040606819093227386,
        0.11094225943088531,
        -0.0005326226819306612,
        -0.1193690374493599,
        -0.0012259853538125753,
        0.020671900361776352,
        -0.8929882049560547,
        -0.00044616195373237133,
        0.8440882563591003,
        0.5107094049453735,
        -0.002193496795371175,
        -0.6572309732437134,
        0.09568504989147186,
        -0.10642985254526138,
        0.08264528214931488,
        -0.16716118156909943,
        0.07329162210226059,
        0.2649182379245758,
        0.0131223164498806,
        -0.13467687368392944,
        0.12315759062767029,
        0.033099304884672165,
        -0.16669808328151703,
        0.23636610805988312,
        0.13756126165390015,
        -0.07111935317516327,
        -0.2666318416595459,
        0.2384849637746811,
        0.020634202286601067,
        -0.014473142102360725,
        -0.0002189355145674199,
        0.03711321949958801,
        -0.04070387780666351,
        -0.11003303527832031,
        0.000978423748165369,
        0.1189279854297638,
        0.0013574883341789246,
        -0.02077825367450714,
        0.8929634094238281,
        0.00042356978519819677,
        -0.84405916929245,
        -0.5095378756523132,
        0.0021259242203086615,
        0.658129096031189,
        -0.28603413701057434,
        -0.305626779794693,
        -0.1528131514787674,
        0.09691128134727478,
        -0.03130114823579788,
        -0.09542404115200043,
        -0.23174916207790375,
        -0.31908270716667175,
        -0.3416614830493927,
        -0.21110215783119202,
        -0.2544694244861603,
        -0.20365583896636963,
        0.04206901043653488,
        0.10187441855669022,
        0.03624288737773895,
        -0.028846368193626404,
        -0.2851595878601074,
        0.2745378017425537,
        -0.24590031802654266,
        -0.19041170179843903,
        -0.32265377044677734,
        0.004122525919228792,
        -0.3029969334602356,
        0.2264547049999237,
        0.24915927648544312,
        -0.16204145550727844,
        -0.25594013929367065,
        0.2855835556983948,
        0.14913581311702728,
        0.06028969958424568,
        0.16980119049549103,
        0.22034640610218048,
        0.5020937323570251,
        0.022627070546150208,
        0.0027697631157934666,
        -0.4760746359825134,
        0.4941761791706085,
        0.1209624707698822,
        -0.3414042592048645,
        0.07210519909858704,
        -0.0025180901866406202,
        -0.47824087738990784,
        0.014804314821958542,
        0.004621036816388369,
        -0.00740427989512682,
        0.05673925578594208,
        0.017144188284873962,
        0.08617199957370758
      ],
      "bias": [
        -0.011201226152479649,
        0.4714656472206116,
        -0.2775438129901886,
        0,
        0,
        0.20756833255290985,
        0,
        -0.2117823213338852,
        0,
        0,
        0.03946350887417793
      ]
    }
  ],
  "meta": {
    "name": "Traffic Jam",
    "slug": "traffic-jam",
    "inputs": 24,
    "outputs": 11,
    "trackIndex": 5,
    "file": "traffic-jam.json",
    "trained": "2025-10-22T15:46:23.410Z",
    "training": {
      "feature": "sub",
      "featureType": "signed",
      "output": "fieldStrength",
      "orientation": "direct",
      "weight": 1,
      "epochs": 400,
      "samples": 4096,
      "learningRate": 0.01,
      "loss": 0.0022044272627681494,
      "correlation": 0.9994893074035645,
      "fitness": 0.9994893074035645,
      "mse": 0.00034927084925584495,
      "combinedFitness": 0.9982213973999023,
      "averageMse": 0.0014131254283711314,
      "correlations": [
        {
          "feature": "sub",
          "featureType": "signed",
          "output": "fieldStrength",
          "orientation": "direct",
          "weight": 1,
          "correlation": 0.9994893074035645,
          "fitness": 0.9994893074035645,
          "mse": 0.00034927084925584495
        },
        {
          "feature": "bass",
          "featureType": "signed",
          "output": "cohesion",
          "orientation": "direct",
          "weight": 0.5,
          "correlation": 0.9992288947105408,
          "fitness": 0.9992288947105408,
          "mse": 0.0005587735795415938
        },
        {
          "feature": "lowMid",
          "featureType": "signed",
          "output": "spawnRate",
          "orientation": "direct",
          "weight": 0.5,
          "correlation": 0.9950461983680725,
          "fitness": 0.9950461983680725,
          "mse": 0.0034561031498014927
        },
        {
          "feature": "mid",
          "featureType": "signed",
          "output": "hueShift",
          "orientation": "inverse",
          "weight": 0.5,
          "correlation": -0.9995192885398865,
          "fitness": 0.9995192885398865,
          "mse": 0.00033373956102877855
        },
        {
          "feature": "rms",
          "featureType": "positive",
          "output": "zoom",
          "orientation": "direct",
          "weight": 0.5,
          "correlation": 0.9952577352523804,
          "fitness": 0.9952577352523804,
          "mse": 0.003447022521868348
        },
        {
          "feature": "mid",
          "featureType": "signed",
          "output": "glow",
          "orientation": "direct",
          "weight": 0.5,
          "correlation": 0.9995191097259521,
          "fitness": 0.9995191097259521,
          "mse": 0.0003338427923154086
        }
      ]
    }
  }
}
