{
  "input": 24,
  "normalization": {
    "mean": [
      0,
      0,
      0,
      0,
      0,
      0,
      0,
      0,
      0,
      0,
      0,
      0,
      0,
      0,
      0,
      0,
      0,
      0,
      0,
      0,
      0,
      0,
      0,
      0
    ],
    "std": [
      1,
      1,
      1,
      1,
      1,
      1,
      1,
      1,
      1,
      1,
      1,
      1,
      1,
      1,
      1,
      1,
      1,
      1,
      1,
      1,
      1,
      1,
      1,
      1
    ]
  },
  "layers": [
    {
      "activation": "relu",
      "weights": [
        0.2577695846557617,
        0.34827670454978943,
        0.03977341577410698,
        -0.1581660658121109,
        0.2067524790763855,
        0.27979016304016113,
        -0.12387604266405106,
        0.04711557552218437,
        -0.2502003312110901,
        -0.2230079472064972,
        0.28584355115890503,
        0.06564497202634811,
        -0.22205252945423126,
        -0.2587319314479828,
        -0.14298473298549652,
        -0.07436301559209824,
        -0.10599946975708008,
        -0.29834258556365967,
        -0.061203908175230026,
        -0.22165891528129578,
        0.18067391216754913,
        -0.32738208770751953,
        0.007109832484275103,
        0.11465158313512802,
        0.3133498728275299,
        -0.25817975401878357,
        -0.3367341160774231,
        -0.16635173559188843,
        0.06467469781637192,
        0.331483393907547,
        0.14502249658107758,
        -0.18118569254875183,
        -0.2120780646800995,
        -0.16316384077072144,
        -0.09275469928979874,
        -0.03644881397485733,
        -0.2126024067401886,
        -0.13098245859146118,
        -0.001670088735409081,
        -0.15313172340393066,
        -0.2329416573047638,
        -0.2606883645057678,
        0.12242266535758972,
        0.29003021121025085,
        0.12896840274333954,
        0.013314452953636646,
        0.03726167231798172,
        0.009642872959375381,
        0.07055690139532089,
        0.28586193919181824,
        -0.2196502685546875,
        0.12117962539196014,
        -0.0711059421300888,
        -0.24356549978256226,
        0.19704169034957886,
        0.17303727567195892,
        -0.01654626801609993,
        -0.09772448241710663,
        -0.17102307081222534,
        0.31842485070228577,
        -0.0836905986070633,
        0.2572357952594757,
        0.2695625126361847,
        0.028839504346251488,
        0.1019660159945488,
        -0.27091047167778015,
        0.19505958259105682,
        -0.14485356211662292,
        -0.24764171242713928,
        -0.12408701330423355,
        0.2178148776292801,
        -0.33333876729011536,
        0.3198302686214447,
        0.28010067343711853,
        -0.0020482277031987906,
        0.11782722920179367,
        -0.15616582334041595,
        0.20862236618995667,
        -0.13547633588314056,
        -0.26756247878074646,
        -0.13115303218364716,
        0.1761506050825119,
        0.33354246616363525,
        0.21158210933208466,
        -0.23399315774440765,
        -0.15031664073467255,
        -0.1758156567811966,
        0.10552342981100082,
        0.19473896920681,
        0.053196974098682404,
        -0.23799839615821838,
        -0.1676769107580185,
        -0.016410917043685913,
        0.25763705372810364,
        -0.2234085202217102,
        -0.3083476722240448,
        -0.06692181527614594,
        0.34237295389175415,
        -0.045871131122112274,
        0.21302884817123413,
        0.023537350818514824,
        0.23563836514949799,
        -0.013787186704576015,
        -0.03332754224538803,
        -0.11420493572950363,
        -0.01681852899491787,
        0.2230270504951477,
        0.3118966817855835,
        0.0853775143623352,
        0.043550219386816025,
        0.21285799145698547,
        -0.24276511371135712,
        -0.05884259194135666,
        0.04035712778568268,
        0.18115460872650146,
        0.16573284566402435,
        0.33585643768310547,
        -0.19115236401557922,
        0.14676716923713684,
        -0.1898173689842224,
        -0.2224065661430359,
        0.34494471549987793,
        -0.16928145289421082,
        0.20549313724040985,
        -0.09628009051084518,
        0.15881440043449402,
        -0.254130095243454,
        0.12045537680387497,
        0.23231910169124603,
        -0.031748801469802856,
        0.10891412943601608,
        -0.3312511742115021,
        -0.2002188116312027,
        0.011798392981290817,
        0.2723921835422516,
        0.22579403221607208,
        -0.2863610088825226,
        -0.007200942374765873,
        0.32908108830451965,
        0.34422171115875244,
        -0.12779678404331207,
        -0.0027484088204801083,
        -0.28857892751693726,
        -0.0913616344332695,
        0.13927629590034485,
        -0.3273564577102661,
        0.062062181532382965,
        0.10280995070934296,
        0.16042311489582062,
        -0.031905483454465866,
        0.058297090232372284,
        -0.1389310210943222,
        -0.03264288231730461,
        0.13086912035942078,
        -0.3081093728542328,
        0.08216319978237152,
        -0.0701923668384552,
        0.19376464188098907,
        0.3337571620941162,
        -0.2918660640716553,
        0.04886973276734352,
        0.2811101973056793,
        -0.2884688675403595,
        -0.0684673860669136,
        -0.22169938683509827,
        0.20294252038002014,
        -0.1305830329656601,
        -0.05387406796216965,
        0.308790922164917,
        -0.11193248629570007,
        -0.11790148168802261,
        -0.3213062584400177,
        0.03776345029473305,
        -0.03888048231601715,
        0.05333394929766655,
        0.03429621458053589,
        0.3434681296348572,
        -0.3083468973636627,
        0.07789300382137299,
        -0.28665053844451904,
        0.07754058390855789,
        0.09253942966461182,
        -0.047058459371328354,
        0.19972778856754303,
        0.2503797709941864,
        -0.3305717408657074,
        0.06314732879400253,
        0.0483555793762207,
        0.21793246269226074,
        0.13411253690719604,
        -0.26475510001182556,
        -0.2226933091878891,
        0.208357572555542,
        -0.112124502658844,
        -0.22745148837566376,
        0.1522829234600067,
        0.30147629976272583,
        -0.03463437408208847,
        -0.06643885374069214,
        -0.07419775426387787,
        -0.3485410213470459,
        0.0011869985610246658,
        0.20210027694702148,
        0.01168716698884964,
        -0.14962057769298553,
        0.015419935807585716,
        0.08280082046985626,
        -0.2888696789741516,
        -0.013114373199641705,
        -0.3430442810058594,
        -0.0879761353135109,
        0.018783127889037132,
        0.007822806015610695,
        0.1984313428401947,
        0.29590243101119995,
        0.07593829929828644,
        0.07799218595027924,
        -0.2903898060321808,
        0.344273179769516,
        -0.003320537507534027,
        0.26842865347862244,
        0.208464577794075,
        0.3363838493824005,
        0.20542918145656586,
        -0.16931049525737762,
        0.2365090250968933,
        -0.1619044989347458,
        0.24543054401874542,
        0.20642606914043427,
        0.0007564904517494142,
        -0.07774216681718826,
        0.1422244906425476,
        -0.17364703118801117,
        -0.1510530412197113,
        0.10037384927272797,
        0.3032606244087219,
        0.22481302917003632,
        0.2039189636707306,
        0.14551056921482086,
        0.10791993141174316,
        -0.12822170555591583,
        0.2284993976354599,
        -0.3477984666824341,
        -0.3415681719779968,
        0.2986723780632019,
        -0.05669325962662697,
        -0.17683325707912445,
        -0.17602986097335815,
        -0.11107352375984192,
        -0.06373552232980728,
        0.31962844729423523,
        -0.037299592047929764,
        -0.2765156328678131,
        -0.3059304356575012,
        -0.0914018452167511,
        0.3375838100910187,
        -0.2608003318309784,
        0.17041239142417908,
        0.033980004489421844,
        0.05345212668180466,
        -0.07328000664710999,
        0.29804494976997375,
        -0.059637390077114105,
        0.16543270647525787,
        -0.26102232933044434,
        -0.15637005865573883,
        0.11219223588705063,
        0.11699134856462479,
        0.33266791701316833,
        0.2141561508178711,
        -0.14248260855674744,
        0.16944581270217896,
        -0.0932781994342804,
        -0.0080235805362463,
        0.1806700974702835,
        0.12665677070617676,
        0.28063273429870605,
        0.236129030585289,
        -0.08577454835176468,
        -0.218162402510643,
        -0.17086005210876465,
        0.13123472034931183,
        -0.33031973242759705,
        -0.13729436695575714,
        0.3262079656124115,
        -0.2856885492801666,
        0.2379143387079239,
        0.18968676030635834,
        -0.2582371234893799,
        0.280780553817749,
        -0.11374996602535248,
        0.30657505989074707,
        0.26696139574050903,
        0.09697265177965164,
        -0.10018002241849899,
        0.1516823172569275,
        0.12550348043441772,
        0.15856784582138062,
        -0.2467549592256546,
        -0.2560300827026367,
        -0.17665690183639526,
        -0.04846235364675522,
        -0.3178897500038147,
        -0.0022098214831203222,
        0.24339765310287476,
        -0.05972142890095711,
        0.27066975831985474,
        -0.325653612613678,
        0.3012523055076599,
        0.20536920428276062,
        -0.09700384736061096,
        0.03667975217103958,
        -0.3414408266544342,
        -0.13026250898838043,
        0.027552437037229538,
        -0.19866593182086945,
        0.05589698627591133,
        -0.0865635797381401,
        0.1970112919807434,
        -0.1158754825592041,
        -0.014033456332981586,
        0.05015766993165016,
        -0.10355363041162491,
        -0.3015671670436859,
        -0.15558600425720215,
        -0.02408139780163765,
        -0.105540931224823,
        -0.24642135202884674,
        -0.3071623742580414,
        0.12519636750221252,
        0.0005917028174735606,
        -0.2357206791639328,
        0.15053249895572662,
        0.17619548738002777,
        -0.1346152126789093,
        -0.28513288497924805,
        0.17113575339317322,
        -0.3152642548084259,
        0.21807187795639038,
        0.30388104915618896,
        0.02649598941206932,
        0.02342342771589756,
        0.31843528151512146,
        -0.09674953669309616,
        -0.19459018111228943,
        -0.12675555050373077,
        -0.3050559163093567,
        0.18884015083312988,
        -0.30023670196533203,
        0.006947449874132872,
        0.14903011918067932,
        0.34408730268478394,
        0.20271438360214233,
        0.06282366812229156,
        -0.09243510663509369,
        0.1397544890642166,
        -0.13898660242557526,
        0.3169309198856354,
        0.2721658945083618,
        0.11523167043924332,
        -0.2249993532896042,
        0.22466497123241425,
        0.18228048086166382,
        -0.3084186017513275,
        0.16687534749507904,
        0.13003602623939514,
        -0.20834295451641083,
        -0.07608043402433395,
        -0.2991570234298706,
        -0.1120033860206604,
        -0.16394183039665222,
        -0.34976500272750854,
        0.23693595826625824,
        0.17073173820972443,
        -0.25016799569129944,
        -0.30810680985450745,
        -0.3375385105609894,
        0.3359985053539276,
        0.05836210027337074,
        -0.129143625497818,
        0.0512985996901989,
        -0.07497595995664597,
        -0.32220882177352905,
        -0.12084294855594635
      ],
      "bias": [
        -0.021177995949983597,
        0.22381024062633514,
        -0.1542598158121109,
        -0.1306191086769104,
        -0.24099266529083252,
        0.14123058319091797,
        0.2086694985628128,
        -0.11689827591180801,
        -0.21663661301136017,
        0.008638216182589531,
        0.029034599661827087,
        -0.04556939750909805,
        0.052444905042648315,
        0.009505180642008781,
        -0.13826076686382294,
        0.138454407453537
      ]
    },
    {
      "activation": "tanh",
      "weights": [
        -0.2693977952003479,
        0.305180162191391,
        -0.2130890041589737,
        -0.15750539302825928,
        -0.06834885478019714,
        -0.24592259526252747,
        0.21796907484531403,
        -0.17080199718475342,
        0.015046910382807255,
        -0.276597797870636,
        0.0938548892736435,
        -0.28524160385131836,
        -0.19357523322105408,
        0.2313677817583084,
        0.016366563737392426,
        0.15672720968723297,
        -0.2511179745197296,
        0.17745327949523926,
        0.15040358901023865,
        -0.13002699613571167,
        -0.2955813705921173,
        0.17917929589748383,
        -0.3314676284790039,
        0.061409227550029755,
        0.18472956120967865,
        0.09412932395935059,
        0.13919976353645325,
        -0.3065386414527893,
        -0.22905126214027405,
        -0.09468745440244675,
        0.3126679062843323,
        0.278741717338562,
        -0.22213974595069885,
        0.29768630862236023,
        -0.21580784022808075,
        0.20339526236057281,
        -0.11521778255701065,
        -0.1384022980928421,
        0.1952497810125351,
        -0.14377476274967194,
        -0.2366941124200821,
        0.216632679104805,
        -0.1803118884563446,
        0.33965596556663513,
        0.20591993629932404,
        -0.10780032724142075,
        0.06894867867231369,
        0.2868972718715668,
        0.19175127148628235,
        -0.09143780171871185,
        -0.0750713124871254,
        0.11608564853668213,
        -0.051920611411333084,
        0.08092410862445831,
        -0.0406096987426281,
        -0.1368570476770401,
        0.2629374861717224,
        -0.2782359719276428,
        -0.16403625905513763,
        -0.2081417441368103,
        -0.1134534403681755,
        -0.07204703986644745,
        -0.31786423921585083,
        -0.021159855648875237,
        0.2147195190191269,
        0.3186289668083191,
        -0.08959272503852844,
        0.035733141005039215,
        0.13739527761936188,
        -0.1485854685306549,
        0.22233963012695312,
        0.3271971046924591,
        -0.16547037661075592,
        0.2688656747341156,
        0.014825033955276012,
        0.06126750260591507,
        -0.0905715599656105,
        0.3293897211551666,
        0.2893180549144745,
        0.05711216479539871,
        -0.328262060880661,
        0.17254260182380676,
        -0.18529891967773438,
        -0.049702662974596024,
        -0.11900079995393753,
        -0.17857593297958374,
        0.18281039595603943,
        -0.33786478638648987,
        0.3477638065814972,
        -0.12383029609918594,
        -0.13959741592407227,
        0.10250457376241684,
        0.1486787497997284,
        -0.25040915608406067,
        0.30453020334243774,
        0.11920202523469925,
        0.2401398867368698,
        -0.0026153791695833206,
        -0.08546717464923859,
        -0.2240736186504364,
        -0.18679854273796082,
        0.3220518231391907,
        0.2514328360557556,
        0.11585374921560287,
        -0.028905199840664864,
        -0.25359466671943665,
        -0.1063123419880867,
        0.3320654630661011,
        -0.261152058839798,
        -0.04663443565368652,
        -0.0646807923913002,
        0.026959525421261787,
        -0.23886604607105255,
        0.05298704281449318,
        -0.13978274166584015,
        -0.18051832914352417,
        0.10050453990697861,
        0.017546890303492546,
        -0.24359828233718872,
        -0.017864573746919632,
        0.20252788066864014,
        -0.023885643109679222,
        -0.1029706671833992,
        -0.1667541116476059,
        -0.09847736358642578,
        0.053040727972984314,
        -0.044933468103408813,
        -0.31704941391944885,
        0.3299178183078766,
        -0.0054140472784638405,
        0.008188189938664436,
        0.04087372124195099,
        -0.15771135687828064,
        0.19253486394882202,
        0.2900036573410034,
        0.3188271224498749,
        0.29892846941947937,
        0.05780427157878876,
        0.08508939296007156,
        0.08380746096372604,
        0.17604081332683563,
        -0.20529188215732574,
        -0.27877724170684814,
        -0.0883287563920021,
        0.31416863203048706,
        0.06324153393507004,
        -0.004615417215973139,
        0.2748248875141144,
        0.14992408454418182,
        0.11638408899307251,
        -0.016959549859166145,
        -0.30928096175193787,
        -0.05815878137946129,
        0.18676142394542694,
        0.1420462280511856,
        -0.3270356357097626,
        -0.1359439492225647,
        0.1716761589050293,
        -0.3120145797729492,
        -0.11314946413040161,
        0.11150579899549484,
        0.3417220115661621,
        0.10859694331884384,
        -0.26617002487182617,
        0.2560107409954071,
        0.12691858410835266,
        0.05705536901950836,
        -0.2396107017993927,
        -0.2250535786151886,
        0.01595267653465271,
        -0.21777746081352234,
        0.023201318457722664,
        -0.16120712459087372,
        -0.3242061138153076,
        -0.013543099164962769,
        0.0842023566365242
      ],
      "bias": [
        0.01992049440741539,
        0.08013205230236053,
        -0.023773055523633957,
        -0.05721999704837799,
        0.17945800721645355,
        0.04750264436006546,
        -0.05533909052610397,
        -0.01991363987326622,
        -0.1763514131307602,
        0.17268285155296326,
        -0.13887718319892883
      ]
    }
  ],
  "meta": {
    "name": "Traffic Jam",
    "slug": "traffic-jam",
    "inputs": 24,
    "outputs": 11,
    "placeholder": true,
    "generated": "2025-10-21T15:22:04.837Z"
  }
}
