{
  "input": 24,
  "normalization": {
    "mean": [
      0,
      0,
      0,
      0,
      0,
      0,
      0,
      0,
      0,
      0,
      0,
      0,
      0,
      0,
      0,
      0,
      0,
      0,
      0,
      0,
      0,
      0,
      0,
      0
    ],
    "std": [
      1,
      1,
      1,
      1,
      1,
      1,
      1,
      1,
      1,
      1,
      1,
      1,
      1,
      1,
      1,
      1,
      1,
      1,
      1,
      1,
      1,
      1,
      1,
      1
    ]
  },
  "layers": [
    {
      "activation": "relu",
      "weights": [
        0.2662774324417114,
        -0.28726938366889954,
        0.05253603309392929,
        0.2520672082901001,
        0.308278888463974,
        0.06172802671790123,
        0.021306635811924934,
        0.22566193342208862,
        0.002253625774756074,
        0.13540929555892944,
        0.046988777816295624,
        0.12362904101610184,
        0.1590462476015091,
        0.10249388962984085,
        -0.14293798804283142,
        -0.05466417595744133,
        0.21177878975868225,
        0.11207875609397888,
        -0.1091003566980362,
        0.059426043182611465,
        0.1315668821334839,
        -0.32760921120643616,
        0.18144677579402924,
        -0.23073576390743256,
        -0.04099446162581444,
        -0.005097818095237017,
        0.024373015388846397,
        -0.24827489256858826,
        0.08604887872934341,
        -0.13680729269981384,
        0.15258128941059113,
        -0.13935893774032593,
        0.0825624167919159,
        -0.1257653534412384,
        0.064346544444561,
        -0.18922069668769836,
        0.20823226869106293,
        0.05217846482992172,
        -0.10133150964975357,
        -0.2517748773097992,
        -0.30582404136657715,
        0.008993587456643581,
        -0.17683668434619904,
        -0.10557660460472107,
        0.22555503249168396,
        -0.3468082845211029,
        0.15403427183628082,
        0.30177780985832214,
        0.17453661561012268,
        -0.22515113651752472,
        0.3389359414577484,
        0.03682029992341995,
        -0.2209634780883789,
        0.19155173003673553,
        0.2504754662513733,
        -0.2501833736896515,
        0.2778993844985962,
        -0.00744086317718029,
        0.3062576353549957,
        0.05180301517248154,
        0.13250385224819183,
        -0.057535670697689056,
        0.13728655874729156,
        0.08601651340723038,
        -0.18826483190059662,
        0.08531340211629868,
        0.05669882521033287,
        -0.002397880656644702,
        0.32124993205070496,
        -0.04428665339946747,
        0.23807689547538757,
        -0.08837344497442245,
        -0.1136319488286972,
        -0.05364171415567398,
        -0.16935789585113525,
        -0.34888264536857605,
        0.1299237757921219,
        -0.06115787848830223,
        0.016819247975945473,
        0.2425346076488495,
        0.3121964633464813,
        -0.22757555544376373,
        -0.08029842376708984,
        0.13252906501293182,
        0.3482685089111328,
        0.11560827493667603,
        -0.29740315675735474,
        0.18402068316936493,
        -0.31778615713119507,
        0.06604384630918503,
        0.10824431478977203,
        -0.01829395443201065,
        -0.2310505211353302,
        0.19812090694904327,
        -0.05994925647974014,
        -0.10939870029687881,
        -0.029479872435331345,
        0.06938733160495758,
        0.09548576921224594,
        0.1601126790046692,
        0.2284313589334488,
        0.20157642662525177,
        -0.025425946339964867,
        -0.1186724454164505,
        -0.2599702477455139,
        0.30263131856918335,
        0.03781614080071449,
        0.11926940083503723,
        0.33067670464515686,
        0.04246958717703819,
        -0.2788986265659332,
        0.17425692081451416,
        0.09596089273691177,
        0.3241187334060669,
        -0.251101016998291,
        -0.15142981708049774,
        -0.16358108818531036,
        -0.15346752107143402,
        0.12027383595705032,
        -0.09549111127853394,
        0.2701563835144043,
        0.10556817799806595,
        -0.1912459135055542,
        0.02669421024620533,
        -0.12841124832630157,
        0.1451493799686432,
        0.2611771523952484,
        0.07596602290868759,
        -0.2658903896808624,
        0.27171003818511963,
        0.22975711524486542,
        0.2426539957523346,
        0.0006270628073252738,
        -0.309913694858551,
        0.0822046548128128,
        0.047323595732450485,
        0.22886212170124054,
        0.19712238013744354,
        -0.13495266437530518,
        0.25081759691238403,
        -0.294698029756546,
        0.27227234840393066,
        -0.2230227291584015,
        0.06788851320743561,
        -0.14131306111812592,
        -0.23249463737010956,
        -0.004599980544298887,
        0.2851225733757019,
        0.1537495255470276,
        0.11454308778047562,
        -0.03686179220676422,
        -0.1773570328950882,
        0.08983124047517776,
        -0.3028671145439148,
        0.1663541942834854,
        -0.06776642054319382,
        -0.20766806602478027,
        -0.11559276282787323,
        -0.05474874749779701,
        0.23646359145641327,
        0.12053881585597992,
        -0.3418247103691101,
        -0.07938475906848907,
        -0.3116734027862549,
        -0.2692619562149048,
        -0.3374714255332947,
        0.17970061302185059,
        -0.191410094499588,
        0.18282420933246613,
        -0.12133867293596268,
        -0.26892992854118347,
        -0.14224590361118317,
        0.32264137268066406,
        -0.10835254192352295,
        0.2386903315782547,
        -0.07448209822177887,
        0.024421555921435356,
        0.2060125768184662,
        -0.31724756956100464,
        0.01096556056290865,
        -0.11854569613933563,
        0.2962217628955841,
        -0.1530342996120453,
        0.03466302156448364,
        0.26128634810447693,
        0.03217720985412598,
        -0.3136087954044342,
        -0.08663525432348251,
        0.04722771421074867,
        -0.030904201790690422,
        -0.30111804604530334,
        0.19659434258937836,
        0.2246541678905487,
        -0.30715057253837585,
        -0.16114816069602966,
        0.3219670355319977,
        -0.2505751848220825,
        -0.23170198500156403,
        0.2889917492866516,
        -0.10603132843971252,
        -0.18182387948036194,
        -0.06476657837629318,
        0.02633361890912056,
        0.30611974000930786,
        0.0046483795158565044,
        -0.05003627389669418,
        0.24347370862960815,
        0.1108698695898056,
        0.13313262164592743,
        -0.19170773029327393,
        0.30164796113967896,
        0.30725061893463135,
        -0.2993033230304718,
        0.2864041030406952,
        -0.23531055450439453,
        0.09310546517372131,
        -0.11892396211624146,
        -0.3084249496459961,
        0.061521418392658234,
        0.2996041178703308,
        -0.15771278738975525,
        0.02854430489242077,
        -0.23944516479969025,
        -0.30564236640930176,
        -0.2384156584739685,
        -0.30794286727905273,
        -0.008433741517364979,
        -0.2287491112947464,
        -0.3487837314605713,
        0.19352278113365173,
        0.2699224054813385,
        -0.3249753713607788,
        0.2233065366744995,
        0.2274661511182785,
        0.12083251029253006,
        0.22402746975421906,
        0.3017720580101013,
        0.27540549635887146,
        0.1683533787727356,
        0.24862723052501678,
        -0.0893692672252655,
        -0.2645573318004608,
        0.2982487976551056,
        -0.18535247445106506,
        0.0915684700012207,
        -0.3364125192165375,
        0.05917568504810333,
        0.03823019191622734,
        -0.15422846376895905,
        -0.13825152814388275,
        -0.08168858289718628,
        0.2683870494365692,
        -0.1258847415447235,
        0.016210000962018967,
        0.33372077345848083,
        -0.03483632206916809,
        0.12241189926862717,
        -0.31600871682167053,
        0.26678675413131714,
        0.19629989564418793,
        0.32142096757888794,
        -0.1580653339624405,
        -0.1551322191953659,
        -0.29619669914245605,
        0.34658142924308777,
        -0.11583094298839569,
        0.1633971929550171,
        0.2604449689388275,
        -0.07000802457332611,
        0.19005578756332397,
        0.2509784996509552,
        -0.2588455379009247,
        -0.19077199697494507,
        -0.09309197962284088,
        0.09474989771842957,
        0.17351175844669342,
        -0.07137392461299896,
        0.09614309668540955,
        0.11953748762607574,
        0.024592559784650803,
        -0.25917181372642517,
        -0.16501487791538239,
        -0.15476571023464203,
        -0.26588958501815796,
        -0.15797840058803558,
        0.28668034076690674,
        -0.033345818519592285,
        -0.1975574493408203,
        -0.01583428680896759,
        -0.2741955816745758,
        0.3197728991508484,
        0.1902337521314621,
        -0.29448845982551575,
        0.06689482927322388,
        -0.06595904380083084,
        -0.17032451927661896,
        -0.29510796070098877,
        -0.32329943776130676,
        -0.3381721079349518,
        -0.33793923258781433,
        -0.30670562386512756,
        -0.06572918593883514,
        0.05707748979330063,
        0.1095779687166214,
        -0.1676415652036667,
        -0.12652945518493652,
        0.12379395216703415,
        0.13442599773406982,
        -0.2640919089317322,
        0.33997559547424316,
        0.009428818710148335,
        -0.34110721945762634,
        0.2418200671672821,
        0.2837391495704651,
        -0.3450750410556793,
        -0.10628766566514969,
        0.056760210543870926,
        -0.2675118148326874,
        -0.08455601334571838,
        -0.051391106098890305,
        0.2512926459312439,
        -0.011767431162297726,
        0.34999293088912964,
        0.30630195140838623,
        0.1391380876302719,
        0.04408477246761322,
        0.3412165641784668,
        0.2638930082321167,
        -0.06667304784059525,
        -0.2794814705848694,
        -0.2344190627336502,
        0.1767689734697342,
        -0.3094406723976135,
        0.17206664383411407,
        0.05317496135830879,
        0.02044595032930374,
        -0.22670026123523712,
        -0.3377319574356079,
        0.0937267392873764,
        -0.033549848943948746,
        -0.10794118046760559,
        0.06949973106384277,
        0.2655697464942932,
        -0.22211353480815887,
        -0.21343070268630981,
        -0.33583420515060425,
        0.2656934857368469,
        -0.14598767459392548,
        0.2544603943824768,
        -0.28336167335510254,
        -0.09906479716300964,
        -0.15497058629989624,
        0.2022581249475479,
        0.09471838921308517,
        0.05935683101415634,
        0.16772042214870453,
        0.16848471760749817,
        0.03649662435054779,
        0.3472329080104828,
        -0.2616911232471466,
        -0.12013321369886398,
        -0.17991305887699127,
        0.3082754611968994,
        0.21584831178188324,
        0.2828812897205353,
        -0.00442021619528532,
        0.29988566040992737,
        -0.22563602030277252,
        0.060259751975536346,
        0.1978999227285385,
        -0.2831367254257202,
        0.3311024606227875,
        -0.13960911333560944,
        0.15230396389961243,
        0.12809692323207855,
        -0.1889723539352417,
        0.3027261793613434,
        0.1586950123310089,
        0.34876272082328796,
        -0.2537935674190521,
        0.18014873564243317,
        0.05312742292881012,
        0.0072153531946241856,
        0.14221884310245514
      ],
      "bias": [
        0.1894230991601944,
        -0.07751541584730148,
        0.20565475523471832,
        -0.2371615320444107,
        -0.201735258102417,
        -0.06330190598964691,
        -0.08784060925245285,
        0.008408578112721443,
        0.05103721097111702,
        -0.1325230449438095,
        -0.06923294067382812,
        -0.11397986859083176,
        0.22310543060302734,
        -0.15674802660942078,
        -0.028426963835954666,
        0.19002370536327362
      ]
    },
    {
      "activation": "tanh",
      "weights": [
        0.23474012315273285,
        -0.2614366412162781,
        -0.13047248125076294,
        -0.13463465869426727,
        0.23282206058502197,
        -0.27749571204185486,
        0.011450553312897682,
        0.1863146275281906,
        -0.1985936313867569,
        0.2202993631362915,
        -0.10441871732473373,
        -0.05927314609289169,
        -0.16588100790977478,
        -0.07884357124567032,
        -0.322611004114151,
        0.15237197279930115,
        -0.057122066617012024,
        -0.17258742451667786,
        0.29970434308052063,
        0.2875221371650696,
        0.1913415640592575,
        -0.22087746858596802,
        0.09116216003894806,
        0.28414180874824524,
        0.08310677856206894,
        -0.32060718536376953,
        0.0018296546768397093,
        -0.2841547429561615,
        0.0364571176469326,
        0.0002062032581306994,
        0.030927153304219246,
        0.23275156319141388,
        0.16873924434185028,
        -0.007939176633954048,
        0.342903733253479,
        -0.11546193808317184,
        -0.24588367342948914,
        -0.012036154046654701,
        0.24111203849315643,
        -0.03837789595127106,
        0.17099525034427643,
        -0.2805958092212677,
        -0.024258915334939957,
        -0.25833481550216675,
        0.03311656787991524,
        0.11459875106811523,
        -0.1979144811630249,
        0.32322221994400024,
        -0.09678536653518677,
        -0.2185240238904953,
        0.29983434081077576,
        -0.04715773090720177,
        0.34088635444641113,
        -0.04431576654314995,
        -0.05702850967645645,
        0.2146078646183014,
        0.333705335855484,
        0.06189975142478943,
        -0.14951367676258087,
        -0.14814019203186035,
        -0.18029874563217163,
        0.18954035639762878,
        0.1947360336780548,
        0.04500274732708931,
        -0.011515770107507706,
        -0.2748575210571289,
        -0.15967704355716705,
        -0.1434900164604187,
        -0.03732466325163841,
        -0.11084304004907608,
        0.23747321963310242,
        -0.30921512842178345,
        -0.1342601180076599,
        0.3075549006462097,
        -0.1810443252325058,
        0.24541249871253967,
        -0.27646586298942566,
        -0.03796376287937164,
        0.07364170253276825,
        -0.3096863329410553,
        0.014114481396973133,
        0.007107391953468323,
        -0.12704527378082275,
        -0.18945427238941193,
        0.295068621635437,
        -0.2149813175201416,
        -0.09224998205900192,
        -0.31110045313835144,
        0.12505576014518738,
        -0.20412686467170715,
        0.3451390266418457,
        0.14697077870368958,
        -0.22842492163181305,
        0.19896987080574036,
        0.01575523242354393,
        0.3401865065097809,
        0.07887120544910431,
        -0.20521962642669678,
        -0.260476291179657,
        -0.045607227832078934,
        -0.14095741510391235,
        0.25623399019241333,
        -0.20533967018127441,
        0.17836841940879822,
        -0.12858550250530243,
        0.10656137019395828,
        0.06698612868785858,
        -0.009685279801487923,
        0.1281789392232895,
        -0.25511130690574646,
        -0.0724804699420929,
        0.10284588485956192,
        0.033896442502737045,
        0.220652773976326,
        -0.1859673410654068,
        0.18923990428447723,
        -0.021434441208839417,
        -0.29823875427246094,
        0.2960209250450134,
        0.34857630729675293,
        -0.33289071917533875,
        0.3186095058917999,
        0.1246858760714531,
        0.258273720741272,
        -0.18625682592391968,
        -0.03287912532687187,
        -0.08932830393314362,
        -0.1117904856801033,
        0.2605397403240204,
        -0.17042505741119385,
        -0.2907116413116455,
        0.020474335178732872,
        -0.28486037254333496,
        -0.20507773756980896,
        -0.2244039922952652,
        -0.055773016065359116,
        -0.1809825748205185,
        -0.022111225873231888,
        0.1855631172657013,
        0.03481423482298851,
        -0.25365740060806274,
        -0.1710745096206665,
        0.29054149985313416,
        0.28170648217201233,
        -0.33137282729148865,
        -0.3112522065639496,
        -0.0044638486579060555,
        -0.19327759742736816,
        0.25991255044937134,
        -0.04644836485385895,
        -0.2328413873910904,
        0.30387866497039795,
        0.2961826026439667,
        -0.23251615464687347,
        0.005257653538137674,
        -0.12230461835861206,
        -0.03015066869556904,
        0.2300216108560562,
        0.2713540196418762,
        -0.26263558864593506,
        0.33576953411102295,
        -0.2610730826854706,
        -0.2644040286540985,
        -0.05586415156722069,
        -0.13587833940982819,
        0.22123253345489502,
        -0.222076877951622,
        -0.17452287673950195,
        -0.3369300663471222,
        0.24943065643310547,
        0.1046818420290947,
        0.09383616596460342,
        0.2616732120513916,
        0.0691177248954773,
        0.028425367549061775,
        -0.08526434749364853
      ],
      "bias": [
        0.18139110505580902,
        0.020349683240056038,
        -0.19473008811473846,
        0.05248737707734108,
        0.05766446143388748,
        -0.07636824995279312,
        -0.026325063779950142,
        0.0315120667219162,
        -0.14538665115833282,
        -0.1511835753917694,
        0.023758145049214363
      ]
    }
  ],
  "meta": {
    "name": "Traffic Jam",
    "slug": "traffic-jam",
    "inputs": 24,
    "outputs": 11,
    "placeholder": true,
    "generated": "2025-10-21T20:41:45.381Z"
  }
}
