{
  "input": 24,
  "normalization": {
    "mean": [
      -0.00636969693005085,
      -0.0025991087313741446,
      -0.020705346018075943,
      0.00009467293421039358,
      0.0009292562026530504,
      0.5044431686401367,
      0.5043574571609497,
      0.49656879901885986,
      0.5030649304389954,
      0.01613215170800686,
      -0.0007591706234961748,
      -0.0050539905205369,
      -0.006636945530772209,
      -0.01751411333680153,
      -0.00669534457847476,
      0.008797277696430683,
      -0.008983504958450794,
      -0.0005488599417731166,
      -0.0019382874015718699,
      -0.006513341795653105,
      0.4947476089000702,
      0.5021337866783142,
      0.5010850429534912,
      0.5062656402587891
    ],
    "std": [
      0.5702459216117859,
      0.583522617816925,
      0.5758675932884216,
      0.5785985589027405,
      0.575884222984314,
      0.2895120680332184,
      0.28773045539855957,
      0.2910115122795105,
      0.28769147396087646,
      0.581018328666687,
      0.5754660367965698,
      0.5827259421348572,
      0.5808584690093994,
      0.5753359794616699,
      0.5735365748405457,
      0.5731473565101624,
      0.5711424350738525,
      0.5820966958999634,
      0.5761664509773254,
      0.5806441307067871,
      0.2875784933567047,
      0.2872599959373474,
      0.29121166467666626,
      0.28653377294540405
    ]
  },
  "layers": [
    {
      "activation": "relu",
      "weights": [
        -0.8665304780006409,
        0.046070266515016556,
        0.09305109083652496,
        -0.08637184649705887,
        0.0028987706173211336,
        0.37553858757019043,
        0.007840126752853394,
        0.023092418909072876,
        0.008805528283119202,
        -0.034687381237745285,
        -0.22391822934150696,
        -0.02305004373192787,
        0.3033907115459442,
        -0.03207726404070854,
        -0.007078344468027353,
        0.010568879544734955,
        0.08149043470621109,
        0.03737511485815048,
        0.060938719660043716,
        0.015604219399392605,
        0.021356496959924698,
        0.032707322388887405,
        -0.01930583454668522,
        -0.01527706254273653,
        0.000566782895475626,
        0.16976982355117798,
        -0.12395710498094559,
        0.008841730654239655,
        0.04512389749288559,
        -0.14805921912193298,
        -0.017462514340877533,
        0.019302982836961746,
        -0.002733752364292741,
        -0.022310279309749603,
        0.3413659930229187,
        -0.024264249950647354,
        0.03793606534600258,
        -0.005358351394534111,
        0.020082389935851097,
        0.010766301304101944,
        0.006479211617261171,
        0.043096475303173065,
        0.05251287668943405,
        -0.005602632649242878,
        0.012818082235753536,
        0.03348975628614426,
        -0.034035325050354004,
        0.02184114418923855,
        0.21519188582897186,
        -0.008278649300336838,
        -0.04161795601248741,
        0.0020309933461248875,
        0.022385457530617714,
        0.03346649929881096,
        -0.026661409065127373,
        -0.02548590674996376,
        -0.007898314855992794,
        -0.026456477120518684,
        -0.5637326836585999,
        0.010403301566839218,
        -0.025039726868271828,
        0.025507530197501183,
        0.00469549186527729,
        -0.0033281969372183084,
        -0.028904510661959648,
        -0.015632491558790207,
        -0.00972316600382328,
        0.007344583980739117,
        0.024643918499350548,
        0.03296918049454689,
        0.003657437628135085,
        0.01288515329360962,
        -0.6137055158615112,
        0.5671029090881348,
        0.11987973749637604,
        -0.10800392180681229,
        -0.0007696998654864728,
        -0.37301191687583923,
        0.04417741671204567,
        0.031124897301197052,
        0.028383513912558556,
        0.06181542947888374,
        -0.40183261036872864,
        0.05913962796330452,
        -0.39485499262809753,
        -0.02798648178577423,
        0.020374758169054985,
        0.023380547761917114,
        -0.011272650212049484,
        -0.0067414878867566586,
        0.02331794984638691,
        0.00935810524970293,
        0.01377297192811966,
        0.041782401502132416,
        -0.043564323335886,
        0.009716207161545753,
        0.5689796805381775,
        -0.5259670615196228,
        -0.10894706845283508,
        0.09936320036649704,
        -0.003970328252762556,
        0.3465225398540497,
        -0.03865588828921318,
        -0.031829074025154114,
        -0.02613060362637043,
        -0.054790105670690536,
        0.37517279386520386,
        -0.05421552434563637,
        0.3594443202018738,
        0.026395700871944427,
        -0.014563475735485554,
        -0.02214021235704422,
        0.00757179781794548,
        0.010356086306273937,
        -0.024164775386452675,
        -0.009794839657843113,
        -0.016456238925457,
        -0.0479700043797493,
        0.04346588999032974,
        -0.011155003681778908,
        0.06488993763923645,
        -0.06055489555001259,
        0.10087291896343231,
        -0.0026154580991715193,
        0.04101523756980896,
        -0.08473575115203857,
        -0.023258918896317482,
        0.05649682879447937,
        0.013127602636814117,
        -0.002138629788532853,
        -0.20406325161457062,
        -0.030167147517204285,
        0.3280048966407776,
        -0.03817814588546753,
        0.032505929470062256,
        -0.005554994568228722,
        -0.0070680477656424046,
        -0.003904609940946102,
        0.018872328102588654,
        -0.035123471170663834,
        0.010934502817690372,
        -0.05792859196662903,
        -0.025545760989189148,
        -0.003937043249607086,
        -0.045326340943574905,
        -0.0664343312382698,
        0.04129840061068535,
        -0.02684943564236164,
        0.0055608018301427364,
        0.07805180549621582,
        -0.0074432361871004105,
        -0.006898021325469017,
        0.015263357199728489,
        0.007744017522782087,
        0.22219130396842957,
        -0.008089357055723667,
        -0.7298809289932251,
        0.018011203035712242,
        -0.011293654330074787,
        -0.025074061006307602,
        0.011424114927649498,
        0.0058851782232522964,
        0.002314070938155055,
        -0.018006831407546997,
        -0.031683169305324554,
        0.00802941620349884,
        -0.03013245202600956,
        0.016991568729281425,
        -0.034424569457769394,
        0.0512082539498806,
        0.10636783391237259,
        0.0035081058740615845,
        0.02162311039865017,
        -0.10012707859277725,
        0.006552104372531176,
        0.011407776735723019,
        -0.0020856820046901703,
        -0.0053895325399935246,
        0.44288405776023865,
        0.016338098794221878,
        0.035101309418678284,
        -0.005455513019114733,
        -0.004891198594123125,
        -0.017636969685554504,
        -0.01814280077815056,
        -0.03187530115246773,
        -0.0164178516715765,
        -0.017654892057180405,
        0.028844306245446205,
        0.0033407823648303747,
        -0.0018858592957258224,
        -0.029794657602906227,
        0.07591108232736588,
        -0.2566855251789093,
        -0.07277458161115646,
        -0.04455762729048729,
        0.016693178564310074,
        0.019925862550735474,
        0.020105119794607162,
        0.027894681319594383,
        -0.02362183667719364,
        -0.026339160278439522,
        -0.1715877205133438,
        -0.0877477154135704,
        -0.018819771707057953,
        -0.005466063506901264,
        -0.03994045779109001,
        -0.059048138558864594,
        0.04721877723932266,
        0.0533415861427784,
        0.03202817216515541,
        -0.04357540234923363,
        -0.04009825736284256,
        -0.0393071211874485,
        -0.006533010397106409,
        -0.03699176013469696,
        0.9774855971336365,
        0.02682618610560894,
        -0.08298920094966888,
        0.07415907829999924,
        -0.010220014490187168,
        -0.40627771615982056,
        -0.019013436511158943,
        0.02076050452888012,
        -0.04382515698671341,
        0.017501922324299812,
        0.07936958223581314,
        -0.040842074900865555,
        -0.3350095748901367,
        -0.05108549818396568,
        -0.0041336785070598125,
        -0.011220214888453484,
        -0.011834155768156052,
        0.028980424627661705,
        -0.024999020621180534,
        -0.015998540446162224,
        0.007035069167613983,
        -0.046120114624500275,
        -0.012075535021722317,
        0.03964488208293915,
        -0.021413244307041168,
        -0.01145486906170845,
        -0.01691233180463314,
        -0.9609261155128479,
        0.026622334495186806,
        -0.03819836676120758,
        0.030644463375210762,
        -0.005253962241113186,
        0.027443980798125267,
        -0.03865987807512283,
        0.030695362016558647,
        -0.032037749886512756,
        -0.01840793900191784,
        0.038482557982206345,
        -0.043826550245285034,
        0.03751659393310547,
        -0.05064152926206589,
        0.0018729231087490916,
        0.03137866407632828,
        0.0162968710064888,
        -0.022552557289600372,
        0.007012439426034689,
        -0.01789349690079689,
        0.02056249789893627,
        0.0029394542798399925,
        0.0047485120594501495,
        -0.0003394275554455817,
        -0.0005591638037003577,
        0.00031197594944387674,
        -0.0003245830303058028,
        0.0036401478573679924,
        -0.0014191672671586275,
        -0.0019073624862357974,
        -0.0026780387852340937,
        1.0631299018859863,
        0.001454074983485043,
        0.003503368468955159,
        -0.0003483424661681056,
        -0.002066931454464793,
        -0.0018116565188392997,
        -0.0006177111645229161,
        -0.003657079068943858,
        -0.0010849650716409087,
        0.005959324538707733,
        0.00040020342567004263,
        -0.0008679124875925481,
        -0.000741060299333185,
        -0.004732623230665922,
        -0.005824110470712185,
        0.009555548429489136,
        0.006176057271659374,
        0.9814625382423401,
        -0.007342087104916573,
        0.009215143509209156,
        0.027901049703359604,
        -0.03384812921285629,
        0.016657235100865364,
        -0.004612412769347429,
        0.0816776305437088,
        0.010507537052035332,
        -0.010271389037370682,
        0.014344173483550549,
        0.01528792455792427,
        0.0009193418663926423,
        -0.016033200547099113,
        -0.025044210255146027,
        0.005761554464697838,
        -0.0019996443297713995,
        0.013994976878166199,
        0.02494043856859207,
        -0.009127871133387089,
        0.01663995161652565,
        0.07720999419689178,
        0.17353372275829315,
        0.04109027236700058,
        0.3257865607738495,
        0.010116768069565296,
        -0.14669957756996155,
        0.04141868278384209,
        0.01754237711429596,
        0.029783301055431366,
        -0.012096328660845757,
        -0.033552102744579315,
        -0.09063442796468735,
        0.10465513169765472,
        -0.013431787490844727,
        0.018811408430337906,
        -0.01726362854242325,
        -0.05068100988864899,
        0.031004412099719048,
        -0.017311973497271538,
        0.05620313808321953,
        -0.060869377106428146,
        0.002341670449823141,
        0.03188667446374893,
        0.028778737410902977,
        -0.0025778936687856913,
        0.0042121075093746185,
        -0.0023239441215991974,
        -0.0018479959107935429,
        0.006022418383508921,
        -0.0007817278383299708,
        -0.002667525550350547,
        -0.004592102020978928,
        -0.0021938385907560587,
        -0.004307998809963465,
        -0.9071807861328125,
        -0.0011106551392003894,
        -0.0041433838196098804,
        0.0028429501689970493,
        0.004556005820631981,
        0.0007221651612780988,
        0.0018194526201114058,
        0.003595686750486493,
        0.000763394171372056,
        -0.0026055804919451475,
        0.0050032236613333225,
        0.0006398442783392966,
        -0.0011368641862645745,
        -0.0008847005665302277,
        0.050959423184394836,
        0.03838270530104637,
        -0.02614058554172516,
        -0.4158599078655243,
        0.014522437937557697,
        -0.03540009632706642,
        -0.014228275045752525,
        -0.0136415408924222,
        -0.012423439882695675,
        -0.004012285266071558,
        0.16646969318389893,
        -0.006649563554674387,
        0.051964472979307175,
        0.01977689191699028,
        0.0015978757292032242,
        -0.04580897465348244,
        -0.03676512837409973,
        -0.01000907365232706,
        0.018435746431350708,
        0.015930578112602234,
        0.021569449454545975,
        -0.00013306339678820223,
        -0.009109502658247948,
        0.04729432240128517
      ],
      "bias": [
        -0.019669294357299805,
        1.1086740493774414,
        1.2841122150421143,
        -0.2965376079082489,
        0.2625347077846527,
        1.0522688627243042,
        1.7186477184295654,
        1.0497794151306152,
        0.9049583077430725,
        0.015774544328451157,
        -1.0919708013534546,
        -1.1715643405914307,
        -1.04344642162323,
        0.9356657266616821,
        -0.978873074054718,
        1.0591152906417847
      ]
    },
    {
      "activation": "tanh",
      "weights": [
        0.08195504546165466,
        -0.6394866704940796,
        0.002949851332232356,
        0.15132030844688416,
        -0.15693295001983643,
        0.5074248313903809,
        -0.18394914269447327,
        0.5774604678153992,
        -0.0037617466878145933,
        -0.08130067586898804,
        0.009322567842900753,
        -0.0007306685438379645,
        -0.005962066352367401,
        0.021514268592000008,
        -0.007920600473880768,
        -0.07836205512285233,
        -0.7831341028213501,
        0.08925129473209381,
        -0.9982777833938599,
        -0.6189209818840027,
        0.6504343748092651,
        0.4121335446834564,
        -0.49935561418533325,
        0.2284395843744278,
        0.003576451912522316,
        0.7363612055778503,
        0.000038426467654062435,
        1.108219861984253,
        -0.001938485074788332,
        -0.031855545938014984,
        -0.006636542268097401,
        0.26794272661209106,
        0.1095130518078804,
        0.4721704125404358,
        0.0031542349606752396,
        0.3364720940589905,
        -0.35529202222824097,
        -0.26271852850914,
        -1.1755599975585938,
        0.3690650463104248,
        0.9253236055374146,
        -0.10444255918264389,
        -0.0005990015342831612,
        0.0038004866801202297,
        0.0022623944096267223,
        0.52529376745224,
        -0.6808499693870544,
        0.28128480911254883,
        0.009214420802891254,
        -0.23217199742794037,
        0.4386037290096283,
        0.1908174455165863,
        -0.20710261166095734,
        0.11946966499090195,
        -0.09314050525426865,
        -0.2939508557319641,
        0.17557495832443237,
        -0.007694964297115803,
        -0.006485280115157366,
        -0.9509736895561218,
        -0.0011576119577512145,
        -0.00816764310002327,
        1.0201259851455688,
        -0.07409100979566574,
        0.3332583010196686,
        -0.17702323198318481,
        -0.10219711810350418,
        0.03454683721065521,
        -0.09219247847795486,
        0.08840524405241013,
        -0.3426297605037689,
        0.2557942271232605,
        -0.10924424976110458,
        -0.15113693475723267,
        0.32158163189888,
        -0.17483069002628326,
        0.35221102833747864,
        -0.06041533127427101,
        -0.1822255551815033,
        -0.24148640036582947,
        -0.020517949014902115,
        0.014971304684877396,
        0.00034742444404400885,
        -0.03703506663441658,
        0.040606819093227386,
        0.11094225943088531,
        -0.0005326226819306612,
        -0.1193690374493599,
        -0.0012259853538125753,
        0.020671900361776352,
        -0.8929882049560547,
        -0.00044616195373237133,
        0.8440882563591003,
        0.5107094049453735,
        -0.002193496795371175,
        -0.6572309732437134,
        0.09568504989147186,
        -0.10642985254526138,
        0.08264528214931488,
        -0.16716118156909943,
        0.07329162210226059,
        0.2649182379245758,
        0.0131223164498806,
        -0.13467687368392944,
        0.12315759062767029,
        0.033099304884672165,
        -0.16669808328151703,
        0.23636610805988312,
        0.13756126165390015,
        -0.07111935317516327,
        -0.2666318416595459,
        0.2384849637746811,
        0.020634202286601067,
        -0.014473142102360725,
        -0.0002189355145674199,
        0.03711321949958801,
        -0.04070387780666351,
        -0.11003303527832031,
        0.000978423748165369,
        0.1189279854297638,
        0.0013574883341789246,
        -0.02077825367450714,
        0.8929634094238281,
        0.00042356978519819677,
        -0.84405916929245,
        -0.5095378756523132,
        0.0021259242203086615,
        0.658129096031189,
        -0.28603413701057434,
        -0.305626779794693,
        -0.1528131514787674,
        0.09691128134727478,
        -0.03130114823579788,
        -0.09542404115200043,
        -0.23174916207790375,
        -0.31908270716667175,
        -0.3416614830493927,
        -0.21110215783119202,
        -0.2544694244861603,
        -0.20365583896636963,
        0.04206901043653488,
        0.10187441855669022,
        0.03624288737773895,
        -0.028846368193626404,
        -0.2851595878601074,
        0.2745378017425537,
        -0.24590031802654266,
        -0.19041170179843903,
        -0.32265377044677734,
        0.004122525919228792,
        -0.3029969334602356,
        0.2264547049999237,
        0.24915927648544312,
        -0.16204145550727844,
        -0.25594013929367065,
        0.2855835556983948,
        0.14913581311702728,
        0.06028969958424568,
        0.16980119049549103,
        0.22034640610218048,
        0.22928228974342346,
        0.11625193804502487,
        0.06707271188497543,
        -0.1670057475566864,
        0.17316699028015137,
        0.22561104595661163,
        -0.5128650665283203,
        0.10344540327787399,
        0.07724980264902115,
        -0.21529521048069,
        0.0011774759041145444,
        -0.07017946243286133,
        -0.015090571716427803,
        0.1548665463924408,
        -0.06127690523862839,
        0.11590822041034698
      ],
      "bias": [
        -0.011201226152479649,
        0.4714656472206116,
        -0.2775438129901886,
        0.019615016877651215,
        0,
        0.20756833255290985,
        0,
        -0.2117823213338852,
        0,
        0,
        0.026059923693537712
      ]
    }
  ],
  "meta": {
    "name": "Traffic Jam",
    "slug": "traffic-jam",
    "inputs": 24,
    "outputs": 11,
    "trackIndex": 5,
    "file": "traffic-jam.json",
    "trained": "2025-10-23T21:39:14.153Z",
    "training": {
      "mode": "tune",
      "feature": "deltaBass",
      "featureType": "signed",
      "output": "repelImpulse",
      "orientation": "inverse",
      "weight": 1,
      "epochs": 400,
      "samples": 4096,
      "learningRate": 0.01,
      "loss": 0.0001558097719680518,
      "correlation": -0.9995579123497009,
      "fitness": 0.9995579123497009,
      "mse": 0.0003048138169106096,
      "combinedFitness": 0.9995579123497009,
      "averageMse": 0.0003048138169106096,
      "correlations": [
        {
          "feature": "deltaBass",
          "featureType": "signed",
          "output": "repelImpulse",
          "orientation": "inverse",
          "weight": 1,
          "correlation": -0.9995579123497009,
          "fitness": 0.9995579123497009,
          "mse": 0.0003048138169106096
        }
      ],
      "previous": {
        "mode": "tune",
        "feature": "deltaMid",
        "featureType": "signed",
        "output": "zoom",
        "orientation": "direct",
        "weight": 1,
        "epochs": 400,
        "samples": 4096,
        "learningRate": 0.01,
        "loss": 0.0017107281601056457,
        "correlation": 0.9953887462615967,
        "fitness": 0.9953887462615967,
        "mse": 0.003278118558228016,
        "combinedFitness": 0.9953887462615967,
        "averageMse": 0.003278118558228016,
        "correlations": [
          {
            "feature": "deltaMid",
            "featureType": "signed",
            "output": "zoom",
            "orientation": "direct",
            "weight": 1,
            "correlation": 0.9953887462615967,
            "fitness": 0.9953887462615967,
            "mse": 0.003278118558228016
          }
        ],
        "previous": {
          "feature": "sub",
          "featureType": "signed",
          "output": "fieldStrength",
          "orientation": "direct",
          "weight": 1,
          "epochs": 400,
          "samples": 4096,
          "learningRate": 0.01,
          "loss": 0.0022044272627681494,
          "correlation": 0.9994893074035645,
          "fitness": 0.9994893074035645,
          "mse": 0.00034927084925584495,
          "combinedFitness": 0.9982213973999023,
          "averageMse": 0.0014131254283711314,
          "correlations": [
            {
              "feature": "sub",
              "featureType": "signed",
              "output": "fieldStrength",
              "orientation": "direct",
              "weight": 1,
              "correlation": 0.9994893074035645,
              "fitness": 0.9994893074035645,
              "mse": 0.00034927084925584495
            },
            {
              "feature": "bass",
              "featureType": "signed",
              "output": "cohesion",
              "orientation": "direct",
              "weight": 0.5,
              "correlation": 0.9992288947105408,
              "fitness": 0.9992288947105408,
              "mse": 0.0005587735795415938
            },
            {
              "feature": "lowMid",
              "featureType": "signed",
              "output": "spawnRate",
              "orientation": "direct",
              "weight": 0.5,
              "correlation": 0.9950461983680725,
              "fitness": 0.9950461983680725,
              "mse": 0.0034561031498014927
            },
            {
              "feature": "mid",
              "featureType": "signed",
              "output": "hueShift",
              "orientation": "inverse",
              "weight": 0.5,
              "correlation": -0.9995192885398865,
              "fitness": 0.9995192885398865,
              "mse": 0.00033373956102877855
            },
            {
              "feature": "rms",
              "featureType": "positive",
              "output": "zoom",
              "orientation": "direct",
              "weight": 0.5,
              "correlation": 0.9952577352523804,
              "fitness": 0.9952577352523804,
              "mse": 0.003447022521868348
            },
            {
              "feature": "mid",
              "featureType": "signed",
              "output": "glow",
              "orientation": "direct",
              "weight": 0.5,
              "correlation": 0.9995191097259521,
              "fitness": 0.9995191097259521,
              "mse": 0.0003338427923154086
            }
          ]
        }
      }
    }
  }
}
