{
  "input": 24,
  "normalization": {
    "mean": [
      0,
      0,
      0,
      0,
      0,
      0,
      0,
      0,
      0,
      0,
      0,
      0,
      0,
      0,
      0,
      0,
      0,
      0,
      0,
      0,
      0,
      0,
      0,
      0
    ],
    "std": [
      1,
      1,
      1,
      1,
      1,
      1,
      1,
      1,
      1,
      1,
      1,
      1,
      1,
      1,
      1,
      1,
      1,
      1,
      1,
      1,
      1,
      1,
      1,
      1
    ]
  },
  "layers": [
    {
      "activation": "relu",
      "weights": [
        -0.118338,
        -0.022521,
        -0.071661,
        0.049863,
        0.166585,
        0.036143,
        -0.163523,
        0.137139,
        0.214936,
        -0.210143,
        0.149947,
        -0.104857,
        -0.054589,
        0.099553,
        -0.100093,
        -0.082141,
        0.191797,
        -0.208274,
        0.071202,
        -0.085066,
        0.122564,
        -0.152572,
        0.106174,
        0,
        -0.129355,
        0.229296,
        0.236285,
        0.043734,
        0.211166,
        0.173033,
        0.153342,
        0.145241,
        0.050445,
        -0.097407,
        0.041557,
        -0.016224,
        0.210017,
        0.08392,
        -0.092255,
        0.098335,
        -0.166961,
        0.004534,
        0.064804,
        -0.060449,
        0.037893,
        0.242141,
        0.058004,
        0,
        -0.041543,
        0.181638,
        0.011464,
        0.158192,
        -0.185098,
        -0.07135,
        0.228364,
        -0.070312,
        -0.192861,
        -0.055262,
        -0.044698,
        0.005707,
        0.249179,
        0.162074,
        0.017213,
        -0.170889,
        0.147454,
        0.185223,
        0.201858,
        0.241312,
        0.153365,
        0.033608,
        0.083705,
        0,
        -0.072881,
        -0.106731,
        0.040712,
        0.135408,
        -0.151631,
        -0.097534,
        -0.144675,
        -0.084048,
        -0.075871,
        0.014759,
        0.115164,
        0.24951,
        -0.159701,
        0.184139,
        -0.011843,
        -0.0659,
        -0.003581,
        -0.159839,
        -0.098271,
        0.144075,
        0.222497,
        0.003577,
        -0.094627,
        0,
        -0.184469,
        0.023668,
        0.013781,
        0.236849,
        -0.071312,
        0.235497,
        -0.15536,
        -0.2127,
        0.226303,
        0.097741,
        0.110256,
        -0.214391,
        0.032181,
        -0.120618,
        -0.012759,
        0.147307,
        -0.041152,
        -0.187266,
        -0.094944,
        0.058341,
        -0.081552,
        0.219454,
        -0.019024,
        0,
        -0.010974,
        -0.024083,
        -0.163744,
        -0.198752,
        -0.041526,
        0.208518,
        -0.026856,
        -0.224994,
        -0.005168,
        -0.139227,
        -0.238024,
        -0.087502,
        -0.138367,
        0.208877,
        -0.121823,
        0.004194,
        0.245566,
        0.173641,
        0.243405,
        -0.197665,
        0.225995,
        -0.153964,
        -0.158013,
        0,
        -0.068515,
        -0.028485,
        0.214398,
        -0.091061,
        -0.120348,
        0.233888,
        0.007351,
        -0.127621,
        0.046537,
        -0.165363,
        0.191522,
        0.058147,
        -0.04953,
        -0.035356,
        -0.211904,
        -0.210554,
        -0.179393,
        0.242037,
        -0.202712,
        0.139311,
        -0.074059,
        0.098699,
        0.14478,
        0,
        0.21873,
        0.117685,
        0.190695,
        0.189207,
        0.008213,
        0.186609,
        0.152945,
        -0.04528,
        -0.134361,
        -0.23813,
        0.143442,
        -0.12227,
        -0.031824,
        0.102916,
        0.247333,
        -0.018141,
        0.071108,
        -0.238989,
        -0.063816,
        0.020187,
        0.091353,
        0.211961,
        -0.097278,
        0,
        0.248838,
        0.148515,
        0.186585,
        0.216385,
        0.120984,
        -0.178738,
        0.050508,
        -0.130016,
        -0.184683,
        0.001846,
        0.20983,
        -0.087213,
        0.138052,
        -0.143417,
        0.144241,
        -0.00965,
        -0.037458,
        0.025106,
        -0.205869,
        0.236389,
        -0.004465,
        -0.183809,
        0.153276,
        0,
        0.08702,
        -0.215831,
        -0.217014,
        0.043649,
        0.212674,
        0.002742,
        0.185445,
        0.173917,
        -0.111996,
        0.183333,
        -0.027225,
        0.208204,
        0.245086,
        0.179337,
        0.043729,
        0.196661,
        -0.019765,
        -0.224033,
        0.167527,
        -0.155587,
        0.209754,
        -0.013209,
        0.073244,
        0,
        0.22046,
        -0.205089,
        0.200373,
        -0.159531,
        0.133066,
        0.081473,
        -0.033931,
        -0.150961,
        0.023227,
        0.124102,
        -0.166955,
        0.170673,
        -0.147238,
        0.090925,
        -0.218417,
        -0.089691,
        0.088596,
        0.168598,
        -0.089266,
        0.129964,
        0.009794,
        -0.086839,
        0.171382,
        0,
        0.112926,
        0.188923,
        0.117015,
        0.058774,
        -0.148913,
        0.124277,
        -0.112678,
        -0.196401,
        -0.236764,
        0.124554,
        -0.243858,
        0.225648,
        -0.222879,
        0.172534,
        -0.232378,
        0.039148,
        0.033091,
        0.119324,
        0.112547,
        0.023811,
        0.092139,
        0.185728,
        0.005569,
        0,
        0.100668,
        0.156143,
        -0.127682,
        0.125423,
        -0.023243,
        -0.06687,
        0.004746,
        0.063444,
        0.147716,
        -0.094621,
        -0.234118,
        -0.149304,
        0.172345,
        -0.116845,
        0.191329,
        -0.240972,
        -0.241784,
        -0.148086,
        0.229876,
        0.19637,
        -0.177636,
        0.245766,
        0.095458,
        0,
        0.141577,
        -0.183848,
        -0.094971,
        -0.237817,
        0.189135,
        0.228354,
        0.100669,
        0.078984,
        -0.100951,
        -0.194484,
        0.133457,
        0.105468,
        -0.227787,
        0.15368,
        0.140635,
        -0.104487,
        -0.203417,
        0.0105,
        -0.132075,
        0.080187,
        0.134464,
        0.101848,
        -0.210329,
        0,
        0.226539,
        0.146222,
        0.121942,
        0.084945,
        0.07384,
        0.070734,
        0.001078,
        0.102425,
        -0.126178,
        -0.19211,
        -0.249977,
        0.071847,
        0.186485,
        -0.126542,
        -0.204876,
        -0.055142,
        0.10803,
        0.221622,
        -0.156789,
        -0.126926,
        0.032491,
        -0.244487,
        -0.059658,
        0,
        -0.043846,
        0.173612,
        -0.028963,
        0.013458,
        0.017717,
        0.198547,
        -0.195682,
        -0.190987,
        -0.208114,
        -0.050063,
        -0.121934,
        -0.232359,
        0.028307,
        -0.142077,
        -0.032815,
        -0.001086,
        0.148426,
        -0.231325,
        0.128928,
        0.145264,
        0.210853,
        0.040973,
        0.067921,
        0
      ],
      "bias": [
        0.019653,
        0.027446,
        -0.045028,
        -0.027457,
        -0.095041,
        0.090451,
        0.024758,
        -0.058127,
        0.024859,
        0.01147,
        0.047848,
        0.081231,
        -0.09525,
        -0.023113,
        0.040696,
        0.031628
      ]
    },
    {
      "activation": "tanh",
      "weights": [
        0.185708,
        -0.154907,
        0.096495,
        -0.166771,
        0.135792,
        0.054634,
        -0.041868,
        0.08519,
        -0.176357,
        0.104331,
        -0.1359,
        0.179895,
        0.126355,
        0.055732,
        -0.089238,
        0.046193,
        -0.166435,
        0.08893,
        0.056646,
        -0.004692,
        0.170625,
        -0.108744,
        -0.186999,
        -0.014489,
        -0.023153,
        -0.038005,
        -0.157455,
        -0.106567,
        0.170079,
        -0.16064,
        0.147678,
        0.048273,
        -0.171145,
        -0.04401,
        0.029392,
        0.185136,
        -0.076618,
        -0.070797,
        -0.101865,
        -0.126225,
        0.026597,
        0.192274,
        -0.082123,
        -0.021037,
        -0.163448,
        -0.027026,
        0.164632,
        0.008759,
        -0.158616,
        -0.074374,
        -0.119318,
        -0.09308,
        -0.041892,
        -0.177075,
        -0.094246,
        0.145693,
        -0.123514,
        -0.186221,
        0.066396,
        0.075259,
        0.139232,
        -0.146595,
        -0.195183,
        0.186056,
        -0.110214,
        0.011954,
        0.028417,
        0.040254,
        0.118924,
        0.067888,
        -0.138722,
        0.128614,
        0.141439,
        0.092385,
        0.078857,
        0.008988,
        -0.065844,
        -0.168997,
        -0.092867,
        -0.017292,
        -0.133476,
        -0.011143,
        -0.032548,
        0.065126,
        -0.144969,
        -0.17443,
        -0.151668,
        0.106529,
        0.072706,
        -0.033767,
        0.085465,
        -0.180294,
        -0.155062,
        -0.165371,
        0.031179,
        -0.029597,
        -0.137113,
        0.014985,
        -0.005406,
        0.086913,
        0.145709,
        -0.05153,
        0.133742,
        0.145069,
        -0.117133,
        -0.129272,
        -0.119121,
        0.184863,
        0.187771,
        -0.003336,
        0.182259,
        -0.085035,
        0.093994,
        0.058751,
        0.133606,
        0.061383,
        -0.174688,
        0.005098,
        0.092541,
        0.116505,
        -0.129171,
        -0.036456,
        -0.150787,
        0.044794,
        0.096426,
        0.078003,
        0.136381,
        0.001363,
        0.023792,
        0.123335,
        -0.1398,
        -0.180307,
        -0.091723,
        0.104983,
        -0.067039,
        0.12475,
        -0.053172,
        -0.050382,
        -0.110968,
        -0.17227,
        -0.152749,
        0.093054,
        -0.034745,
        0.058703,
        -0.109945,
        0.071684,
        -0.172955,
        -0.106606,
        -0.085884,
        -0.076332,
        0.021439,
        0.130357,
        -0.042573,
        0.106153,
        -0.061646,
        -0.12521,
        -0.015826,
        0.134746,
        0.161294,
        -0.014766,
        0,
        0,
        0,
        0,
        0,
        0,
        0,
        0,
        0,
        0,
        0,
        0,
        0,
        0,
        0,
        0
      ],
      "bias": [
        -0.042654,
        -0.037123,
        -0.00281,
        -0.015144,
        0.048105,
        0.031928,
        -0.048096,
        -0.00612,
        0.00263,
        -0.023095,
        0
      ]
    }
  ],
  "meta": {
    "name": "Traffic Jam",
    "slug": "traffic-jam",
    "inputs": 24,
    "outputs": 11,
    "placeholder": true
  }
}
