{
  "input": 24,
  "normalization": {
    "mean": [
      -0.00636969693005085,
      -0.0025991087313741446,
      -0.020705346018075943,
      0.00009467293421039358,
      0.0009292562026530504,
      0.5044431686401367,
      0.5043574571609497,
      0.49656879901885986,
      0.5030649304389954,
      0.01613215170800686,
      -0.0007591706234961748,
      -0.0050539905205369,
      -0.006636945530772209,
      -0.01751411333680153,
      -0.00669534457847476,
      0.008797277696430683,
      -0.008983504958450794,
      -0.0005488599417731166,
      -0.0019382874015718699,
      -0.006513341795653105,
      0.4947476089000702,
      0.5021337866783142,
      0.5010850429534912,
      0.5062656402587891
    ],
    "std": [
      0.5702459216117859,
      0.583522617816925,
      0.5758675932884216,
      0.5785985589027405,
      0.575884222984314,
      0.2895120680332184,
      0.28773045539855957,
      0.2910115122795105,
      0.28769147396087646,
      0.581018328666687,
      0.5754660367965698,
      0.5827259421348572,
      0.5808584690093994,
      0.5753359794616699,
      0.5735365748405457,
      0.5731473565101624,
      0.5711424350738525,
      0.5820966958999634,
      0.5761664509773254,
      0.5806441307067871,
      0.2875784933567047,
      0.2872599959373474,
      0.29121166467666626,
      0.28653377294540405
    ]
  },
  "layers": [
    {
      "activation": "relu",
      "weights": [
        -0.8451141119003296,
        0.008375758305191994,
        0.10421127825975418,
        -0.04549812152981758,
        0.006000866647809744,
        0.36854273080825806,
        -0.003943633288145065,
        -0.02136521227657795,
        0.005194412544369698,
        -0.007481943815946579,
        -0.165781632065773,
        0.025771886110305786,
        0.368527352809906,
        0.030550148338079453,
        -0.021495087072253227,
        -0.004368316847831011,
        0.042552512139081955,
        0.010810919106006622,
        0.026358002796769142,
        0.03137804940342903,
        -0.0029857000336050987,
        0.01131004560738802,
        0.005822093226015568,
        -0.019244907423853874,
        -0.0033022211864590645,
        0.16138717532157898,
        -0.11884886771440506,
        0.015036605298519135,
        0.038131456822156906,
        -0.13401563465595245,
        -0.01939805969595909,
        0.016299225389957428,
        -0.0043108826503157616,
        -0.015323988161981106,
        0.32383424043655396,
        -0.015641741454601288,
        0.06319993734359741,
        -0.0017737946473062038,
        0.01600932888686657,
        0.006595336366444826,
        0.0006956743309274316,
        0.042876459658145905,
        0.04611983522772789,
        -0.010562864132225513,
        0.0034396075643599033,
        0.024920189753174782,
        -0.02423206716775894,
        0.02480056695640087,
        0.19578681886196136,
        0.01164163462817669,
        -0.044357310980558395,
        0.011309248395264149,
        0.003189394949004054,
        0.03673233464360237,
        -0.020906154066324234,
        -0.024915171787142754,
        -0.006100288592278957,
        -0.034639280289411545,
        -0.5374658107757568,
        0.010771307162940502,
        0.012927567586302757,
        0.022805193439126015,
        0.004381951875984669,
        -0.005099310539662838,
        -0.03530052676796913,
        -0.011295398697257042,
        -0.003292485373094678,
        0.0062729069031775,
        0.013693424873054028,
        0.04196225851774216,
        -0.011515755206346512,
        0.01695302128791809,
        -0.5436771512031555,
        0.43397197127342224,
        0.09782951325178146,
        -0.08868308365345001,
        0.010417194105684757,
        -0.32025593519210815,
        0.04009981453418732,
        0.05447756126523018,
        0.042287591844797134,
        0.022434458136558533,
        -0.3517356812953949,
        0.0627237856388092,
        -0.642487108707428,
        0.006114200688898563,
        0.037450168281793594,
        0.008300726301968098,
        -0.06945454329252243,
        -0.01010385062545538,
        -0.006757713388651609,
        0.014056741259992123,
        0.03206629678606987,
        0.04568730294704437,
        -0.0064128004014492035,
        -0.007402763236314058,
        0.5076922178268433,
        -0.43313223123550415,
        -0.06971713155508041,
        0.09242896735668182,
        -0.0010820308234542608,
        0.30676648020744324,
        -0.05843210965394974,
        -0.07219749689102173,
        -0.02423837035894394,
        -0.0357818529009819,
        0.33687010407447815,
        -0.06265440583229065,
        0.5172237157821655,
        0.007839000783860683,
        -0.041856035590171814,
        -0.020803749561309814,
        0.023279566317796707,
        0.02287028729915619,
        0.0014846280682832003,
        -0.005471037235110998,
        -0.021792205050587654,
        -0.051747165620326996,
        -0.001470946241170168,
        0.014695657417178154,
        0.04833219200372696,
        -0.03750137984752655,
        0.07047311961650848,
        -0.004101872444152832,
        0.02246696874499321,
        -0.06296945363283157,
        -0.02398853749036789,
        0.05581391975283623,
        0.0039136591367423534,
        -0.002088604960590601,
        -0.17864252626895905,
        -0.014929082244634628,
        0.35378819704055786,
        -0.015219519846141338,
        0.027515238150954247,
        -0.011726531200110912,
        -0.015208409167826176,
        0.007033973000943661,
        0.0175775159150362,
        -0.017926044762134552,
        0.003866649465635419,
        -0.042760834097862244,
        -0.007483022753149271,
        -0.005549576599150896,
        -0.001312853884883225,
        -0.04175905883312225,
        0.0073501006700098515,
        -0.06583928316831589,
        0.026024600490927696,
        0.04585650563240051,
        -0.025957584381103516,
        0.014964536763727665,
        0.003620011266320944,
        0.005462304223328829,
        0.1426195353269577,
        0.011815166100859642,
        -0.8316685557365417,
        -0.009140241891145706,
        -0.008790921419858932,
        -0.031119290739297867,
        0.018866317346692085,
        0.0008669554372318089,
        -0.003978927619755268,
        -0.010053806006908417,
        -0.012082723900675774,
        0.0056952787563204765,
        -0.023522719740867615,
        0.007232232019305229,
        -0.02512444369494915,
        0.04032811149954796,
        0.08999208360910416,
        0.06106412410736084,
        -0.013695557601749897,
        -0.0657438114285469,
        0.027498308569192886,
        0.011044601909816265,
        0.017663007602095604,
        0.014743809588253498,
        0.3823312520980835,
        0.016313651576638222,
        0.12525303661823273,
        0.022244768217206,
        -0.01807493157684803,
        -0.05508358031511307,
        -0.013094539754092693,
        -0.046066198498010635,
        -0.04796774685382843,
        0.03256942331790924,
        0.011997192166745663,
        0.007728891912847757,
        0.007999304682016373,
        -0.022997187450528145,
        0.07086583971977234,
        -0.24694596230983734,
        -0.06992404907941818,
        -0.042350348085165024,
        0.014880437403917313,
        0.023078113794326782,
        0.01699933037161827,
        0.02576587162911892,
        -0.022157100960612297,
        -0.023485923185944557,
        -0.16172005236148834,
        -0.08321663737297058,
        -0.018157267943024635,
        -0.006218351423740387,
        -0.03955870121717453,
        -0.05702340230345726,
        0.04433177411556244,
        0.05035748332738876,
        0.031016681343317032,
        -0.04079371690750122,
        -0.03971356153488159,
        -0.03869420662522316,
        -0.007105906493961811,
        -0.034430280327796936,
        0.8796162605285645,
        -0.0335652232170105,
        -0.10265446454286575,
        0.054751116782426834,
        -0.017739109694957733,
        -0.3198260962963104,
        -0.02845964953303337,
        0.009346818551421165,
        -0.0371377132833004,
        0.016657890751957893,
        0.1715298593044281,
        -0.04558255895972252,
        -0.5222426652908325,
        0.008939490653574467,
        0.015463384799659252,
        0.01986837573349476,
        -0.06395862251520157,
        -0.02903824672102928,
        -0.05870111659169197,
        -0.02332136780023575,
        -0.006747343577444553,
        -0.02739456295967102,
        -0.023400742560625076,
        0.04079902544617653,
        -0.0006767832674086094,
        0.0072037591598927975,
        0.0018240991048514843,
        0.003148959018290043,
        -0.0029506993014365435,
        -0.000034677330404520035,
        -0.004199892748147249,
        -0.002837798558175564,
        0.002779258182272315,
        0.0025677415542304516,
        0.0027758856303989887,
        -0.002369115361943841,
        1.0493890047073364,
        -0.0014645106857642531,
        -0.0011712260311469436,
        -0.009260597638785839,
        0.0031857010908424854,
        0.001887515652924776,
        0.0029056554194539785,
        0.000024186650989577174,
        -0.0006560112233273685,
        -0.002832354512065649,
        -0.0028139702044427395,
        -0.008065098896622658,
        -0.0006529263337142766,
        0.0005970739875920117,
        -0.0015816616360098124,
        0.0037122657522559166,
        0.0009678357164375484,
        -0.008715934120118618,
        0.004120313562452793,
        -0.0034947271924465895,
        -0.004329699091613293,
        0.0015401793643832207,
        1.058769941329956,
        0.006080237682908773,
        0.004682120401412249,
        -0.004090629518032074,
        -0.00019572683959268034,
        -0.0012580020120367408,
        -0.0015778189990669489,
        -0.0051368544809520245,
        0.0017192919040098786,
        0.00781632773578167,
        0.008678358979523182,
        -0.009220168925821781,
        0.0020843513775616884,
        -0.0067349704913794994,
        -0.00285013928078115,
        -0.002197244204580784,
        -0.003153123427182436,
        0.0024688937701284885,
        0.001151266973465681,
        0.003459587227553129,
        0.0015026598703116179,
        0.0028633566107600927,
        0.003054377157241106,
        0.00087929010624066,
        -0.0018731500022113323,
        -0.0009483073372393847,
        -1.0470988750457764,
        0.0014607551274821162,
        0.001386392628774047,
        -0.0055263591930270195,
        0.0018678589258342981,
        -0.003238003933802247,
        -0.00021513976389542222,
        0.001044697593897581,
        -0.004110995214432478,
        -0.00037078539025969803,
        0.0011438035871833563,
        -0.00780991418287158,
        0.06584569066762924,
        0.11917827278375626,
        0.02826189622282982,
        0.09798762202262878,
        0.005884111393243074,
        -0.11141926795244217,
        0.0197611004114151,
        0.009172906167805195,
        -0.002099062781780958,
        -0.021511003375053406,
        0.01286978181451559,
        -0.06899218261241913,
        -0.20015668869018555,
        0.006883354391902685,
        0.002143745543435216,
        -0.03320736065506935,
        -0.0650138109922409,
        0.02169770561158657,
        -0.007373708765953779,
        0.04868669435381889,
        -0.04381926730275154,
        -0.006562420167028904,
        0.020206496119499207,
        0.012829300947487354,
        -0.018753016367554665,
        0.030292565003037453,
        -0.005833050701767206,
        0.0040764217264950275,
        0.03662834316492081,
        0.0031709405593574047,
        0.0064834184013307095,
        -0.004777373280376196,
        -0.029369428753852844,
        -0.00868652481585741,
        -0.9065445065498352,
        0.024905992671847343,
        0.01732330396771431,
        0.023367879912257195,
        0.034827131778001785,
        0.0007784990011714399,
        0.005401491653174162,
        0.0019217111403122544,
        -0.02191079966723919,
        0.00032338715391233563,
        -0.06887485086917877,
        -0.011328163556754589,
        0.008086965419352055,
        -0.027682127431035042,
        -0.00643143430352211,
        0.04851805791258812,
        -0.015252765268087387,
        -0.04142357036471367,
        0.014102243818342686,
        -0.007320699281990528,
        -0.006913205608725548,
        -0.0018831111956387758,
        -0.002186665078625083,
        0.004655756521970034,
        0.05948439985513687,
        -0.009473958984017372,
        0.5407994389533997,
        -0.008072682656347752,
        -0.006559100467711687,
        -0.012864057905972004,
        -0.006112629547715187,
        0.009968159720301628,
        -0.009149754419922829,
        0.007782514672726393,
        -0.03001748025417328,
        0.012997206300497055,
        -0.006603475660085678,
        0.016664953902363777
      ],
      "bias": [
        -0.007086670957505703,
        1.0673009157180786,
        1.2348837852478027,
        -0.31639131903648376,
        0.30677735805511475,
        1.032812237739563,
        1.70327889919281,
        1.037745714187622,
        0.8673078417778015,
        -0.022313298657536507,
        -1.1705076694488525,
        -1.1745436191558838,
        -1.1429364681243896,
        0.8841578364372253,
        -0.9721248745918274,
        1.0965626239776611
      ]
    },
    {
      "activation": "tanh",
      "weights": [
        0.08195504546165466,
        -0.6394866704940796,
        0.002949851332232356,
        0.15132030844688416,
        -0.15693295001983643,
        0.5074248313903809,
        -0.18394914269447327,
        0.5774604678153992,
        -0.0037617466878145933,
        -0.08130067586898804,
        0.009322567842900753,
        -0.0007306685438379645,
        -0.005962066352367401,
        0.021514268592000008,
        -0.007920600473880768,
        -0.07836205512285233,
        -0.7831341028213501,
        0.08925129473209381,
        -0.9982777833938599,
        -0.6189209818840027,
        0.6504343748092651,
        0.4121335446834564,
        -0.49935561418533325,
        0.2284395843744278,
        0.003576451912522316,
        0.7363612055778503,
        0.000038426467654062435,
        1.108219861984253,
        -0.001938485074788332,
        -0.031855545938014984,
        -0.006636542268097401,
        0.26794272661209106,
        0.1095130518078804,
        0.4721704125404358,
        0.0031542349606752396,
        0.3364720940589905,
        -0.35529202222824097,
        -0.26271852850914,
        -1.1755599975585938,
        0.3690650463104248,
        0.9253236055374146,
        -0.10444255918264389,
        -0.0005990015342831612,
        0.0038004866801202297,
        0.0022623944096267223,
        0.52529376745224,
        -0.6808499693870544,
        0.28128480911254883,
        0.009214420802891254,
        -0.23217199742794037,
        0.4386037290096283,
        0.1908174455165863,
        -0.20710261166095734,
        0.11946966499090195,
        -0.09314050525426865,
        -0.2939508557319641,
        0.17557495832443237,
        -0.007694964297115803,
        -0.006485280115157366,
        -0.9509736895561218,
        -0.0011576119577512145,
        -0.00816764310002327,
        1.0201259851455688,
        -0.07409100979566574,
        0.3332583010196686,
        -0.17702323198318481,
        -0.10219711810350418,
        0.03454683721065521,
        -0.09219247847795486,
        0.08840524405241013,
        -0.3426297605037689,
        0.2557942271232605,
        -0.10924424976110458,
        -0.15113693475723267,
        0.32158163189888,
        -0.17483069002628326,
        0.35221102833747864,
        -0.06041533127427101,
        -0.1822255551815033,
        -0.24148640036582947,
        -0.020517949014902115,
        0.014971304684877396,
        0.00034742444404400885,
        -0.03703506663441658,
        0.040606819093227386,
        0.11094225943088531,
        -0.0005326226819306612,
        -0.1193690374493599,
        -0.0012259853538125753,
        0.020671900361776352,
        -0.8929882049560547,
        -0.00044616195373237133,
        0.8440882563591003,
        0.5107094049453735,
        -0.002193496795371175,
        -0.6572309732437134,
        0.09568504989147186,
        -0.10642985254526138,
        0.08264528214931488,
        -0.16716118156909943,
        0.07329162210226059,
        0.2649182379245758,
        0.0131223164498806,
        -0.13467687368392944,
        0.12315759062767029,
        0.033099304884672165,
        -0.16669808328151703,
        0.23636610805988312,
        0.13756126165390015,
        -0.07111935317516327,
        -0.2666318416595459,
        0.2384849637746811,
        0.02526339329779148,
        0.04311865568161011,
        0.03791983425617218,
        -0.04024796560406685,
        0.04094409942626953,
        0.1499759703874588,
        -0.3360276520252228,
        0.130962535738945,
        0.014337816275656223,
        -0.02500263787806034,
        1.0367486476898193,
        0.0044176699593663216,
        -1.00220787525177,
        -0.15996228158473969,
        -0.0066182431764900684,
        0.3981761634349823,
        -0.28603413701057434,
        -0.305626779794693,
        -0.1528131514787674,
        0.09691128134727478,
        -0.03130114823579788,
        -0.09542404115200043,
        -0.23174916207790375,
        -0.31908270716667175,
        -0.3416614830493927,
        -0.21110215783119202,
        -0.2544694244861603,
        -0.20365583896636963,
        0.04206901043653488,
        0.10187441855669022,
        0.03624288737773895,
        -0.028846368193626404,
        -0.2851595878601074,
        0.2745378017425537,
        -0.24590031802654266,
        -0.19041170179843903,
        -0.32265377044677734,
        0.004122525919228792,
        -0.3029969334602356,
        0.2264547049999237,
        0.24915927648544312,
        -0.16204145550727844,
        -0.25594013929367065,
        0.2855835556983948,
        0.14913581311702728,
        0.06028969958424568,
        0.16980119049549103,
        0.22034640610218048,
        0.22928228974342346,
        0.11625193804502487,
        0.06707271188497543,
        -0.1670057475566864,
        0.17316699028015137,
        0.22561104595661163,
        -0.5128650665283203,
        0.10344540327787399,
        0.07724980264902115,
        -0.21529521048069,
        0.0011774759041145444,
        -0.07017946243286133,
        -0.015090571716427803,
        0.1548665463924408,
        -0.06127690523862839,
        0.11590822041034698
      ],
      "bias": [
        -0.011201226152479649,
        0.4714656472206116,
        -0.2775438129901886,
        0.019615016877651215,
        0,
        0.20756833255290985,
        0,
        -0.14668738842010498,
        0,
        0,
        0.026059923693537712
      ]
    }
  ],
  "meta": {
    "name": "Traffic Jam",
    "slug": "traffic-jam",
    "inputs": 24,
    "outputs": 11,
    "trackIndex": 5,
    "file": "traffic-jam.json",
    "trained": "2025-10-24T15:54:43.867Z",
    "training": {
      "mode": "tune",
      "feature": "deltaMid",
      "featureType": "signed",
      "output": "hueShift",
      "orientation": "direct",
      "weight": 1,
      "epochs": 400,
      "samples": 4096,
      "learningRate": 0.01,
      "loss": 0.0001572078763274476,
      "correlation": 0.9995300769805908,
      "fitness": 0.9995300769805908,
      "mse": 0.0003511051181703806,
      "combinedFitness": 0.9995300769805908,
      "averageMse": 0.0003511051181703806,
      "correlations": [
        {
          "feature": "deltaMid",
          "featureType": "signed",
          "output": "hueShift",
          "orientation": "direct",
          "weight": 1,
          "correlation": 0.9995300769805908,
          "fitness": 0.9995300769805908,
          "mse": 0.0003511051181703806
        }
      ],
      "previous": {
        "mode": "tune",
        "feature": "deltaBass",
        "featureType": "signed",
        "output": "repelImpulse",
        "orientation": "inverse",
        "weight": 1,
        "epochs": 400,
        "samples": 4096,
        "learningRate": 0.01,
        "loss": 0.0001558097719680518,
        "correlation": -0.9995579123497009,
        "fitness": 0.9995579123497009,
        "mse": 0.0003048138169106096,
        "combinedFitness": 0.9995579123497009,
        "averageMse": 0.0003048138169106096,
        "correlations": [
          {
            "feature": "deltaBass",
            "featureType": "signed",
            "output": "repelImpulse",
            "orientation": "inverse",
            "weight": 1,
            "correlation": -0.9995579123497009,
            "fitness": 0.9995579123497009,
            "mse": 0.0003048138169106096
          }
        ],
        "previous": {
          "mode": "tune",
          "feature": "deltaMid",
          "featureType": "signed",
          "output": "zoom",
          "orientation": "direct",
          "weight": 1,
          "epochs": 400,
          "samples": 4096,
          "learningRate": 0.01,
          "loss": 0.0017107281601056457,
          "correlation": 0.9953887462615967,
          "fitness": 0.9953887462615967,
          "mse": 0.003278118558228016,
          "combinedFitness": 0.9953887462615967,
          "averageMse": 0.003278118558228016,
          "correlations": [
            {
              "feature": "deltaMid",
              "featureType": "signed",
              "output": "zoom",
              "orientation": "direct",
              "weight": 1,
              "correlation": 0.9953887462615967,
              "fitness": 0.9953887462615967,
              "mse": 0.003278118558228016
            }
          ],
          "previous": {
            "feature": "sub",
            "featureType": "signed",
            "output": "fieldStrength",
            "orientation": "direct",
            "weight": 1,
            "epochs": 400,
            "samples": 4096,
            "learningRate": 0.01,
            "loss": 0.0022044272627681494,
            "correlation": 0.9994893074035645,
            "fitness": 0.9994893074035645,
            "mse": 0.00034927084925584495,
            "combinedFitness": 0.9982213973999023,
            "averageMse": 0.0014131254283711314,
            "correlations": [
              {
                "feature": "sub",
                "featureType": "signed",
                "output": "fieldStrength",
                "orientation": "direct",
                "weight": 1,
                "correlation": 0.9994893074035645,
                "fitness": 0.9994893074035645,
                "mse": 0.00034927084925584495
              },
              {
                "feature": "bass",
                "featureType": "signed",
                "output": "cohesion",
                "orientation": "direct",
                "weight": 0.5,
                "correlation": 0.9992288947105408,
                "fitness": 0.9992288947105408,
                "mse": 0.0005587735795415938
              },
              {
                "feature": "lowMid",
                "featureType": "signed",
                "output": "spawnRate",
                "orientation": "direct",
                "weight": 0.5,
                "correlation": 0.9950461983680725,
                "fitness": 0.9950461983680725,
                "mse": 0.0034561031498014927
              },
              {
                "feature": "mid",
                "featureType": "signed",
                "output": "hueShift",
                "orientation": "inverse",
                "weight": 0.5,
                "correlation": -0.9995192885398865,
                "fitness": 0.9995192885398865,
                "mse": 0.00033373956102877855
              },
              {
                "feature": "rms",
                "featureType": "positive",
                "output": "zoom",
                "orientation": "direct",
                "weight": 0.5,
                "correlation": 0.9952577352523804,
                "fitness": 0.9952577352523804,
                "mse": 0.003447022521868348
              },
              {
                "feature": "mid",
                "featureType": "signed",
                "output": "glow",
                "orientation": "direct",
                "weight": 0.5,
                "correlation": 0.9995191097259521,
                "fitness": 0.9995191097259521,
                "mse": 0.0003338427923154086
              }
            ]
          }
        }
      }
    }
  }
}
