{
  "input": 24,
  "normalization": {
    "mean": [
      -0.00636969693005085,
      -0.0025991087313741446,
      -0.020705346018075943,
      0.00009467293421039358,
      0.0009292562026530504,
      0.5044431686401367,
      0.5043574571609497,
      0.49656879901885986,
      0.5030649304389954,
      0.01613215170800686,
      -0.0007591706234961748,
      -0.0050539905205369,
      -0.006636945530772209,
      -0.01751411333680153,
      -0.00669534457847476,
      0.008797277696430683,
      -0.008983504958450794,
      -0.0005488599417731166,
      -0.0019382874015718699,
      -0.006513341795653105,
      0.4947476089000702,
      0.5021337866783142,
      0.5010850429534912,
      0.5062656402587891
    ],
    "std": [
      0.5702459216117859,
      0.583522617816925,
      0.5758675932884216,
      0.5785985589027405,
      0.575884222984314,
      0.2895120680332184,
      0.28773045539855957,
      0.2910115122795105,
      0.28769147396087646,
      0.581018328666687,
      0.5754660367965698,
      0.5827259421348572,
      0.5808584690093994,
      0.5753359794616699,
      0.5735365748405457,
      0.5731473565101624,
      0.5711424350738525,
      0.5820966958999634,
      0.5761664509773254,
      0.5806441307067871,
      0.2875784933567047,
      0.2872599959373474,
      0.29121166467666626,
      0.28653377294540405
    ]
  },
  "layers": [
    {
      "activation": "relu",
      "weights": [
        -0.9566041827201843,
        -0.02155916951596737,
        0.10253224521875381,
        -0.05640536546707153,
        -0.010365623980760574,
        0.3882337808609009,
        0.019718796014785767,
        -0.00369216687977314,
        0.027712402865290642,
        -0.02591583877801895,
        -0.021398622542619705,
        0.022965803742408752,
        0.36812275648117065,
        0.020329561084508896,
        0.005250135902315378,
        -0.011333168484270573,
        0.044643353670835495,
        -0.015902504324913025,
        0.038023125380277634,
        0.014444601722061634,
        -0.0013966102851554751,
        0.03038507141172886,
        -0.0012962868204340339,
        -0.010816335678100586,
        0.013858642429113388,
        0.3127559423446655,
        -0.3679054081439972,
        -0.010651851072907448,
        0.009820184670388699,
        -0.11401791870594025,
        -0.004646994639188051,
        0.03960182145237923,
        -0.009595966897904873,
        -0.034699875861406326,
        -0.009859025478363037,
        0.015737812966108322,
        0.06969413161277771,
        0.009604196064174175,
        -0.02539702318608761,
        0.012566812336444855,
        0.03391696512699127,
        0.05179205164313316,
        0.030942391604185104,
        -0.012691427953541279,
        -0.021493254229426384,
        0.054801467806100845,
        -0.023791849613189697,
        -0.03113912232220173,
        0.7719187140464783,
        -0.0817471295595169,
        0.006558005698025227,
        -0.03856447711586952,
        0.03423876315355301,
        -0.023299023509025574,
        -0.05025021731853485,
        -0.001271490124054253,
        0.022108472883701324,
        -0.06112947314977646,
        -0.013222711160779,
        -0.012535706162452698,
        0.01335126906633377,
        -0.00717187998816371,
        0.03159841150045395,
        -0.002592759905382991,
        -0.03380788117647171,
        -0.08462205529212952,
        -0.008779779076576233,
        -0.01690519228577614,
        -0.06913478672504425,
        -0.03260368853807449,
        0.06237136945128441,
        0.00020322286582086235,
        -0.7232926487922668,
        0.5106691718101501,
        0.20091363787651062,
        -0.08987700939178467,
        0.060794368386268616,
        -0.450915664434433,
        0.024977194145321846,
        0.031181292608380318,
        0.0050216433592140675,
        0.04956662654876709,
        0.03773494437336922,
        -0.018986975774168968,
        -0.3838460147380829,
        0.0004938773927278817,
        -0.00881265476346016,
        -0.01706250198185444,
        -0.0405135378241539,
        -0.01142823975533247,
        0.02735671028494835,
        0.034547109156847,
        -0.010293067432940006,
        -0.000595042307395488,
        -0.024471305310726166,
        -0.007283481303602457,
        0.6470745205879211,
        -0.48809874057769775,
        -0.17891407012939453,
        0.11775192618370056,
        -0.04728880524635315,
        0.4433484673500061,
        -0.010456321761012077,
        -0.004138979595154524,
        -0.01045506913214922,
        -0.016122806817293167,
        -0.04816305637359619,
        0.03953934460878372,
        0.38383907079696655,
        0.013556420803070068,
        0.0028252871707081795,
        0.015167376957833767,
        0.009206730872392654,
        0.00646697822958231,
        -0.030642786994576454,
        -0.04264950752258301,
        -0.000669327680952847,
        -0.010533937253057957,
        0.011228631250560284,
        -0.01584102399647236,
        0.06227777898311615,
        -0.07968176901340485,
        0.1368405818939209,
        0.0075573911890387535,
        0.022856246680021286,
        -0.15006202459335327,
        -0.014672480523586273,
        0.019304361194372177,
        0.0018346519209444523,
        -0.00788929220288992,
        -0.00027705603861249983,
        -0.014227202162146568,
        0.4011848270893097,
        0.018352894112467766,
        0.022794833406805992,
        -0.00044403120409697294,
        -0.018934251740574837,
        -0.050013888627290726,
        -0.009560269303619862,
        -0.02718283422291279,
        -0.01006805244833231,
        -0.08633957803249359,
        -0.017323430627584457,
        -0.003087306162342429,
        -0.0292922742664814,
        -0.0880298912525177,
        0.029586516320705414,
        -0.03303707391023636,
        0.001628293888643384,
        0.1562468558549881,
        0.011479567736387253,
        0.01726914569735527,
        -0.0009881367441266775,
        -0.04195074364542961,
        -0.03663007542490959,
        -0.012929830700159073,
        -0.8358315229415894,
        0.02882380224764347,
        0.022901464253664017,
        -0.012050341814756393,
        0.016123900189995766,
        -0.0018705176189541817,
        0.003657588269561529,
        0.012506925500929356,
        -0.0174137894064188,
        -0.012630041688680649,
        -0.008928608149290085,
        0.013049022294580936,
        0.06403408944606781,
        0.18032202124595642,
        0.3417145311832428,
        -0.020548870787024498,
        0.07640589028596878,
        -0.12030097842216492,
        0.02538733184337616,
        0.08168164640665054,
        0.03144565597176552,
        0.01722004823386669,
        -0.02860267646610737,
        0.011730391532182693,
        0.14313951134681702,
        0.030809691175818443,
        0.014875567518174648,
        -0.0012114188866689801,
        -0.0016865390352904797,
        -0.010645637288689613,
        0.013771082274615765,
        -0.004963474348187447,
        0.0036210776306688786,
        0.033704522997140884,
        -0.006850347854197025,
        0.006811337545514107,
        0.021011164411902428,
        -0.6127750277519226,
        0.00502665713429451,
        -0.046690475195646286,
        -0.036745522171258926,
        -0.03520207107067108,
        0.1067717969417572,
        -0.07465462386608124,
        -0.1598016917705536,
        -0.002467236714437604,
        0.04578100144863129,
        -0.021255450323224068,
        -0.011622476391494274,
        -0.03306013345718384,
        -0.03553277999162674,
        -0.01841716282069683,
        0.08917849510908127,
        0.05773768201470375,
        -0.033011991530656815,
        0.0639326423406601,
        0.04771728441119194,
        -0.046331316232681274,
        -0.06342251598834991,
        -0.013536591082811356,
        1.014046549797058,
        0.010100518353283405,
        -0.09251545369625092,
        0.053438521921634674,
        0.01981961540877819,
        -0.4168819487094879,
        -0.026751261204481125,
        0.02153906412422657,
        -0.011463640257716179,
        0.026268627494573593,
        0.02682226151227951,
        -0.025565985590219498,
        -0.3618384897708893,
        -0.02717665396630764,
        0.004478642717003822,
        0.00542469322681427,
        -0.06495827436447144,
        -0.0012060902081429958,
        -0.030684996396303177,
        -0.016817940399050713,
        -0.0031960743945091963,
        -0.041474513709545135,
        -0.00813959538936615,
        -0.0004493337182793766,
        -0.006121039856225252,
        -0.00192598148714751,
        -0.0014623296447098255,
        -1.0000065565109253,
        -0.0035811755806207657,
        -0.00387319503352046,
        -0.0037473307456821203,
        0.0061662583611905575,
        0.00903808232396841,
        -0.005642784759402275,
        0.005798811558634043,
        0.0072493902407586575,
        0.002450743690133095,
        0.0009787747403606772,
        -0.0041284104809165,
        0.0028526131063699722,
        0.007638835348188877,
        -0.001415950944647193,
        -0.0023843219969421625,
        -0.004611294250935316,
        0.002540472662076354,
        0.001172876451164484,
        0.00024159115855582058,
        0.0014831237494945526,
        0.8089202046394348,
        -0.08505429327487946,
        -0.03951020911335945,
        -0.0014350400306284428,
        0.022228773683309555,
        -0.02851945348083973,
        0.022557923570275307,
        0.06421277672052383,
        0.02418309450149536,
        0.04915472865104675,
        -0.021123992279171944,
        -0.08406738936901093,
        -0.03266211226582527,
        0.004261041525751352,
        -0.06625131517648697,
        0.04038906469941139,
        0.0009405507589690387,
        -0.05164019390940666,
        0.06255399435758591,
        -0.009690667502582073,
        -0.03230287507176399,
        -0.008731761015951633,
        0.09906723350286484,
        0.007061557378619909,
        0.012691519223153591,
        -0.003375449450686574,
        -0.0018807717133313417,
        1.0143965482711792,
        0.007413897663354874,
        0.014496838673949242,
        0.030414042994379997,
        -0.032878488302230835,
        0.023336980491876602,
        -0.005039158742874861,
        0.0006797538953833282,
        0.01364151667803526,
        -0.013417152687907219,
        0.019493505358695984,
        0.017732255160808563,
        0.00855429470539093,
        -0.016872836276888847,
        -0.023948725312948227,
        0.0006581878988072276,
        -0.008267593570053577,
        0.02041933871805668,
        0.027697710320353508,
        -0.0138340899720788,
        0.009480548091232777,
        0.07575961202383041,
        0.18188194930553436,
        0.045652519911527634,
        0.34703582525253296,
        0.009031374007463455,
        -0.16173192858695984,
        0.04018568620085716,
        0.017371971160173416,
        0.024014348164200783,
        -0.007573129143565893,
        0.022166864946484566,
        -0.09364716708660126,
        0.11493777483701706,
        -0.010481677018105984,
        0.02202972210943699,
        -0.020400825887918472,
        -0.052033670246601105,
        0.0317695215344429,
        -0.022210298106074333,
        0.05686380714178085,
        -0.06580165773630142,
        0.003834627103060484,
        0.03480148687958717,
        0.02847827784717083,
        -0.022869901731610298,
        -0.6830997467041016,
        0.05587159842252731,
        -0.042434848845005035,
        0.02351108007133007,
        0.019482048228383064,
        -0.006808868609368801,
        -0.005910125095397234,
        -0.009753165766596794,
        -0.027297113090753555,
        0.006783206481486559,
        -0.048036109656095505,
        -0.17356015741825104,
        -0.025678295642137527,
        -0.031120937317609787,
        -0.03351112827658653,
        -0.025844404473900795,
        0.06683269888162613,
        0.03264963626861572,
        -0.03921620175242424,
        0.030808381736278534,
        0.06490364670753479,
        0.03655495122075081,
        -0.07046154141426086,
        0.14419081807136536,
        0.13093364238739014,
        -0.05752665549516678,
        -0.5710263252258301,
        -0.013608488254249096,
        0.0038124672137200832,
        -0.015394672751426697,
        -0.007443730719387531,
        -0.009084050543606281,
        -0.037452783435583115,
        -0.06169019639492035,
        0.006022078916430473,
        0.09863340109586716,
        0.01920655369758606,
        0.0320059135556221,
        -0.06388141214847565,
        -0.053750693798065186,
        0.014747023582458496,
        0.014790233224630356,
        0.05434686690568924,
        0.020345229655504227,
        0.01565621979534626,
        -0.014636636711657047,
        0.06390778720378876
      ],
      "bias": [
        0.010252904146909714,
        1.0433915853500366,
        0.7989796996116638,
        -0.3094713091850281,
        0.23557351529598236,
        1.0824836492538452,
        1.7933578491210938,
        0.9184562563896179,
        0.7298449277877808,
        0.05870309844613075,
        -1.0712013244628906,
        -0.9826521277427673,
        -1.0263172388076782,
        0.9907888174057007,
        -0.5286381244659424,
        1.048158049583435
      ]
    },
    {
      "activation": "tanh",
      "weights": [
        0.08195504546165466,
        -0.6394866704940796,
        0.002949851332232356,
        0.15132030844688416,
        -0.15693295001983643,
        0.5074248313903809,
        -0.18394914269447327,
        0.5774604678153992,
        -0.0037617466878145933,
        -0.08130067586898804,
        0.009322567842900753,
        -0.0007306685438379645,
        -0.005962066352367401,
        0.021514268592000008,
        -0.007920600473880768,
        -0.07836205512285233,
        -0.7831341028213501,
        0.08925129473209381,
        -0.9982777833938599,
        -0.6189209818840027,
        0.6504343748092651,
        0.4121335446834564,
        -0.49935561418533325,
        0.2284395843744278,
        0.003576451912522316,
        0.7363612055778503,
        0.000038426467654062435,
        1.108219861984253,
        -0.001938485074788332,
        -0.031855545938014984,
        -0.006636542268097401,
        0.26794272661209106,
        0.1095130518078804,
        0.4721704125404358,
        0.0031542349606752396,
        0.3364720940589905,
        -0.35529202222824097,
        -0.26271852850914,
        -1.1755599975585938,
        0.3690650463104248,
        0.9253236055374146,
        -0.10444255918264389,
        -0.0005990015342831612,
        0.0038004866801202297,
        0.0022623944096267223,
        0.52529376745224,
        -0.6808499693870544,
        0.28128480911254883,
        0.31357046961784363,
        -0.1350662112236023,
        0.25665605068206787,
        0.2756010591983795,
        -0.3249489665031433,
        0.08592448383569717,
        -0.028521288186311722,
        -0.118490070104599,
        0.32133951783180237,
        0.1205475777387619,
        -0.10815580934286118,
        -0.30680614709854126,
        -0.15038113296031952,
        0.047255028039216995,
        0.300340473651886,
        -0.15262088179588318,
        0.3332583010196686,
        -0.17702323198318481,
        -0.10219711810350418,
        0.03454683721065521,
        -0.09219247847795486,
        0.08840524405241013,
        -0.3426297605037689,
        0.2557942271232605,
        -0.10924424976110458,
        -0.15113693475723267,
        0.32158163189888,
        -0.17483069002628326,
        0.35221102833747864,
        -0.06041533127427101,
        -0.1822255551815033,
        -0.24148640036582947,
        -0.020517949014902115,
        0.014971304684877396,
        0.00034742444404400885,
        -0.03703506663441658,
        0.040606819093227386,
        0.11094225943088531,
        -0.0005326226819306612,
        -0.1193690374493599,
        -0.0012259853538125753,
        0.020671900361776352,
        -0.8929882049560547,
        -0.00044616195373237133,
        0.8440882563591003,
        0.5107094049453735,
        -0.002193496795371175,
        -0.6572309732437134,
        0.09568504989147186,
        -0.10642985254526138,
        0.08264528214931488,
        -0.16716118156909943,
        0.07329162210226059,
        0.2649182379245758,
        0.0131223164498806,
        -0.13467687368392944,
        0.12315759062767029,
        0.033099304884672165,
        -0.16669808328151703,
        0.23636610805988312,
        0.13756126165390015,
        -0.07111935317516327,
        -0.2666318416595459,
        0.2384849637746811,
        0.020634202286601067,
        -0.014473142102360725,
        -0.0002189355145674199,
        0.03711321949958801,
        -0.04070387780666351,
        -0.11003303527832031,
        0.000978423748165369,
        0.1189279854297638,
        0.0013574883341789246,
        -0.02077825367450714,
        0.8929634094238281,
        0.00042356978519819677,
        -0.84405916929245,
        -0.5095378756523132,
        0.0021259242203086615,
        0.658129096031189,
        -0.28603413701057434,
        -0.305626779794693,
        -0.1528131514787674,
        0.09691128134727478,
        -0.03130114823579788,
        -0.09542404115200043,
        -0.23174916207790375,
        -0.31908270716667175,
        -0.3416614830493927,
        -0.21110215783119202,
        -0.2544694244861603,
        -0.20365583896636963,
        0.04206901043653488,
        0.10187441855669022,
        0.03624288737773895,
        -0.028846368193626404,
        -0.2851595878601074,
        0.2745378017425537,
        -0.24590031802654266,
        -0.19041170179843903,
        -0.32265377044677734,
        0.004122525919228792,
        -0.3029969334602356,
        0.2264547049999237,
        0.24915927648544312,
        -0.16204145550727844,
        -0.25594013929367065,
        0.2855835556983948,
        0.14913581311702728,
        0.06028969958424568,
        0.16980119049549103,
        0.22034640610218048,
        0.22928228974342346,
        0.11625193804502487,
        0.06707271188497543,
        -0.1670057475566864,
        0.17316699028015137,
        0.22561104595661163,
        -0.5128650665283203,
        0.10344540327787399,
        0.07724980264902115,
        -0.21529521048069,
        0.0011774759041145444,
        -0.07017946243286133,
        -0.015090571716427803,
        0.1548665463924408,
        -0.06127690523862839,
        0.11590822041034698
      ],
      "bias": [
        -0.011201226152479649,
        0.4714656472206116,
        -0.2775438129901886,
        0,
        0,
        0.20756833255290985,
        0,
        -0.2117823213338852,
        0,
        0,
        0.026059923693537712
      ]
    }
  ],
  "meta": {
    "name": "Traffic Jam",
    "slug": "traffic-jam",
    "inputs": 24,
    "outputs": 11,
    "trackIndex": 5,
    "file": "traffic-jam.json",
    "trained": "2025-10-23T09:24:03.996Z",
    "training": {
      "mode": "tune",
      "feature": "deltaMid",
      "featureType": "signed",
      "output": "zoom",
      "orientation": "direct",
      "weight": 1,
      "epochs": 400,
      "samples": 4096,
      "learningRate": 0.01,
      "loss": 0.0017107281601056457,
      "correlation": 0.9953887462615967,
      "fitness": 0.9953887462615967,
      "mse": 0.003278118558228016,
      "combinedFitness": 0.9953887462615967,
      "averageMse": 0.003278118558228016,
      "correlations": [
        {
          "feature": "deltaMid",
          "featureType": "signed",
          "output": "zoom",
          "orientation": "direct",
          "weight": 1,
          "correlation": 0.9953887462615967,
          "fitness": 0.9953887462615967,
          "mse": 0.003278118558228016
        }
      ],
      "previous": {
        "feature": "sub",
        "featureType": "signed",
        "output": "fieldStrength",
        "orientation": "direct",
        "weight": 1,
        "epochs": 400,
        "samples": 4096,
        "learningRate": 0.01,
        "loss": 0.0022044272627681494,
        "correlation": 0.9994893074035645,
        "fitness": 0.9994893074035645,
        "mse": 0.00034927084925584495,
        "combinedFitness": 0.9982213973999023,
        "averageMse": 0.0014131254283711314,
        "correlations": [
          {
            "feature": "sub",
            "featureType": "signed",
            "output": "fieldStrength",
            "orientation": "direct",
            "weight": 1,
            "correlation": 0.9994893074035645,
            "fitness": 0.9994893074035645,
            "mse": 0.00034927084925584495
          },
          {
            "feature": "bass",
            "featureType": "signed",
            "output": "cohesion",
            "orientation": "direct",
            "weight": 0.5,
            "correlation": 0.9992288947105408,
            "fitness": 0.9992288947105408,
            "mse": 0.0005587735795415938
          },
          {
            "feature": "lowMid",
            "featureType": "signed",
            "output": "spawnRate",
            "orientation": "direct",
            "weight": 0.5,
            "correlation": 0.9950461983680725,
            "fitness": 0.9950461983680725,
            "mse": 0.0034561031498014927
          },
          {
            "feature": "mid",
            "featureType": "signed",
            "output": "hueShift",
            "orientation": "inverse",
            "weight": 0.5,
            "correlation": -0.9995192885398865,
            "fitness": 0.9995192885398865,
            "mse": 0.00033373956102877855
          },
          {
            "feature": "rms",
            "featureType": "positive",
            "output": "zoom",
            "orientation": "direct",
            "weight": 0.5,
            "correlation": 0.9952577352523804,
            "fitness": 0.9952577352523804,
            "mse": 0.003447022521868348
          },
          {
            "feature": "mid",
            "featureType": "signed",
            "output": "glow",
            "orientation": "direct",
            "weight": 0.5,
            "correlation": 0.9995191097259521,
            "fitness": 0.9995191097259521,
            "mse": 0.0003338427923154086
          }
        ]
      }
    }
  }
}
