{
  "input": 23,
  "normalization": {
    "mean": [
      0,
      0,
      0,
      0,
      0,
      0,
      0,
      0,
      0,
      0,
      0,
      0,
      0,
      0,
      0,
      0,
      0,
      0,
      0,
      0,
      0,
      0,
      0
    ],
    "std": [
      1,
      1,
      1,
      1,
      1,
      1,
      1,
      1,
      1,
      1,
      1,
      1,
      1,
      1,
      1,
      1,
      1,
      1,
      1,
      1,
      1,
      1,
      1
    ]
  },
  "layers": [
    {
      "activation": "relu",
      "weights": [
        -0.119307,
        -0.24928,
        0.216569,
        -0.042678,
        0.000419,
        0.166865,
        -0.241115,
        -0.153244,
        -0.056852,
        0.146235,
        0.015632,
        0.183113,
        0.003258,
        0.220009,
        -0.17091,
        -0.247379,
        -0.191088,
        -0.246275,
        -0.175259,
        0.197982,
        -0.105153,
        -0.059644,
        -0.069407,
        0.191372,
        -0.064199,
        0.131757,
        0.045416,
        -0.206522,
        0.1484,
        0.110061,
        0.176232,
        0.16264,
        -0.005688,
        0.025575,
        -0.009659,
        -0.096856,
        -0.057515,
        -0.147258,
        -0.147782,
        -0.033254,
        0.17328,
        -0.159267,
        0.040589,
        0.146471,
        0.23231,
        0.060232,
        -0.034016,
        -0.17323,
        -0.233202,
        -0.227026,
        -0.165898,
        -0.220916,
        0.102265,
        -0.024405,
        -0.174716,
        -0.083125,
        0.042374,
        0.094368,
        -0.014588,
        0.049197,
        -0.10029,
        -0.067624,
        0.148548,
        -0.20313,
        -0.109648,
        0.095691,
        -0.163377,
        -0.039699,
        0.150013,
        -0.249885,
        0.206485,
        -0.246961,
        -0.245425,
        0.185059,
        0.239634,
        -0.059888,
        -0.247159,
        -0.213899,
        -0.00507,
        0.045206,
        -0.155706,
        0.142811,
        -0.130384,
        -0.084235,
        -0.040302,
        0.143382,
        -0.061053,
        0.060055,
        0.127336,
        0.032644,
        0.069741,
        -0.204736,
        0.132713,
        0.03502,
        0.128182,
        -0.129295,
        0.10452,
        -0.231011,
        0.227156,
        -0.144829,
        -0.215316,
        -0.195397,
        0.083466,
        0.202524,
        -0.134684,
        -0.159349,
        0.18021,
        0.034555,
        -0.099641,
        0.102999,
        0.054661,
        -0.194795,
        -0.075238,
        0.190691,
        0.156932,
        0.135186,
        0.038981,
        0.221366,
        -0.150233,
        0.231082,
        -0.158371,
        -0.247447,
        0.244754,
        -0.07202,
        0.218077,
        0.080408,
        0.195272,
        0.019703,
        0.117833,
        0.142453,
        -0.108506,
        0.165697,
        0.078493,
        -0.124114,
        0.127751,
        -0.21135,
        -0.120901,
        0.008011,
        -0.062425,
        0.001884,
        -0.169312,
        -0.119629,
        -0.083278,
        0.230607,
        -0.163123,
        0.033128,
        0.179507,
        -0.183932,
        -0.017732,
        -0.098742,
        0.018744,
        0.016685,
        0.031504,
        0.099128,
        -0.035387,
        -0.054792,
        -0.15322,
        -0.104983,
        0.06277,
        0.105986,
        -0.143379,
        0.102133,
        -0.182999,
        -0.178617,
        -0.166252,
        0.237706,
        -0.133253,
        -0.038571,
        -0.135167,
        -0.0733,
        0.094797,
        0.015743,
        0.019963,
        0.151726,
        -0.014528,
        0.171817,
        -0.145375,
        0.075702,
        0.178616,
        0.188699,
        0.002021,
        -0.211168,
        -0.210312,
        -0.019842,
        0.238527,
        -0.043537,
        0.191293,
        -0.053625,
        0.030114,
        -0.030614,
        0.076439,
        0.218238,
        0.192529,
        -0.176863,
        0.248857,
        0.103296,
        -0.076932,
        0.077868,
        0.210671,
        0.147436,
        0.086739,
        -0.124656,
        0.242757,
        -0.14866,
        -0.235369,
        0.114635,
        -0.201919,
        0.205798,
        0.197305,
        0.013054,
        0.153341,
        -0.165073,
        -0.118985,
        -0.096076,
        -0.110777,
        0.161358,
        0.199575,
        0.247714,
        -0.105418,
        0.132469,
        0.099682,
        -0.041883,
        0.214858,
        0.171706,
        -0.05749,
        -0.230363,
        0.190051,
        0.144066,
        -0.210615,
        -0.001759,
        -0.047449,
        0.249808,
        0.004351,
        0.171632,
        -0.019851,
        -0.114556,
        0.181454,
        0.13073,
        0.024531,
        0.136079,
        0.02953,
        -0.171113,
        -0.13942,
        0.188161,
        -0.02766,
        0.180435,
        -0.073215,
        0.076703,
        -0.153162,
        -0.064899,
        0.052079,
        -0.193958,
        0.207402,
        0.179875,
        0.089414,
        0.008198,
        -0.131165,
        0.19487,
        -0.098613,
        -0.072117,
        -0.054057,
        0.014754,
        -0.231768,
        0.148245,
        -0.227485,
        0.172314,
        -0.08652,
        0.096389,
        0.207503,
        0.225708,
        -0.032381,
        -0.007249,
        -0.038776,
        -0.204032,
        -0.184957,
        0.033375,
        0.199397,
        -0.033676,
        -0.105377,
        0.219173,
        -0.192182,
        0.019906,
        0.149198,
        -0.128792,
        -0.174498,
        0.117388,
        -0.05569,
        -0.003913,
        0.179082,
        0.141131,
        -0.098518,
        -0.209497,
        -0.0237,
        0.0574,
        0.216367,
        0.199009,
        0.24139,
        -0.226797,
        0.157069,
        0.064069,
        0.100164,
        0.089327,
        0.062952,
        0.032465,
        0.047623,
        -0.023875,
        -0.210749,
        0.007105,
        0.055898,
        0.023615,
        0.167797,
        0.058312,
        -0.094669,
        0.042473,
        0.179164,
        -0.166358,
        0.246524,
        -0.082556,
        0.156559,
        0.130306,
        0.026145,
        -0.060219,
        -0.033238,
        -0.080758,
        0.034326,
        -0.029766,
        0.238423,
        0.234925,
        -0.043553,
        -0.090826,
        -0.166954,
        -0.030058,
        -0.062865,
        0.075408,
        -0.12105,
        0.238438,
        -0.210723,
        0.220249,
        -0.186461,
        0.097449,
        0.105869,
        0.028397,
        0.004181,
        0.040226,
        0.157503,
        0.082208,
        0.143014,
        -0.199416,
        0.083322,
        -0.109105,
        0.235989,
        0.132352,
        0.008231,
        0.211242,
        0.131469,
        -0.147019,
        -0.155797,
        0.011374,
        0.158681,
        0.065379,
        0.15847,
        0.054165,
        0.071355,
        0.097028,
        0.116426,
        0.201834,
        0.116846,
        -0.179553
      ],
      "bias": [
        0.052819,
        0.067317,
        0.070421,
        0.057627,
        -0.00654,
        0.028326,
        0.017784,
        0.035033,
        -0.08889,
        -0.096968,
        0.019839,
        -0.007666,
        -0.092375,
        0.005063,
        -0.069905,
        -0.019887
      ]
    },
    {
      "activation": "tanh",
      "weights": [
        0.135084,
        -0.108,
        0.150125,
        -0.014272,
        0.160339,
        -0.1176,
        0.147386,
        -0.018942,
        -0.173157,
        0.176942,
        0.007803,
        -0.136072,
        -0.114912,
        0.120441,
        0.088549,
        0.171866,
        -0.026312,
        0.19942,
        -0.061797,
        -0.129453,
        -0.084889,
        0.124068,
        -0.150292,
        0.079693,
        0.139919,
        0.180898,
        -0.067537,
        0.147806,
        0.045778,
        -0.062635,
        0.159807,
        -0.193022,
        -0.002519,
        0.07968,
        0.148151,
        0.039027,
        -0.025761,
        0.065084,
        -0.076014,
        0.184214,
        -0.029513,
        -0.030181,
        -0.164951,
        0.123785,
        0.156457,
        -0.185946,
        -0.138137,
        0.067597,
        0.10476,
        0.145018,
        -0.114069,
        0.178066,
        0.089242,
        0.159582,
        0.170812,
        -0.038307,
        -0.037648,
        0.147543,
        -0.187655,
        -0.140576,
        0.017277,
        -0.063134,
        -0.185748,
        -0.032917,
        -0.058913,
        -0.077876,
        -0.054604,
        0.117136,
        0.065155,
        0.157396,
        -0.165081,
        0.05303,
        0.019085,
        -0.105137,
        0.061525,
        0.127361,
        -0.005593,
        0.050363,
        -0.106846,
        -0.144875,
        -0.075707,
        -0.022859,
        0.033292,
        0.153291,
        -0.014469,
        0.029064,
        0.03018,
        -0.002048,
        -0.070979,
        -0.105476,
        0.105155,
        -0.069688,
        0.04503,
        -0.017691,
        0.056386,
        0.142739,
        -0.13053,
        0.040668,
        -0.005747,
        0.176159,
        0.037436,
        0.090828,
        0.164608,
        0.160016,
        -0.009738,
        0.056225,
        0.016188,
        0.026071,
        -0.057655,
        0.168674,
        -0.031591,
        0.02727,
        0.013977,
        -0.067247,
        -0.164195,
        -0.007051,
        -0.063549,
        -0.070367,
        -0.034641,
        0.051605,
        0.035677,
        0.041617,
        0.042972,
        0.05251,
        -0.099431,
        0.178628,
        -0.174678,
        -0.182608,
        0.042441,
        0.0879,
        0.153364,
        0.053447,
        -0.048325,
        0.128126,
        -0.096272,
        -0.141068,
        0.057897,
        0.189305,
        -0.165757,
        0.052581,
        -0.000069,
        0.039545,
        -0.020135,
        0.058106,
        0.111752,
        0.080065,
        0.155238,
        0.175019,
        -0.069279,
        -0.010342,
        0.02015,
        -0.032963,
        0.034323,
        0.039847,
        0.064128,
        -0.000689,
        0.011678,
        -0.037997,
        0.166419,
        -0.144259
      ],
      "bias": [
        -0.030983,
        -0.013085,
        0.021906,
        -0.033098,
        -0.01882,
        0.015821,
        -0.0127,
        0.021197,
        0.038029,
        0.015189
      ]
    }
  ],
  "meta": {
    "name": "Unsound",
    "slug": "unsound",
    "inputs": 23,
    "outputs": 10,
    "placeholder": true
  }
}
