{
  "input": 24,
  "normalization": {
    "mean": [
      -0.008599231950938702,
      0.0015514730475842953,
      0.0025366879999637604,
      0.0019665593281388283,
      0.00951352808624506,
      0.4951443076133728,
      0.49094030261039734,
      0.49965593218803406,
      0.49987491965293884,
      -0.004122050479054451,
      -0.003066013799980283,
      -0.0017324677901342511,
      0.012428074143826962,
      -0.0023483610711991787,
      0.0208587683737278,
      -0.0021877724211663008,
      0.0034767743200063705,
      -0.010020824149250984,
      0.005082493182271719,
      0.00939276535063982,
      0.5003769397735596,
      0.5063312649726868,
      0.5041800141334534,
      0.5070111751556396
    ],
    "std": [
      0.5705106854438782,
      0.5758528113365173,
      0.5772332549095154,
      0.5797958374023438,
      0.5750157833099365,
      0.29010671377182007,
      0.2872525155544281,
      0.2885119318962097,
      0.28933489322662354,
      0.5720438957214355,
      0.5827832818031311,
      0.5795866847038269,
      0.5740335583686829,
      0.5802333354949951,
      0.5807147026062012,
      0.5863405466079712,
      0.5806978940963745,
      0.5780418515205383,
      0.5819843411445618,
      0.5786417722702026,
      0.2891889810562134,
      0.28703197836875916,
      0.28984928131103516,
      0.28876397013664246
    ]
  },
  "layers": [
    {
      "activation": "relu",
      "weights": [
        0.0033396107610315084,
        0.003609506646171212,
        -0.0036774969194084406,
        -0.42660731077194214,
        -0.7356435656547546,
        -0.0047145988792181015,
        0.0004419431206770241,
        0.00020547668100334704,
        0.006834729574620724,
        0.00079777417704463,
        -0.6551623344421387,
        -0.00224451906979084,
        -0.00922697689384222,
        -0.0015140949981287122,
        0.002763434313237667,
        0.003687873249873519,
        -0.005473205354064703,
        -0.003079295391216874,
        0.004008589778095484,
        0.2581418752670288,
        0.0014771613059565425,
        0.005579895339906216,
        0.00025009457021951675,
        -0.002642631297931075,
        0.013609310612082481,
        0.007602457422763109,
        -0.03589782863855362,
        -0.09561526030302048,
        0.19962051510810852,
        -0.02638307400047779,
        -0.002639972837641835,
        0.004133892711251974,
        0.03643905743956566,
        0.029275108128786087,
        -0.0023563914000988007,
        -0.015864651650190353,
        -0.015321762301027775,
        -0.005800407379865646,
        0.009656010195612907,
        0.03377886861562729,
        -0.010415925644338131,
        -0.01790412701666355,
        0.007447292562574148,
        0.07019844651222229,
        0.012713316828012466,
        0.008176948875188828,
        0.010929045267403126,
        -0.005238739773631096,
        -0.0014456100761890411,
        -0.003390656318515539,
        0.002817610977217555,
        0.3850782513618469,
        0.6694914102554321,
        0.0036698768381029367,
        -0.003598842304199934,
        0.005360369570553303,
        -0.006740720011293888,
        -0.0069279782474040985,
        0.588442325592041,
        0.006381332874298096,
        0.006128658074885607,
        0.0017738018650561571,
        -0.003119210246950388,
        -0.005870436318218708,
        0.0023171158973127604,
        0.001052393694408238,
        -0.004653817508369684,
        -0.23056423664093018,
        -0.00003643651871243492,
        -0.0038818123284727335,
        -0.005399440415203571,
        -0.0011855000630021095,
        -0.0016305054305121303,
        -0.004800311755388975,
        -0.0004714235838036984,
        0.004046283662319183,
        -0.004551150370389223,
        0.005693115759640932,
        -0.012671779841184616,
        0.0025427481159567833,
        -0.005728244781494141,
        0.006510631181299686,
        -1.419862985610962,
        0.006707343738526106,
        0.0003310514148324728,
        -0.006976888049393892,
        -0.0007491299184039235,
        0.004838777240365744,
        -0.0016508196713402867,
        -0.003582372097298503,
        0.00016571437299717218,
        -0.0017018269281834364,
        -0.002092857612296939,
        -0.003106403397396207,
        0.00723464647307992,
        -0.009243432432413101,
        -0.002140253549441695,
        -0.0023168614134192467,
        -0.0025392030365765095,
        0.8717185258865356,
        -0.0002789385325741023,
        0.0016668766038492322,
        0.000998057657852769,
        0.00015784145216457546,
        0.0011841724626719952,
        -0.00540999136865139,
        -0.0017177892150357366,
        0.004354546777904034,
        0.00351148284971714,
        -0.0019094189628958702,
        -0.0006150474073365331,
        -0.0016672976780682802,
        0.0004300653235986829,
        -0.0010660445550456643,
        -0.002124290680512786,
        -0.0009745827410370111,
        0.0005415009800344706,
        0.0021928788628429174,
        0.0022038896568119526,
        0.0016187813598662615,
        -0.0007870069821365178,
        0.0025880204048007727,
        0.0023608761839568615,
        0.014825764112174511,
        -0.05180980637669563,
        -0.0010573362233117223,
        0.0007533867610618472,
        -0.0018544334452599287,
        -0.0013687977334484458,
        0.00007008740067249164,
        -0.0018849490443244576,
        -0.0006270986632443964,
        -0.0020573509391397238,
        0.0014026208082213998,
        -0.003424789058044553,
        0.0006952388794161379,
        -0.0010071044089272618,
        -0.0014067370211705565,
        -0.0010480131022632122,
        -1.0549945831298828,
        0.004160180222243071,
        0.002753946464508772,
        0.0021588956005871296,
        -0.0016919022891670465,
        0.004311613272875547,
        0.002907751128077507,
        -0.0059441193006932735,
        0.004276633728295565,
        0.0024073701351881027,
        0.00012380408588796854,
        -0.00691193575039506,
        0.0008605520706623793,
        0.0015768642770126462,
        -0.003640179755166173,
        1.3503172397613525,
        -0.004870680160820484,
        -0.004617299884557724,
        0.0015790712786838412,
        -0.0036886106245219707,
        -0.00392891326919198,
        -0.004229140002280474,
        0.0024980443995445967,
        0.00564925279468298,
        -0.00003765664223465137,
        -0.00599809642881155,
        -0.003887915052473545,
        0.0014072746271267533,
        -0.0025100577622652054,
        -0.0029409206472337246,
        0.0012284338008612394,
        -0.0001347630168311298,
        -0.8565457463264465,
        -0.001547824707813561,
        0.001306368038058281,
        0.0010324802715331316,
        -0.0002371817536186427,
        -0.0002900277904700488,
        -0.00039231195114552975,
        0.0028999417554587126,
        0.0037167526315897703,
        0.0015548577066510916,
        0.005522503051906824,
        -0.00007386032666545361,
        0.0043692816980183125,
        0.00009855855023488402,
        0.001842430210672319,
        0.0037176834885030985,
        0.0022570027504116297,
        -0.00029084767447784543,
        -0.0038154316134750843,
        -0.0032020912040024996,
        -0.001870188512839377,
        -0.003580618416890502,
        -0.0029383620712906122,
        0.02937542088329792,
        -0.8031206727027893,
        0.3157246708869934,
        0.01501314714550972,
        0.005689139477908611,
        -0.006742809433490038,
        -0.022059330716729164,
        -0.02212471142411232,
        0.31552866101264954,
        0.004805166739970446,
        0.013958213850855827,
        0.004968338645994663,
        -0.006678786128759384,
        -0.026068003848195076,
        0.006233404856175184,
        0.012981018982827663,
        -0.007365101482719183,
        -0.36334478855133057,
        -0.008736330084502697,
        -0.007493036333471537,
        -0.010251030325889587,
        0.0073210508562624454,
        0.005288122221827507,
        0.0043268147855997086,
        0.005484538618475199,
        -0.0000010266027175021009,
        0.0007556040654890239,
        -0.0025834643747657537,
        0.005736400373280048,
        -0.004238716792315245,
        0.00403010006994009,
        -0.0008017404470592737,
        0.5689219236373901,
        -0.004984336905181408,
        -0.00046486567589454353,
        0.002823659684509039,
        -0.0009360392577946186,
        -0.00013071377179585397,
        -0.0036519647110253572,
        -0.0002734990557655692,
        0.0014840159565210342,
        0.00043319884571246803,
        0.0003913366817869246,
        0.0037934218998998404,
        -0.0030283976811915636,
        0.0030160334426909685,
        -0.0023859688080847263,
        -0.00029863909003324807,
        -0.0030928177293390036,
        -0.06898290663957596,
        -0.1485101878643036,
        -0.002608067588880658,
        -0.001141378772445023,
        0.0030120727606117725,
        0.0023553224746137857,
        0.0033620577305555344,
        1.2950654029846191,
        0.0005174929974600673,
        -0.0015035521937534213,
        -0.001653878716751933,
        0.0002640641469042748,
        0.00402076868340373,
        -0.0028326234314590693,
        -0.0025094440206885338,
        0.0017223333707079291,
        0.010099271312355995,
        0.003342588199302554,
        0.0016067419201135635,
        0.001942165195941925,
        -0.001098542008548975,
        -0.006633104290813208,
        -0.005512645468115807,
        0.1634853482246399,
        0.3995130956172943,
        -0.3451709449291229,
        0.06886134296655655,
        0.13256904482841492,
        -0.15309180319309235,
        -0.18426771461963654,
        0.06585174053907394,
        -0.29025933146476746,
        -0.11730650067329407,
        -0.1199612244963646,
        0.11547752469778061,
        -0.011251025833189487,
        -0.04170279577374458,
        0.11293323338031769,
        -0.13496609032154083,
        -0.1462714672088623,
        0.015727387741208076,
        -0.15608181059360504,
        0.2010635882616043,
        -0.023539157584309578,
        0.034004952758550644,
        0.005452118813991547,
        0.003457722021266818,
        -0.027631953358650208,
        0.8146094679832458,
        -0.3197343647480011,
        -0.017779553309082985,
        -0.004771445877850056,
        0.005312045104801655,
        0.02051517367362976,
        0.02299424819648266,
        -0.3238137364387512,
        -0.009904037229716778,
        -0.015920719131827354,
        -0.0034844307228922844,
        0.007072938606142998,
        0.02460869587957859,
        -0.005387319717556238,
        -0.013375943526625633,
        0.006869325879961252,
        0.36666685342788696,
        0.010428447276353836,
        0.004397835582494736,
        0.011473650112748146,
        -0.007380143739283085,
        -0.0015595285221934319,
        0.0005706126685254276,
        -0.0008421355742029846,
        -0.01356201060116291,
        0.05301577225327492,
        0.0006540426984429359,
        0.0019811687525361776,
        0.001922803814522922,
        -0.0006379405385814607,
        -0.0009493694524280727,
        0.0030746771953999996,
        -0.0034589641727507114,
        -0.0024541644379496574,
        0.002884756540879607,
        -0.0007433617138303816,
        -0.00027964208857156336,
        0.0002554497041273862,
        -0.0015884742606431246,
        0.0017260024324059486,
        1.0225257873535156,
        -0.00016339801368303597,
        0.0013980979565531015,
        -0.003179570659995079,
        0.001507301232777536,
        0.027601825073361397,
        0.06540817022323608,
        -0.0001843415666371584,
        0.4702354371547699,
        0.3949950337409973,
        0.016615742817521095,
        0.05157571658492088,
        -0.05062616989016533,
        0.044415365904569626,
        -0.005585141014307737,
        0.16592322289943695,
        -0.03034825250506401,
        -0.007835323922336102,
        -0.05939255654811859,
        0.10422555357217789,
        -0.011221416294574738,
        -0.06618988513946533,
        -0.05279695242643356,
        0.03949352726340294,
        -0.11703983694314957,
        0.009656992740929127,
        0.06424406170845032,
        0.04474391043186188,
        0.030544618144631386,
        0.001769406720995903,
        0.001612394698895514,
        0.007320613134652376,
        0.07114914804697037,
        0.15216287970542908,
        0.0036048865877091885,
        0.006553404964506626,
        -0.004212230909615755,
        -0.0037169205024838448,
        -0.005541693884879351,
        -1.296557068824768,
        -0.0012026905314996839,
        0.0016316070687025785,
        0.0011316770687699318,
        -0.0006295401835814118,
        -0.004235466476529837,
        -0.00016025957302190363,
        0.005796580575406551,
        -0.0031608515419065952,
        -0.009344624355435371,
        -0.0033687467221170664,
        -0.0006311455508694053,
        -0.004101004917174578,
        0.0038680434226989746
      ],
      "bias": [
        0.13114607334136963,
        0.5766627192497253,
        -0.13594140112400055,
        -1.584144115447998,
        -0.9268575310707092,
        -0.03337666764855385,
        -1.5607421398162842,
        -0.8996785879135132,
        -0.008922879584133625,
        0.6361436247825623,
        -0.22345241904258728,
        0.051937539130449295,
        0.006886843126267195,
        -0.18130142986774445,
        0.12477066367864609,
        0.13397490978240967
      ]
    },
    {
      "activation": "tanh",
      "weights": [
        -0.0894484594464302,
        -0.1656753569841385,
        -0.2911962866783142,
        -0.09218653291463852,
        -0.13327422738075256,
        -0.002074178773909807,
        0.26561465859413147,
        -0.18174120783805847,
        -0.1026068776845932,
        0.1851978600025177,
        -0.027895066887140274,
        0.15319949388504028,
        -0.21849390864372253,
        0.06306163966655731,
        0.24352562427520752,
        0.22484304010868073,
        -0.08039718866348267,
        -0.022966451942920685,
        0.08835640549659729,
        -0.8479205965995789,
        0.0017261399189010262,
        -0.02393084578216076,
        0.8364244103431702,
        0.0021080973092466593,
        0.012032740749418736,
        0.13863301277160645,
        0.4230065643787384,
        0.000646993110422045,
        -0.01308532990515232,
        0.024973975494503975,
        0.0009801345877349377,
        -0.3973143398761749,
        0.6212100386619568,
        -0.3660319447517395,
        -0.6941680908203125,
        -0.019588138908147812,
        0.009396464563906193,
        0.25882741808891296,
        -0.019864864647388458,
        0.0153886117041111,
        -0.32447826862335205,
        0.06321852654218674,
        0.37928256392478943,
        0.0008954046643339097,
        0.31195974349975586,
        -0.27386900782585144,
        -0.025571106001734734,
        -0.37369799613952637,
        0.12711311876773834,
        0.34438538551330566,
        0.1984807699918747,
        -0.0034541641362011433,
        0.17589826881885529,
        -0.08375770598649979,
        0.1700267344713211,
        0.02043762616813183,
        0.17690499126911163,
        -0.1659087985754013,
        -0.05557357892394066,
        0.02479841560125351,
        0.18126609921455383,
        -0.24621063470840454,
        -0.025442149490118027,
        0.35248106718063354,
        0.2623165547847748,
        0.1064949557185173,
        0.07608752697706223,
        0.21633918583393097,
        0.16927462816238403,
        -0.34154048562049866,
        0.023360159248113632,
        0.02462952397763729,
        -0.34147799015045166,
        -0.17645952105522156,
        -0.2879541516304016,
        0.20739878714084625,
        0.02693532034754753,
        0.070918969810009,
        -0.03369392827153206,
        0.19920101761817932,
        -0.0278481338173151,
        0.02914540097117424,
        0.026560669764876366,
        0.0017923458945006132,
        0.0012642230140045285,
        0.7320958971977234,
        0.006752852350473404,
        0.007075748406350613,
        0.020124401897192,
        0.030086524784564972,
        -0.032733138650655746,
        -0.0040808748453855515,
        -0.024725981056690216,
        -0.7961024641990662,
        -0.0053133717738091946,
        0.029640527442097664,
        0.08040917664766312,
        0.02297026291489601,
        -0.08836745470762253,
        0.8478514552116394,
        -0.0017244262853637338,
        0.023934831842780113,
        -0.8364185690879822,
        -0.0021058234851807356,
        -0.012036027386784554,
        -0.138485386967659,
        -0.42306801676750183,
        -0.0006486098282039165,
        0.013088214211165905,
        -0.02497798576951027,
        -0.0009845508029684424,
        0.39737561345100403,
        -0.29522064328193665,
        -0.32413825392723083,
        0.32194605469703674,
        -0.175478994846344,
        1.0589146614074707,
        0.1066126748919487,
        0.013091250322759151,
        -1.018384575843811,
        -0.5607253313064575,
        0.41535335779190063,
        -0.19981859624385834,
        -0.0019271300407126546,
        0.5590518712997437,
        -0.11341661959886551,
        0.011492555029690266,
        0.20007844269275665,
        0.08040906488895416,
        0.022970182821154594,
        -0.08836731314659119,
        0.8478522896766663,
        -0.0017244541086256504,
        0.02393478713929653,
        -0.8364186882972717,
        -0.0021058369893580675,
        -0.012035992927849293,
        -0.13848698139190674,
        -0.4230673313140869,
        -0.0006486003985628486,
        0.01308818906545639,
        -0.02497793734073639,
        -0.0009845044696703553,
        0.3973748981952667,
        -0.0804118886590004,
        -0.022970987483859062,
        0.08836983144283295,
        -0.8478363752365112,
        0.0017240637680515647,
        -0.023935722187161446,
        0.8364169597625732,
        0.002105242107063532,
        0.012036803178489208,
        0.13845166563987732,
        0.42308202385902405,
        0.0006489884108304977,
        -0.013088859617710114,
        0.024978864938020706,
        0.0009856477845460176,
        -0.397389680147171,
        0.0801500678062439,
        0.02247130684554577,
        -0.08700268715620041,
        0.8492648601531982,
        -0.0017928186571225524,
        0.023674650117754936,
        -0.8398478031158447,
        -0.0015952769899740815,
        -0.012872391380369663,
        -0.13983917236328125,
        -0.4222266376018524,
        -0.0006104142521508038,
        0.012769105844199657,
        -0.024437574669718742,
        -0.0013813887489959598,
        0.39679455757141113
      ],
      "bias": [
        0,
        -0.0024429000914096832,
        0.11832509934902191,
        0,
        0,
        -0.08346330374479294,
        0.0023357372265309095,
        -0.08172678202390671,
        0.0023369211703538895,
        -0.0023113347124308348,
        0.0038403647486120462
      ]
    }
  ],
  "meta": {
    "name": "Unsound",
    "slug": "unsound",
    "inputs": 24,
    "outputs": 11,
    "trackIndex": 2,
    "file": "unsound.json",
    "trained": "2025-10-23T15:23:25.974Z",
    "training": {
      "feature": "deltaBass",
      "featureType": "signed",
      "output": "zoom",
      "orientation": "inverse",
      "weight": 1,
      "epochs": 400,
      "samples": 4096,
      "learningRate": 0.01,
      "loss": 0.0019476074958220124,
      "correlation": -0.9996177554130554,
      "fitness": 0.9996177554130554,
      "mse": 0.0002638663281686604,
      "combinedFitness": 0.9987843632698059,
      "averageMse": 0.0009239180944859982,
      "correlations": [
        {
          "feature": "deltaBass",
          "featureType": "signed",
          "output": "zoom",
          "orientation": "inverse",
          "weight": 1,
          "correlation": -0.9996177554130554,
          "fitness": 0.9996177554130554,
          "mse": 0.0002638663281686604
        },
        {
          "feature": "deltaBass",
          "featureType": "signed",
          "output": "vortexAmount",
          "orientation": "direct",
          "weight": 0.5,
          "correlation": 0.9996181726455688,
          "fitness": 0.9996181726455688,
          "mse": 0.000263297522906214
        },
        {
          "feature": "deltaBass",
          "featureType": "signed",
          "output": "sparkleDensity",
          "orientation": "inverse",
          "weight": 0.5,
          "correlation": -0.9996181726455688,
          "fitness": 0.9996181726455688,
          "mse": 0.00026329749380238354
        },
        {
          "feature": "deltaBass",
          "featureType": "signed",
          "output": "sizeJitter",
          "orientation": "inverse",
          "weight": 0.5,
          "correlation": -0.9996181726455688,
          "fitness": 0.9996181726455688,
          "mse": 0.00026329749380238354
        },
        {
          "feature": "emaHigh",
          "featureType": "signed",
          "output": "glow",
          "orientation": "inverse",
          "weight": 0.5,
          "correlation": -0.9967199563980103,
          "fitness": 0.9967199563980103,
          "mse": 0.002305279253050685
        },
        {
          "feature": "high",
          "featureType": "signed",
          "output": "cohesion",
          "orientation": "inverse",
          "weight": 0.5,
          "correlation": -0.9951353669166565,
          "fitness": 0.9951353669166565,
          "mse": 0.0034148951526731253
        },
        {
          "feature": "deltaBass",
          "featureType": "signed",
          "output": "fieldStrength",
          "orientation": "direct",
          "weight": 0.5,
          "correlation": 0.9996181726455688,
          "fitness": 0.9996181726455688,
          "mse": 0.00026329761021770537
        },
        {
          "feature": "mid",
          "featureType": "signed",
          "output": "hueShift",
          "orientation": "direct",
          "weight": 0.5,
          "correlation": 0.999495804309845,
          "fitness": 0.999495804309845,
          "mse": 0.00035411393037065864
        }
      ]
    }
  }
}
