{
  "input": 24,
  "normalization": {
    "mean": [
      -0.008599231950938702,
      0.0015514730475842953,
      0.0025366879999637604,
      0.0019665593281388283,
      0.00951352808624506,
      0.4951443076133728,
      0.49094030261039734,
      0.49965593218803406,
      0.49987491965293884,
      -0.004122050479054451,
      -0.003066013799980283,
      -0.0017324677901342511,
      0.012428074143826962,
      -0.0023483610711991787,
      0.0208587683737278,
      -0.0021877724211663008,
      0.0034767743200063705,
      -0.010020824149250984,
      0.005082493182271719,
      0.00939276535063982,
      0.5003769397735596,
      0.5063312649726868,
      0.5041800141334534,
      0.5070111751556396
    ],
    "std": [
      0.5705106854438782,
      0.5758528113365173,
      0.5772332549095154,
      0.5797958374023438,
      0.5750157833099365,
      0.29010671377182007,
      0.2872525155544281,
      0.2885119318962097,
      0.28933489322662354,
      0.5720438957214355,
      0.5827832818031311,
      0.5795866847038269,
      0.5740335583686829,
      0.5802333354949951,
      0.5807147026062012,
      0.5863405466079712,
      0.5806978940963745,
      0.5780418515205383,
      0.5819843411445618,
      0.5786417722702026,
      0.2891889810562134,
      0.28703197836875916,
      0.28984928131103516,
      0.28876397013664246
    ]
  },
  "layers": [
    {
      "activation": "relu",
      "weights": [
        -0.013880154117941856,
        0.008378507569432259,
        -0.007667024619877338,
        -0.5297040343284607,
        -0.7054274082183838,
        -0.008580782450735569,
        -0.007710455916821957,
        -0.005650910548865795,
        0.008710918948054314,
        0.01577848754823208,
        -0.651105523109436,
        0.0026913508772850037,
        -0.016279634088277817,
        0.0012844473822042346,
        -0.004669475369155407,
        0.0046488032676279545,
        0.0013138024369254708,
        0.004885556176304817,
        0.005774319637566805,
        0.2792460322380066,
        0.0012540824245661497,
        -0.007322757970541716,
        -0.0012997053563594818,
        -0.000994955888018012,
        0.014026060700416565,
        0.008802130818367004,
        -0.038363583385944366,
        -0.15540044009685516,
        0.19786636531352997,
        -0.022971052676439285,
        0.0188270416110754,
        -0.0024041589349508286,
        0.035827647894620895,
        0.01719583012163639,
        -0.01490720734000206,
        -0.0019310605712234974,
        -0.01332837250083685,
        0.0210872795432806,
        0.02834203839302063,
        0.014231214299798012,
        -0.0015725191915407777,
        -0.027237538248300552,
        -0.0035950040910393,
        0.04816869646310806,
        0.006896864622831345,
        0.002267773961648345,
        0.002967594191431999,
        -0.007088950835168362,
        0.010743532329797745,
        -0.006016324274241924,
        0.0048325820825994015,
        0.4833349883556366,
        0.6452564597129822,
        0.004920717794448137,
        0.0062133497558534145,
        0.005633355118334293,
        -0.005883026868104935,
        -0.016869856044650078,
        0.5994824767112732,
        -0.00538034038618207,
        0.012923117727041245,
        -0.0007725474424660206,
        -0.0004038391634821892,
        -0.007276385091245174,
        -0.002141327830031514,
        -0.0067322105169296265,
        -0.008116649463772774,
        -0.25684237480163574,
        0.000012324429917498492,
        0.0013676841044798493,
        0.0009712738683447242,
        0.0013949564890936017,
        0.024583175778388977,
        0.0026146869640797377,
        -0.003939397633075714,
        0.08383239060640335,
        0.0018062948947772384,
        0.006067364010959864,
        -0.006907778792083263,
        -0.018002087250351906,
        0.05295218899846077,
        -0.032248497009277344,
        -1.0287680625915527,
        -0.014178876765072346,
        -0.008961940184235573,
        0.022832883521914482,
        -0.005187585949897766,
        0.017014438286423683,
        0.013655239716172218,
        -0.009267519228160381,
        0.003070692764595151,
        -0.00188132852781564,
        -0.009172816760838032,
        0.016142921522259712,
        -0.00009444698662264273,
        -0.009387439116835594,
        -0.001379268942400813,
        -0.0038654652889817953,
        0.000498873763717711,
        1.0874148607254028,
        -0.002452792599797249,
        -0.002561920788139105,
        0.007818549871444702,
        0.0020333791617304087,
        -0.007026434410363436,
        0.0008630522643215954,
        0.0013275615638121963,
        0.0019119842909276485,
        -0.0034996611066162586,
        -0.0009034372051246464,
        -0.0008164247265085578,
        0.0023174078669399023,
        0.0012817267561331391,
        0.0017776488093659282,
        0.0014507208252325654,
        0.008237740956246853,
        0.001087432261556387,
        -0.008483297191560268,
        -0.004225150216370821,
        0.00013321262667886913,
        0.00603965250775218,
        -0.00455433176830411,
        -0.003017488634213805,
        0.039114098995923996,
        -0.06018183007836342,
        -0.003476839978247881,
        0.008079847320914268,
        0.004160818178206682,
        -0.014141443185508251,
        -0.008409598842263222,
        -0.0007789002265781164,
        0.001224092091433704,
        0.011352409608662128,
        0.010772599838674068,
        0.0021805993746966124,
        0.0022910733241587877,
        -0.003472620388492942,
        0.00927351601421833,
        -0.005437687039375305,
        -1.0471217632293701,
        0.0002730507403612137,
        -0.0005721015040762722,
        -0.01661573350429535,
        -0.005587947089225054,
        0.01022813469171524,
        0.015211286954581738,
        0.014795764349400997,
        -0.06487692147493362,
        -0.03088506869971752,
        0.0019416315481066704,
        -0.00974300131201744,
        -0.0280587337911129,
        -0.011229482479393482,
        0.005209808237850666,
        0.9991088509559631,
        -0.03670845180749893,
        0.02271031215786934,
        0.0006007805350236595,
        0.005227020476013422,
        -0.009357227012515068,
        -0.016206635162234306,
        -0.027150793001055717,
        -0.007119318936020136,
        -0.0022616235073655844,
        0.013081020675599575,
        -0.004899235442280769,
        -0.004814510233700275,
        0.005683581810444593,
        -0.0021712903399020433,
        0.0005742661305703223,
        0.0005818007630296052,
        -1.0732024908065796,
        -0.0012265844270586967,
        0.004179760348051786,
        -0.002664123894646764,
        0.0002549493219703436,
        -0.005181616172194481,
        -0.002828944241628051,
        -0.0016523144440725446,
        -0.002355374861508608,
        -0.0019729675259441137,
        -0.004232677631080151,
        0.0006103657651692629,
        -0.0032414779998362064,
        -0.004400717094540596,
        0.004203161224722862,
        0.0028644774574786425,
        0.0055554830469191074,
        -0.00460060453042388,
        -0.0034672203473746777,
        0.004932086449116468,
        0.001647057943046093,
        0.002025221474468708,
        -0.00723866606131196,
        0.016949990764260292,
        -0.9816612005233765,
        0.34130561351776123,
        0.004784053191542625,
        0.0004207179881632328,
        0.002875731559470296,
        -0.012310600839555264,
        -0.018768612295389175,
        0.24431851506233215,
        -0.0033050617203116417,
        0.012081542052328587,
        -0.002727438695728779,
        -0.0072523304261267185,
        -0.011250503361225128,
        0.00197619735263288,
        0.006347310729324818,
        -0.004594883415848017,
        -0.30868351459503174,
        -0.0030427591409534216,
        -0.00024099295842461288,
        -0.0009098250302486122,
        0.0008201677119359374,
        -0.022014610469341278,
        0.00957843940705061,
        0.015809979289770126,
        0.03616809472441673,
        0.0038113887421786785,
        -0.014016895554959774,
        0.010013049468398094,
        0.005106349475681782,
        -0.01734728366136551,
        0.007439158856868744,
        0.4580635726451874,
        0.006565323565155268,
        -0.0046016075648367405,
        0.02767970971763134,
        0.0077087427489459515,
        -0.0007445995579473674,
        -0.004161539487540722,
        -0.026225080713629723,
        -0.00643271254375577,
        0.003743193345144391,
        0.007166901603341103,
        -0.014944426715373993,
        0.0026847594417631626,
        -0.017385393381118774,
        -0.009334640577435493,
        0.00514400377869606,
        0.003843381768092513,
        -0.19952751696109772,
        -0.12447939068078995,
        0.0032327703665941954,
        -0.009603950195014477,
        0.01848723739385605,
        -0.021230068057775497,
        0.015856465324759483,
        1.2135707139968872,
        0.009013642556965351,
        0.002091184491291642,
        -0.020897412672638893,
        0.0002522147842682898,
        0.028353925794363022,
        -0.026981566101312637,
        -0.03372851386666298,
        0.017503073439002037,
        0.0192856565117836,
        0.018435124307870865,
        0.0076085347682237625,
        -0.00647755665704608,
        -0.016674190759658813,
        -0.0060698469169437885,
        -0.011798635125160217,
        0.14674991369247437,
        0.4438600540161133,
        -0.36123812198638916,
        0.0754225105047226,
        0.11415985971689224,
        -0.14529021084308624,
        -0.17032994329929352,
        0.05414372310042381,
        -0.2682531177997589,
        -0.10582417249679565,
        -0.10599157214164734,
        0.10794269293546677,
        -0.012625341303646564,
        -0.03576238080859184,
        0.11298511922359467,
        -0.12158811837434769,
        -0.1375063806772232,
        0.015912972390651703,
        -0.14476856589317322,
        0.17642349004745483,
        -0.029521366581320763,
        0.029545985162258148,
        -0.0005325033562257886,
        0.010222451761364937,
        -0.019028734415769577,
        0.987942636013031,
        -0.34737855195999146,
        -0.008699043653905392,
        0.0008914924692362547,
        -0.002976434538140893,
        0.015101900324225426,
        0.016628695651888847,
        -0.24974623322486877,
        -0.0007170296157710254,
        -0.01160566695034504,
        0.004467746242880821,
        0.00837153010070324,
        0.01247619092464447,
        -0.00010471045970916748,
        -0.00962294265627861,
        0.003901658346876502,
        0.31034934520721436,
        0.004467836581170559,
        -0.00026019950746558607,
        0.0022481202613562346,
        -0.004001094494014978,
        -0.004510900471359491,
        0.0023918449878692627,
        -0.01108622457832098,
        -0.029562927782535553,
        0.060039177536964417,
        0.012099946849048138,
        -0.004211665131151676,
        0.001698167179711163,
        -0.001595394453033805,
        0.011010440066456795,
        0.0006560605834238231,
        -0.006827106233686209,
        0.01129238773137331,
        0.007014977280050516,
        0.01716539077460766,
        -0.011416253633797169,
        0.0011975449742749333,
        0.0029279571026563644,
        0.0028456351719796658,
        1.0316976308822632,
        0.013012922368943691,
        -0.00898671243339777,
        -0.0014883254189044237,
        -0.0024794400669634342,
        0.0037160925567150116,
        0.014681531116366386,
        0.011951649561524391,
        0.4651362895965576,
        0.3887883424758911,
        0.019123591482639313,
        0.035063982009887695,
        -0.01094658114016056,
        0.017413359135389328,
        -0.0132204070687294,
        0.2647835910320282,
        -0.02082233503460884,
        0.019804373383522034,
        -0.02131790481507778,
        0.06757744401693344,
        0.004919078201055527,
        -0.039791569113731384,
        -0.006581497844308615,
        0.017366738989949226,
        -0.12228794395923615,
        0.0033300064969807863,
        0.04984904080629349,
        0.0030233950819820166,
        0.031013386324048042,
        0.009984645992517471,
        -0.02262558601796627,
        0.012168174609541893,
        0.2129490077495575,
        0.13343113660812378,
        -0.012892923317849636,
        0.0051360768266022205,
        -0.010412300005555153,
        0.00860630813986063,
        -0.022492913529276848,
        -1.2086902856826782,
        -0.009409056045114994,
        -0.009806891903281212,
        0.01217844057828188,
        -0.014981723390519619,
        -0.02812390960752964,
        0.016709858551621437,
        0.02816678211092949,
        -0.005202386528253555,
        -0.013913336209952831,
        -0.012961572967469692,
        -0.005160823930054903,
        0.0031485946383327246,
        0.010302085429430008
      ],
      "bias": [
        0.1219894289970398,
        0.5862996578216553,
        -0.1103314608335495,
        -1.8323884010314941,
        -1.2007670402526855,
        0.07870473712682724,
        -1.7802956104278564,
        -1.1950592994689941,
        -0.04253452271223068,
        0.6951063275337219,
        -0.20123212039470673,
        0.060034725815057755,
        0.02863483503460884,
        -0.07569461315870285,
        0.08858831226825714,
        0.17417289316654205
      ]
    },
    {
      "activation": "tanh",
      "weights": [
        -0.0894484594464302,
        -0.1656753569841385,
        -0.2911962866783142,
        -0.09218653291463852,
        -0.13327422738075256,
        -0.002074178773909807,
        0.26561465859413147,
        -0.18174120783805847,
        -0.1026068776845932,
        0.1851978600025177,
        -0.027895066887140274,
        0.15319949388504028,
        -0.21849390864372253,
        0.06306163966655731,
        0.24352562427520752,
        0.22484304010868073,
        0.2590568959712982,
        0.14785605669021606,
        -0.27713659405708313,
        -0.7786811590194702,
        -0.9864485263824463,
        -0.061820533126592636,
        0.7766494154930115,
        1.0024808645248413,
        0.47173550724983215,
        -0.04359586909413338,
        0.062993623316288,
        0.004726658575236797,
        -0.46417632699012756,
        0.058875709772109985,
        -0.00801836047321558,
        -0.0632215216755867,
        0.6212100386619568,
        -0.3660319447517395,
        -0.6941680908203125,
        -0.019588138908147812,
        0.009396464563906193,
        0.25882741808891296,
        -0.019864864647388458,
        0.0153886117041111,
        -0.32447826862335205,
        0.06321852654218674,
        0.37928256392478943,
        0.0008954046643339097,
        0.31195974349975586,
        -0.27386900782585144,
        -0.025571106001734734,
        -0.37369799613952637,
        0.12711311876773834,
        0.34438538551330566,
        0.1984807699918747,
        -0.0034541641362011433,
        0.17589826881885529,
        -0.08375770598649979,
        0.1700267344713211,
        0.02043762616813183,
        0.17690499126911163,
        -0.1659087985754013,
        -0.05557357892394066,
        0.02479841560125351,
        0.18126609921455383,
        -0.24621063470840454,
        -0.025442149490118027,
        0.35248106718063354,
        0.2623165547847748,
        0.1064949557185173,
        0.07608752697706223,
        0.21633918583393097,
        0.16927462816238403,
        -0.34154048562049866,
        0.023360159248113632,
        0.02462952397763729,
        -0.34147799015045166,
        -0.17645952105522156,
        -0.2879541516304016,
        0.20739878714084625,
        0.02693532034754753,
        0.070918969810009,
        -0.03369392827153206,
        0.19920101761817932,
        -0.0278481338173151,
        0.02914540097117424,
        0.026560669764876366,
        0.0017923458945006132,
        0.0012642230140045285,
        0.7320958971977234,
        0.006752852350473404,
        0.007075748406350613,
        0.020124401897192,
        0.030086524784564972,
        -0.032733138650655746,
        -0.0040808748453855515,
        -0.024725981056690216,
        -0.7961024641990662,
        -0.0053133717738091946,
        0.029640527442097664,
        0.08040917664766312,
        0.02297026291489601,
        -0.08836745470762253,
        0.8478514552116394,
        -0.0017244262853637338,
        0.023934831842780113,
        -0.8364185690879822,
        -0.0021058234851807356,
        -0.012036027386784554,
        -0.138485386967659,
        -0.42306801676750183,
        -0.0006486098282039165,
        0.013088214211165905,
        -0.02497798576951027,
        -0.0009845508029684424,
        0.39737561345100403,
        -0.29522064328193665,
        -0.32413825392723083,
        0.32194605469703674,
        -0.175478994846344,
        1.0589146614074707,
        0.1066126748919487,
        0.013091250322759151,
        -1.018384575843811,
        -0.5607253313064575,
        0.41535335779190063,
        -0.19981859624385834,
        -0.0019271300407126546,
        0.5590518712997437,
        -0.11341661959886551,
        0.011492555029690266,
        0.20007844269275665,
        0.08040906488895416,
        0.022970182821154594,
        -0.08836731314659119,
        0.8478522896766663,
        -0.0017244541086256504,
        0.02393478713929653,
        -0.8364186882972717,
        -0.0021058369893580675,
        -0.012035992927849293,
        -0.13848698139190674,
        -0.4230673313140869,
        -0.0006486003985628486,
        0.01308818906545639,
        -0.02497793734073639,
        -0.0009845044696703553,
        0.3973748981952667,
        -0.0804118886590004,
        -0.022970987483859062,
        0.08836983144283295,
        -0.8478363752365112,
        0.0017240637680515647,
        -0.023935722187161446,
        0.8364169597625732,
        0.002105242107063532,
        0.012036803178489208,
        0.13845166563987732,
        0.42308202385902405,
        0.0006489884108304977,
        -0.013088859617710114,
        0.024978864938020706,
        0.0009856477845460176,
        -0.397389680147171,
        0.0801500678062439,
        0.02247130684554577,
        -0.08700268715620041,
        0.8492648601531982,
        -0.0017928186571225524,
        0.023674650117754936,
        -0.8398478031158447,
        -0.0015952769899740815,
        -0.012872391380369663,
        -0.13983917236328125,
        -0.4222266376018524,
        -0.0006104142521508038,
        0.012769105844199657,
        -0.024437574669718742,
        -0.0013813887489959598,
        0.39679455757141113
      ],
      "bias": [
        0,
        -0.055640872567892075,
        0.11832509934902191,
        0,
        0,
        -0.08346330374479294,
        0.0023357372265309095,
        -0.08172678202390671,
        0.0023369211703538895,
        -0.0023113347124308348,
        0.0038403647486120462
      ]
    }
  ],
  "meta": {
    "name": "Unsound",
    "slug": "unsound",
    "inputs": 24,
    "outputs": 11,
    "trackIndex": 2,
    "file": "unsound.json",
    "trained": "2025-10-23T21:20:04.164Z",
    "training": {
      "mode": "tune",
      "feature": "mid",
      "featureType": "signed",
      "output": "fieldStrength",
      "orientation": "inverse",
      "weight": 1,
      "epochs": 400,
      "samples": 4096,
      "learningRate": 0.01,
      "loss": 0.0001595729117980227,
      "correlation": -0.9995411038398743,
      "fitness": 0.9995411038398743,
      "mse": 0.00030976993730291724,
      "combinedFitness": 0.9995411038398743,
      "averageMse": 0.00030976993730291724,
      "correlations": [
        {
          "feature": "mid",
          "featureType": "signed",
          "output": "fieldStrength",
          "orientation": "inverse",
          "weight": 1,
          "correlation": -0.9995411038398743,
          "fitness": 0.9995411038398743,
          "mse": 0.00030976993730291724
        }
      ],
      "previous": {
        "feature": "deltaBass",
        "featureType": "signed",
        "output": "zoom",
        "orientation": "inverse",
        "weight": 1,
        "epochs": 400,
        "samples": 4096,
        "learningRate": 0.01,
        "loss": 0.0019476074958220124,
        "correlation": -0.9996177554130554,
        "fitness": 0.9996177554130554,
        "mse": 0.0002638663281686604,
        "combinedFitness": 0.9987843632698059,
        "averageMse": 0.0009239180944859982,
        "correlations": [
          {
            "feature": "deltaBass",
            "featureType": "signed",
            "output": "zoom",
            "orientation": "inverse",
            "weight": 1,
            "correlation": -0.9996177554130554,
            "fitness": 0.9996177554130554,
            "mse": 0.0002638663281686604
          },
          {
            "feature": "deltaBass",
            "featureType": "signed",
            "output": "vortexAmount",
            "orientation": "direct",
            "weight": 0.5,
            "correlation": 0.9996181726455688,
            "fitness": 0.9996181726455688,
            "mse": 0.000263297522906214
          },
          {
            "feature": "deltaBass",
            "featureType": "signed",
            "output": "sparkleDensity",
            "orientation": "inverse",
            "weight": 0.5,
            "correlation": -0.9996181726455688,
            "fitness": 0.9996181726455688,
            "mse": 0.00026329749380238354
          },
          {
            "feature": "deltaBass",
            "featureType": "signed",
            "output": "sizeJitter",
            "orientation": "inverse",
            "weight": 0.5,
            "correlation": -0.9996181726455688,
            "fitness": 0.9996181726455688,
            "mse": 0.00026329749380238354
          },
          {
            "feature": "emaHigh",
            "featureType": "signed",
            "output": "glow",
            "orientation": "inverse",
            "weight": 0.5,
            "correlation": -0.9967199563980103,
            "fitness": 0.9967199563980103,
            "mse": 0.002305279253050685
          },
          {
            "feature": "high",
            "featureType": "signed",
            "output": "cohesion",
            "orientation": "inverse",
            "weight": 0.5,
            "correlation": -0.9951353669166565,
            "fitness": 0.9951353669166565,
            "mse": 0.0034148951526731253
          },
          {
            "feature": "deltaBass",
            "featureType": "signed",
            "output": "fieldStrength",
            "orientation": "direct",
            "weight": 0.5,
            "correlation": 0.9996181726455688,
            "fitness": 0.9996181726455688,
            "mse": 0.00026329761021770537
          },
          {
            "feature": "mid",
            "featureType": "signed",
            "output": "hueShift",
            "orientation": "direct",
            "weight": 0.5,
            "correlation": 0.999495804309845,
            "fitness": 0.999495804309845,
            "mse": 0.00035411393037065864
          }
        ]
      }
    }
  }
}
