{
  "input": 24,
  "normalization": {
    "mean": [
      0,
      0,
      0,
      0,
      0,
      0,
      0,
      0,
      0,
      0,
      0,
      0,
      0,
      0,
      0,
      0,
      0,
      0,
      0,
      0,
      0,
      0,
      0,
      0
    ],
    "std": [
      1,
      1,
      1,
      1,
      1,
      1,
      1,
      1,
      1,
      1,
      1,
      1,
      1,
      1,
      1,
      1,
      1,
      1,
      1,
      1,
      1,
      1,
      1,
      1
    ]
  },
  "layers": [
    {
      "activation": "relu",
      "weights": [
        0.22505472600460052,
        0.09538650512695312,
        0.15202248096466064,
        0.23830083012580872,
        0.10318616777658463,
        0.21572954952716827,
        0.2822956442832947,
        0.19994649291038513,
        0.27072712779045105,
        -0.11783501505851746,
        -0.2382226139307022,
        -0.023766811937093735,
        -0.028438804671168327,
        -0.34388095140457153,
        0.11285946518182755,
        0.18079063296318054,
        -0.22524812817573547,
        0.32188212871551514,
        -0.3253650963306427,
        0.17046311497688293,
        -0.08069052547216415,
        -0.015428452752530575,
        -0.30944016575813293,
        -0.15061165392398834,
        0.17810800671577454,
        -0.2467566728591919,
        0.03689056634902954,
        -0.11939626187086105,
        -0.03446076437830925,
        -0.31912094354629517,
        0.23880358040332794,
        0.1984061598777771,
        -0.09743036329746246,
        0.3375958800315857,
        -0.2764222323894501,
        -0.15031012892723083,
        0.06393260508775711,
        -0.33646640181541443,
        -0.2576179802417755,
        0.3325551748275757,
        -0.19273865222930908,
        0.2297932356595993,
        0.22770950198173523,
        0.10550688952207565,
        -0.31321030855178833,
        0.1992306411266327,
        0.30097493529319763,
        -0.09023424983024597,
        -0.26905691623687744,
        0.32675087451934814,
        -0.3362477719783783,
        0.25200727581977844,
        0.261821985244751,
        0.05571410804986954,
        0.2031153440475464,
        0.3207199275493622,
        -0.10108631104230881,
        -0.16177506744861603,
        -0.09261875599622726,
        0.013397637754678726,
        0.06481976807117462,
        -0.20214596390724182,
        -0.19368937611579895,
        -0.2872059941291809,
        0.3093775510787964,
        -0.14173045754432678,
        -0.05428288131952286,
        0.12200826406478882,
        -0.006097123958170414,
        0.11026958376169205,
        0.052821408957242966,
        0.255445271730423,
        0.21926383674144745,
        -0.3216613233089447,
        0.27705276012420654,
        -0.11362320184707642,
        0.28396156430244446,
        -0.2501986026763916,
        0.26832064986228943,
        -0.23534651100635529,
        0.3346060514450073,
        -0.29739800095558167,
        0.08845657110214233,
        -0.24050988256931305,
        0.26360654830932617,
        0.18343578279018402,
        0.1716199666261673,
        0.16521938145160675,
        -0.326880544424057,
        0.05487259477376938,
        0.13691236078739166,
        -0.08384351432323456,
        0.34067028760910034,
        -0.021926743909716606,
        0.030790090560913086,
        -0.2931845486164093,
        0.20699508488178253,
        -0.16852374374866486,
        -0.1917438954114914,
        -0.3465999364852905,
        -0.28489258885383606,
        0.3119770884513855,
        -0.023556232452392578,
        0.04191042482852936,
        -0.13906437158584595,
        -0.017333529889583588,
        0.2936762571334839,
        -0.08060899376869202,
        0.12559117376804352,
        -0.27117136120796204,
        0.022519558668136597,
        0.32083579897880554,
        -0.11583725363016129,
        -0.3165681064128876,
        -0.10033173114061356,
        0.15197759866714478,
        0.3462999165058136,
        0.0059569780714809895,
        0.16574017703533173,
        0.3338351547718048,
        -0.002966254483908415,
        -0.2922631502151489,
        0.030927767977118492,
        -0.27646732330322266,
        -0.15581665933132172,
        0.28643301129341125,
        -0.2199186235666275,
        0.21827201545238495,
        0.03699926286935806,
        -0.018933521583676338,
        -0.3493978679180145,
        0.06629573553800583,
        -0.07924389094114304,
        -0.18855340778827667,
        -0.29782211780548096,
        0.22155113518238068,
        -0.22037655115127563,
        0.18350021541118622,
        0.054129619151353836,
        -0.1499364972114563,
        -0.12108442187309265,
        0.22016748785972595,
        0.013898935168981552,
        0.052010685205459595,
        -0.2518656551837921,
        -0.23728467524051666,
        -0.07987554371356964,
        -0.20170176029205322,
        -0.15625381469726562,
        0.30942341685295105,
        0.17976725101470947,
        0.055988818407058716,
        0.11133281886577606,
        -0.29432764649391174,
        -0.06771568208932877,
        0.26819050312042236,
        -0.26495152711868286,
        0.3070814609527588,
        0.2229653149843216,
        -0.2425585389137268,
        0.2025931030511856,
        0.29388847947120667,
        -0.15627557039260864,
        -0.249289870262146,
        0.00009662127558840439,
        -0.12551848590373993,
        -0.10719507932662964,
        0.07586827129125595,
        -0.17174646258354187,
        0.29473432898521423,
        0.036216046661138535,
        0.16291284561157227,
        -0.2583727240562439,
        0.08128415793180466,
        -0.34297975897789,
        0.2664720118045807,
        0.041070401668548584,
        -0.3412259817123413,
        -0.06967274844646454,
        0.19161175191402435,
        0.13133345544338226,
        -0.028363965451717377,
        -0.22295145690441132,
        0.10728608071804047,
        -0.2537616789340973,
        -0.25811734795570374,
        0.20618243515491486,
        -0.2710821330547333,
        0.2031193971633911,
        -0.04352438822388649,
        0.22723162174224854,
        0.17134647071361542,
        -0.22482125461101532,
        0.06479823589324951,
        -0.3069198429584503,
        0.17250438034534454,
        0.2802015244960785,
        0.1217922568321228,
        -0.0349750816822052,
        0.2691337764263153,
        -0.17393407225608826,
        -0.257718563079834,
        -0.25955140590667725,
        0.29793086647987366,
        -0.30868983268737793,
        -0.19453534483909607,
        0.24901270866394043,
        0.2185465693473816,
        0.25753700733184814,
        0.12571589648723602,
        -0.1257164031267166,
        -0.24334411323070526,
        -0.29984912276268005,
        0.2627035975456238,
        -0.2860258221626282,
        -0.257999062538147,
        0.06849035620689392,
        0.18732842803001404,
        -0.11437343806028366,
        0.3028164803981781,
        0.2760680019855499,
        0.17865285277366638,
        0.006353003904223442,
        -0.28502359986305237,
        0.12131737917661667,
        0.23601344227790833,
        0.13163559138774872,
        -0.2817607522010803,
        0.05560935288667679,
        0.3110760748386383,
        -0.32901886105537415,
        -0.19958186149597168,
        -0.2742641866207123,
        0.2975930869579315,
        0.04056538641452789,
        0.05211484059691429,
        -0.10848760604858398,
        0.16844631731510162,
        -0.07221047580242157,
        0.011916440911591053,
        0.12182799726724625,
        -0.2538413405418396,
        -0.14276747405529022,
        -0.03530729189515114,
        -0.2041328400373459,
        -0.3052692115306854,
        -0.015854470431804657,
        0.31423428654670715,
        0.29496055841445923,
        -0.3461083769798279,
        -0.04407072439789772,
        0.197419211268425,
        -0.29090797901153564,
        0.2727494239807129,
        0.10936551541090012,
        -0.2359730750322342,
        0.2070053517818451,
        0.13314330577850342,
        -0.24726730585098267,
        0.12034798413515091,
        0.2142677754163742,
        0.2182893455028534,
        -0.3109699785709381,
        0.12382914125919342,
        0.1480785757303238,
        -0.2605404853820801,
        0.18199008703231812,
        0.24040129780769348,
        -0.09384574741125107,
        -0.16458004713058472,
        0.07324813306331635,
        0.14842908084392548,
        0.2990538775920868,
        0.05510096251964569,
        -0.12614156305789948,
        -0.2560179531574249,
        -0.16948409378528595,
        -0.1296033412218094,
        0.20775632560253143,
        0.25811541080474854,
        0.3422839343547821,
        0.17339245975017548,
        -0.24969026446342468,
        0.0004557938955258578,
        0.1338653862476349,
        -0.2892579436302185,
        0.17648029327392578,
        -0.13764812052249908,
        -0.04210017994046211,
        -0.050604186952114105,
        -0.3090023994445801,
        0.2558622360229492,
        0.24623344838619232,
        0.000009139876965491567,
        -0.1795278638601303,
        0.07703632116317749,
        0.1300516277551651,
        -0.2118045836687088,
        -0.18351073563098907,
        -0.007052693981677294,
        0.20977771282196045,
        0.10746291279792786,
        -0.31165313720703125,
        -0.11970742791891098,
        0.158434197306633,
        0.14340025186538696,
        0.0000681384772178717,
        0.3050873279571533,
        -0.05881885066628456,
        0.22249852120876312,
        0.08815823495388031,
        0.20085129141807556,
        0.2653810381889343,
        0.31189772486686707,
        0.196727454662323,
        0.1073983684182167,
        -0.15095046162605286,
        -0.1311275213956833,
        -0.32028728723526,
        0.2845768332481384,
        0.2912157475948334,
        0.29896050691604614,
        -0.08147379755973816,
        -0.13123007118701935,
        0.31846103072166443,
        0.23860839009284973,
        -0.10110215842723846,
        0.19439640641212463,
        -0.23677387833595276,
        0.12524303793907166,
        0.13854950666427612,
        0.0370197519659996,
        0.15810754895210266,
        -0.2083042412996292,
        0.33055099844932556,
        0.13778014481067657,
        0.19743488729000092,
        0.05928456410765648,
        0.007749082054942846,
        0.2793063819408417,
        -0.14340880513191223,
        0.28370019793510437,
        0.04547536000609398,
        0.26047539710998535,
        0.16310520470142365,
        0.33495548367500305,
        -0.3209093511104584,
        0.07650796324014664,
        -0.25242042541503906,
        0.18007776141166687,
        -0.266024112701416,
        -0.32772788405418396,
        0.2928914725780487,
        0.2340404987335205,
        0.08600427210330963,
        -0.02988000214099884,
        0.2146320939064026,
        0.030872885137796402,
        -0.10492445528507233,
        -0.013776962645351887,
        -0.24842508137226105,
        -0.29150938987731934,
        -0.013206219300627708,
        -0.21971020102500916,
        -0.26750460267066956,
        -0.0960070863366127,
        0.027042074128985405,
        0.1438644677400589,
        0.3223245441913605,
        -0.17606055736541748,
        0.15090511739253998,
        -0.16432754695415497,
        0.20187246799468994,
        -0.1921306699514389,
        -0.15711969137191772,
        -0.12421511113643646,
        0.005094374530017376,
        0.0005201492458581924,
        0.1951400488615036,
        0.2279091328382492,
        0.07679878175258636,
        -0.035129621624946594,
        -0.22087498009204865,
        0.12781275808811188
      ],
      "bias": [
        -0.2063419222831726,
        0.21923325955867767,
        -0.24136775732040405,
        -0.14324112236499786,
        -0.17386388778686523,
        -0.05169353261590004,
        -0.045219291001558304,
        0.08275965601205826,
        -0.09727761149406433,
        0.0889599472284317,
        -0.016886794939637184,
        -0.18071651458740234,
        0.025856783613562584,
        0.09936583787202835,
        -0.02338246814906597,
        0.0465218611061573
      ]
    },
    {
      "activation": "tanh",
      "weights": [
        0.17666801810264587,
        -0.073107048869133,
        -0.19436688721179962,
        -0.04899609833955765,
        0.33374834060668945,
        -0.056131042540073395,
        -0.29010966420173645,
        -0.16768673062324524,
        0.22499951720237732,
        -0.2625309228897095,
        0.23407571017742157,
        0.21603098511695862,
        -0.16120801866054535,
        -0.06418797373771667,
        -0.03255553916096687,
        -0.12264714390039444,
        0.12866245210170746,
        -0.16484633088111877,
        -0.11495650559663773,
        -0.02259252406656742,
        -0.28987470269203186,
        0.12130474299192429,
        -0.30732306838035583,
        0.008846592158079147,
        0.03226542845368385,
        -0.19874601066112518,
        -0.20918723940849304,
        0.24431824684143066,
        0.02125227451324463,
        -0.065830759704113,
        -0.05816233530640602,
        -0.26804351806640625,
        -0.15691854059696198,
        -0.016643309965729713,
        0.3364153802394867,
        0.22656428813934326,
        0.30855152010917664,
        0.06844446808099747,
        0.23852479457855225,
        -0.20733655989170074,
        0.17363643646240234,
        -0.26387733221054077,
        0.026852013543248177,
        0.16936704516410828,
        0.16090601682662964,
        -0.1643049716949463,
        0.0574435219168663,
        0.1843830645084381,
        0.3371576964855194,
        -0.14839793741703033,
        0.31122827529907227,
        0.10701672732830048,
        -0.20922188460826874,
        0.190302774310112,
        0.1336999237537384,
        0.004425080958753824,
        -0.22152191400527954,
        0.07543932646512985,
        -0.2635241746902466,
        -0.3027910888195038,
        -0.1387532353401184,
        0.21977509558200836,
        0.0588802732527256,
        -0.24695830047130585,
        -0.14302146434783936,
        0.05087491124868393,
        0.2358683943748474,
        -0.21325984597206116,
        0.036567460745573044,
        -0.16727618873119354,
        0.044321056455373764,
        0.24066388607025146,
        0.04900803416967392,
        0.03752053156495094,
        0.2602907419204712,
        -0.01692318730056286,
        -0.1855660229921341,
        0.33935338258743286,
        -0.17355266213417053,
        0.2741801142692566,
        0.2454782873392105,
        -0.22674433887004852,
        0.32956463098526,
        0.030379148200154305,
        -0.2848226726055145,
        0.11776472628116608,
        -0.001942487433552742,
        0.2307034581899643,
        -0.2823805809020996,
        0.27044329047203064,
        0.03246448189020157,
        -0.19985568523406982,
        0.14225859940052032,
        -0.2118486613035202,
        0.014529789797961712,
        -0.20900249481201172,
        -0.14948055148124695,
        -0.005920610390603542,
        -0.30671727657318115,
        0.05277214199304581,
        0.022077782079577446,
        0.06649964302778244,
        0.2963593304157257,
        -0.1507081240415573,
        -0.05895054712891579,
        0.2779308259487152,
        -0.304741233587265,
        -0.2957327365875244,
        0.31253984570503235,
        0.31347498297691345,
        0.1331646591424942,
        -0.1681409478187561,
        0.25714144110679626,
        0.18053637444972992,
        0.12827101349830627,
        0.07982316613197327,
        -0.32787588238716125,
        -0.20684455335140228,
        -0.2337322235107422,
        0.19265501201152802,
        -0.047661345452070236,
        -0.2993704378604889,
        -0.07974964380264282,
        0.2602624297142029,
        -0.14182226359844208,
        -0.23887373507022858,
        0.04894112050533295,
        -0.021329279989004135,
        -0.2767733633518219,
        -0.0695820301771164,
        -0.044414225965738297,
        -0.02318565361201763,
        0.12469817698001862,
        0.15187634527683258,
        0.06791757047176361,
        -0.3487434387207031,
        0.24255672097206116,
        0.3032693862915039,
        -0.0849110409617424,
        -0.268261194229126,
        -0.32620203495025635,
        -0.008336354978382587,
        0.1192212626338005,
        0.05037250369787216,
        -0.2729150354862213,
        -0.23531024158000946,
        0.23531612753868103,
        -0.183454230427742,
        -0.0758676752448082,
        -0.14256024360656738,
        -0.010689887218177319,
        -0.15892232954502106,
        -0.056751690804958344,
        -0.30860334634780884,
        -0.3110148310661316,
        -0.07630611956119537,
        0.3040532171726227,
        -0.11166820675134659,
        0.07173312455415726,
        -0.14533188939094543,
        0.18573865294456482,
        0.10457475483417511,
        -0.19294847548007965,
        -0.23879779875278473,
        -0.12169142812490463,
        -0.16273117065429688,
        -0.13546860218048096,
        0.20591197907924652,
        -0.04084981977939606,
        0.04461560398340225,
        0.004040678031742573,
        0.014510310254991055,
        -0.2808498740196228,
        -0.23067595064640045,
        0.18846584856510162,
        -0.12982967495918274
      ],
      "bias": [
        0.025178486481308937,
        0.021901819854974747,
        -0.23577415943145752,
        -0.15818335115909576,
        -0.016567565500736237,
        0.20124034583568573,
        0.11687207967042923,
        0.2370980829000473,
        -0.009408222511410713,
        -0.05035186558961868,
        -0.1425524801015854
      ]
    }
  ],
  "meta": {
    "name": "Meditation",
    "slug": "meditation",
    "inputs": 24,
    "outputs": 11,
    "placeholder": true,
    "generated": "2025-10-21T15:22:04.833Z"
  }
}
