{
  "input": 24,
  "normalization": {
    "mean": [
      -0.008599231950938702,
      0.0015514730475842953,
      0.0025366879999637604,
      0.0019665593281388283,
      0.00951352808624506,
      0.4951443076133728,
      0.49094030261039734,
      0.49965593218803406,
      0.49987491965293884,
      -0.004122050479054451,
      -0.003066013799980283,
      -0.0017324677901342511,
      0.012428074143826962,
      -0.0023483610711991787,
      0.0208587683737278,
      -0.0021877724211663008,
      0.0034767743200063705,
      -0.010020824149250984,
      0.005082493182271719,
      0.00939276535063982,
      0.5003769397735596,
      0.5063312649726868,
      0.5041800141334534,
      0.5070111751556396
    ],
    "std": [
      0.5705106854438782,
      0.5758528113365173,
      0.5772332549095154,
      0.5797958374023438,
      0.5750157833099365,
      0.29010671377182007,
      0.2872525155544281,
      0.2885119318962097,
      0.28933489322662354,
      0.5720438957214355,
      0.5827832818031311,
      0.5795866847038269,
      0.5740335583686829,
      0.5802333354949951,
      0.5807147026062012,
      0.5863405466079712,
      0.5806978940963745,
      0.5780418515205383,
      0.5819843411445618,
      0.5786417722702026,
      0.2891889810562134,
      0.28703197836875916,
      0.28984928131103516,
      0.28876397013664246
    ]
  },
  "layers": [
    {
      "activation": "relu",
      "weights": [
        0.0052040512673556805,
        0.00471953721717,
        -0.009105433709919453,
        -0.6401804685592651,
        -0.7023568153381348,
        -0.009572469629347324,
        -0.030100513249635696,
        0.004809742793440819,
        0.01964685507118702,
        -0.005037125665694475,
        -0.5608130693435669,
        0.0017975635128095746,
        -0.01962178945541382,
        0.008327565155923367,
        -0.030586257576942444,
        -0.02193821407854557,
        0.008729333989322186,
        0.022834651172161102,
        0.010115229524672031,
        0.2730250060558319,
        0.009259846992790699,
        -0.011310224421322346,
        -0.008570199832320213,
        -0.003514618379995227,
        -0.0052266716957092285,
        0.011000577360391617,
        -0.01885341666638851,
        -0.2737804055213928,
        0.05814743787050247,
        -0.013053478673100471,
        0.015327309258282185,
        0.006967274937778711,
        0.019380420446395874,
        -0.009722999297082424,
        0.03126293793320656,
        -0.007549887057393789,
        -0.008586112409830093,
        0.024526672437787056,
        0.02761930599808693,
        0.015511337667703629,
        -0.005186410155147314,
        -0.019405195489525795,
        -0.004134499467909336,
        0.03410987928509712,
        0.02135259471833706,
        -0.0020181366708129644,
        0.005801983643323183,
        -0.00482893968001008,
        0.010651716031134129,
        -0.008812842890620232,
        0.0077685280703008175,
        0.46139171719551086,
        0.6509152054786682,
        0.006972009316086769,
        0.010107799433171749,
        0.022260872647166252,
        -0.019924858585000038,
        -0.0029010558500885963,
        0.574403703212738,
        -0.015131013467907906,
        -0.010804042220115662,
        -0.006538448389619589,
        0.015185857191681862,
        0.009397953748703003,
        -0.028301097452640533,
        -0.01864698715507984,
        -0.009008278138935566,
        -0.26420554518699646,
        0.02304232493042946,
        0.012881881557404995,
        0.01769251376390457,
        -0.008608859032392502,
        0.025493232533335686,
        0.004616853315383196,
        -0.002982522826641798,
        0.08413182944059372,
        0.0016713299555703998,
        0.006676646415144205,
        -0.005258187185972929,
        -0.017628364264965057,
        0.05407201498746872,
        -0.032977715134620667,
        -1.0292576551437378,
        -0.012203897349536419,
        -0.0067998431622982025,
        0.02326519787311554,
        -0.0036166622303426266,
        0.016729477792978287,
        0.012595073319971561,
        -0.006778665818274021,
        0.004614978097379208,
        -0.0009470662334933877,
        -0.009007057175040245,
        0.017506331205368042,
        0.0006769533501937985,
        -0.01060566771775484,
        -0.0006833847728557885,
        0.007815237157046795,
        0.005812083370983601,
        1.2301031351089478,
        0.0053217969834804535,
        0.0053650629706680775,
        0.0006229692953638732,
        0.0029147975146770477,
        -0.002869637683033943,
        0.0032547609880566597,
        0.0012193830916658044,
        -0.002079269615933299,
        0.0018136315047740936,
        -0.00366606330499053,
        0.002949621994048357,
        -0.0009256057674065232,
        0.0076045808382332325,
        0.0005654724664054811,
        -0.0021314709447324276,
        0.002298833569511771,
        0.001053061569109559,
        -0.0030647541861981153,
        -0.006451671477407217,
        -0.0007212775526568294,
        0.00027083753957413137,
        -0.0018730646697804332,
        -0.003880836768075824,
        0.05549648031592369,
        -0.06078656390309334,
        -0.00681759649887681,
        0.018581056967377663,
        -0.005149378906935453,
        -0.02471458539366722,
        0.0009446260519325733,
        0.009938021190464497,
        -0.017823388800024986,
        0.02531586028635502,
        0.019312582910060883,
        -0.008703074418008327,
        0.02646571397781372,
        -0.0007219912949949503,
        0.00938408449292183,
        -0.018979718908667564,
        -1.0346510410308838,
        -0.00911774393171072,
        0.019770821556448936,
        -0.02082729898393154,
        -0.013897644355893135,
        -0.026677409186959267,
        0.004814624320715666,
        -0.004764912649989128,
        -0.07495927810668945,
        -0.024913491681218147,
        -0.009363546967506409,
        -0.004054824355989695,
        -0.015010827220976353,
        -0.009371344931423664,
        0.019301047548651695,
        0.9965542554855347,
        -0.022928472608327866,
        0.018028782680630684,
        -0.007630910724401474,
        0.006760856602340937,
        -0.04484177008271217,
        -0.016289563849568367,
        -0.030212489888072014,
        -0.03251783177256584,
        -0.013390892185270786,
        -0.0007740351720713079,
        -0.005693634506314993,
        0.002184642478823662,
        0.005237623583525419,
        0.005557702388614416,
        -0.005872316192835569,
        0.006222201511263847,
        -1.2241772413253784,
        -0.0011669947998598218,
        -0.003579407697543502,
        -0.006801702082157135,
        0.0013312899973243475,
        -0.002606548834592104,
        -0.002669163281098008,
        -0.003030149731785059,
        -0.00475824810564518,
        -0.002979125129058957,
        -0.0037642051465809345,
        -0.0006377159734256566,
        0.003410793375223875,
        0.00048658193554729223,
        -0.0047018276527523994,
        -0.0008875089697539806,
        0.005532153882086277,
        0.0029037953354418278,
        -0.003479122184216976,
        0.000217219625483267,
        0.010617529042065144,
        -0.0025033073034137487,
        0.0015759399393573403,
        0.020488562062382698,
        -1.0753556489944458,
        0.28068235516548157,
        0.010579604655504227,
        -0.007940324023365974,
        -0.008562012575566769,
        -0.029472939670085907,
        0.00397734297439456,
        0.2390144020318985,
        0.0017870244337245822,
        0.0098956860601902,
        -0.0012827515602111816,
        -0.009449921548366547,
        -0.017123660072684288,
        0.008041517809033394,
        0.010284507647156715,
        -0.0012142624473199248,
        -0.2516445815563202,
        -0.033072810620069504,
        0.00889391079545021,
        0.002005033427849412,
        -0.004415143746882677,
        -0.0114077627658844,
        0.035759005695581436,
        -0.008895866572856903,
        0.15058571100234985,
        0.00014638257562182844,
        -0.009333964437246323,
        -0.020474132150411606,
        0.010155881755053997,
        -0.0021116130519658327,
        -0.005213351920247078,
        0.35519543290138245,
        -0.014636998064815998,
        -0.020801832899451256,
        0.05602908506989479,
        0.014334376901388168,
        -0.01727478578686714,
        0.010150725021958351,
        -0.004988136235624552,
        0.0033946395851671696,
        -0.033940546214580536,
        -0.012595769949257374,
        0.0019473991123959422,
        0.0008659177692607045,
        -0.01298809889703989,
        -0.005564791616052389,
        0.0012483156751841307,
        -0.02250102162361145,
        -0.1592058539390564,
        -0.13851845264434814,
        -0.001185433124192059,
        -0.011327276937663555,
        0.02955828420817852,
        -0.010068337433040142,
        0.03051801212131977,
        1.214065432548523,
        0.001264735241420567,
        -0.0007783857872709632,
        -0.021420463919639587,
        0.012462195008993149,
        0.024659400805830956,
        -0.028667649254202843,
        -0.023797525092959404,
        0.018525678664445877,
        0.024933066219091415,
        0.007609587162733078,
        0.02159193903207779,
        -0.008548898622393608,
        -0.00903281383216381,
        0.00018473088857717812,
        -0.0034038089215755463,
        0.12488311529159546,
        0.48503124713897705,
        -0.34819287061691284,
        0.06594834476709366,
        0.10438185930252075,
        -0.1279989331960678,
        -0.1491488665342331,
        0.052104271948337555,
        -0.2882906496524811,
        -0.09014532715082169,
        -0.09972056746482849,
        0.0974210649728775,
        -0.006060020998120308,
        -0.025638384744524956,
        0.10015701502561569,
        -0.11268822103738785,
        -0.1255064755678177,
        0.020406903699040413,
        -0.12335656583309174,
        0.1629481166601181,
        -0.025787752121686935,
        0.022931355983018875,
        0.0037339071277529,
        -0.0017350665293633938,
        -0.020479736849665642,
        1.0829848051071167,
        -0.2793002724647522,
        -0.011114072054624557,
        0.009656712412834167,
        0.0027015265077352524,
        0.02947153151035309,
        -0.008860747329890728,
        -0.235041081905365,
        -0.0009437354165129364,
        -0.009568735025823116,
        0.002669472945854068,
        0.008278080262243748,
        0.017017439007759094,
        -0.00769230630248785,
        -0.01032625325024128,
        0.003453772747889161,
        0.2536312937736511,
        0.033111572265625,
        -0.0074125127866864204,
        -0.0026030598673969507,
        0.00027132240938954055,
        -0.003620429430156946,
        0.0005114915547892451,
        0.01581496372818947,
        0.0451606884598732,
        0.06104518473148346,
        0.015545204281806946,
        -0.006360264495015144,
        -0.02061813697218895,
        0.008413190022110939,
        0.031074807047843933,
        -0.012924853712320328,
        -0.01840030401945114,
        0.03163367137312889,
        0.034327298402786255,
        0.005471589509397745,
        0.015374543145298958,
        -0.0004931745934300125,
        0.016926951706409454,
        -0.002117220079526305,
        0.9955762028694153,
        0.015259730629622936,
        -0.00010658983956091106,
        -0.004812187980860472,
        0.0005789974820800126,
        -0.010363602079451084,
        -0.005581248085945845,
        0.005391801241785288,
        0.4393326938152313,
        0.42213964462280273,
        0.002760757692158222,
        0.023577475920319557,
        -0.013001016341149807,
        -0.00583790335804224,
        0.006688285619020462,
        0.3168334662914276,
        0.007405357901006937,
        0.0256330743432045,
        -0.008491717278957367,
        0.026018742471933365,
        0.01597648300230503,
        -0.0010445654625073075,
        -0.013902600854635239,
        -0.00551149807870388,
        -0.15987735986709595,
        -0.023535162210464478,
        0.012179664336144924,
        0.004510556813329458,
        -0.009539983235299587,
        -0.005125425290316343,
        -0.024660883471369743,
        -0.0049622938968241215,
        0.19999301433563232,
        0.12415757030248642,
        0.006609542760998011,
        0.013387405313551426,
        -0.011388984508812428,
        0.010120632126927376,
        -0.010995621792972088,
        -1.1579967737197876,
        -0.014256318099796772,
        -0.004785762168467045,
        0.014122569002211094,
        -0.016172099858522415,
        -0.01756523735821247,
        0.02401939034461975,
        0.028164152055978775,
        -0.007234076503664255,
        -0.017841603606939316,
        -0.018822936341166496,
        -0.00028792209923267365,
        0.00880686566233635,
        -0.008192594163119793
      ],
      "bias": [
        0.06845089048147202,
        0.6557594537734985,
        -0.07764772325754166,
        -1.8321199417114258,
        -1.3658168315887451,
        0.08842236548662186,
        -1.782404899597168,
        -1.359562873840332,
        -0.013677086681127548,
        0.738132894039154,
        -0.19259458780288696,
        0.061180777847766876,
        -0.021625516936182976,
        -0.08202676475048065,
        -0.04195177182555199,
        0.14994576573371887
      ]
    },
    {
      "activation": "tanh",
      "weights": [
        -0.0894484594464302,
        -0.1656753569841385,
        -0.2911962866783142,
        -0.09218653291463852,
        -0.13327422738075256,
        -0.002074178773909807,
        0.26561465859413147,
        -0.18174120783805847,
        -0.1026068776845932,
        0.1851978600025177,
        -0.027895066887140274,
        0.15319949388504028,
        -0.21849390864372253,
        0.06306163966655731,
        0.24352562427520752,
        0.22484304010868073,
        0.2590568959712982,
        0.14785605669021606,
        -0.27713659405708313,
        -0.7786811590194702,
        -0.9864485263824463,
        -0.061820533126592636,
        0.7766494154930115,
        1.0024808645248413,
        0.47173550724983215,
        -0.04359586909413338,
        0.062993623316288,
        0.004726658575236797,
        -0.46417632699012756,
        0.058875709772109985,
        -0.00801836047321558,
        -0.0632215216755867,
        0.6212100386619568,
        -0.3660319447517395,
        -0.6941680908203125,
        -0.019588138908147812,
        0.009396464563906193,
        0.25882741808891296,
        -0.019864864647388458,
        0.0153886117041111,
        -0.32447826862335205,
        0.06321852654218674,
        0.37928256392478943,
        0.0008954046643339097,
        0.31195974349975586,
        -0.27386900782585144,
        -0.025571106001734734,
        -0.37369799613952637,
        0.16664472222328186,
        0.38472309708595276,
        -0.07498474419116974,
        -0.012610004283487797,
        -0.8731750249862671,
        -0.024676613509655,
        0.18557792901992798,
        0.8629792928695679,
        0.3654195964336395,
        -0.17256797850131989,
        0.04756062105298042,
        0.0030634303111582994,
        -0.36598771810531616,
        0.026603352278470993,
        -0.16414819657802582,
        -0.05114992707967758,
        0.2623165547847748,
        0.1064949557185173,
        0.07608752697706223,
        0.21633918583393097,
        0.16927462816238403,
        -0.34154048562049866,
        0.023360159248113632,
        0.02462952397763729,
        -0.34147799015045166,
        -0.17645952105522156,
        -0.2879541516304016,
        0.20739878714084625,
        0.02693532034754753,
        0.070918969810009,
        -0.03369392827153206,
        0.19920101761817932,
        -0.0278481338173151,
        0.02914540097117424,
        0.026560669764876366,
        0.0017923458945006132,
        0.0012642230140045285,
        0.7320958971977234,
        0.006752852350473404,
        0.007075748406350613,
        0.020124401897192,
        0.030086524784564972,
        -0.032733138650655746,
        -0.0040808748453855515,
        -0.024725981056690216,
        -0.7961024641990662,
        -0.0053133717738091946,
        0.029640527442097664,
        0.08040917664766312,
        0.02297026291489601,
        -0.08836745470762253,
        0.8478514552116394,
        -0.0017244262853637338,
        0.023934831842780113,
        -0.8364185690879822,
        -0.0021058234851807356,
        -0.012036027386784554,
        -0.138485386967659,
        -0.42306801676750183,
        -0.0006486098282039165,
        0.013088214211165905,
        -0.02497798576951027,
        -0.0009845508029684424,
        0.39737561345100403,
        -0.29522064328193665,
        -0.32413825392723083,
        0.32194605469703674,
        -0.175478994846344,
        1.0589146614074707,
        0.1066126748919487,
        0.013091250322759151,
        -1.018384575843811,
        -0.5607253313064575,
        0.41535335779190063,
        -0.19981859624385834,
        -0.0019271300407126546,
        0.5590518712997437,
        -0.11341661959886551,
        0.011492555029690266,
        0.20007844269275665,
        0.08040906488895416,
        0.022970182821154594,
        -0.08836731314659119,
        0.8478522896766663,
        -0.0017244541086256504,
        0.02393478713929653,
        -0.8364186882972717,
        -0.0021058369893580675,
        -0.012035992927849293,
        -0.13848698139190674,
        -0.4230673313140869,
        -0.0006486003985628486,
        0.01308818906545639,
        -0.02497793734073639,
        -0.0009845044696703553,
        0.3973748981952667,
        -0.0804118886590004,
        -0.022970987483859062,
        0.08836983144283295,
        -0.8478363752365112,
        0.0017240637680515647,
        -0.023935722187161446,
        0.8364169597625732,
        0.002105242107063532,
        0.012036803178489208,
        0.13845166563987732,
        0.42308202385902405,
        0.0006489884108304977,
        -0.013088859617710114,
        0.024978864938020706,
        0.0009856477845460176,
        -0.397389680147171,
        0.0801500678062439,
        0.02247130684554577,
        -0.08700268715620041,
        0.8492648601531982,
        -0.0017928186571225524,
        0.023674650117754936,
        -0.8398478031158447,
        -0.0015952769899740815,
        -0.012872391380369663,
        -0.13983917236328125,
        -0.4222266376018524,
        -0.0006104142521508038,
        0.012769105844199657,
        -0.024437574669718742,
        -0.0013813887489959598,
        0.39679455757141113
      ],
      "bias": [
        0,
        -0.055640872567892075,
        0.11832509934902191,
        -0.13018161058425903,
        0,
        -0.08346330374479294,
        0.0023357372265309095,
        -0.08172678202390671,
        0.0023369211703538895,
        -0.0023113347124308348,
        0.0038403647486120462
      ]
    }
  ],
  "meta": {
    "name": "Unsound",
    "slug": "unsound",
    "inputs": 24,
    "outputs": 11,
    "trackIndex": 2,
    "file": "unsound.json",
    "trained": "2025-10-23T21:24:48.502Z",
    "training": {
      "mode": "tune",
      "feature": "mid",
      "featureType": "signed",
      "output": "repelImpulse",
      "orientation": "inverse",
      "weight": 1,
      "epochs": 400,
      "samples": 4096,
      "learningRate": 0.01,
      "loss": 0.00015127012738958,
      "correlation": -0.9995579719543457,
      "fitness": 0.9995579719543457,
      "mse": 0.00029582553543150425,
      "combinedFitness": 0.9995579719543457,
      "averageMse": 0.00029582553543150425,
      "correlations": [
        {
          "feature": "mid",
          "featureType": "signed",
          "output": "repelImpulse",
          "orientation": "inverse",
          "weight": 1,
          "correlation": -0.9995579719543457,
          "fitness": 0.9995579719543457,
          "mse": 0.00029582553543150425
        }
      ],
      "previous": {
        "mode": "tune",
        "feature": "mid",
        "featureType": "signed",
        "output": "fieldStrength",
        "orientation": "inverse",
        "weight": 1,
        "epochs": 400,
        "samples": 4096,
        "learningRate": 0.01,
        "loss": 0.0001595729117980227,
        "correlation": -0.9995411038398743,
        "fitness": 0.9995411038398743,
        "mse": 0.00030976993730291724,
        "combinedFitness": 0.9995411038398743,
        "averageMse": 0.00030976993730291724,
        "correlations": [
          {
            "feature": "mid",
            "featureType": "signed",
            "output": "fieldStrength",
            "orientation": "inverse",
            "weight": 1,
            "correlation": -0.9995411038398743,
            "fitness": 0.9995411038398743,
            "mse": 0.00030976993730291724
          }
        ],
        "previous": {
          "feature": "deltaBass",
          "featureType": "signed",
          "output": "zoom",
          "orientation": "inverse",
          "weight": 1,
          "epochs": 400,
          "samples": 4096,
          "learningRate": 0.01,
          "loss": 0.0019476074958220124,
          "correlation": -0.9996177554130554,
          "fitness": 0.9996177554130554,
          "mse": 0.0002638663281686604,
          "combinedFitness": 0.9987843632698059,
          "averageMse": 0.0009239180944859982,
          "correlations": [
            {
              "feature": "deltaBass",
              "featureType": "signed",
              "output": "zoom",
              "orientation": "inverse",
              "weight": 1,
              "correlation": -0.9996177554130554,
              "fitness": 0.9996177554130554,
              "mse": 0.0002638663281686604
            },
            {
              "feature": "deltaBass",
              "featureType": "signed",
              "output": "vortexAmount",
              "orientation": "direct",
              "weight": 0.5,
              "correlation": 0.9996181726455688,
              "fitness": 0.9996181726455688,
              "mse": 0.000263297522906214
            },
            {
              "feature": "deltaBass",
              "featureType": "signed",
              "output": "sparkleDensity",
              "orientation": "inverse",
              "weight": 0.5,
              "correlation": -0.9996181726455688,
              "fitness": 0.9996181726455688,
              "mse": 0.00026329749380238354
            },
            {
              "feature": "deltaBass",
              "featureType": "signed",
              "output": "sizeJitter",
              "orientation": "inverse",
              "weight": 0.5,
              "correlation": -0.9996181726455688,
              "fitness": 0.9996181726455688,
              "mse": 0.00026329749380238354
            },
            {
              "feature": "emaHigh",
              "featureType": "signed",
              "output": "glow",
              "orientation": "inverse",
              "weight": 0.5,
              "correlation": -0.9967199563980103,
              "fitness": 0.9967199563980103,
              "mse": 0.002305279253050685
            },
            {
              "feature": "high",
              "featureType": "signed",
              "output": "cohesion",
              "orientation": "inverse",
              "weight": 0.5,
              "correlation": -0.9951353669166565,
              "fitness": 0.9951353669166565,
              "mse": 0.0034148951526731253
            },
            {
              "feature": "deltaBass",
              "featureType": "signed",
              "output": "fieldStrength",
              "orientation": "direct",
              "weight": 0.5,
              "correlation": 0.9996181726455688,
              "fitness": 0.9996181726455688,
              "mse": 0.00026329761021770537
            },
            {
              "feature": "mid",
              "featureType": "signed",
              "output": "hueShift",
              "orientation": "direct",
              "weight": 0.5,
              "correlation": 0.999495804309845,
              "fitness": 0.999495804309845,
              "mse": 0.00035411393037065864
            }
          ]
        }
      }
    }
  }
}
