{
  "input": 24,
  "normalization": {
    "mean": [
      -0.014873072504997253,
      -0.0011515311198309064,
      0.009002254344522953,
      0.007151910103857517,
      0.02019653469324112,
      0.502081036567688,
      0.4924679100513458,
      0.5036829710006714,
      0.49425679445266724,
      -0.009660743176937103,
      -0.00389099377207458,
      0.026273855939507484,
      -0.016251040622591972,
      -0.00002429768028378021,
      0.01444080751389265,
      -0.000059493475419003516,
      -0.003171192714944482,
      0.007471748627722263,
      -0.007572707254439592,
      0.011248575523495674,
      0.5003194212913513,
      0.49983036518096924,
      0.5009731650352478,
      0.49321335554122925
    ],
    "std": [
      0.5756046175956726,
      0.574163019657135,
      0.5785437822341919,
      0.5706086158752441,
      0.5713496208190918,
      0.2881459891796112,
      0.2901618480682373,
      0.28576844930648804,
      0.2893540561199188,
      0.5817700624465942,
      0.5687460899353027,
      0.578558623790741,
      0.5757742524147034,
      0.5777643918991089,
      0.5771405696868896,
      0.5737834572792053,
      0.5752886533737183,
      0.578826367855072,
      0.577596127986908,
      0.5780101418495178,
      0.28844064474105835,
      0.2888128161430359,
      0.28585347533226013,
      0.29055899381637573
    ]
  },
  "layers": [
    {
      "activation": "relu",
      "weights": [
        0.004612984135746956,
        -1.6501307487487793,
        -0.0023454558104276657,
        0.0011357777984812856,
        0.0004915372701361775,
        -0.01049054879695177,
        -0.0028456191066652536,
        0.011052621528506279,
        0.003587233368307352,
        0.006098723970353603,
        0.0024716947227716446,
        0.00241516693495214,
        -0.0015774330822750926,
        -0.013614394702017307,
        -0.0007876406307332218,
        0.0035870529245585203,
        -0.0025162361562252045,
        -0.00197341269813478,
        0.003947542980313301,
        0.006930823903530836,
        0.00386803294532001,
        0.002278242027387023,
        -0.00002307626709807664,
        0.0025038006715476513,
        0.0040460070595145226,
        0.4149932861328125,
        -0.0033775947522372007,
        -0.0016294432571157813,
        -0.001747392350807786,
        -0.008170541375875473,
        -0.0028366586193442345,
        -0.006092636380344629,
        0.004463674034923315,
        0.0018685292452573776,
        0.0014763951767235994,
        -0.010011964477598667,
        0.0021874811500310898,
        -0.4542349874973297,
        -0.004209606908261776,
        0.005786148831248283,
        0.0012880477588623762,
        0.001968384487554431,
        0.005864885635674,
        -0.0016970367869362235,
        0.004752321634441614,
        0.00392002472653985,
        -0.006464580539613962,
        0.004305698908865452,
        -0.0018106835195794702,
        -0.00032992305932566524,
        0.0017063438426703215,
        -0.00013934436719864607,
        -0.002497872104868293,
        0.00009446461626794189,
        0.001924507087096572,
        -0.007651099935173988,
        -0.000841661065351218,
        0.00014901909162290394,
        0.00026834721211344004,
        1.0906718969345093,
        -0.0002228504599770531,
        0.0009772689081728458,
        0.001831540372222662,
        -0.0008909814059734344,
        -0.003372517181560397,
        0.0010563817340880632,
        -0.002575475722551346,
        -0.0017237304709851742,
        0.0004321366432122886,
        0.0007393452106043696,
        0.00037922486080788076,
        -0.0025491337291896343,
        -0.0012497862335294485,
        0.0005092521896585822,
        -0.004333244636654854,
        0.0007216010708361864,
        0.0018972043180838227,
        -0.0046368492767214775,
        -0.000746116042137146,
        -0.0027562598697841167,
        -0.0016742106527090073,
        0.0016710890922695398,
        -0.0014108612667769194,
        -0.7952525615692139,
        0.0016457900637760758,
        -0.003685747040435672,
        -0.002166330348700285,
        0.0009698672220110893,
        0.0011166076874360442,
        -0.001944929943419993,
        0.001998018939048052,
        -0.00025521317729726434,
        0.0014589512720704079,
        -0.002165206242352724,
        -0.0007717196131125093,
        0.00026192108634859324,
        0.001801702892407775,
        0.004883794113993645,
        0.00036893258220516145,
        -0.0011261261533945799,
        -0.001249857945367694,
        -0.00205748132430017,
        -0.0013208232121542096,
        0.009967474266886711,
        0.001041080104187131,
        0.0002439123491058126,
        0.00045658901217393577,
        -0.7629919052124023,
        0.0022994622122496367,
        -0.0021025030873715878,
        -0.0017503192648291588,
        0.0033988403156399727,
        0.0003087169607169926,
        0.0005269760731607676,
        0.0022382207680493593,
        -0.0013044843217357993,
        0.0010054373415187001,
        0.0008388012065552175,
        -0.0019445701036602259,
        0.002405892824754119,
        -0.0016124456888064742,
        -0.5150417685508728,
        0.0021051166113466024,
        0.0021280418150126934,
        0.001560416305437684,
        0.0035854822490364313,
        0.0007048252737149596,
        0.004923958797007799,
        -0.0022370549850165844,
        -0.00035705071059055626,
        -0.00013231839693617076,
        0.0066799926571547985,
        -0.00176717946305871,
        0.5370689630508423,
        0.0036185639910399914,
        -0.005380034446716309,
        0.0008084017317742109,
        0.0004562781541608274,
        -0.005680046044290066,
        0.002067398279905319,
        -0.004409868735820055,
        -0.003097524866461754,
        0.004741097334772348,
        -0.004479002207517624,
        -0.003958709537982941,
        1.1009420156478882,
        0.0014259233139455318,
        0.0013937001349404454,
        0.0006872821832075715,
        0.0057391575537621975,
        0.00195460207760334,
        -0.009681290946900845,
        -0.0015093714464455843,
        -0.0005125058232806623,
        0.0011989324120804667,
        -0.002755482215434313,
        -0.0015333258779719472,
        0.011877269484102726,
        0.003365397220477462,
        -0.0029635026585310698,
        -0.00010323560854885727,
        -0.0020743263885378838,
        -0.004386366344988346,
        0.004150611348450184,
        -0.006013665348291397,
        -0.002844063565135002,
        0.0029925538692623377,
        -0.004297719337046146,
        0.06813405454158783,
        0.32267606258392334,
        -0.22769680619239807,
        0.053557392209768295,
        0.09660452604293823,
        -0.14744001626968384,
        -0.03654436394572258,
        0.18621395528316498,
        0.1459425687789917,
        0.05650556832551956,
        0.03873072564601898,
        -0.039462484419345856,
        -0.06402280181646347,
        0.2533737123012543,
        0.0841628909111023,
        -0.031601764261722565,
        -0.09644985944032669,
        0.10795706510543823,
        0.0287923701107502,
        0.07182341068983078,
        0.12553468346595764,
        0.0876879021525383,
        -0.10208404809236526,
        -0.16984574496746063,
        -0.025904279202222824,
        -0.4481986463069916,
        -0.037961412221193314,
        0.02193804457783699,
        0.06736590713262558,
        -0.09613646566867828,
        0.1021382212638855,
        0.41938990354537964,
        0.006893938407301903,
        -0.019211528822779655,
        0.04588862508535385,
        -0.2538977861404419,
        -0.03641929477453232,
        -0.16858218610286713,
        -0.033889420330524445,
        -0.03316604346036911,
        0.05307622626423836,
        0.04073130711913109,
        -0.030291644856333733,
        0.05784756317734718,
        0.12610535323619843,
        -0.019024556502699852,
        0.006816038396209478,
        -0.11418699473142624,
        0.004745817743241787,
        -0.4173469841480255,
        -0.0011854988988488913,
        -0.0046306513249874115,
        0.0011235412675887346,
        0.006008324213325977,
        0.005383453331887722,
        -0.4087276756763458,
        0.0001250064669875428,
        -0.0013553695753216743,
        0.0041217682883143425,
        -0.004210242535918951,
        0.0017100479453802109,
        0.0011372363660484552,
        -0.0036460040137171745,
        -0.0024624227080494165,
        0.008886014111340046,
        -0.002864550333470106,
        -0.0014281038893386722,
        -0.0017846733098849654,
        0.0035836361348628998,
        0.003756273537874222,
        0.0018902670126408339,
        0.002212629886344075,
        -0.004765239078551531,
        -0.2267618179321289,
        0.0012172790011391044,
        0.004164458718150854,
        0.00216093473136425,
        0.006536393892019987,
        0.0062934099696576595,
        0.6213942170143127,
        -0.005840706638991833,
        -0.0035048522986471653,
        -0.00034996686736121774,
        0.024416552856564522,
        -0.0041793580166995525,
        -0.1458575278520584,
        0.003894700203090906,
        -0.006447511725127697,
        0.001376139116473496,
        -0.003384496085345745,
        -0.006787026766687632,
        0.003192368894815445,
        -0.0049338690005242825,
        -0.005571093875914812,
        0.008633050136268139,
        -0.007811842020601034,
        0.0011839787475764751,
        1.2753430604934692,
        0.0029340500477701426,
        0.003526936750859022,
        0.0010026891250163317,
        -0.005037923809140921,
        0.0009741049725562334,
        0.00611267052590847,
        0.0006885274196974933,
        -0.0009814264485612512,
        -0.004634849261492491,
        -0.003678196342661977,
        0.00009671289444668218,
        0.015535441227257252,
        0.000981553690508008,
        -0.00201030052267015,
        0.002344671869650483,
        0.0007335412665270269,
        0.0007409054669551551,
        -0.0011705539654940367,
        0.0003997722815256566,
        -0.0002790952567011118,
        -0.0017957004019990563,
        -0.002353414660319686,
        0.006355258636176586,
        0.35370251536369324,
        -0.005590079352259636,
        -0.0019020362524315715,
        -0.0016666809096932411,
        -0.01406072173267603,
        -0.0026719621382653713,
        -0.6929495334625244,
        0.004305628594011068,
        0.0032642893493175507,
        0.0008348963456228375,
        -0.03678841516375542,
        0.0005609075305983424,
        0.17766793072223663,
        -0.0035965528804808855,
        0.006571359466761351,
        0.00017092842608690262,
        0.0013949654530733824,
        0.008880823850631714,
        0.0016766826156526804,
        0.00821704976260662,
        0.005478012841194868,
        -0.01044578105211258,
        0.003848383901640773,
        0.02743416093289852,
        0.3084706962108612,
        -0.013803786598145962,
        -0.012752902694046497,
        -0.011702226474881172,
        -0.05746818333864212,
        -0.014672184363007545,
        0.03982807323336601,
        0.027851441875100136,
        0.0127392103895545,
        0.002153814770281315,
        0.14431700110435486,
        0.01573481597006321,
        0.3564014732837677,
        -0.03294006735086441,
        0.04664866253733635,
        0.012134235352277756,
        0.0013553008902817965,
        0.04247554391622543,
        -0.013494912534952164,
        0.041650790721178055,
        0.026247015222907066,
        -0.03968454897403717,
        0.03915032371878624,
        -0.0036477399989962578,
        0.4101828336715698,
        0.005211028270423412,
        -0.0007263691513799131,
        -0.0014813801972195506,
        0.0010694479569792747,
        0.000892532872967422,
        0.00015006122703198344,
        0.0004669525951612741,
        -0.0006332160555757582,
        0.002251221099868417,
        0.002086492720991373,
        -0.0010458179749548435,
        -0.37881243228912354,
        -0.000651984941214323,
        0.006272665690630674,
        -0.0023178744595497847,
        0.006770182866603136,
        -0.001011301763355732,
        -0.0034925276413559914,
        0.002070074435323477,
        -2.0094441310902766e-7,
        -0.002338157035410404,
        -0.0033074740786105394,
        -0.048919256776571274,
        -0.34053876996040344,
        0.0322885736823082,
        0.02073831669986248,
        0.006957006175071001,
        0.09656326472759247,
        0.01742682047188282,
        -0.0372576005756855,
        -0.048947691917419434,
        -0.019741185009479523,
        -0.01119204144924879,
        -0.1826295554637909,
        -0.02988441102206707,
        -0.4877016246318817,
        0.04962026700377464,
        -0.06359582394361496,
        -0.009997461922466755,
        -0.015233304351568222,
        -0.05540616810321808,
        0.010530805215239525,
        -0.07908324152231216,
        -0.030163196846842766,
        0.05945991724729538,
        -0.045266490429639816
      ],
      "bias": [
        -1.8175768852233887,
        0.7631286382675171,
        -1.0966887474060059,
        -0.8815416693687439,
        0.7594311237335205,
        -0.932884693145752,
        1.207084059715271,
        -0.060134027153253555,
        0.10233587771654129,
        -0.77911376953125,
        0.025881001725792885,
        -1.401257872581482,
        -0.005355865228921175,
        0.13860204815864563,
        -0.721450924873352,
        -0.19368980824947357
      ]
    },
    {
      "activation": "tanh",
      "weights": [
        0.23517325520515442,
        0.0659332349896431,
        0.02984345145523548,
        -0.0012833569198846817,
        -0.04143129661679268,
        -0.0656973198056221,
        -0.3919298052787781,
        -0.016041655093431473,
        0.017853591591119766,
        0.7852744460105896,
        -0.5101408958435059,
        -0.059808604419231415,
        0.4319218099117279,
        -0.1169622391462326,
        -0.015544545836746693,
        0.07383234798908234,
        -0.9942049980163574,
        0.042411740869283676,
        -0.004345626104623079,
        -0.0021920455619692802,
        0.006946698762476444,
        -0.08480384945869446,
        0.5357892513275146,
        -0.00006501870666397735,
        -0.0010423405328765512,
        -0.03507547453045845,
        0.005685492884367704,
        0.7663803696632385,
        -0.0043086642399430275,
        0.04154682904481888,
        0.0826520323753357,
        -0.032600950449705124,
        -0.18904855847358704,
        0.22152481973171234,
        0.151238352060318,
        -0.19883295893669128,
        0.22992567718029022,
        -0.025236384943127632,
        0.15788842737674713,
        0.27924928069114685,
        0.05769429728388786,
        0.10135751217603683,
        0.22992967069149017,
        0.24148109555244446,
        -0.001718370709568262,
        -0.24601364135742188,
        0.22232501208782196,
        -0.057780999690294266,
        0.994822084903717,
        -0.042402300983667374,
        0.004416840150952339,
        0.0018609422259032726,
        -0.006786097306758165,
        0.08386048674583435,
        -0.5363234281539917,
        -0.00005109966150484979,
        0.0008927196031436324,
        0.031050845980644226,
        -0.0058199623599648476,
        -0.7666715383529663,
        0.0041554998606443405,
        -0.04126303270459175,
        -0.0796593651175499,
        0.03245478495955467,
        -0.12397343665361404,
        0.2272777557373047,
        0.0365835539996624,
        -0.3093656897544861,
        -0.043814435601234436,
        -0.32329443097114563,
        0.2774735689163208,
        0.01329905167222023,
        -0.23110800981521606,
        -0.2685045301914215,
        -0.20073086023330688,
        0.3305003046989441,
        -0.19174017012119293,
        -0.21061985194683075,
        -0.14133791625499725,
        -0.33250537514686584,
        -0.9948219060897827,
        0.042402252554893494,
        -0.004416859708726406,
        -0.0018609247636049986,
        0.00678608613088727,
        -0.08386057615280151,
        0.5363233685493469,
        0.00005112263170303777,
        -0.0008927745511755347,
        -0.031052464619278908,
        0.005819958169013262,
        0.7666715979576111,
        -0.0041554952040314674,
        0.041262976825237274,
        0.07965999096632004,
        -0.03245475888252258,
        0.9948219060897827,
        -0.04240230843424797,
        0.004416800569742918,
        0.0018609263934195042,
        -0.006786107085645199,
        0.08386056870222092,
        -0.5363233685493469,
        -0.00005115056046633981,
        0.0008927754242904484,
        0.031052300706505775,
        -0.005819972604513168,
        -0.7666715383529663,
        0.004155450034886599,
        -0.04126303270459175,
        -0.07965998351573944,
        0.03245474398136139,
        0.9948219656944275,
        -0.042402271181344986,
        0.004416849929839373,
        0.0018609168473631144,
        -0.00678609823808074,
        0.08386059105396271,
        -0.5363233685493469,
        -0.00005112937287776731,
        0.0008927644230425358,
        0.031052209436893463,
        -0.005819966085255146,
        -0.7666715383529663,
        0.004155484028160572,
        -0.04126300290226936,
        -0.07965995371341705,
        0.032454755157232285,
        -0.21560806035995483,
        0.047855064272880554,
        -0.16992144286632538,
        0.3496237099170685,
        0.34340816736221313,
        -0.07828765362501144,
        0.34752601385116577,
        -0.13461603224277496,
        0.09402861446142197,
        0.26033779978752136,
        0.3389500677585602,
        0.31875818967819214,
        0.2583851218223572,
        -0.3108115792274475,
        0.05157579481601715,
        0.30456387996673584,
        0.043673284351825714,
        -0.6080871820449829,
        -0.01433620322495699,
        0.0014269669773057103,
        0.020612547174096107,
        0.997372567653656,
        -0.06814433634281158,
        0.0022444562055170536,
        -0.0025702891871333122,
        -0.004159309435635805,
        -0.009302359074354172,
        0.001415943494066596,
        0.011428428813815117,
        0.07304356247186661,
        -0.6647454500198364,
        -0.056096579879522324,
        -0.011371951550245285,
        -0.027959167957305908,
        -1.4150092601776123,
        1.1479336023330688,
        0.8083926439285278,
        0.024289365857839584,
        0.014833911322057247,
        0.0026463945396244526,
        0.0032576844096183777,
        0.002438649535179138,
        -0.014280573464930058,
        -0.0005022130208089948,
        0.010079525411128998,
        -0.037138618528842926,
        -0.0016445681685581803,
        0.02845779061317444
      ],
      "bias": [
        0.476968377828598,
        -0.6945956349372864,
        0,
        0.6942298412322998,
        0,
        -0.6942297220230103,
        0.694229781627655,
        0.6942297220230103,
        0,
        0.5206709504127502,
        -0.6328859925270081
      ]
    }
  ],
  "meta": {
    "name": "Unsound",
    "slug": "unsound",
    "inputs": 24,
    "outputs": 11,
    "trackIndex": 2,
    "file": "unsound.json",
    "trained": "2025-10-24T10:47:26.241Z",
    "training": {
      "feature": "bass",
      "featureType": "signed",
      "output": "fieldStrength",
      "orientation": "direct",
      "weight": 1,
      "epochs": 400,
      "samples": 4096,
      "learningRate": 0.01,
      "loss": 0.16298146545886993,
      "correlation": 0.9995542764663696,
      "fitness": 0.9995542764663696,
      "mse": 0.0003057036956306547,
      "combinedFitness": 0.8951834440231323,
      "averageMse": 0.06515645235776901,
      "correlations": [
        {
          "feature": "bass",
          "featureType": "signed",
          "output": "fieldStrength",
          "orientation": "direct",
          "weight": 1,
          "correlation": 0.9995542764663696,
          "fitness": 0.9995542764663696,
          "mse": 0.0003057036956306547
        },
        {
          "feature": "bass",
          "featureType": "signed",
          "output": "hueShift",
          "orientation": "inverse",
          "weight": 0.5,
          "correlation": -0.9995535612106323,
          "fitness": 0.9995535612106323,
          "mse": 0.0003022380406036973
        },
        {
          "feature": "bass",
          "featureType": "signed",
          "output": "spawnRate",
          "orientation": "inverse",
          "weight": 0.5,
          "correlation": -0.7055258750915527,
          "fitness": 0.7055258750915527,
          "mse": 0.16558988392353058
        },
        {
          "feature": "bass",
          "featureType": "signed",
          "output": "glow",
          "orientation": "direct",
          "weight": 0.5,
          "correlation": 0.9995535612106323,
          "fitness": 0.9995535612106323,
          "mse": 0.00030223812791518867
        },
        {
          "feature": "bass",
          "featureType": "signed",
          "output": "repelImpulse",
          "orientation": "inverse",
          "weight": 0.5,
          "correlation": -0.9995535612106323,
          "fitness": 0.9995535612106323,
          "mse": 0.00030223806970752776
        },
        {
          "feature": "bass",
          "featureType": "signed",
          "output": "sizeJitter",
          "orientation": "inverse",
          "weight": 0.5,
          "correlation": -0.9995535612106323,
          "fitness": 0.9995535612106323,
          "mse": 0.00030223801149986684
        },
        {
          "feature": "bass",
          "featureType": "signed",
          "output": "vortexAmount",
          "orientation": "inverse",
          "weight": 0.5,
          "correlation": -0.7165465950965881,
          "fitness": 0.7165465950965881,
          "mse": 0.1604030430316925
        },
        {
          "feature": "deltaHigh",
          "featureType": "signed",
          "output": "vortexAmount",
          "orientation": "direct",
          "weight": 0.5,
          "correlation": 0.7206338047981262,
          "fitness": 0.7206338047981262,
          "mse": 0.1604740172624588
        },
        {
          "feature": "deltaLowMid",
          "featureType": "signed",
          "output": "zoom",
          "orientation": "inverse",
          "weight": 0.5,
          "correlation": -0.9995329976081848,
          "fitness": 0.9995329976081848,
          "mse": 0.00032508638105355203
        },
        {
          "feature": "rollOff",
          "featureType": "positive",
          "output": "spawnRate",
          "orientation": "inverse",
          "weight": 0.5,
          "correlation": -0.7074561715126038,
          "fitness": 0.7074561715126038,
          "mse": 0.16325780749320984
        }
      ]
    }
  }
}
