{
  "input": 24,
  "normalization": {
    "mean": [
      -0.013622365891933441,
      -0.006653353571891785,
      0.0012207916006445885,
      -0.006596766412258148,
      0.014168158173561096,
      0.4991118609905243,
      0.5011860132217407,
      0.5095573663711548,
      0.49711155891418457,
      -0.0006403896841220558,
      0.002381548983976245,
      0.004208353813737631,
      -0.00597630487754941,
      -0.005558735691010952,
      -0.004831278696656227,
      0.005014523398131132,
      -0.0025026085786521435,
      0.015479832887649536,
      0.004549994599074125,
      0.004952256567776203,
      0.5047259330749512,
      0.5090265274047852,
      0.5109958052635193,
      0.5055682063102722
    ],
    "std": [
      0.5754294991493225,
      0.5816589593887329,
      0.5787025094032288,
      0.5716513395309448,
      0.5772659778594971,
      0.287197470664978,
      0.2871580123901367,
      0.28781136870384216,
      0.2866023778915405,
      0.5782281160354614,
      0.5762141346931458,
      0.5818905830383301,
      0.5749099254608154,
      0.5699574947357178,
      0.5772321224212646,
      0.5771831274032593,
      0.5788875818252563,
      0.5779514312744141,
      0.5732808709144592,
      0.5695766806602478,
      0.2885250151157379,
      0.2899099588394165,
      0.29076623916625977,
      0.2913041412830353
    ]
  },
  "layers": [
    {
      "activation": "relu",
      "weights": [
        0.0692538470029831,
        -0.08966999500989914,
        0.0710604190826416,
        0.2179272621870041,
        -0.04184306785464287,
        0.10110613703727722,
        0.10170376300811768,
        -0.020335564389824867,
        -0.12860611081123352,
        0.03778225928544998,
        0.5172658562660217,
        -0.07791183143854141,
        -0.13457243144512177,
        0.05768653005361557,
        -0.13437272608280182,
        -0.0435292012989521,
        0.08412104845046997,
        0.024671144783496857,
        0.11873307824134827,
        -0.11616235226392746,
        -0.047309860587120056,
        -0.11127347499132156,
        -0.19735121726989746,
        -0.04808603972196579,
        0.010057319886982441,
        -0.012830865569412708,
        0.00844328012317419,
        0.030400551855564117,
        -0.00586501182988286,
        0.012073435820639133,
        0.016809586435556412,
        -0.0041587138548493385,
        -0.019775215536355972,
        0.007393853738903999,
        -0.8935474753379822,
        -0.011370060034096241,
        -0.020827993750572205,
        0.008283179253339767,
        -0.020402133464813232,
        -0.0056032584980130196,
        0.013693833723664284,
        0.000059544501709751785,
        0.01825082302093506,
        -0.014625798910856247,
        -0.004845922812819481,
        -0.017283964902162552,
        -0.030549874529242516,
        -0.007862874306738377,
        0.03759670630097389,
        0.009445039555430412,
        0.1606433242559433,
        0.026068318635225296,
        -0.12793566286563873,
        0.10735109448432922,
        0.08143869787454605,
        -0.027240699157118797,
        -0.10977107286453247,
        -0.16310718655586243,
        0.043192360550165176,
        -0.13855841755867004,
        0.11636880040168762,
        0.03870081156492233,
        -0.19997376203536987,
        0.1435614824295044,
        0.23362185060977936,
        0.2232484668493271,
        0.1095813736319542,
        0.24944256246089935,
        0.16387641429901123,
        -0.28957873582839966,
        -0.2368362545967102,
        0.24383029341697693,
        -0.08225835859775543,
        0.10860635340213776,
        -0.08725647628307343,
        -0.26639634370803833,
        0.042234208434820175,
        -0.1250690370798111,
        -0.12234600633382797,
        0.011813290417194366,
        0.1472681611776352,
        -0.04351178929209709,
        -0.7055209279060364,
        0.09364774078130722,
        0.14753246307373047,
        -0.06603753566741943,
        0.15835697948932648,
        0.05284525454044342,
        -0.09284725785255432,
        -0.013792951591312885,
        -0.13951827585697174,
        0.1270570009946823,
        0.06903944909572601,
        0.12940552830696106,
        0.24626533687114716,
        0.05787626653909683,
        -0.0004649116308428347,
        -0.0018326411955058575,
        0.002764630364254117,
        0.007793470751494169,
        0.002718215109780431,
        0.009222461842000484,
        -0.0062077841721475124,
        0.011669261381030083,
        0.002118427772074938,
        -0.006489160005003214,
        -0.5254486799240112,
        -0.004047402646392584,
        0.0014316389570012689,
        0.0013181406538933516,
        -0.0009478020947426558,
        -0.005068063270300627,
        -0.0004578335501719266,
        -0.0002477001107763499,
        -0.00499039888381958,
        -0.0015280934749171138,
        -0.014420081861317158,
        0.0004896247410215437,
        0.004299938678741455,
        0.005303715821355581,
        -0.2602512538433075,
        -0.17140811681747437,
        0.06405370682477951,
        -0.1558610200881958,
        -0.04189470782876015,
        -0.0690741240978241,
        -0.15690495073795319,
        -0.2676513195037842,
        0.2305082231760025,
        0.2428351491689682,
        0.31992173194885254,
        -0.07657501846551895,
        0.2831645905971527,
        0.16812223196029663,
        0.07998833060264587,
        0.24578383564949036,
        0.18309012055397034,
        -0.15767399966716766,
        -0.20286662876605988,
        0.04704494774341583,
        -0.05155228078365326,
        0.12005828320980072,
        -0.009839729405939579,
        0.05228201299905777,
        0.07512186467647552,
        0.1898186355829239,
        0.006829534191638231,
        -0.1939631551504135,
        0.18643316626548767,
        0.2338852435350418,
        -0.10709381848573685,
        -0.007954412139952183,
        -0.21702249348163605,
        0.14031757414340973,
        0.07593882083892822,
        0.046626269817352295,
        0.010414673015475273,
        -0.14326754212379456,
        -0.08031619340181351,
        -0.19328120350837708,
        -0.0016518825432285666,
        0.0749233141541481,
        -0.2157805860042572,
        -0.14476050436496735,
        0.2610674798488617,
        0.026124723255634308,
        0.08526787906885147,
        -0.06706955283880234,
        -0.00032753226696513593,
        -0.0019449356477707624,
        -0.00489848805591464,
        0.0017837522318586707,
        0.001669879537075758,
        -0.0021387122105807066,
        -0.0028338246047496796,
        -0.0005143065936863422,
        -0.0008334817248396575,
        0.0029704479966312647,
        0.9486080408096313,
        0.0007431277190335095,
        0.0005565824103541672,
        0.0029767444357275963,
        -0.0003418584237806499,
        0.0021749951411038637,
        0.0005482954438775778,
        0.003351201768964529,
        0.0013179200468584895,
        -0.0013420977629721165,
        0.003654055530205369,
        -0.0018502740422263741,
        -0.005691183265298605,
        -0.002945357235148549,
        -0.008959508500993252,
        0.01117489580065012,
        -0.008171480149030685,
        -0.02693955786526203,
        0.0051124207675457,
        -0.01097283884882927,
        -0.01571793481707573,
        0.0065384842455387115,
        0.01715344563126564,
        -0.007186368573457003,
        0.9461793899536133,
        0.009645411744713783,
        0.017122706398367882,
        -0.006003561429679394,
        0.016451220959424973,
        0.0033603499177843332,
        -0.01280540693551302,
        -0.0038893416058272123,
        -0.0160184595733881,
        0.015733104199171066,
        0.004141021985560656,
        0.015061438083648682,
        0.025800010189414024,
        0.007021208293735981,
        -0.0861867368221283,
        0.13883762061595917,
        -0.05405903607606888,
        0.021269742399454117,
        -0.17799359560012817,
        0.20832881331443787,
        -0.28019046783447266,
        -0.08291831612586975,
        -0.14689186215400696,
        -0.006873144302517176,
        -0.1988779753446579,
        -0.1141996681690216,
        0.13790446519851685,
        0.1229153722524643,
        -0.14143900573253632,
        0.018364286050200462,
        0.09749087691307068,
        0.06909307837486267,
        -0.10010447353124619,
        0.26594308018684387,
        0.12689156830310822,
        -0.1572018563747406,
        0.23071345686912537,
        0.0969516932964325,
        -0.0017891761381179094,
        0.0008051597396843135,
        0.0013491843128576875,
        -0.003417332423850894,
        0.0006947671645320952,
        0.0019484355580061674,
        -0.0010859703179448843,
        0.002877939259633422,
        0.0013985008699819446,
        -0.001374572515487671,
        -0.9043784737586975,
        -0.003932788036763668,
        -0.001033393433317542,
        -0.0003574649163056165,
        -0.0009299106313847005,
        0.0052689299918711185,
        0.0020546959713101387,
        -0.0025945582892745733,
        -0.001973033882677555,
        -0.0014264837373048067,
        -0.0018126001814380288,
        -0.0037023869808763266,
        -0.00032448043930344284,
        -0.0045645576901733875,
        0.14963717758655548,
        -0.04289524629712105,
        0.18858183920383453,
        0.18354639410972595,
        0.20860347151756287,
        0.1486000269651413,
        -0.13505984842777252,
        -0.11875874549150467,
        -0.26018190383911133,
        0.19952958822250366,
        0.44202110171318054,
        0.1613289713859558,
        0.12789180874824524,
        -0.07635561376810074,
        -0.11593076586723328,
        -0.19015318155288696,
        0.0019624780397862196,
        0.04062841087579727,
        0.1751404106616974,
        0.05117584764957428,
        0.15492714941501617,
        -0.13384054601192474,
        -0.03939376398921013,
        -0.15587656199932098,
        -0.17404085397720337,
        0.11628440767526627,
        -0.18357138335704803,
        -0.14561578631401062,
        0.30630114674568176,
        -0.1037868857383728,
        0.06437849998474121,
        0.1399420201778412,
        -0.10850095748901367,
        0.0915142148733139,
        0.3524940311908722,
        0.08974441885948181,
        -0.18271371722221375,
        0.14191992580890656,
        0.22010622918605804,
        -0.24204808473587036,
        -0.16968107223510742,
        0.12973961234092712,
        0.1949169784784317,
        -0.19938527047634125,
        -0.1261419653892517,
        -0.16292524337768555,
        0.036239009350538254,
        0.1429651826620102,
        0.2054091989994049,
        -0.13173837959766388,
        0.2734767496585846,
        0.14536070823669434,
        -0.16815558075904846,
        0.08427451550960541,
        0.0943562388420105,
        0.06818573921918869,
        0.20605169236660004,
        0.024503925815224648,
        0.13416077196598053,
        -0.080078125,
        -0.02368762344121933,
        0.0797816663980484,
        -0.004233185201883316,
        -0.061767932027578354,
        -0.2248186320066452,
        0.22374524176120758,
        -0.04527364671230316,
        -0.11167888343334198,
        0.023272311314940453,
        0.26249995827674866,
        -0.19997110962867737,
        -0.03863012045621872,
        -0.035490814596414566,
        -0.14514344930648804,
        0.28980353474617004,
        -0.2006223052740097,
        -0.00043467801879160106,
        0.08863192051649094,
        -0.0059577119536697865,
        0.04682282730937004,
        0.024954741820693016,
        0.08897477388381958,
        0.008700615726411343,
        -0.033610787242650986,
        0.06919285655021667,
        -0.15822775661945343,
        0.2369193434715271,
        0.005677460692822933,
        0.22864221036434174,
        -0.056804899126291275,
        -0.09285257011651993,
        -0.2607283592224121,
        0.00900153536349535,
        0.06532756239175797,
        0.05659808963537216,
        0.221089169383049,
        0.0992082878947258,
        -0.07582984119653702,
        -0.06990046054124832,
        -0.17973746359348297,
        0.07514365017414093,
        0.13413682579994202,
        0.07783190906047821,
        -0.13425499200820923,
        0.15079285204410553,
        -0.15532580018043518,
        0.12029310315847397,
        0.1545717865228653,
        0.23810087144374847,
        -0.06781774014234543,
        0.2322687953710556,
        -0.11674519628286362,
        0.09454536437988281,
        -0.1873869150876999,
        -0.23798267543315887,
        -0.2075260579586029,
        -0.02212064526975155,
        -0.09959171712398529,
        -0.1828114092350006,
        -0.15422259271144867
      ],
      "bias": [
        -0.0652615949511528,
        0.1558200716972351,
        -0.015566610731184483,
        0.037141717970371246,
        0.6288580298423767,
        0.018165171146392822,
        -0.04377875104546547,
        -1.1346008777618408,
        -0.23826871812343597,
        0.04161328449845314,
        -1.0100868940353394,
        0.023181332275271416,
        0.020216884091496468,
        0.014775052666664124,
        -0.01998487301170826,
        -0.016024436801671982
      ]
    },
    {
      "activation": "tanh",
      "weights": [
        0.043681614100933075,
        0.33737149834632874,
        0.09431030601263046,
        0.3212672770023346,
        -0.15318988263607025,
        -0.12535560131072998,
        0.33945104479789734,
        0.20920459926128387,
        0.12153048813343048,
        -0.0985737070441246,
        0.049857817590236664,
        -0.06301774084568024,
        -0.21438612043857574,
        -0.34489715099334717,
        0.2812039256095886,
        0.25685304403305054,
        0.31178778409957886,
        -0.16759976744651794,
        -0.33105483651161194,
        -0.07033329457044601,
        0.3053063452243805,
        -0.1510065346956253,
        0.2232026755809784,
        0.25633546710014343,
        0.1166597530245781,
        -0.10541877895593643,
        -0.30528151988983154,
        0.12401388585567474,
        -0.19813397526741028,
        0.036460909992456436,
        0.009084265679121017,
        -0.08015408366918564,
        0.21844840049743652,
        -0.29556363821029663,
        -0.06438776850700378,
        0.0899738147854805,
        -0.003473683027550578,
        -0.1568680703639984,
        -0.29199108481407166,
        -0.3158787190914154,
        -0.06568169593811035,
        0.1587643027305603,
        -0.1360165923833847,
        -0.20851337909698486,
        -0.1683109700679779,
        0.14296360313892365,
        0.1887606680393219,
        -0.19637469947338104,
        0.18626928329467773,
        -0.1509305089712143,
        -0.3403730094432831,
        -0.19144080579280853,
        -0.05500473082065582,
        -0.0005065914592705667,
        0.003965392243117094,
        -0.3400418758392334,
        0.07271858304738998,
        0.1895502507686615,
        -0.2193538248538971,
        0.056784141808748245,
        -0.33978599309921265,
        -0.277424156665802,
        0.0395137295126915,
        -0.11061593890190125,
        0.2933146059513092,
        -0.26108938455581665,
        0.1021714136004448,
        -0.1314372420310974,
        -0.30098819732666016,
        -0.224654883146286,
        0.3222042918205261,
        -0.35029536485671997,
        -0.2580967843532562,
        -0.22402778267860413,
        -0.18135137856006622,
        0.26062867045402527,
        -0.2426266074180603,
        -0.24936428666114807,
        0.23000562191009521,
        -0.339915007352829,
        0.23660540580749512,
        -0.056335777044296265,
        -0.3521800935268402,
        -0.2737574875354767,
        0.11444973945617676,
        -0.10476400703191757,
        0.16917873919010162,
        0.11558286845684052,
        0.25086063146591187,
        -0.07814235985279083,
        0.16394154727458954,
        -0.3372129797935486,
        -0.28188556432724,
        -0.006947117391973734,
        0.22029346227645874,
        0.18830980360507965,
        -0.013451045379042625,
        0.30897367000579834,
        0.09993837028741837,
        0.21399636566638947,
        -0.09090525656938553,
        0.2951040267944336,
        -0.24523738026618958,
        0.3043363392353058,
        -0.2983865439891815,
        -0.20326979458332062,
        0.24730809032917023,
        -0.06058596819639206,
        -0.25512123107910156,
        -0.1911349892616272,
        0.1714339703321457,
        -0.021461008116602898,
        0.14530812203884125,
        -0.28642594814300537,
        -0.17932265996932983,
        0.2697063386440277,
        -0.014461962506175041,
        -0.30989038944244385,
        0.11336439102888107,
        0.244620680809021,
        -0.2714236378669739,
        0.015825150534510612,
        -0.11746101081371307,
        0.1761070191860199,
        0.2528991401195526,
        0.15672405064105988,
        0.2568416893482208,
        -0.31500205397605896,
        -0.2823422849178314,
        0.17402641475200653,
        -0.10395191609859467,
        0.08122342079877853,
        0.34068015217781067,
        -0.11124085634946823,
        0.2797234356403351,
        0.264911025762558,
        -0.2582843005657196,
        -0.06118714436888695,
        0.34580811858177185,
        -0.12688370048999786,
        -0.032727714627981186,
        -0.2709946036338806,
        0.3341059684753418,
        0.07412479817867279,
        0.10190928727388382,
        -0.22428756952285767,
        0.055257648229599,
        0.043459150940179825,
        -0.2915535271167755,
        0.2245102971792221,
        -0.09856507182121277,
        -0.10380576550960541,
        0.17255431413650513,
        -0.20759432017803192,
        0.25913679599761963,
        0.22094467282295227,
        -0.04450332000851631,
        -0.1753389984369278,
        0.019185133278369904,
        0.009744711220264435,
        -0.08384548127651215,
        0.5845276117324829,
        -0.0012801706325262785,
        0.0721261277794838,
        0.12201710790395737,
        -0.000698172312695533,
        -0.00014676655700895935,
        -1.2883689403533936,
        -0.6349305510520935,
        -0.00038636900717392564,
        1.1477481126785278,
        0.0007715680985711515,
        0.0003226312401238829,
        0.0005122948787175119,
        -0.0020709822420030832,
        -0.00016249826876446605
      ],
      "bias": [
        0,
        0,
        0,
        0,
        0,
        0,
        0,
        0,
        0,
        0,
        -0.18326160311698914
      ]
    }
  ],
  "meta": {
    "name": "Unsound",
    "slug": "unsound",
    "inputs": 24,
    "outputs": 11,
    "trackIndex": 2,
    "file": "unsound.json",
    "trained": "2025-10-22T06:18:55.417Z",
    "training": {
      "feature": "deltaBass",
      "featureType": "signed",
      "output": "zoom",
      "orientation": "inverse",
      "epochs": 400,
      "samples": 4096,
      "learningRate": 0.01,
      "loss": 0.0001258005213458091,
      "correlation": -0.999639630317688,
      "fitness": 0.999639630317688,
      "mse": 0.0002479266840964556
    }
  }
}
