{
  "input": 24,
  "normalization": {
    "mean": [
      0,
      0,
      0,
      0,
      0,
      0,
      0,
      0,
      0,
      0,
      0,
      0,
      0,
      0,
      0,
      0,
      0,
      0,
      0,
      0,
      0,
      0,
      0,
      0
    ],
    "std": [
      1,
      1,
      1,
      1,
      1,
      1,
      1,
      1,
      1,
      1,
      1,
      1,
      1,
      1,
      1,
      1,
      1,
      1,
      1,
      1,
      1,
      1,
      1,
      1
    ]
  },
  "layers": [
    {
      "activation": "relu",
      "weights": [
        -0.30016934871673584,
        0.055927641689777374,
        0.15259121358394623,
        -0.3427622616291046,
        0.2151886224746704,
        -0.14760446548461914,
        -0.0047732251696288586,
        0.3408988118171692,
        0.3007078468799591,
        -0.27247944474220276,
        0.10996241122484207,
        -0.25907930731773376,
        0.24698005616664886,
        -0.18083977699279785,
        0.26084569096565247,
        -0.2388601303100586,
        -0.008614637888967991,
        0.33057764172554016,
        0.2480362504720688,
        -0.1194409430027008,
        -0.1918114870786667,
        -0.2519581913948059,
        0.09310557693243027,
        -0.22351090610027313,
        -0.09366020560264587,
        0.03346822410821915,
        0.25435128808021545,
        0.2966175675392151,
        0.07964932918548584,
        0.05566690117120743,
        0.17465785145759583,
        0.10947225987911224,
        0.008514011278748512,
        0.14267763495445251,
        0.07122715562582016,
        -0.19031435251235962,
        -0.14274092018604279,
        0.28002431988716125,
        -0.11706818640232086,
        -0.22627699375152588,
        0.21332645416259766,
        0.02943512052297592,
        0.2654205858707428,
        -0.09381420910358429,
        0.25263991951942444,
        0.06869283318519592,
        -0.030423244461417198,
        -0.05909710377454758,
        -0.11580661684274673,
        0.1839037388563156,
        0.23555715382099152,
        -0.2674381136894226,
        0.061367422342300415,
        0.013357619754970074,
        -0.11828956753015518,
        0.20734086632728577,
        0.14931826293468475,
        0.3321796953678131,
        -0.23541532456874847,
        -0.24955295026302338,
        0.34711381793022156,
        -0.3343386948108673,
        0.3403077721595764,
        0.16154201328754425,
        -0.21927084028720856,
        -0.33553194999694824,
        -0.1576235592365265,
        0.07099376618862152,
        0.33489152789115906,
        0.16265691816806793,
        0.3050692081451416,
        0.2449372261762619,
        0.25378191471099854,
        0.3104584515094757,
        0.154875248670578,
        0.11502990871667862,
        0.23662380874156952,
        -0.27257105708122253,
        -0.2831118702888489,
        -0.21409842371940613,
        -0.3486708402633667,
        0.06043760105967522,
        0.25004303455352783,
        -0.10839507728815079,
        -0.08380057662725449,
        -0.26653462648391724,
        0.10561613738536835,
        0.0857291966676712,
        -0.1864183247089386,
        -0.209345281124115,
        0.000042101575672859326,
        -0.17905278503894806,
        0.14160588383674622,
        -0.27164584398269653,
        0.2891724407672882,
        0.11346232146024704,
        -0.2778046429157257,
        -0.3038967549800873,
        -0.24261334538459778,
        0.29328247904777527,
        0.10332725197076797,
        -0.18027636408805847,
        0.15097717940807343,
        -0.02733565680682659,
        -0.12925691902637482,
        -0.32695797085762024,
        0.33263251185417175,
        -0.09115073084831238,
        0.27562689781188965,
        0.231195330619812,
        0.2026333063840866,
        -0.14181755483150482,
        0.2652740478515625,
        0.2990117073059082,
        -0.2469494789838791,
        0.02860773541033268,
        -0.14078368246555328,
        -0.20357249677181244,
        0.1025518998503685,
        0.3200399875640869,
        0.017398331314325333,
        0.11671586334705353,
        -0.3255542516708374,
        -0.16784538328647614,
        -0.1921994537115097,
        0.20503278076648712,
        -0.29782724380493164,
        -0.34345537424087524,
        0.030828483402729034,
        0.04055657982826233,
        -0.143300399184227,
        0.14350081980228424,
        0.05204286426305771,
        -0.057273898273706436,
        -0.003929785918444395,
        -0.1748654544353485,
        0.0810161754488945,
        0.0254625603556633,
        0.029742136597633362,
        -0.3404315114021301,
        -0.26527220010757446,
        0.18779918551445007,
        -0.034351199865341187,
        0.29330572485923767,
        0.10521788150072098,
        0.22983841598033905,
        -0.32774603366851807,
        -0.23031410574913025,
        -0.2785630226135254,
        0.3303071856498718,
        -0.06860491633415222,
        0.28342148661613464,
        -0.0922924280166626,
        -0.07750328630208969,
        -0.12689097225666046,
        -0.16471602022647858,
        -0.2978934049606323,
        -0.1500578373670578,
        0.2899067997932434,
        -0.12337624281644821,
        -0.11052297800779343,
        -0.1447485238313675,
        0.30748307704925537,
        0.14796993136405945,
        0.32204046845436096,
        0.0781070813536644,
        -0.2682480812072754,
        -0.05399782210588455,
        0.010031016543507576,
        -0.009061824530363083,
        -0.04221804067492485,
        -0.19370651245117188,
        0.18513303995132446,
        -0.07098204642534256,
        -0.19431163370609283,
        0.11612757295370102,
        0.126777783036232,
        0.02527841180562973,
        0.22087028622627258,
        -0.24435602128505707,
        -0.14045625925064087,
        0.14310164749622345,
        -0.238075390458107,
        0.2962353825569153,
        -0.24132512509822845,
        0.3492203652858734,
        0.10780416429042816,
        -0.013576733879745007,
        -0.09071723371744156,
        0.19652310013771057,
        -0.16796204447746277,
        -0.3214590847492218,
        -0.34882378578186035,
        -0.1887693554162979,
        0.07906119525432587,
        -0.06246022507548332,
        0.3025732636451721,
        -0.05843842774629593,
        -0.19284597039222717,
        -0.06846591830253601,
        -0.08783896267414093,
        -0.18596979975700378,
        -0.0488056018948555,
        -0.11810600757598877,
        -0.11832710355520248,
        0.2215815782546997,
        0.26858919858932495,
        0.09813471883535385,
        0.1258394867181778,
        -0.040327735245227814,
        0.2915770411491394,
        -0.0758710652589798,
        0.34285134077072144,
        -0.1152322068810463,
        0.23179273307323456,
        -0.011272956617176533,
        -0.16883890330791473,
        -0.2842830419540405,
        -0.13922806084156036,
        -0.2716638147830963,
        0.08193735778331757,
        -0.12762008607387543,
        0.14625756442546844,
        0.3416896462440491,
        0.32351580262184143,
        0.11036790162324905,
        -0.12902164459228516,
        -0.3318365216255188,
        0.13898080587387085,
        -0.044302262365818024,
        -0.2865614891052246,
        0.1510341465473175,
        -0.24827800691127777,
        -0.12987983226776123,
        0.26638197898864746,
        -0.34713321924209595,
        0.21802303194999695,
        0.17017507553100586,
        -0.2528154253959656,
        -0.32208743691444397,
        0.3382519781589508,
        -0.2804338335990906,
        -0.17456302046775818,
        -0.25014421343803406,
        -0.039995819330215454,
        -0.12161693722009659,
        0.09120840579271317,
        -0.06255820393562317,
        0.13799944519996643,
        -0.1856956034898758,
        0.19473394751548767,
        -0.056202758103609085,
        0.1619783490896225,
        0.05518519878387451,
        -0.02533216029405594,
        0.28584784269332886,
        -0.020957577973604202,
        0.20832772552967072,
        -0.2347756028175354,
        0.20706391334533691,
        -0.345978319644928,
        0.0051816352643072605,
        0.20971502363681793,
        0.2520011365413666,
        0.299081951379776,
        -0.0028336504474282265,
        0.3180297613143921,
        0.23154497146606445,
        -0.13833890855312347,
        0.16568221151828766,
        0.10880934447050095,
        -0.20655202865600586,
        0.349176824092865,
        0.0564797967672348,
        -0.07278445363044739,
        0.116828054189682,
        -0.28161853551864624,
        0.19497370719909668,
        -0.25002315640449524,
        0.31145182251930237,
        -0.2597116529941559,
        -0.10826937109231949,
        0.17458917200565338,
        0.2741990387439728,
        -0.07142150402069092,
        -0.17488153278827667,
        -0.28399839997291565,
        0.341665655374527,
        -0.06407151371240616,
        0.08009278774261475,
        -0.11238903552293777,
        -0.25597941875457764,
        0.1361285150051117,
        0.05949752405285835,
        -0.33949047327041626,
        0.240724578499794,
        -0.20766764879226685,
        0.12772473692893982,
        0.274551123380661,
        0.0766691341996193,
        0.13524706661701202,
        0.12856023013591766,
        -0.21653681993484497,
        0.15420956909656525,
        0.09736589342355728,
        0.0007893712026998401,
        -0.08271657675504684,
        -0.12004616111516953,
        -0.049127012491226196,
        -0.34378230571746826,
        -0.05366436392068863,
        0.17334231734275818,
        -0.33538109064102173,
        -0.19050632417201996,
        0.3190010190010071,
        -0.07585331797599792,
        -0.12741582095623016,
        0.16482466459274292,
        0.15462547540664673,
        0.30978694558143616,
        0.040674515068531036,
        -0.2155326008796692,
        0.1290922462940216,
        -0.2875742018222809,
        0.26983121037483215,
        0.10988538712263107,
        0.2501072287559509,
        0.3484744727611542,
        0.1608443558216095,
        -0.1943163275718689,
        -0.09299004077911377,
        -0.08624470978975296,
        0.10563339293003082,
        0.3023078441619873,
        -0.1338466852903366,
        0.04724283516407013,
        -0.12860944867134094,
        -0.18639428913593292,
        0.17379118502140045,
        -0.2400227040052414,
        0.1853111833333969,
        0.15158160030841827,
        0.26627716422080994,
        -0.13857625424861908,
        0.1585855782032013,
        -0.06183714419603348,
        0.1880001425743103,
        0.31601670384407043,
        0.16413231194019318,
        0.08907996863126755,
        -0.03885599225759506,
        -0.029737526550889015,
        -0.19894078373908997,
        -0.24814866483211517,
        0.14647704362869263,
        0.07578887045383453,
        -0.2457253336906433,
        -0.0991777628660202,
        0.002117871306836605,
        0.07068304717540741,
        -0.2653290927410126,
        -0.27654850482940674,
        -0.12668953835964203,
        -0.2635679244995117,
        0.21301768720149994,
        0.28345444798469543,
        -0.24008460342884064,
        0.25656354427337646,
        0.06487985700368881,
        0.3139873743057251,
        -0.2041938155889511,
        -0.3192705810070038,
        -0.1991111934185028,
        0.0583648756146431,
        0.1588647961616516,
        0.02616078406572342,
        -0.3219608664512634,
        -0.02153654210269451,
        0.07588173449039459,
        0.15586917102336884,
        0.04672567918896675,
        -0.33042559027671814,
        0.22185556590557098,
        0.02624771185219288
      ],
      "bias": [
        0.16248482465744019,
        0.08807604014873505,
        -0.1159612387418747,
        -0.1178150400519371,
        -0.24689394235610962,
        -0.20447473227977753,
        -0.030171489343047142,
        0.2409476339817047,
        0.23370054364204407,
        -0.08187077194452286,
        0.07644718885421753,
        -0.015383867546916008,
        -0.009612164460122585,
        -0.031080517917871475,
        -0.03923860937356949,
        0.22575026750564575
      ]
    },
    {
      "activation": "tanh",
      "weights": [
        0.05184923857450485,
        -0.21227644383907318,
        0.32919013500213623,
        0.3024543523788452,
        0.003118695691227913,
        -0.15388910472393036,
        0.2917861342430115,
        0.032081104815006256,
        -0.34479057788848877,
        0.2091321498155594,
        0.28357842564582825,
        -0.10492025315761566,
        -0.011092979460954666,
        0.21484336256980896,
        0.34834685921669006,
        0.015530120581388474,
        0.23960651457309723,
        -0.260335773229599,
        -0.12494664639234543,
        -0.13627587258815765,
        -0.04150291532278061,
        -0.156948983669281,
        0.1405019313097,
        0.04726646840572357,
        -0.04249785840511322,
        -0.2803694009780884,
        -0.02976260520517826,
        -0.12154614925384521,
        0.27653467655181885,
        0.2920697033405304,
        0.34918564558029175,
        0.13596294820308685,
        0.0806678831577301,
        -0.30739694833755493,
        -0.07207325100898743,
        -0.048170242458581924,
        0.07295139878988266,
        -0.09305581450462341,
        -0.056784119457006454,
        -0.16121217608451843,
        0.03524009510874748,
        0.0314812995493412,
        0.14335164427757263,
        0.06255071610212326,
        0.02258426696062088,
        0.3158298134803772,
        0.32160621881484985,
        -0.1865948736667633,
        0.3000929653644562,
        0.16284848749637604,
        0.1178930476307869,
        0.32697585225105286,
        0.27277690172195435,
        -0.13484960794448853,
        0.13842415809631348,
        -0.06690743565559387,
        -0.23109649121761322,
        -0.23080573976039886,
        0.28560107946395874,
        0.09532706439495087,
        -0.32579272985458374,
        -0.24403700232505798,
        0.34691330790519714,
        -0.2705838978290558,
        -0.09676558524370193,
        0.31799399852752686,
        -0.3056584596633911,
        0.2520943284034729,
        0.281411737203598,
        -0.2944708466529846,
        -0.17305873334407806,
        -0.3005925416946411,
        0.15608425438404083,
        0.013436070643365383,
        -0.13977386057376862,
        0.17794783413410187,
        0.3389313519001007,
        -0.15834319591522217,
        0.009517844766378403,
        -0.3192216157913208,
        0.23898112773895264,
        -0.2344038188457489,
        0.217937171459198,
        0.08321089297533035,
        -0.293790340423584,
        0.02203838899731636,
        -0.03513740748167038,
        0.2111218422651291,
        -0.34804654121398926,
        0.28919970989227295,
        0.2742505967617035,
        0.1875782012939453,
        -0.1388079673051834,
        -0.20070071518421173,
        0.23843583464622498,
        -0.25010111927986145,
        0.12215244024991989,
        0.33420276641845703,
        -0.08198633790016174,
        0.1120327040553093,
        -0.3101782500743866,
        0.07562375068664551,
        0.345592737197876,
        -0.22081594169139862,
        0.08283110707998276,
        -0.1123528778553009,
        -0.17245566844940186,
        0.03486750274896622,
        0.2134450525045395,
        0.2591024339199066,
        -0.3285331428050995,
        0.19137513637542725,
        -0.14370672404766083,
        0.24182038009166718,
        -0.22470484673976898,
        0.014592994004487991,
        0.09219862520694733,
        -0.17737136781215668,
        -0.029696697369217873,
        0.3033734858036041,
        -0.2781645357608795,
        0.26817387342453003,
        0.09128808230161667,
        0.0028247274458408356,
        -0.2713882029056549,
        -0.298155814409256,
        0.0803254023194313,
        0.2341393232345581,
        0.263662725687027,
        0.0093237878754735,
        0.09793438017368317,
        -0.2973272204399109,
        -0.002085427287966013,
        0.2890544831752777,
        0.25512969493865967,
        -0.11145687103271484,
        0.25522416830062866,
        -0.1778455525636673,
        -0.09959717839956284,
        0.1808321326971054,
        -0.20258644223213196,
        0.06796153634786606,
        -0.1680373102426529,
        0.22219400107860565,
        0.1870684027671814,
        0.29468390345573425,
        -0.1621411144733429,
        -0.20223946869373322,
        -0.0005321339704096317,
        -0.14027440547943115,
        -0.25648367404937744,
        0.10367283225059509,
        -0.06966648995876312,
        -0.24888813495635986,
        -0.06487888842821121,
        -0.011675233021378517,
        -0.28829365968704224,
        0.14954480528831482,
        0.17807537317276,
        0.09375805407762527,
        -0.20016944408416748,
        -0.308246910572052,
        -0.17645613849163055,
        -0.04824815317988396,
        -0.16074316203594208,
        -0.15445861220359802,
        -0.2123667448759079,
        -0.0930708721280098,
        0.06965337693691254,
        0.33065277338027954,
        0.16150251030921936,
        -0.08044350147247314,
        0.19951675832271576,
        0.0292411670088768,
        0.3093656897544861,
        0.31060296297073364
      ],
      "bias": [
        -0.09341549873352051,
        -0.24813224375247955,
        -0.23752062022686005,
        0.06112811714410782,
        -0.16321171820163727,
        0.01210565585643053,
        0.15260043740272522,
        0.2005969136953354,
        0.11956737190485,
        0.24920712411403656,
        0.035961735993623734
      ]
    }
  ],
  "meta": {
    "name": "Unsound",
    "slug": "unsound",
    "inputs": 24,
    "outputs": 11,
    "placeholder": true,
    "generated": "2025-10-22T04:32:17.202Z"
  }
}
