{
  "input": 24,
  "normalization": {
    "mean": [
      0,
      0,
      0,
      0,
      0,
      0,
      0,
      0,
      0,
      0,
      0,
      0,
      0,
      0,
      0,
      0,
      0,
      0,
      0,
      0,
      0,
      0,
      0,
      0
    ],
    "std": [
      1,
      1,
      1,
      1,
      1,
      1,
      1,
      1,
      1,
      1,
      1,
      1,
      1,
      1,
      1,
      1,
      1,
      1,
      1,
      1,
      1,
      1,
      1,
      1
    ]
  },
  "layers": [
    {
      "activation": "relu",
      "weights": [
        -0.2144758105278015,
        -0.1304423213005066,
        0.33614909648895264,
        -0.2831662893295288,
        -0.00859952811151743,
        -0.17074379324913025,
        0.25203514099121094,
        -0.2308097928762436,
        0.17150411009788513,
        -0.12342941015958786,
        -0.010413826443254948,
        -0.31348681449890137,
        0.32432588934898376,
        0.21387583017349243,
        -0.17291204631328583,
        -0.02248215861618519,
        -0.1235819011926651,
        -0.12447994947433472,
        0.03585909307003021,
        0.22371073067188263,
        0.29651451110839844,
        0.113792285323143,
        -0.33269166946411133,
        0.25483930110931396,
        -0.22711309790611267,
        -0.31772565841674805,
        0.19074825942516327,
        0.221487894654274,
        0.29003602266311646,
        -0.027345309033989906,
        -0.05871580168604851,
        -0.23446479439735413,
        0.16695083677768707,
        -0.051683008670806885,
        -0.16160187125205994,
        0.2229105532169342,
        -0.3243449032306671,
        0.13457104563713074,
        0.03412245959043503,
        -0.1467444747686386,
        -0.33621957898139954,
        -0.3147909641265869,
        -0.1490107774734497,
        -0.05580611899495125,
        -0.22391434013843536,
        -0.14226993918418884,
        -0.12775065004825592,
        -0.15028195083141327,
        -0.03458729013800621,
        0.09613117575645447,
        0.12103143334388733,
        0.3120145797729492,
        -0.11850562691688538,
        0.2937565743923187,
        0.0887400284409523,
        0.25856462121009827,
        0.18951641023159027,
        0.26466619968414307,
        -0.2755824625492096,
        -0.029703237116336823,
        0.005469828378409147,
        -0.24781359732151031,
        -0.2952403426170349,
        -0.13144689798355103,
        0.20788806676864624,
        0.18366743624210358,
        -0.03278225287795067,
        0.3230227828025818,
        0.2288893610239029,
        0.11414409428834915,
        -0.139390766620636,
        0.07682447880506516,
        0.2757784426212311,
        -0.20896829664707184,
        -0.08286774158477783,
        0.11101438850164413,
        -0.24670232832431793,
        0.13420303165912628,
        0.32003623247146606,
        0.01189986802637577,
        -0.10966537892818451,
        -0.01490515936166048,
        0.1602933555841446,
        0.0953664481639862,
        0.2861189544200897,
        0.1454571783542633,
        -0.16322001814842224,
        0.018468419089913368,
        0.2748833894729614,
        -0.14962290227413177,
        0.23707614839076996,
        0.24012251198291779,
        0.06068359687924385,
        -0.05485262721776962,
        0.31927090883255005,
        0.021060151979327202,
        0.15492217242717743,
        -0.026498746126890182,
        -0.31177249550819397,
        -0.019597159698605537,
        -0.0772596076130867,
        -0.20899400115013123,
        0.19213661551475525,
        0.16381260752677917,
        -0.13593167066574097,
        0.3177722096443176,
        -0.0847226232290268,
        -0.21791324019432068,
        0.017062125727534294,
        0.30270496010780334,
        0.14577627182006836,
        0.16141924262046814,
        0.20614930987358093,
        0.25173696875572205,
        0.3018506169319153,
        0.024006618186831474,
        -0.24233688414096832,
        0.09976205229759216,
        -0.3290084898471832,
        0.1704685240983963,
        -0.2529350519180298,
        0.349263459444046,
        0.25897520780563354,
        -0.016287142410874367,
        -0.10039965808391571,
        -0.11673394590616226,
        0.12503287196159363,
        -0.20897376537322998,
        0.045331232249736786,
        -0.15012994408607483,
        0.07730603218078613,
        -0.3088541328907013,
        -0.18041561543941498,
        0.34010574221611023,
        -0.18926651775836945,
        0.17081327736377716,
        -0.16415096819400787,
        0.2062710076570511,
        0.02673550881445408,
        -0.23318204283714294,
        0.021915651857852936,
        0.2870972156524658,
        -0.2651003897190094,
        0.12855996191501617,
        -0.03294019401073456,
        0.32211294770240784,
        -0.2546100914478302,
        0.042761605232954025,
        0.21805742383003235,
        -0.3179512619972229,
        0.2098209708929062,
        -0.12946201860904694,
        0.003805503947660327,
        0.1384398639202118,
        0.18659263849258423,
        -0.24203012883663177,
        -0.3299223780632019,
        -0.29078760743141174,
        0.03567802160978317,
        -0.13632598519325256,
        -0.3286667466163635,
        -0.04677600786089897,
        0.3309897780418396,
        -0.07977202534675598,
        -0.3332172632217407,
        -0.04587521031498909,
        -0.18254294991493225,
        0.2950688898563385,
        -0.3251741826534271,
        0.28535959124565125,
        -0.3428957164287567,
        -0.20167484879493713,
        -0.14698997139930725,
        0.1443328857421875,
        -0.19133742153644562,
        0.043120481073856354,
        -0.16918127238750458,
        -0.048095423728227615,
        -0.12032213807106018,
        0.26857155561447144,
        0.16063252091407776,
        0.07489638775587082,
        -0.3472197949886322,
        -0.22333583235740662,
        0.06880362331867218,
        0.26157069206237793,
        0.24544350802898407,
        -0.14564600586891174,
        -0.10509029030799866,
        -0.059699006378650665,
        -0.06445196270942688,
        -0.24833619594573975,
        -0.2333686202764511,
        -0.12705928087234497,
        0.15533755719661713,
        -0.06886868923902512,
        0.1674186736345291,
        -0.25405412912368774,
        -0.05933096632361412,
        0.3109703063964844,
        -0.3080260157585144,
        -0.156903475522995,
        0.021458502858877182,
        0.029881298542022705,
        -0.06099585443735123,
        0.23346513509750366,
        -0.032144613564014435,
        0.29151278734207153,
        -0.04752637818455696,
        0.11494681984186172,
        0.15121419727802277,
        -0.23579293489456177,
        0.0007231574272736907,
        0.025456367060542107,
        -0.2579478919506073,
        -0.34299370646476746,
        -0.00552212493494153,
        -0.11272928863763809,
        -0.07286203652620316,
        -0.16611066460609436,
        -0.06200197711586952,
        -0.23934684693813324,
        0.2850166857242584,
        -0.047543756663799286,
        -0.2732301652431488,
        -0.1565907597541809,
        0.13387072086334229,
        0.0914626494050026,
        0.3066461980342865,
        0.1295703947544098,
        0.1527615785598755,
        -0.010944060049951077,
        -0.2921401262283325,
        -0.17594633996486664,
        0.29269519448280334,
        -0.134510800242424,
        -0.12429331988096237,
        -0.1257079541683197,
        0.13028566539287567,
        0.32393673062324524,
        0.1465555876493454,
        -0.01719304732978344,
        0.2156422883272171,
        0.00007962602830957621,
        -0.15958701074123383,
        0.013268099166452885,
        -0.10054238885641098,
        0.07412062585353851,
        0.15039651095867157,
        0.30107536911964417,
        0.3232063055038452,
        -0.1725587397813797,
        0.31519532203674316,
        -0.06035570055246353,
        0.06917356699705124,
        -0.32468533515930176,
        -0.27576836943626404,
        0.31848400831222534,
        -0.3245205283164978,
        -0.04673349857330322,
        -0.2532224655151367,
        0.007278438191860914,
        -0.3144611716270447,
        -0.20775452256202698,
        -0.2902272641658783,
        0.295568585395813,
        -0.2606368064880371,
        0.17851459980010986,
        0.1279004067182541,
        -0.1412341147661209,
        0.1841212958097458,
        -0.29343941807746887,
        -0.04244934767484665,
        -0.028011566027998924,
        -0.33324477076530457,
        -0.28809410333633423,
        0.2383660078048706,
        0.3455309569835663,
        0.04230267554521561,
        0.29942163825035095,
        0.0899430438876152,
        -0.23073571920394897,
        0.26690399646759033,
        -0.2564685642719269,
        -0.21019390225410461,
        0.33966273069381714,
        -0.25851118564605713,
        -0.3471016585826874,
        -0.2915007174015045,
        0.237871915102005,
        0.2816469073295593,
        0.07719558477401733,
        -0.02870233729481697,
        -0.029986532405018806,
        -0.24273869395256042,
        0.13390767574310303,
        -0.3021913766860962,
        0.1847551017999649,
        0.31826063990592957,
        0.23908060789108276,
        -0.33765941858291626,
        -0.13608910143375397,
        0.1512335240840912,
        -0.05743642896413803,
        -0.03725246340036392,
        -0.05979780852794647,
        0.2797771096229553,
        -0.1882247030735016,
        -0.2879718244075775,
        -0.20306964218616486,
        -0.2226550430059433,
        -0.15647368133068085,
        -0.2766295373439789,
        0.06603428721427917,
        -0.3070738911628723,
        0.34923383593559265,
        -0.27333879470825195,
        -0.0015351976035162807,
        -0.22660061717033386,
        0.24462680518627167,
        -0.08580239862203598,
        0.20580223202705383,
        -0.09768840670585632,
        0.23690272867679596,
        -0.25471946597099304,
        0.024158470332622528,
        0.295921266078949,
        -0.3269551396369934,
        -0.017656810581684113,
        -0.01982254721224308,
        -0.2171211987733841,
        0.21345652639865875,
        -0.2499387264251709,
        0.0017658460419625044,
        0.16017581522464752,
        0.32793763279914856,
        0.2253665179014206,
        -0.34985628724098206,
        -0.029610436409711838,
        0.2525196075439453,
        0.31614527106285095,
        0.00484479358419776,
        -0.005911178421229124,
        -0.08151482790708542,
        0.15084229409694672,
        -0.011288085021078587,
        -0.24760371446609497,
        0.08724597096443176,
        0.19743797183036804,
        0.3157426714897156,
        -0.10249480605125427,
        0.05639057978987694,
        0.2912771999835968,
        -0.07535810768604279,
        0.09610435366630554,
        0.1161002367734909,
        -0.04150491580367088,
        -0.11874816566705704,
        0.04917483404278755,
        -0.28722620010375977,
        0.32397347688674927,
        0.2083471566438675,
        -0.254476934671402,
        0.23152004182338715,
        0.27274447679519653,
        0.1625758558511734,
        -0.3235219717025757,
        -0.11665396392345428,
        -0.023825380951166153,
        -0.05309882014989853,
        -0.28201723098754883,
        -0.0213687252253294,
        0.2398044466972351,
        -0.12795744836330414,
        0.2010626196861267,
        -0.3334149420261383,
        -0.14750908315181732,
        0.20162290334701538,
        -0.20642514526844025,
        0.1416710764169693,
        0.1199888288974762,
        -0.13675761222839355,
        -0.3181902766227722,
        -0.24537332355976105
      ],
      "bias": [
        0.20594404637813568,
        -0.016100602224469185,
        0.0002004575653700158,
        0.23182392120361328,
        0.07183527201414108,
        0.14882275462150574,
        -0.014888402074575424,
        -0.24416722357273102,
        -0.10023234784603119,
        0.08593922108411789,
        0.13874472677707672,
        -0.0630519837141037,
        0.22439154982566833,
        0.008947977796196938,
        -0.173853799700737,
        -0.16677924990653992
      ]
    },
    {
      "activation": "tanh",
      "weights": [
        0.062112368643283844,
        -0.1696932166814804,
        -0.23148760199546814,
        -0.09763355553150177,
        -0.03545499965548515,
        0.2643791139125824,
        0.254741907119751,
        0.28526294231414795,
        0.05575783550739288,
        0.32689687609672546,
        0.2625485956668854,
        -0.30079686641693115,
        -0.10087183117866516,
        -0.1195693165063858,
        -0.09790316224098206,
        0.28537726402282715,
        0.151895672082901,
        0.03299331292510033,
        -0.3224849998950958,
        -0.04622828587889671,
        0.2294469028711319,
        -0.03115251660346985,
        -0.259990394115448,
        -0.23732973635196686,
        0.14830134809017181,
        -0.12755374610424042,
        -0.24878285825252533,
        -0.02037077397108078,
        -0.006324566900730133,
        -0.09281860291957855,
        -0.03423924371600151,
        -0.11114544421434402,
        -0.3225223124027252,
        0.2778172492980957,
        -0.036210641264915466,
        0.24638091027736664,
        -0.09368322044610977,
        -0.16276760399341583,
        0.1338813751935959,
        0.12056119740009308,
        0.13628613948822021,
        0.29442527890205383,
        -0.10723108798265457,
        -0.27574625611305237,
        -0.1713390350341797,
        -0.26894456148147583,
        0.2337164282798767,
        -0.033759891986846924,
        0.04942195862531662,
        0.12613600492477417,
        0.13832221925258636,
        0.30236896872520447,
        0.3377915918827057,
        0.0386243499815464,
        -0.08784036338329315,
        -0.08036484569311142,
        -0.15414734184741974,
        -0.027912912890315056,
        -0.342184454202652,
        0.31133827567100525,
        -0.13814078271389008,
        0.12987330555915833,
        0.03326122835278511,
        0.10906387120485306,
        0.10946274548768997,
        -0.2892274856567383,
        0.26154157519340515,
        -0.30368003249168396,
        -0.0845835730433464,
        -0.3408147692680359,
        -0.18661071360111237,
        -0.010425867512822151,
        0.18192626535892487,
        0.08804482966661453,
        -0.2306441068649292,
        0.2621699869632721,
        -0.2893963158130646,
        0.07560773193836212,
        0.19757696986198425,
        0.28202787041664124,
        0.30356842279434204,
        0.08176727592945099,
        0.08861041069030762,
        -0.11593002080917358,
        -0.10957029461860657,
        -0.08907310664653778,
        -0.2958759367465973,
        0.07135317474603653,
        -0.11878184974193573,
        -0.1110352873802185,
        0.20037522912025452,
        0.20200714468955994,
        0.08882768452167511,
        -0.30766889452934265,
        -0.08897417038679123,
        0.11089372634887695,
        0.15792112052440643,
        0.22759956121444702,
        0.23577307164669037,
        -0.18115566670894623,
        0.05251375958323479,
        0.14298467338085175,
        0.037047047168016434,
        -0.18862998485565186,
        0.0014459786470979452,
        0.2917674779891968,
        -0.19796344637870789,
        -0.11799656599760056,
        0.0916876569390297,
        0.2068876028060913,
        -0.18276041746139526,
        0.040369704365730286,
        0.07377173006534576,
        0.060476310551166534,
        0.23653820157051086,
        0.19025281071662903,
        0.15980570018291473,
        0.0873844176530838,
        -0.22510753571987152,
        0.005108194425702095,
        0.20230890810489655,
        -0.17994216084480286,
        -0.03482702374458313,
        0.3117290735244751,
        0.12435132265090942,
        -0.12498975545167923,
        -0.08317791670560837,
        -0.24247533082962036,
        0.29226067662239075,
        0.2990608513355255,
        -0.02900972217321396,
        0.2109064757823944,
        0.3080331087112427,
        0.1560104489326477,
        -0.030106976628303528,
        -0.14376968145370483,
        0.07028137147426605,
        0.0690065249800682,
        0.1869705468416214,
        -0.29575875401496887,
        0.19033771753311157,
        -0.1593111753463745,
        -0.13907814025878906,
        0.26339027285575867,
        0.3106362223625183,
        -0.2806987762451172,
        -0.010289906524121761,
        -0.22138789296150208,
        -0.18763034045696259,
        -0.24714483320713043,
        0.043462157249450684,
        0.2702834904193878,
        -0.1902746856212616,
        -0.0872621163725853,
        -0.027132131159305573,
        0.24358204007148743,
        0.11316823214292526,
        0.15832486748695374,
        -0.10866818577051163,
        -0.24260370433330536,
        0.09113675355911255,
        -0.31817370653152466,
        0.1564306616783142,
        0.06730871647596359,
        0.011576336808502674,
        -0.27079474925994873,
        0.19627445936203003,
        0.09637457132339478,
        0.2327079027891159,
        0.012738687917590141,
        0.1721205860376358,
        -0.14697328209877014,
        -0.24716655910015106,
        -0.07359489053487778,
        0.22319373488426208,
        0.0741964727640152
      ],
      "bias": [
        -0.14281222224235535,
        -0.2336522489786148,
        0.1529415249824524,
        0.10627374053001404,
        -0.2001517117023468,
        -0.21864356100559235,
        0.11843018233776093,
        -0.026461012661457062,
        0.11431685090065002,
        0.24095065891742706,
        0.18289628624916077
      ]
    }
  ],
  "meta": {
    "name": "Unsound",
    "slug": "unsound",
    "inputs": 24,
    "outputs": 11,
    "placeholder": true,
    "generated": "2025-10-21T15:22:04.836Z"
  }
}
